{"learner":{"attributes":{},"feature_names":[],"feature_types":[],"gradient_booster":{"model":{"gbtree_model_param":{"num_parallel_tree":"1","num_trees":"1500"},"iteration_indptr":[0,2,4,6,8,10,12,14,16,18,20,22,24,26,28,30,32,34,36,38,40,42,44,46,48,50,52,54,56,58,60,62,64,66,68,70,72,74,76,78,80,82,84,86,88,90,92,94,96,98,100,102,104,106,108,110,112,114,116,118,120,122,124,126,128,130,132,134,136,138,140,142,144,146,148,150,152,154,156,158,160,162,164,166,168,170,172,174,176,178,180,182,184,186,188,190,192,194,196,198,200,202,204,206,208,210,212,214,216,218,220,222,224,226,228,230,232,234,236,238,240,242,244,246,248,250,252,254,256,258,260,262,264,266,268,270,272,274,276,278,280,282,284,286,288,290,292,294,296,298,300,302,304,306,308,310,312,314,316,318,320,322,324,326,328,330,332,334,336,338,340,342,344,346,348,350,352,354,356,358,360,362,364,366,368,370,372,374,376,378,380,382,384,386,388,390,392,394,396,398,400,402,404,406,408,410,412,414,416,418,420,422,424,426,428,430,432,434,436,438,440,442,444,446,448,450,452,454,456,458,460,462,464,466,468,470,472,474,476,478,480,482,484,486,488,490,492,494,496,498,500,502,504,506,508,510,512,514,516,518,520,522,524,526,528,530,532,534,536,538,540,542,544,546,548,550,552,554,556,558,560,562,564,566,568,570,572,574,576,578,580,582,584,586,588,590,592,594,596,598,600,602,604,606,608,610,612,614,616,618,620,622,624,626,628,630,632,634,636,638,640,642,644,646,648,650,652,654,656,658,660,662,664,666,668,670,672,674,676,678,680,682,684,686,688,690,692,694,696,698,700,702,704,706,708,710,712,714,716,718,720,722,724,726,728,730,732,734,736,738,740,742,744,746,748,750,752,754,756,758,760,762,764,766,768,770,772,774,776,778,780,782,784,786,788,790,792,794,796,798,800,802,804,806,808,810,812,814,816,818,820,822,824,826,828,830,832,834,836,838,840,842,844,846,848,850,852,854,856,858,860,862,864,866,868,870,872,874,876,878,880,882,884,886,888,890,892,894,896,898,900,902,904,906,908,910,912,914,916,918,920,922,924,926,928,930,932,934,936,938,940,942,944,946,948,950,952,954,956,958,960,962,964,966,968,970,972,974,976,978,980,982,984,986,988,990,992,994,996,998,1000,1002,1004,1006,1008,1010,1012,1014,1016,1018,1020,1022,1024,1026,1028,1030,1032,1034,1036,1038,1040,1042,1044,1046,1048,1050,1052,1054,1056,1058,1060,1062,1064,1066,1068,1070,1072,1074,1076,1078,1080,1082,1084,1086,1088,1090,1092,1094,1096,1098,1100,1102,1104,1106,1108,1110,1112,1114,1116,1118,1120,1122,1124,1126,1128,1130,1132,1134,1136,1138,1140,1142,1144,1146,1148,1150,1152,1154,1156,1158,1160,1162,1164,1166,1168,1170,1172,1174,1176,1178,1180,1182,1184,1186,1188,1190,1192,1194,1196,1198,1200,1202,1204,1206,1208,1210,1212,1214,1216,1218,1220,1222,1224,1226,1228,1230,1232,1234,1236,1238,1240,1242,1244,1246,1248,1250,1252,1254,1256,1258,1260,1262,1264,1266,1268,1270,1272,1274,1276,1278,1280,1282,1284,1286,1288,1290,1292,1294,1296,1298,1300,1302,1304,1306,1308,1310,1312,1314,1316,1318,1320,1322,1324,1326,1328,1330,1332,1334,1336,1338,1340,1342,1344,1346,1348,1350,1352,1354,1356,1358,1360,1362,1364,1366,1368,1370,1372,1374,1376,1378,1380,1382,1384,1386,1388,1390,1392,1394,1396,1398,1400,1402,1404,1406,1408,1410,1412,1414,1416,1418,1420,1422,1424,1426,1428,1430,1432,1434,1436,1438,1440,1442,1444,1446,1448,1450,1452,1454,1456,1458,1460,1462,1464,1466,1468,1470,1472,1474,1476,1478,1480,1482,1484,1486,1488,1490,1492,1494,1496,1498,1500],"tree_info":[0,1,0,1,0,1,0,1,0,1,0,1,0,1,0,1,0,1,0,1,0,1,0,1,0,1,0,1,0,1,0,1,0,1,0,1,0,1,0,1,0,1,0,1,0,1,0,1,0,1,0,1,0,1,0,1,0,1,0,1,0,1,0,1,0,1,0,1,0,1,0,1,0,1,0,1,0,1,0,1,0,1,0,1,0,1,0,1,0,1,0,1,0,1,0,1,0,1,0,1,0,1,0,1,0,1,0,1,0,1,0,1,0,1,0,1,0,1,0,1,0,1,0,1,0,1,0,1,0,1,0,1,0,1,0,1,0,1,0,1,0,1,0,1,0,1,0,1,0,1,0,1,0,1,0,1,0,1,0,1,0,1,0,1,0,1,0,1,0,1,0,1,0,1,0,1,0,1,0,1,0,1,0,1,0,1,0,1,0,1,0,1,0,1,0,1,0,1,0,1,0,1,0,1,0,1,0,1,0,1,0,1,0,1,0,1,0,1,0,1,0,1,0,1,0,1,0,1,0,1,0,1,0,1,0,1,0,1,0,1,0,1,0,1,0,1,0,1,0,1,0,1,0,1,0,1,0,1,0,1,0,1,0,1,0,1,0,1,0,1,0,1,0,1,0,1,0,1,0,1,0,1,0,1,0,1,0,1,0,1,0,1,0,1,0,1,0,1,0,1,0,1,0,1,0,1,0,1,0,1,0,1,0,1,0,1,0,1,0,1,0,1,0,1,0,1,0,1,0,1,0,1,0,1,0,1,0,1,0,1,0,1,0,1,0,1,0,1,0,1,0,1,0,1,0,1,0,1,0,1,0,1,0,1,0,1,0,1,0,1,0,1,0,1,0,1,0,1,0,1,0,1,0,1,0,1,0,1,0,1,0,1,0,1,0,1,0,1,0,1,0,1,0,1,0,1,0,1,0,1,0,1,0,1,0,1,0,1,0,1,0,1,0,1,0,1,0,1,0,1,0,1,0,1,0,1,0,1,0,1,0,1,0,1,0,1,0,1,0,1,0,1,0,1,0,1,0,1,0,1,0,1,0,1,0,1,0,1,0,1,0,1,0,1,0,1,0,1,0,1,0,1,0,1,0,1,0,1,0,1,0,1,0,1,0,1,0,1,0,1,0,1,0,1,0,1,0,1,0,1,0,1,0,1,0,1,0,1,0,1,0,1,0,1,0,1,0,1,0,1,0,1,0,1,0,1,0,1,0,1,0,1,0,1,0,1,0,1,0,1,0,1,0,1,0,1,0,1,0,1,0,1,0,1,0,1,0,1,0,1,0,1,0,1,0,1,0,1,0,1,0,1,0,1,0,1,0,1,0,1,0,1,0,1,0,1,0,1,0,1,0,1,0,1,0,1,0,1,0,1,0,1,0,1,0,1,0,1,0,1,0,1,0,1,0,1,0,1,0,1,0,1,0,1,0,1,0,1,0,1,0,1,0,1,0,1,0,1,0,1,0,1,0,1,0,1,0,1,0,1,0,1,0,1,0,1,0,1,0,1,0,1,0,1,0,1,0,1,0,1,0,1,0,1,0,1,0,1,0,1,0,1,0,1,0,1,0,1,0,1,0,1,0,1,0,1,0,1,0,1,0,1,0,1,0,1,0,1,0,1,0,1,0,1,0,1,0,1,0,1,0,1,0,1,0,1,0,1,0,1,0,1,0,1,0,1,0,1,0,1,0,1,0,1,0,1,0,1,0,1,0,1,0,1,0,1,0,1,0,1,0,1,0,1,0,1,0,1,0,1,0,1,0,1,0,1,0,1,0,1,0,1,0,1,0,1,0,1,0,1,0,1,0,1,0,1,0,1,0,1,0,1,0,1,0,1,0,1,0,1,0,1,0,1,0,1,0,1,0,1,0,1,0,1,0,1,0,1,0,1,0,1,0,1,0,1,0,1,0,1,0,1,0,1,0,1,0,1,0,1,0,1,0,1,0,1,0,1,0,1,0,1,0,1,0,1,0,1,0,1,0,1,0,1,0,1,0,1,0,1,0,1,0,1,0,1,0,1,0,1,0,1,0,1,0,1,0,1,0,1,0,1,0,1,0,1,0,1,0,1,0,1,0,1,0,1,0,1,0,1,0,1,0,1,0,1,0,1,0,1,0,1,0,1,0,1,0,1,0,1,0,1,0,1,0,1,0,1,0,1,0,1,0,1,0,1,0,1,0,1,0,1,0,1,0,1,0,1,0,1,0,1,0,1,0,1,0,1,0,1,0,1,0,1,0,1,0,1,0,1,0,1,0,1,0,1,0,1,0,1,0,1,0,1,0,1,0,1,0,1,0,1,0,1,0,1,0,1,0,1,0,1,0,1,0,1,0,1,0,1,0,1,0,1,0,1,0,1,0,1,0,1,0,1,0,1,0,1,0,1,0,1,0,1,0,1,0,1,0,1,0,1,0,1,0,1,0,1,0,1,0,1,0,1,0,1,0,1,0,1,0,1,0,1,0,1,0,1,0,1,0,1,0,1,0,1,0,1,0,1,0,1,0,1,0,1,0,1,0,1,0,1,0,1,0,1,0,1,0,1,0,1,0,1,0,1,0,1,0,1,0,1,0,1,0,1,0,1,0,1,0,1,0,1,0,1,0,1,0,1,0,1,0,1,0,1,0,1,0,1,0,1,0,1,0,1,0,1,0,1,0,1,0,1,0,1,0,1,0,1,0,1,0,1,0,1,0,1,0,1,0,1,0,1,0,1,0,1,0,1,0,1,0,1,0,1,0,1,0,1,0,1,0,1,0,1,0,1,0,1,0,1,0,1,0,1,0,1,0,1,0,1,0,1,0,1,0,1,0,1,0,1,0,1,0,1,0,1,0,1,0,1,0,1,0,1,0,1,0,1,0,1,0,1,0,1,0,1,0,1,0,1,0,1,0,1,0,1,0,1,0,1,0,1,0,1,0,1,0,1,0,1,0,1,0,1,0,1,0,1,0,1,0,1,0,1,0,1,0,1,0,1,0,1,0,1,0,1,0,1,0,1,0,1,0,1,0,1,0,1,0,1,0,1,0,1,0,1,0,1,0,1,0,1,0,1,0,1,0,1,0,1,0,1,0,1,0,1,0,1,0,1,0,1,0,1,0,1,0,1,0,1,0,1,0,1,0,1,0,1,0,1,0,1,0,1,0,1,0,1,0,1,0,1,0,1,0,1,0,1,0,1,0,1,0,1,0,1,0,1,0,1,0,1,0,1,0,1,0,1,0,1,0,1,0,1,0,1,0,1,0,1,0,1,0,1,0,1,0,1,0,1,0,1,0,1,0,1,0,1,0,1,0,1,0,1,0,1,0,1,0,1,0,1,0,1,0,1,0,1,0,1,0,1,0,1,0,1,0,1,0,1,0,1,0,1,0,1,0,1],"trees":[{"base_weights":[-1.5406728E-1,-2.901583E-1,1.6614583E-1,-1.3231923E-1,-4.688385E-1,-4.952947E-4,3.5052112E-1,-2.899051E-3,1.4901329E-4,-3.6918723E-3,-6.0793203E-3,1.5495667E-3,-1.6496944E-3,4.0229885E-3,3.4749034E-4],"categories":[],"categories_nodes":[],"categories_segments":[],"categories_sizes":[],"default_left":[0,0,0,0,0,0,0,0,0,0,0,0,0,0,0],"id":0,"left_children":[1,3,5,7,9,11,13,-1,-1,-1,-1,-1,-1,-1,-1],"loss_changes":[2.804953E2,1.2731555E2,5.8991222E1,5.567243E1,2.9132812E1,2.583629E1,1.4889008E1,0E0,0E0,0E0,0E0,0E0,0E0,0E0,0E0],"parents":[2147483647,0,0,1,1,2,2,3,3,4,4,5,5,6,6],"right_children":[2,4,6,8,10,12,14,-1,-1,-1,-1,-1,-1,-1,-1],"split_conditions":[2E1,1.4E1,4E-1,1E1,2.3E1,-4.8E0,-1.6E0,-2.899051E-3,1.4901329E-4,-3.6918723E-3,-6.0793203E-3,1.5495667E-3,-1.6496944E-3,4.0229885E-3,3.4749034E-4],"split_indices":[28,80,77,51,80,25,25,0,0,0,0,0,0,0,0],"split_type":[0,0,0,0,0,0,0,0,0,0,0,0,0,0,0],"sum_hessian":[6.4345E3,4.5155E3,1.919E3,2.3985E3,2.117E3,1.0085E3,9.105E2,1.158E3,1.2405E3,1.2355E3,8.815E2,5.185E2,4.9E2,7.82E2,1.285E2],"tree_param":{"num_deleted":"0","num_feature":"106","num_nodes":"15","size_leaf_vector":"1"}},{"base_weights":[1.5406728E-1,2.901583E-1,-1.6614583E-1,1.3231923E-1,4.688385E-1,4.952947E-4,-3.5052112E-1,2.899051E-3,-1.4901329E-4,3.6918723E-3,6.0793203E-3,-1.5495667E-3,1.6496944E-3,-4.0229885E-3,-3.4749034E-4],"categories":[],"categories_nodes":[],"categories_segments":[],"categories_sizes":[],"default_left":[0,0,0,0,0,0,0,0,0,0,0,0,0,0,0],"id":1,"left_children":[1,3,5,7,9,11,13,-1,-1,-1,-1,-1,-1,-1,-1],"loss_changes":[2.804953E2,1.2731555E2,5.8991222E1,5.567243E1,2.9132812E1,2.583629E1,1.4889008E1,0E0,0E0,0E0,0E0,0E0,0E0,0E0,0E0],"parents":[2147483647,0,0,1,1,2,2,3,3,4,4,5,5,6,6],"right_children":[2,4,6,8,10,12,14,-1,-1,-1,-1,-1,-1,-1,-1],"split_conditions":[2E1,1.4E1,4E-1,1E1,2.3E1,-4.8E0,-1.6E0,2.899051E-3,-1.4901329E-4,3.6918723E-3,6.0793203E-3,-1.5495667E-3,1.6496944E-3,-4.0229885E-3,-3.4749034E-4],"split_indices":[28,80,77,51,80,25,25,0,0,0,0,0,0,0,0],"split_type":[0,0,0,0,0,0,0,0,0,0,0,0,0,0,0],"sum_hessian":[6.4345E3,4.5155E3,1.919E3,2.3985E3,2.117E3,1.0085E3,9.105E2,1.158E3,1.2405E3,1.2355E3,8.815E2,5.185E2,4.9E2,7.82E2,1.285E2],"tree_param":{"num_deleted":"0","num_feature":"106","num_nodes":"15","size_leaf_vector":"1"}},{"base_weights":[-1.5252967E-1,-2.8726327E-1,1.644879E-1,-1.3099772E-1,-4.6416563E-1,-4.904802E-4,3.4702557E-1,-2.8701094E-3,1.4752438E-4,-3.655033E-3,-6.0188193E-3,1.5341043E-3,-1.6332361E-3,3.9828746E-3,3.4404226E-4],"categories":[],"categories_nodes":[],"categories_segments":[],"categories_sizes":[],"default_left":[0,0,0,0,0,0,0,0,0,0,0,0,0,0,0],"id":2,"left_children":[1,3,5,7,9,11,13,-1,-1,-1,-1,-1,-1,-1,-1],"loss_changes":[2.749231E2,1.247905E2,5.782007E1,5.456613E1,2.8557465E1,2.532323E1,1.4593399E1,0E0,0E0,0E0,0E0,0E0,0E0,0E0,0E0],"parents":[2147483647,0,0,1,1,2,2,3,3,4,4,5,5,6,6],"right_children":[2,4,6,8,10,12,14,-1,-1,-1,-1,-1,-1,-1,-1],"split_conditions":[2E1,1.4E1,4E-1,1E1,2.3E1,-4.8E0,-1.6E0,-2.8701094E-3,1.4752438E-4,-3.655033E-3,-6.0188193E-3,1.5341043E-3,-1.6332361E-3,3.9828746E-3,3.4404226E-4],"split_indices":[28,80,77,51,80,25,25,0,0,0,0,0,0,0,0],"split_type":[0,0,0,0,0,0,0,0,0,0,0,0,0,0,0],"sum_hessian":[6.434426E3,4.515441E3,1.9189847E3,2.3984902E3,2.1169507E3,1.0084974E3,9.104873E2,1.1579902E3,1.2405E3,1.2354832E3,8.8146735E2,5.184988E2,4.8999863E2,7.819873E2,1.2849998E2],"tree_param":{"num_deleted":"0","num_feature":"106","num_nodes":"15","size_leaf_vector":"1"}},{"base_weights":[1.5252967E-1,2.872633E-1,-1.6448794E-1,1.309977E-1,4.641657E-1,4.9039564E-4,-3.4702557E-1,2.8701094E-3,-1.4752468E-4,3.655034E-3,6.0188193E-3,-1.5341052E-3,1.6332351E-3,-3.9828746E-3,-3.4404226E-4],"categories":[],"categories_nodes":[],"categories_segments":[],"categories_sizes":[],"default_left":[0,0,0,0,0,0,0,0,0,0,0,0,0,0,0],"id":3,"left_children":[1,3,5,7,9,11,13,-1,-1,-1,-1,-1,-1,-1,-1],"loss_changes":[2.7492316E2,1.2479062E2,5.782004E1,5.456614E1,2.8557434E1,2.5323229E1,1.4593399E1,0E0,0E0,0E0,0E0,0E0,0E0,0E0,0E0],"parents":[2147483647,0,0,1,1,2,2,3,3,4,4,5,5,6,6],"right_children":[2,4,6,8,10,12,14,-1,-1,-1,-1,-1,-1,-1,-1],"split_conditions":[2E1,1.4E1,4E-1,1E1,2.3E1,-4.8E0,-1.6E0,2.8701094E-3,-1.4752468E-4,3.655034E-3,6.0188193E-3,-1.5341052E-3,1.6332351E-3,-3.9828746E-3,-3.4404226E-4],"split_indices":[28,80,77,51,80,25,25,0,0,0,0,0,0,0,0],"split_type":[0,0,0,0,0,0,0,0,0,0,0,0,0,0,0],"sum_hessian":[6.4344253E3,4.515441E3,1.9189847E3,2.3984902E3,2.1169504E3,1.0084974E3,9.104873E2,1.1579902E3,1.2405E3,1.2354832E3,8.814674E2,5.184987E2,4.8999866E2,7.819873E2,1.2849998E2],"tree_param":{"num_deleted":"0","num_feature":"106","num_nodes":"15","size_leaf_vector":"1"}},{"base_weights":[-1.5101089E-1,-2.8440455E-1,1.6284907E-1,-1.2969051E-1,-4.5956045E-1,-4.8566936E-4,3.435742E-1,-2.8415048E-3,1.4604976E-4,-3.6186592E-3,-5.959352E-3,1.5188036E-3,-1.6169497E-3,3.9432854E-3,3.4062858E-4],"categories":[],"categories_nodes":[],"categories_segments":[],"categories_sizes":[],"default_left":[0,0,0,0,0,0,0,0,0,0,0,0,0,0,0],"id":4,"left_children":[1,3,5,7,9,11,13,-1,-1,-1,-1,-1,-1,-1,-1],"loss_changes":[2.6946857E2,1.22326965E2,5.667427E1,5.3483044E1,2.8E1,2.4820475E1,1.4304581E1,0E0,0E0,0E0,0E0,0E0,0E0,0E0,0E0],"parents":[2147483647,0,0,1,1,2,2,3,3,4,4,5,5,6,6],"right_children":[2,4,6,8,10,12,14,-1,-1,-1,-1,-1,-1,-1,-1],"split_conditions":[2E1,1.4E1,4E-1,1E1,2.3E1,-4.8E0,-1.6E0,-2.8415048E-3,1.4604976E-4,-3.6186592E-3,-5.959352E-3,1.5188036E-3,-1.6169497E-3,3.9432854E-3,3.4062858E-4],"split_indices":[28,80,77,51,80,25,25,0,0,0,0,0,0,0,0],"split_type":[0,0,0,0,0,0,0,0,0,0,0,0,0,0,0],"sum_hessian":[6.434205E3,4.5152656E3,1.9189396E3,2.3984614E3,2.1168044E3,1.00848975E3,9.104498E2,1.1579614E3,1.2404999E3,1.2354332E3,8.8137103E2,5.1849506E2,4.8999472E2,7.819499E2,1.2849994E2],"tree_param":{"num_deleted":"0","num_feature":"106","num_nodes":"15","size_leaf_vector":"1"}},{"base_weights":[1.5101084E-1,2.844045E-1,-1.6284907E-1,1.2969041E-1,4.5956042E-1,4.8565166E-4,-3.435742E-1,2.8415038E-3,-1.4605095E-4,3.6186592E-3,5.959352E-3,-1.5188038E-3,1.6169497E-3,-3.9432854E-3,-3.4062858E-4],"categories":[],"categories_nodes":[],"categories_segments":[],"categories_sizes":[],"default_left":[0,0,0,0,0,0,0,0,0,0,0,0,0,0,0],"id":5,"left_children":[1,3,5,7,9,11,13,-1,-1,-1,-1,-1,-1,-1,-1],"loss_changes":[2.694685E2,1.2232709E2,5.6674263E1,5.348306E1,2.8E1,2.4820482E1,1.4304581E1,0E0,0E0,0E0,0E0,0E0,0E0,0E0,0E0],"parents":[2147483647,0,0,1,1,2,2,3,3,4,4,5,5,6,6],"right_children":[2,4,6,8,10,12,14,-1,-1,-1,-1,-1,-1,-1,-1],"split_conditions":[2E1,1.4E1,4E-1,1E1,2.3E1,-4.8E0,-1.6E0,2.8415038E-3,-1.4605095E-4,3.6186592E-3,5.959352E-3,-1.5188038E-3,1.6169497E-3,-3.9432854E-3,-3.4062858E-4],"split_indices":[28,80,77,51,80,25,25,0,0,0,0,0,0,0,0],"split_type":[0,0,0,0,0,0,0,0,0,0,0,0,0,0,0],"sum_hessian":[6.4342056E3,4.5152656E3,1.9189396E3,2.3984614E3,2.1168042E3,1.0084898E3,9.104498E2,1.1579614E3,1.2404999E3,1.2354332E3,8.8137103E2,5.1849506E2,4.8999472E2,7.819499E2,1.2849994E2],"tree_param":{"num_deleted":"0","num_feature":"106","num_nodes":"15","size_leaf_vector":"1"}},{"base_weights":[-1.495105E-1,1.0431407E-1,-3.112065E-1,-1.6078676E-1,2.107116E-1,-1.5769269E-1,-4.8458028E-1,6.830835E-4,-3.2585477E-3,6.98909E-4,3.2123572E-3,-2.9766085E-3,-2.0306229E-4,-3.906957E-3,-6.1312728E-3],"categories":[],"categories_nodes":[],"categories_segments":[],"categories_sizes":[],"default_left":[0,0,0,0,0,0,0,0,0,0,0,0,0,0,0],"id":6,"left_children":[1,3,5,7,9,11,13,-1,-1,-1,-1,-1,-1,-1,-1],"loss_changes":[2.6413397E2,7.06847E1,1.04549194E2,2.7172342E1,2.7803978E1,4.0115147E1,2.2034424E1,0E0,0E0,0E0,0E0,0E0,0E0,0E0,0E0],"parents":[2147483647,0,0,1,1,2,2,3,3,4,4,5,5,6,6],"right_children":[2,4,6,8,10,12,14,-1,-1,-1,-1,-1,-1,-1,-1],"split_conditions":[4.69E-1,-2.4E0,1.4E1,-4.9E0,2.4E1,9E0,2.3E1,6.830835E-4,-3.2585477E-3,6.98909E-4,3.2123572E-3,-2.9766085E-3,-2.0306229E-4,-3.906957E-3,-6.1312728E-3],"split_indices":[3,77,80,25,51,51,80,0,0,0,0,0,0,0,0],"split_type":[0,0,0,0,0,0,0,0,0,0,0,0,0,0,0],"sum_hessian":[6.4338438E3,2.5038088E3,3.9300347E3,7.1694714E2,1.7868617E3,2.0854146E3,1.8446202E3,3.004893E2,4.1645786E2,7.864564E2,1.0004053E3,1.0324235E3,1.052991E3,1.0683718E3,7.762485E2],"tree_param":{"num_deleted":"0","num_feature":"106","num_nodes":"15","size_leaf_vector":"1"}},{"base_weights":[1.4951047E-1,-1.0431408E-1,3.1120646E-1,1.6078675E-1,-2.1071161E-1,1.5769263E-1,4.8458025E-1,-6.830836E-4,3.2585475E-3,-6.989092E-4,-3.2123574E-3,2.9766082E-3,2.0306149E-4,3.906957E-3,6.1312714E-3],"categories":[],"categories_nodes":[],"categories_segments":[],"categories_sizes":[],"default_left":[0,0,0,0,0,0,0,0,0,0,0,0,0,0,0],"id":7,"left_children":[1,3,5,7,9,11,13,-1,-1,-1,-1,-1,-1,-1,-1],"loss_changes":[2.6413394E2,7.068471E1,1.0454913E2,2.7172337E1,2.780397E1,4.011515E1,2.2034485E1,0E0,0E0,0E0,0E0,0E0,0E0,0E0,0E0],"parents":[2147483647,0,0,1,1,2,2,3,3,4,4,5,5,6,6],"right_children":[2,4,6,8,10,12,14,-1,-1,-1,-1,-1,-1,-1,-1],"split_conditions":[4.69E-1,-2.4E0,1.4E1,-4.9E0,2.4E1,9E0,2.3E1,-6.830836E-4,3.2585475E-3,-6.989092E-4,-3.2123574E-3,2.9766082E-3,2.0306149E-4,3.906957E-3,6.1312714E-3],"split_indices":[3,77,80,25,51,51,80,0,0,0,0,0,0,0,0],"split_type":[0,0,0,0,0,0,0,0,0,0,0,0,0,0,0],"sum_hessian":[6.4338433E3,2.5038088E3,3.9300347E3,7.1694714E2,1.7868616E3,2.0854143E3,1.8446204E3,3.004893E2,4.1645786E2,7.8645636E2,1.0004053E3,1.0324235E3,1.052991E3,1.0683718E3,7.7624854E2],"tree_param":{"num_deleted":"0","num_feature":"106","num_nodes":"15","size_leaf_vector":"1"}},{"base_weights":[-1.4802794E-1,-2.7890658E-1,1.5989278E-1,-1.2716842E-1,-4.5073098E-1,-9.001457E-4,3.3782303E-1,-2.786663E-3,1.4346611E-4,-3.5488755E-3,-5.845571E-3,1.5124079E-3,-1.5623411E-3,4.958097E-3,2.4006325E-3],"categories":[],"categories_nodes":[],"categories_segments":[],"categories_sizes":[],"default_left":[0,0,0,0,0,0,0,0,0,0,0,0,0,0,0],"id":8,"left_children":[1,3,5,7,9,11,13,-1,-1,-1,-1,-1,-1,-1,-1],"loss_changes":[2.593518E2,1.1767471E2,5.4925327E1,5.1444214E1,2.6949066E1,2.3879768E1,1.3956253E1,0E0,0E0,0E0,0E0,0E0,0E0,0E0,0E0],"parents":[2147483647,0,0,1,1,2,2,3,3,4,4,5,5,6,6],"right_children":[2,4,6,8,10,12,14,-1,-1,-1,-1,-1,-1,-1,-1],"split_conditions":[2E1,1.4E1,4E-1,1E1,2.3E1,-4.9E0,-6.1E0,-2.786663E-3,1.4346611E-4,-3.5488755E-3,-5.845571E-3,1.5124079E-3,-1.5623411E-3,4.958097E-3,2.4006325E-3],"split_indices":[28,80,77,51,80,25,25,0,0,0,0,0,0,0,0],"split_type":[0,0,0,0,0,0,0,0,0,0,0,0,0,0,0],"sum_hessian":[6.4333833E3,4.514594E3,1.918789E3,2.3983506E3,2.1162437E3,1.0084566E3,9.1033234E2,1.1578517E3,1.2404988E3,1.2352418E3,8.8100195E2,5.0947787E2,4.9897873E2,3.4642056E2,5.639118E2],"tree_param":{"num_deleted":"0","num_feature":"106","num_nodes":"15","size_leaf_vector":"1"}},{"base_weights":[1.4802796E-1,2.7890658E-1,-1.5989277E-1,1.2716846E-1,4.5073092E-1,9.00149E-4,-3.3782303E-1,2.786664E-3,-1.4346618E-4,3.5488745E-3,5.845571E-3,-1.512408E-3,1.5623412E-3,-4.958097E-3,-2.4006325E-3],"categories":[],"categories_nodes":[],"categories_segments":[],"categories_sizes":[],"default_left":[0,0,0,0,0,0,0,0,0,0,0,0,0,0,0],"id":9,"left_children":[1,3,5,7,9,11,13,-1,-1,-1,-1,-1,-1,-1,-1],"loss_changes":[2.593518E2,1.1767462E2,5.4925323E1,5.1444256E1,2.6949097E1,2.3879774E1,1.3956261E1,0E0,0E0,0E0,0E0,0E0,0E0,0E0,0E0],"parents":[2147483647,0,0,1,1,2,2,3,3,4,4,5,5,6,6],"right_children":[2,4,6,8,10,12,14,-1,-1,-1,-1,-1,-1,-1,-1],"split_conditions":[2E1,1.4E1,4E-1,1E1,2.3E1,-4.9E0,-6.1E0,2.786664E-3,-1.4346618E-4,3.5488745E-3,5.845571E-3,-1.512408E-3,1.5623412E-3,-4.958097E-3,-2.4006325E-3],"split_indices":[28,80,77,51,80,25,25,0,0,0,0,0,0,0,0],"split_type":[0,0,0,0,0,0,0,0,0,0,0,0,0,0,0],"sum_hessian":[6.4333833E3,4.514594E3,1.918789E3,2.3983506E3,2.116244E3,1.00845667E3,9.1033234E2,1.1578517E3,1.2404988E3,1.2352418E3,8.81002E2,5.0947787E2,4.9897876E2,3.4642056E2,5.639118E2],"tree_param":{"num_deleted":"0","num_feature":"106","num_nodes":"15","size_leaf_vector":"1"}},{"base_weights":[-1.4656255E-1,1.0254827E-1,-3.0527297E-1,-1.5804401E-1,2.0713556E-1,-1.5466222E-1,-4.7541893E-1,6.6637003E-4,-3.199509E-3,6.9010875E-4,3.1555556E-3,-2.9194215E-3,-1.9931336E-4,-3.8333603E-3,-6.015433E-3],"categories":[],"categories_nodes":[],"categories_segments":[],"categories_sizes":[],"default_left":[0,0,0,0,0,0,0,0,0,0,0,0,0,0,0],"id":10,"left_children":[1,3,5,7,9,11,13,-1,-1,-1,-1,-1,-1,-1,-1],"loss_changes":[2.543999E2,6.829353E1,1.0064133E2,2.6135614E1,2.6749664E1,3.8581512E1,2.119635E1,0E0,0E0,0E0,0E0,0E0,0E0,0E0,0E0],"parents":[2147483647,0,0,1,1,2,2,3,3,4,4,5,5,6,6],"right_children":[2,4,6,8,10,12,14,-1,-1,-1,-1,-1,-1,-1,-1],"split_conditions":[4.69E-1,-2.4E0,1.4E1,-4.9E0,2.4E1,9E0,2.3E1,6.6637003E-4,-3.199509E-3,6.9010875E-4,3.1555556E-3,-2.9194215E-3,-1.9931336E-4,-3.8333603E-3,-6.015433E-3],"split_indices":[3,77,80,25,51,51,80,0,0,0,0,0,0,0,0],"split_type":[0,0,0,0,0,0,0,0,0,0,0,0,0,0,0],"sum_hessian":[6.4327695E3,2.503557E3,3.9292126E3,7.1687134E2,1.7866854E3,2.0852705E3,1.8439421E3,3.0047937E2,4.16392E2,7.864289E2,1.0002566E3,1.0322867E3,1.0529838E3,1.0681381E3,7.75804E2],"tree_param":{"num_deleted":"0","num_feature":"106","num_nodes":"15","size_leaf_vector":"1"}},{"base_weights":[1.4656252E-1,-1.0254828E-1,3.052729E-1,1.5804401E-1,-2.0713557E-1,1.5466219E-1,4.7541887E-1,-6.6636986E-4,3.1995086E-3,-6.901087E-4,-3.1555556E-3,2.9194215E-3,1.9931258E-4,3.833359E-3,6.015433E-3],"categories":[],"categories_nodes":[],"categories_segments":[],"categories_sizes":[],"default_left":[0,0,0,0,0,0,0,0,0,0,0,0,0,0,0],"id":11,"left_children":[1,3,5,7,9,11,13,-1,-1,-1,-1,-1,-1,-1,-1],"loss_changes":[2.5439984E2,6.829353E1,1.0064136E2,2.6135612E1,2.6749672E1,3.858154E1,2.1196411E1,0E0,0E0,0E0,0E0,0E0,0E0,0E0,0E0],"parents":[2147483647,0,0,1,1,2,2,3,3,4,4,5,5,6,6],"right_children":[2,4,6,8,10,12,14,-1,-1,-1,-1,-1,-1,-1,-1],"split_conditions":[4.69E-1,-2.4E0,1.4E1,-4.9E0,2.4E1,9E0,2.3E1,-6.6636986E-4,3.1995086E-3,-6.901087E-4,-3.1555556E-3,2.9194215E-3,1.9931258E-4,3.833359E-3,6.015433E-3],"split_indices":[3,77,80,25,51,51,80,0,0,0,0,0,0,0,0],"split_type":[0,0,0,0,0,0,0,0,0,0,0,0,0,0,0],"sum_hessian":[6.4327695E3,2.503557E3,3.9292126E3,7.1687134E2,1.7866854E3,2.0852705E3,1.8439421E3,3.0047934E2,4.16392E2,7.864289E2,1.0002566E3,1.0322867E3,1.0529838E3,1.0681381E3,7.758041E2],"tree_param":{"num_deleted":"0","num_feature":"106","num_nodes":"15","size_leaf_vector":"1"}},{"base_weights":[-1.4511496E-1,-2.735402E-1,1.5699798E-1,-1.2469944E-1,-4.4214326E-1,-1.3027964E-3,3.3219478E-1,-2.7330413E-3,1.4092028E-4,-5.9616957E-3,-3.5943114E-3,1.4528768E-3,-1.5639937E-3,3.817851E-3,2.991366E-4],"categories":[],"categories_nodes":[],"categories_segments":[],"categories_sizes":[],"default_left":[0,0,0,0,0,0,0,0,0,0,0,0,0,0,0],"id":12,"left_children":[1,3,5,7,9,11,13,-1,-1,-1,-1,-1,-1,-1,-1],"loss_changes":[2.4963869E2,1.1323645E2,5.3236908E1,4.948688E1,2.6747498E1,2.2972069E1,1.3646988E1,0E0,0E0,0E0,0E0,0E0,0E0,0E0,0E0],"parents":[2147483647,0,0,1,1,2,2,3,3,4,4,5,5,6,6],"right_children":[2,4,6,8,10,12,14,-1,-1,-1,-1,-1,-1,-1,-1],"split_conditions":[2E1,1.4E1,4E-1,1E1,8E0,-4.8E0,-1.6E0,-2.7330413E-3,1.4092028E-4,-5.9616957E-3,-3.5943114E-3,1.4528768E-3,-1.5639937E-3,3.817851E-3,2.991366E-4],"split_indices":[28,80,77,51,51,25,25,0,0,0,0,0,0,0,0],"split_type":[0,0,0,0,0,0,0,0,0,0,0,0,0,0,0],"sum_hessian":[6.432058E3,4.513506E3,1.9185526E3,2.39817E3,2.115336E3,1.0083977E3,9.101549E2,1.1576738E3,1.2404961E3,7.3689124E2,1.3784446E3,5.184473E2,4.8995038E2,7.816581E2,1.2849684E2],"tree_param":{"num_deleted":"0","num_feature":"106","num_nodes":"15","size_leaf_vector":"1"}},{"base_weights":[1.4511497E-1,2.7354023E-1,-1.5699795E-1,1.2469945E-1,4.4214332E-1,1.302803E-3,-3.3219475E-1,2.7330404E-3,-1.409194E-4,5.961696E-3,3.5943117E-3,-1.4528768E-3,1.563994E-3,-3.8178503E-3,-2.991366E-4],"categories":[],"categories_nodes":[],"categories_segments":[],"categories_sizes":[],"default_left":[0,0,0,0,0,0,0,0,0,0,0,0,0,0,0],"id":13,"left_children":[1,3,5,7,9,11,13,-1,-1,-1,-1,-1,-1,-1,-1],"loss_changes":[2.496387E2,1.1323648E2,5.3236897E1,4.9486828E1,2.6747498E1,2.2972073E1,1.364698E1,0E0,0E0,0E0,0E0,0E0,0E0,0E0,0E0],"parents":[2147483647,0,0,1,1,2,2,3,3,4,4,5,5,6,6],"right_children":[2,4,6,8,10,12,14,-1,-1,-1,-1,-1,-1,-1,-1],"split_conditions":[2E1,1.4E1,4E-1,1E1,8E0,-4.8E0,-1.6E0,2.7330404E-3,-1.409194E-4,5.961696E-3,3.5943117E-3,-1.4528768E-3,1.563994E-3,-3.8178503E-3,-2.991366E-4],"split_indices":[28,80,77,51,51,25,25,0,0,0,0,0,0,0,0],"split_type":[0,0,0,0,0,0,0,0,0,0,0,0,0,0,0],"sum_hessian":[6.432058E3,4.513506E3,1.9185526E3,2.39817E3,2.1153357E3,1.0083977E3,9.101549E2,1.1576738E3,1.2404961E3,7.368912E2,1.3784446E3,5.1844727E2,4.8995038E2,7.816581E2,1.2849684E2],"tree_param":{"num_deleted":"0","num_feature":"106","num_nodes":"15","size_leaf_vector":"1"}},{"base_weights":[-1.4368387E-1,1.0072551E-1,-2.9942423E-1,-1.556325E-1,2.0361471E-1,-4.326491E-1,-1.13041766E-1,6.4963417E-4,-3.1462002E-3,6.812743E-4,3.0998152E-3,-3.512205E-3,-5.912439E-3,-2.4442847E-3,4.1337727E-4],"categories":[],"categories_nodes":[],"categories_segments":[],"categories_sizes":[],"default_left":[0,0,0,0,0,0,0,0,0,0,0,0,0,0,0],"id":14,"left_children":[1,3,5,7,9,11,13,-1,-1,-1,-1,-1,-1,-1,-1],"loss_changes":[2.4486902E2,6.608376E1,9.751172E1,2.5194288E1,2.5738121E1,2.937735E1,3.325714E1,0E0,0E0,0E0,0E0,0E0,0E0,0E0,0E0],"parents":[2147483647,0,0,1,1,2,2,3,3,4,4,5,5,6,6],"right_children":[2,4,6,8,10,12,14,-1,-1,-1,-1,-1,-1,-1,-1],"split_conditions":[4.69E-1,-2.4E0,1.6E0,-4.9E0,2.4E1,2.3E1,1E1,6.4963417E-4,-3.1462002E-3,6.812743E-4,3.0998152E-3,-3.512205E-3,-5.912439E-3,-2.4442847E-3,4.1337727E-4],"split_indices":[3,77,77,25,51,80,51,0,0,0,0,0,0,0,0],"split_type":[0,0,0,0,0,0,0,0,0,0,0,0,0,0,0],"sum_hessian":[6.4312256E3,2.503204E3,3.9280217E3,7.1677637E2,1.7864276E3,2.2898977E3,1.638124E3,3.004676E2,4.1630878E2,7.8638776E2,1.00003986E3,1.5151678E3,7.747298E2,8.846486E2,7.5347534E2],"tree_param":{"num_deleted":"0","num_feature":"106","num_nodes":"15","size_leaf_vector":"1"}},{"base_weights":[1.4368385E-1,-1.00725554E-1,2.9942423E-1,1.5563244E-1,-2.0361474E-1,4.3264914E-1,1.1304173E-1,-6.49635E-4,3.1461995E-3,-6.812745E-4,-3.0998155E-3,3.5122053E-3,5.91244E-3,2.4442847E-3,-4.133781E-4],"categories":[],"categories_nodes":[],"categories_segments":[],"categories_sizes":[],"default_left":[0,0,0,0,0,0,0,0,0,0,0,0,0,0,0],"id":15,"left_children":[1,3,5,7,9,11,13,-1,-1,-1,-1,-1,-1,-1,-1],"loss_changes":[2.4486906E2,6.608374E1,9.751178E1,2.5194296E1,2.5738136E1,2.937735E1,3.3257156E1,0E0,0E0,0E0,0E0,0E0,0E0,0E0,0E0],"parents":[2147483647,0,0,1,1,2,2,3,3,4,4,5,5,6,6],"right_children":[2,4,6,8,10,12,14,-1,-1,-1,-1,-1,-1,-1,-1],"split_conditions":[4.69E-1,-2.4E0,1.6E0,-4.9E0,2.4E1,2.3E1,1E1,-6.49635E-4,3.1461995E-3,-6.812745E-4,-3.0998155E-3,3.5122053E-3,5.91244E-3,2.4442847E-3,-4.133781E-4],"split_indices":[3,77,77,25,51,80,51,0,0,0,0,0,0,0,0],"split_type":[0,0,0,0,0,0,0,0,0,0,0,0,0,0,0],"sum_hessian":[6.4312256E3,2.503204E3,3.9280215E3,7.1677637E2,1.7864276E3,2.2898977E3,1.6381239E3,3.004676E2,4.1630878E2,7.8638776E2,1.00003986E3,1.5151677E3,7.7472986E2,8.846486E2,7.534753E2],"tree_param":{"num_deleted":"0","num_feature":"106","num_nodes":"15","size_leaf_vector":"1"}},{"base_weights":[-1.4226928E-1,-2.6829767E-1,1.5416197E-1,-1.221021E-1,-4.3397933E-1,-1.6931732E-3,3.266845E-1,-2.679312E-3,1.4068885E-4,-5.861823E-3,-3.5226718E-3,1.4468589E-3,-1.5114285E-3,4.8119384E-3,2.311157E-3],"categories":[],"categories_nodes":[],"categories_segments":[],"categories_sizes":[],"default_left":[0,0,0,0,0,0,0,0,0,0,0,0,0,0,0],"id":16,"left_children":[1,3,5,7,9,11,13,-1,-1,-1,-1,-1,-1,-1,-1],"loss_changes":[2.4030678E2,1.0926242E2,5.1605663E1,4.764076E1,2.6099396E1,2.2101927E1,1.3339561E1,0E0,0E0,0E0,0E0,0E0,0E0,0E0,0E0],"parents":[2147483647,0,0,1,1,2,2,3,3,4,4,5,5,6,6],"right_children":[2,4,6,8,10,12,14,-1,-1,-1,-1,-1,-1,-1,-1],"split_conditions":[2E1,1.4E1,4E-1,1E1,8E0,-4.9E0,-6.1E0,-2.679312E-3,1.4068885E-4,-5.861823E-3,-3.5226718E-3,1.4468589E-3,-1.5114285E-3,4.8119384E-3,2.311157E-3],"split_indices":[28,80,77,51,51,25,25,0,0,0,0,0,0,0,0],"split_type":[0,0,0,0,0,0,0,0,0,0,0,0,0,0,0],"sum_hessian":[6.430302E3,4.512077E3,1.9182247E3,2.3979185E3,2.1141587E3,1.00831396E3,9.099107E2,1.1574292E3,1.2404891E3,7.363697E2,1.3777891E3,5.094061E2,4.989079E2,3.461855E2,5.637252E2],"tree_param":{"num_deleted":"0","num_feature":"106","num_nodes":"15","size_leaf_vector":"1"}},{"base_weights":[1.4226927E-1,2.6829767E-1,-1.5416194E-1,1.2210206E-1,4.3397933E-1,1.6932006E-3,-3.2668447E-1,2.679312E-3,-1.4068953E-4,5.861823E-3,3.5226718E-3,-1.4468583E-3,1.5114286E-3,-4.8119384E-3,-2.3111566E-3],"categories":[],"categories_nodes":[],"categories_segments":[],"categories_sizes":[],"default_left":[0,0,0,0,0,0,0,0,0,0,0,0,0,0,0],"id":17,"left_children":[1,3,5,7,9,11,13,-1,-1,-1,-1,-1,-1,-1,-1],"loss_changes":[2.4030678E2,1.0926242E2,5.160567E1,4.7640778E1,2.6099396E1,2.2101923E1,1.3339554E1,0E0,0E0,0E0,0E0,0E0,0E0,0E0,0E0],"parents":[2147483647,0,0,1,1,2,2,3,3,4,4,5,5,6,6],"right_children":[2,4,6,8,10,12,14,-1,-1,-1,-1,-1,-1,-1,-1],"split_conditions":[2E1,1.4E1,4E-1,1E1,8E0,-4.9E0,-6.1E0,2.679312E-3,-1.4068953E-4,5.861823E-3,3.5226718E-3,-1.4468583E-3,1.5114286E-3,-4.8119384E-3,-2.3111566E-3],"split_indices":[28,80,77,51,51,25,25,0,0,0,0,0,0,0,0],"split_type":[0,0,0,0,0,0,0,0,0,0,0,0,0,0,0],"sum_hessian":[6.430302E3,4.512077E3,1.9182247E3,2.3979182E3,2.1141587E3,1.00831396E3,9.099107E2,1.1574292E3,1.2404891E3,7.363697E2,1.3777891E3,5.0940613E2,4.9890787E2,3.461855E2,5.637252E2],"tree_param":{"num_deleted":"0","num_feature":"106","num_nodes":"15","size_leaf_vector":"1"}},{"base_weights":[-1.4087057E-1,9.894396E-2,-2.937153E-1,-1.5326759E-1,2.0017049E-1,-4.2479172E-1,-1.10420026E-1,6.3306704E-4,-3.093878E-3,6.7262043E-4,3.0453634E-3,-3.4438863E-3,-5.814802E-3,-2.5318207E-3,2.6347276E-4],"categories":[],"categories_nodes":[],"categories_segments":[],"categories_sizes":[],"default_left":[0,0,0,0,0,0,0,0,0,0,0,0,0,0,0],"id":18,"left_children":[1,3,5,7,9,11,13,-1,-1,-1,-1,-1,-1,-1,-1],"loss_changes":[2.3572601E2,6.3952873E1,9.431381E1,2.428469E1,2.4768593E1,2.86445E1,3.200666E1,0E0,0E0,0E0,0E0,0E0,0E0,0E0,0E0],"parents":[2147483647,0,0,1,1,2,2,3,3,4,4,5,5,6,6],"right_children":[2,4,6,8,10,12,14,-1,-1,-1,-1,-1,-1,-1,-1],"split_conditions":[4.69E-1,-2.4E0,1.6E0,-4.9E0,2.4E1,2.3E1,9E0,6.3306704E-4,-3.093878E-3,6.7262043E-4,3.0453634E-3,-3.4438863E-3,-5.814802E-3,-2.5318207E-3,2.6347276E-4],"split_indices":[3,77,77,25,51,80,51,0,0,0,0,0,0,0,0],"split_type":[0,0,0,0,0,0,0,0,0,0,0,0,0,0,0],"sum_hessian":[6.429251E3,2.502758E3,3.9264932E3,7.1665576E2,1.7861022E3,2.2885847E3,1.6379086E3,3.004532E2,4.1620258E2,7.8634607E2,9.9975616E2,1.5145874E3,7.7399713E2,8.009746E2,8.36934E2],"tree_param":{"num_deleted":"0","num_feature":"106","num_nodes":"15","size_leaf_vector":"1"}},{"base_weights":[1.4087059E-1,-9.8943934E-2,2.9371533E-1,1.5326765E-1,-2.0017046E-1,4.247917E-1,1.1042004E-1,-6.33066E-4,3.093878E-3,-6.726202E-4,-3.0453631E-3,3.4438863E-3,5.8148014E-3,2.5318211E-3,-2.634725E-4],"categories":[],"categories_nodes":[],"categories_segments":[],"categories_sizes":[],"default_left":[0,0,0,0,0,0,0,0,0,0,0,0,0,0,0],"id":19,"left_children":[1,3,5,7,9,11,13,-1,-1,-1,-1,-1,-1,-1,-1],"loss_changes":[2.3572595E2,6.3952873E1,9.431381E1,2.4284681E1,2.47686E1,2.864447E1,3.2006657E1,0E0,0E0,0E0,0E0,0E0,0E0,0E0,0E0],"parents":[2147483647,0,0,1,1,2,2,3,3,4,4,5,5,6,6],"right_children":[2,4,6,8,10,12,14,-1,-1,-1,-1,-1,-1,-1,-1],"split_conditions":[4.69E-1,-2.4E0,1.6E0,-4.9E0,2.4E1,2.3E1,9E0,-6.33066E-4,3.093878E-3,-6.726202E-4,-3.0453631E-3,3.4438863E-3,5.8148014E-3,2.5318211E-3,-2.634725E-4],"split_indices":[3,77,77,25,51,80,51,0,0,0,0,0,0,0,0],"split_type":[0,0,0,0,0,0,0,0,0,0,0,0,0,0,0],"sum_hessian":[6.429251E3,2.502758E3,3.9264932E3,7.1665576E2,1.7861023E3,2.2885845E3,1.6379086E3,3.004532E2,4.1620258E2,7.8634607E2,9.9975616E2,1.5145874E3,7.7399713E2,8.009746E2,8.36934E2],"tree_param":{"num_deleted":"0","num_feature":"106","num_nodes":"15","size_leaf_vector":"1"}},{"base_weights":[-1.394885E-1,-2.6317698E-1,1.5138513E-1,-1.1956393E-1,-4.260235E-1,-2.0710463E-3,3.212901E-1,-2.6277036E-3,1.412421E-4,-5.764805E-3,-3.452772E-3,1.3897424E-3,-1.5130014E-3,3.6977257E-3,2.5971924E-4],"categories":[],"categories_nodes":[],"categories_segments":[],"categories_sizes":[],"default_left":[0,0,0,0,0,0,0,0,0,0,0,0,0,0,0],"id":20,"left_children":[1,3,5,7,9,11,13,-1,-1,-1,-1,-1,-1,-1,-1],"loss_changes":[2.313446E2,1.0545413E2,5.003001E1,4.5924934E1,2.5479858E1,2.1262884E1,1.3028343E1,0E0,0E0,0E0,0E0,0E0,0E0,0E0,0E0],"parents":[2147483647,0,0,1,1,2,2,3,3,4,4,5,5,6,6],"right_children":[2,4,6,8,10,12,14,-1,-1,-1,-1,-1,-1,-1,-1],"split_conditions":[2E1,1.4E1,4E-1,1E1,8E0,-4.8E0,-1.6E0,-2.6277036E-3,1.412421E-4,-5.764805E-3,-3.452772E-3,1.3897424E-3,-1.5130014E-3,3.6977257E-3,2.5971924E-4],"split_indices":[28,80,77,51,51,25,25,0,0,0,0,0,0,0,0],"split_type":[0,0,0,0,0,0,0,0,0,0,0,0,0,0,0],"sum_hessian":[6.428112E3,4.5102915E3,1.9178203E3,2.397601E3,2.1126904E3,1.0082072E3,9.096131E2,1.1571254E3,1.2404757E3,7.3569965E2,1.3769908E3,5.183513E2,4.898559E2,7.8112366E2,1.2848943E2],"tree_param":{"num_deleted":"0","num_feature":"106","num_nodes":"15","size_leaf_vector":"1"}},{"base_weights":[1.3948847E-1,2.6317695E-1,-1.5138517E-1,1.195639E-1,4.260235E-1,2.0709778E-3,-3.212901E-1,2.627703E-3,-1.412419E-4,5.764805E-3,3.452772E-3,-1.3897435E-3,1.5130012E-3,-3.6977257E-3,-2.5971927E-4],"categories":[],"categories_nodes":[],"categories_segments":[],"categories_sizes":[],"default_left":[0,0,0,0,0,0,0,0,0,0,0,0,0,0,0],"id":21,"left_children":[1,3,5,7,9,11,13,-1,-1,-1,-1,-1,-1,-1,-1],"loss_changes":[2.3134462E2,1.0545416E2,5.002998E1,4.59249E1,2.5479828E1,2.1262897E1,1.3028343E1,0E0,0E0,0E0,0E0,0E0,0E0,0E0,0E0],"parents":[2147483647,0,0,1,1,2,2,3,3,4,4,5,5,6,6],"right_children":[2,4,6,8,10,12,14,-1,-1,-1,-1,-1,-1,-1,-1],"split_conditions":[2E1,1.4E1,4E-1,1E1,8E0,-4.8E0,-1.6E0,2.627703E-3,-1.412419E-4,5.764805E-3,3.452772E-3,-1.3897435E-3,1.5130012E-3,-3.6977257E-3,-2.5971927E-4],"split_indices":[28,80,77,51,51,25,25,0,0,0,0,0,0,0,0],"split_type":[0,0,0,0,0,0,0,0,0,0,0,0,0,0,0],"sum_hessian":[6.428112E3,4.5102915E3,1.9178204E3,2.397601E3,2.1126904E3,1.0082072E3,9.0961316E2,1.1571254E3,1.2404757E3,7.3569965E2,1.3769908E3,5.183513E2,4.8985593E2,7.811237E2,1.2848943E2],"tree_param":{"num_deleted":"0","num_feature":"106","num_nodes":"15","size_leaf_vector":"1"}},{"base_weights":[-1.3812229E-1,9.719098E-2,-2.881366E-1,-5.6669943E-2,2.579174E-1,-4.171303E-1,-1.0785248E-1,1.2956057E-3,-2.0255495E-3,4.266171E-3,1.8093501E-3,-3.3771633E-3,-5.719965E-3,-2.4800461E-3,2.6376452E-4],"categories":[],"categories_nodes":[],"categories_segments":[],"categories_sizes":[],"default_left":[0,0,0,0,0,0,0,0,0,0,0,0,0,0,0],"id":22,"left_children":[1,3,5,7,9,11,13,-1,-1,-1,-1,-1,-1,-1,-1],"loss_changes":[2.2693332E2,6.191787E1,9.124762E1,3.4794567E1,1.5824905E1,2.7945618E1,3.0833656E1,0E0,0E0,0E0,0E0,0E0,0E0,0E0,0E0],"parents":[2147483647,0,0,1,1,2,2,3,3,4,4,5,5,6,6],"right_children":[2,4,6,8,10,12,14,-1,-1,-1,-1,-1,-1,-1,-1],"split_conditions":[4.69E-1,5.07E-1,1.6E0,-4.7E0,-6.1E0,2.3E1,9E0,1.2956057E-3,-2.0255495E-3,4.266171E-3,1.8093501E-3,-3.3771633E-3,-5.719965E-3,-2.4800461E-3,2.6376452E-4],"split_indices":[3,55,77,25,25,80,51,0,0,0,0,0,0,0,0],"split_type":[0,0,0,0,0,0,0,0,0,0,0,0,0,0,0],"sum_hessian":[6.4268467E3,2.5022134E3,3.9246333E3,1.2787415E3,1.223472E3,2.2869802E3,1.637653E3,5.617489E2,7.169925E2,3.8194147E2,8.4153064E2,1.513865E3,7.7311536E2,8.007354E2,8.3691754E2],"tree_param":{"num_deleted":"0","num_feature":"106","num_nodes":"15","size_leaf_vector":"1"}},{"base_weights":[1.3812228E-1,-9.719103E-2,2.881366E-1,5.6669913E-2,-2.5791746E-1,4.1713032E-1,1.07852474E-1,-1.295606E-3,2.0255493E-3,-4.2661717E-3,-1.8093506E-3,3.377163E-3,5.719966E-3,2.480045E-3,-2.637638E-4],"categories":[],"categories_nodes":[],"categories_segments":[],"categories_sizes":[],"default_left":[0,0,0,0,0,0,0,0,0,0,0,0,0,0,0],"id":23,"left_children":[1,3,5,7,9,11,13,-1,-1,-1,-1,-1,-1,-1,-1],"loss_changes":[2.2693338E2,6.1917892E1,9.124765E1,3.4794567E1,1.5824913E1,2.7945648E1,3.0833616E1,0E0,0E0,0E0,0E0,0E0,0E0,0E0,0E0],"parents":[2147483647,0,0,1,1,2,2,3,3,4,4,5,5,6,6],"right_children":[2,4,6,8,10,12,14,-1,-1,-1,-1,-1,-1,-1,-1],"split_conditions":[4.69E-1,5.07E-1,1.6E0,-4.7E0,-6.1E0,2.3E1,9E0,-1.295606E-3,2.0255493E-3,-4.2661717E-3,-1.8093506E-3,3.377163E-3,5.719966E-3,2.480045E-3,-2.637638E-4],"split_indices":[3,55,77,25,25,80,51,0,0,0,0,0,0,0,0],"split_type":[0,0,0,0,0,0,0,0,0,0,0,0,0,0,0],"sum_hessian":[6.4268467E3,2.5022136E3,3.9246333E3,1.2787415E3,1.223472E3,2.2869802E3,1.6376531E3,5.617489E2,7.169925E2,3.8194147E2,8.4153064E2,1.513865E3,7.731153E2,8.007355E2,8.369176E2],"tree_param":{"num_deleted":"0","num_feature":"106","num_nodes":"15","size_leaf_vector":"1"}},{"base_weights":[-1.367707E-1,-2.582032E-1,1.4873436E-1,-1.17179856E-1,-4.182196E-1,-2.1252842E-3,3.1581444E-1,-2.5772776E-3,1.3987708E-4,-5.6705605E-3,-3.3837897E-3,1.3854213E-3,-1.4574234E-3,3.6366065E-3,2.4507233E-4],"categories":[],"categories_nodes":[],"categories_segments":[],"categories_sizes":[],"default_left":[0,0,0,0,0,0,0,0,0,0,0,0,0,0,0],"id":24,"left_children":[1,3,5,7,9,11,13,-1,-1,-1,-1,-1,-1,-1,-1],"loss_changes":[2.2284302E2,1.0170517E2,4.835374E1,4.4215557E1,2.4904846E1,2.0406254E1,1.2678024E1,0E0,0E0,0E0,0E0,0E0,0E0,0E0,0E0],"parents":[2147483647,0,0,1,1,2,2,3,3,4,4,5,5,6,6],"right_children":[2,4,6,8,10,12,14,-1,-1,-1,-1,-1,-1,-1,-1],"split_conditions":[2E1,1.4E1,4E-1,1E1,8E0,-4.9E0,-1.6E0,-2.5772776E-3,1.3987708E-4,-5.6705605E-3,-3.3837897E-3,1.3854213E-3,-1.4574234E-3,3.6366065E-3,2.4507233E-4],"split_indices":[28,80,77,51,51,25,25,0,0,0,0,0,0,0,0],"split_type":[0,0,0,0,0,0,0,0,0,0,0,0,0,0,0],"sum_hessian":[6.4255137E3,4.5081704E3,1.9173433E3,2.3972192E3,2.110951E3,1.0080993E3,9.0924396E2,1.1567646E3,1.2404547E3,7.348898E2,1.3760612E3,5.0929736E2,4.9880194E2,7.807586E2,1.2848538E2],"tree_param":{"num_deleted":"0","num_feature":"106","num_nodes":"15","size_leaf_vector":"1"}},{"base_weights":[1.3677067E-1,2.5820318E-1,-1.4873435E-1,1.17179796E-1,4.1821957E-1,2.125297E-3,-3.1581438E-1,2.5772764E-3,-1.3987714E-4,5.67056E-3,3.3837892E-3,-1.3854213E-3,1.4574237E-3,-3.6366063E-3,-2.450723E-4],"categories":[],"categories_nodes":[],"categories_segments":[],"categories_sizes":[],"default_left":[0,0,0,0,0,0,0,0,0,0,0,0,0,0,0],"id":25,"left_children":[1,3,5,7,9,11,13,-1,-1,-1,-1,-1,-1,-1,-1],"loss_changes":[2.2284296E2,1.0170517E2,4.8353725E1,4.4215523E1,2.4904877E1,2.0406261E1,1.2678024E1,0E0,0E0,0E0,0E0,0E0,0E0,0E0,0E0],"parents":[2147483647,0,0,1,1,2,2,3,3,4,4,5,5,6,6],"right_children":[2,4,6,8,10,12,14,-1,-1,-1,-1,-1,-1,-1,-1],"split_conditions":[2E1,1.4E1,4E-1,1E1,8E0,-4.9E0,-1.6E0,2.5772764E-3,-1.3987714E-4,5.67056E-3,3.3837892E-3,-1.3854213E-3,1.4574237E-3,-3.6366063E-3,-2.450723E-4],"split_indices":[28,80,77,51,51,25,25,0,0,0,0,0,0,0,0],"split_type":[0,0,0,0,0,0,0,0,0,0,0,0,0,0,0],"sum_hessian":[6.4255137E3,4.5081704E3,1.9173433E3,2.3972192E3,2.110951E3,1.00809924E3,9.09244E2,1.1567646E3,1.2404547E3,7.348898E2,1.3760612E3,5.0929736E2,4.988019E2,7.807586E2,1.2848538E2],"tree_param":{"num_deleted":"0","num_feature":"106","num_nodes":"15","size_leaf_vector":"1"}},{"base_weights":[-1.3543533E-1,9.547273E-2,-2.8268617E-1,-1.4963214E-1,1.9385676E-1,-4.0965813E-1,-1.0534174E-1,5.9412693E-4,-3.0038862E-3,6.555284E-4,2.9466026E-3,-3.3119963E-3,-5.6277965E-3,-2.429407E-3,2.6398513E-4],"categories":[],"categories_nodes":[],"categories_segments":[],"categories_sizes":[],"default_left":[0,0,0,0,0,0,0,0,0,0,0,0,0,0,0],"id":26,"left_children":[1,3,5,7,9,11,13,-1,-1,-1,-1,-1,-1,-1,-1],"loss_changes":[2.184877E2,6.0377464E1,8.830438E1,2.2625671E1,2.3082733E1,2.7278137E1,2.9705444E1,0E0,0E0,0E0,0E0,0E0,0E0,0E0,0E0],"parents":[2147483647,0,0,1,1,2,2,3,3,4,4,5,5,6,6],"right_children":[2,4,6,8,10,12,14,-1,-1,-1,-1,-1,-1,-1,-1],"split_conditions":[4.69E-1,-2.4E0,1.6E0,-4.9E0,2.4E1,2.3E1,9E0,5.9412693E-4,-3.0038862E-3,6.555284E-4,2.9466026E-3,-3.3119963E-3,-5.6277965E-3,-2.429407E-3,2.6398513E-4],"split_indices":[3,77,77,25,51,80,51,0,0,0,0,0,0,0,0],"split_type":[0,0,0,0,0,0,0,0,0,0,0,0,0,0,0],"sum_hessian":[6.424049E3,2.5015896E3,3.9224592E3,7.163702E2,1.7852194E3,2.285102E3,1.6373573E3,3.0041248E2,4.1595773E2,7.8619324E2,9.9902606E2,1.513009E3,7.72093E2,8.0045776E2,8.3689954E2],"tree_param":{"num_deleted":"0","num_feature":"106","num_nodes":"15","size_leaf_vector":"1"}},{"base_weights":[1.3543536E-1,-9.547271E-2,2.826862E-1,1.4963219E-1,-1.9385675E-1,4.0965813E-1,1.0534182E-1,-5.9412606E-4,3.0038867E-3,-6.5552787E-4,-2.9466026E-3,3.3119963E-3,5.6277965E-3,2.429408E-3,-2.6398437E-4],"categories":[],"categories_nodes":[],"categories_segments":[],"categories_sizes":[],"default_left":[0,0,0,0,0,0,0,0,0,0,0,0,0,0,0],"id":27,"left_children":[1,3,5,7,9,11,13,-1,-1,-1,-1,-1,-1,-1,-1],"loss_changes":[2.1848767E2,6.0377476E1,8.830435E1,2.2625664E1,2.3082733E1,2.7278137E1,2.970545E1,0E0,0E0,0E0,0E0,0E0,0E0,0E0,0E0],"parents":[2147483647,0,0,1,1,2,2,3,3,4,4,5,5,6,6],"right_children":[2,4,6,8,10,12,14,-1,-1,-1,-1,-1,-1,-1,-1],"split_conditions":[4.69E-1,-2.4E0,1.6E0,-4.9E0,2.4E1,2.3E1,9E0,-5.9412606E-4,3.0038867E-3,-6.5552787E-4,-2.9466026E-3,3.3119963E-3,5.6277965E-3,2.429408E-3,-2.6398437E-4],"split_indices":[3,77,77,25,51,80,51,0,0,0,0,0,0,0,0],"split_type":[0,0,0,0,0,0,0,0,0,0,0,0,0,0,0],"sum_hessian":[6.424049E3,2.5015896E3,3.9224592E3,7.163702E2,1.7852194E3,2.285102E3,1.6373573E3,3.0041248E2,4.1595773E2,7.8619324E2,9.9902606E2,1.513009E3,7.72093E2,8.004577E2,8.368996E2],"tree_param":{"num_deleted":"0","num_feature":"106","num_nodes":"15","size_leaf_vector":"1"}},{"base_weights":[-1.341149E-1,-2.5331253E-1,1.4606526E-1,-1.1475415E-1,-4.1065225E-1,-2.4792796E-3,3.106327E-1,-2.5279291E-3,1.4028019E-4,-5.5789123E-3,-3.3171086E-3,1.3548913E-3,-1.4334047E-3,4.6009333E-3,2.182881E-3],"categories":[],"categories_nodes":[],"categories_segments":[],"categories_sizes":[],"default_left":[0,0,0,0,0,0,0,0,0,0,0,0,0,0,0],"id":28,"left_children":[1,3,5,7,9,11,13,-1,-1,-1,-1,-1,-1,-1,-1],"loss_changes":[2.1456201E2,9.820288E1,4.6882206E1,4.26287E1,2.4339447E1,1.9627851E1,1.2456955E1,0E0,0E0,0E0,0E0,0E0,0E0,0E0,0E0],"parents":[2147483647,0,0,1,1,2,2,3,3,4,4,5,5,6,6],"right_children":[2,4,6,8,10,12,14,-1,-1,-1,-1,-1,-1,-1,-1],"split_conditions":[2E1,1.4E1,4E-1,1E1,8E0,-4.9E0,-6.1E0,-2.5279291E-3,1.4028019E-4,-5.5789123E-3,-3.3171086E-3,1.3548913E-3,-1.4334047E-3,4.6009333E-3,2.182881E-3],"split_indices":[28,80,77,51,51,25,25,0,0,0,0,0,0,0,0],"split_type":[0,0,0,0,0,0,0,0,0,0,0,0,0,0,0],"sum_hessian":[6.422517E3,4.5057305E3,1.9167865E3,2.3967793E3,2.1089514E3,1.00795483E3,9.0883167E2,1.1563501E3,1.2404292E3,7.339477E2,1.3750035E3,5.092253E2,4.987295E2,3.4555887E2,5.6327277E2],"tree_param":{"num_deleted":"0","num_feature":"106","num_nodes":"15","size_leaf_vector":"1"}},{"base_weights":[1.341149E-1,2.5331253E-1,-1.4606526E-1,1.1475414E-1,4.1065225E-1,2.4792894E-3,-3.106327E-1,2.5279291E-3,-1.4028032E-4,5.5789123E-3,3.3171086E-3,-1.3548913E-3,1.4334047E-3,-4.6009333E-3,-2.182881E-3],"categories":[],"categories_nodes":[],"categories_segments":[],"categories_sizes":[],"default_left":[0,0,0,0,0,0,0,0,0,0,0,0,0,0,0],"id":29,"left_children":[1,3,5,7,9,11,13,-1,-1,-1,-1,-1,-1,-1,-1],"loss_changes":[2.1456195E2,9.820297E1,4.688221E1,4.2628708E1,2.4339417E1,1.9627848E1,1.2456955E1,0E0,0E0,0E0,0E0,0E0,0E0,0E0,0E0],"parents":[2147483647,0,0,1,1,2,2,3,3,4,4,5,5,6,6],"right_children":[2,4,6,8,10,12,14,-1,-1,-1,-1,-1,-1,-1,-1],"split_conditions":[2E1,1.4E1,4E-1,1E1,8E0,-4.9E0,-6.1E0,2.5279291E-3,-1.4028032E-4,5.5789123E-3,3.3171086E-3,-1.3548913E-3,1.4334047E-3,-4.6009333E-3,-2.182881E-3],"split_indices":[28,80,77,51,51,25,25,0,0,0,0,0,0,0,0],"split_type":[0,0,0,0,0,0,0,0,0,0,0,0,0,0,0],"sum_hessian":[6.422517E3,4.505731E3,1.9167865E3,2.3967793E3,2.1089514E3,1.0079548E3,9.0883167E2,1.1563501E3,1.2404293E3,7.3394775E2,1.3750037E3,5.0922528E2,4.9872952E2,3.455589E2,5.6327277E2],"tree_param":{"num_deleted":"0","num_feature":"106","num_nodes":"15","size_leaf_vector":"1"}},{"base_weights":[-1.3280882E-1,1.2495892E-1,-2.6009047E-1,-1.0589214E-1,2.3407018E-1,-1.13832615E-1,-4.0622514E-1,4.3780508E-4,-2.6125014E-3,4.39272E-5,2.95758E-3,-2.3700641E-3,1.3795639E-4,-3.146162E-3,-5.443957E-3],"categories":[],"categories_nodes":[],"categories_segments":[],"categories_sizes":[],"default_left":[0,0,0,0,0,0,0,0,0,0,0,0,0,0,0],"id":30,"left_children":[1,3,5,7,9,11,13,-1,-1,-1,-1,-1,-1,-1,-1],"loss_changes":[2.107284E2,5.3512085E1,9.184604E1,1.5875068E1,2.0433105E1,3.380504E1,2.704538E1,0E0,0E0,0E0,0E0,0E0,0E0,0E0,0E0],"parents":[2147483647,0,0,1,1,2,2,3,3,4,4,5,5,6,6],"right_children":[2,4,6,8,10,12,14,-1,-1,-1,-1,-1,-1,-1,-1],"split_conditions":[-1.6E0,-2E0,1.3E1,-4.8E0,2E1,1E1,2.3E1,4.3780508E-4,-2.6125014E-3,4.39272E-5,2.95758E-3,-2.3700641E-3,1.3795639E-4,-3.146162E-3,-5.443957E-3],"split_indices":[25,77,80,25,28,51,80,0,0,0,0,0,0,0,0],"split_type":[0,0,0,0,0,0,0,0,0,0,0,0,0,0,0],"sum_hessian":[6.4208726E3,2.122485E3,4.298387E3,6.812233E2,1.4412618E3,2.1491772E3,2.14921E3,3.4732596E2,3.3389734E2,3.0537067E2,1.1358912E3,1.0932382E3,1.0559392E3,1.2943293E3,8.5488055E2],"tree_param":{"num_deleted":"0","num_feature":"106","num_nodes":"15","size_leaf_vector":"1"}},{"base_weights":[1.328088E-1,-1.2495891E-1,2.6009047E-1,1.0589213E-1,-2.3407017E-1,1.138326E-1,4.0622514E-1,-4.3780482E-4,2.6125007E-3,-4.3927117E-5,-2.95758E-3,2.3700641E-3,-1.3795681E-4,3.1461616E-3,5.443957E-3],"categories":[],"categories_nodes":[],"categories_segments":[],"categories_sizes":[],"default_left":[0,0,0,0,0,0,0,0,0,0,0,0,0,0,0],"id":31,"left_children":[1,3,5,7,9,11,13,-1,-1,-1,-1,-1,-1,-1,-1],"loss_changes":[2.107284E2,5.3512074E1,9.184604E1,1.5875057E1,2.0433105E1,3.3805054E1,2.704538E1,0E0,0E0,0E0,0E0,0E0,0E0,0E0,0E0],"parents":[2147483647,0,0,1,1,2,2,3,3,4,4,5,5,6,6],"right_children":[2,4,6,8,10,12,14,-1,-1,-1,-1,-1,-1,-1,-1],"split_conditions":[-1.6E0,-2E0,1.3E1,-4.8E0,2E1,1E1,2.3E1,-4.3780482E-4,2.6125007E-3,-4.3927117E-5,-2.95758E-3,2.3700641E-3,-1.3795681E-4,3.1461616E-3,5.443957E-3],"split_indices":[25,77,80,25,28,51,80,0,0,0,0,0,0,0,0],"split_type":[0,0,0,0,0,0,0,0,0,0,0,0,0,0,0],"sum_hessian":[6.4208726E3,2.122485E3,4.298387E3,6.812233E2,1.4412618E3,2.1491772E3,2.14921E3,3.4732596E2,3.3389737E2,3.0537067E2,1.1358912E3,1.0932382E3,1.0559392E3,1.2943295E3,8.5488055E2],"tree_param":{"num_deleted":"0","num_feature":"106","num_nodes":"15","size_leaf_vector":"1"}},{"base_weights":[-1.3151765E-1,9.31539E-2,-2.7486518E-1,-1.4566496E-1,1.8901712E-1,-3.9907256E-1,-1.0157485E-1,5.744222E-4,-2.9222541E-3,6.4381934E-4,2.8699057E-3,-3.2235875E-3,-5.4900674E-3,-2.3563101E-3,2.6701923E-4],"categories":[],"categories_nodes":[],"categories_segments":[],"categories_sizes":[],"default_left":[0,0,0,0,0,0,0,0,0,0,0,0,0,0,0],"id":32,"left_children":[1,3,5,7,9,11,13,-1,-1,-1,-1,-1,-1,-1,-1],"loss_changes":[2.0679419E2,5.7296116E1,8.432669E1,2.136196E1,2.1783062E1,2.6080444E1,2.8171074E1,0E0,0E0,0E0,0E0,0E0,0E0,0E0,0E0],"parents":[2147483647,0,0,1,1,2,2,3,3,4,4,5,5,6,6],"right_children":[2,4,6,8,10,12,14,-1,-1,-1,-1,-1,-1,-1,-1],"split_conditions":[4.69E-1,-2.4E0,1.6E0,-4.9E0,2.4E1,2.3E1,9E0,5.744222E-4,-2.9222541E-3,6.4381934E-4,2.8699057E-3,-3.2235875E-3,-5.4900674E-3,-2.3563101E-3,2.6701923E-4],"split_indices":[3,77,77,25,51,80,51,0,0,0,0,0,0,0,0],"split_type":[0,0,0,0,0,0,0,0,0,0,0,0,0,0,0],"sum_hessian":[6.4191655E3,2.500473E3,3.9186926E3,7.1606335E2,1.7844095E3,2.2818523E3,1.6368403E3,3.0038724E2,4.1567612E2,7.8607513E2,9.9833435E2,1.5115951E3,7.7025714E2,7.999806E2,8.3685974E2],"tree_param":{"num_deleted":"0","num_feature":"106","num_nodes":"15","size_leaf_vector":"1"}},{"base_weights":[1.3151765E-1,-9.3153924E-2,2.748652E-1,1.4566495E-1,-1.8901715E-1,3.9907256E-1,1.01574846E-1,-5.744225E-4,2.9222541E-3,-6.4381905E-4,-2.8699064E-3,3.2235875E-3,5.490068E-3,2.35631E-3,-2.6701915E-4],"categories":[],"categories_nodes":[],"categories_segments":[],"categories_sizes":[],"default_left":[0,0,0,0,0,0,0,0,0,0,0,0,0,0,0],"id":33,"left_children":[1,3,5,7,9,11,13,-1,-1,-1,-1,-1,-1,-1,-1],"loss_changes":[2.0679425E2,5.729612E1,8.432666E1,2.1361961E1,2.1783073E1,2.6080475E1,2.8171068E1,0E0,0E0,0E0,0E0,0E0,0E0,0E0,0E0],"parents":[2147483647,0,0,1,1,2,2,3,3,4,4,5,5,6,6],"right_children":[2,4,6,8,10,12,14,-1,-1,-1,-1,-1,-1,-1,-1],"split_conditions":[4.69E-1,-2.4E0,1.6E0,-4.9E0,2.4E1,2.3E1,9E0,-5.744225E-4,2.9222541E-3,-6.4381905E-4,-2.8699064E-3,3.2235875E-3,5.490068E-3,2.35631E-3,-2.6701915E-4],"split_indices":[3,77,77,25,51,80,51,0,0,0,0,0,0,0,0],"split_type":[0,0,0,0,0,0,0,0,0,0,0,0,0,0,0],"sum_hessian":[6.4191655E3,2.500473E3,3.9186924E3,7.1606335E2,1.7844095E3,2.2818523E3,1.6368403E3,3.0038724E2,4.1567612E2,7.8607513E2,9.9833435E2,1.5115951E3,7.7025714E2,7.999805E2,8.3685974E2],"tree_param":{"num_deleted":"0","num_feature":"106","num_nodes":"15","size_leaf_vector":"1"}},{"base_weights":[-1.3024092E-1,1.2273925E-1,-2.5519776E-1,-1.0380277E-1,2.298248E-1,-1.11436434E-1,-3.989629E-1,4.278349E-4,-2.5602153E-3,3.806031E-5,2.9055523E-3,-2.3238943E-3,1.3841977E-4,-5.445578E-3,-3.1474342E-3],"categories":[],"categories_nodes":[],"categories_segments":[],"categories_sizes":[],"default_left":[0,0,0,0,0,0,0,0,0,0,0,0,0,0,0],"id":34,"left_children":[1,3,5,7,9,11,13,-1,-1,-1,-1,-1,-1,-1,-1],"loss_changes":[2.0292615E2,5.152099E1,8.875702E1,1.5229477E1,1.9788391E1,3.2577385E1,2.6165741E1,0E0,0E0,0E0,0E0,0E0,0E0,0E0,0E0],"parents":[2147483647,0,0,1,1,2,2,3,3,4,4,5,5,6,6],"right_children":[2,4,6,8,10,12,14,-1,-1,-1,-1,-1,-1,-1,-1],"split_conditions":[-1.6E0,-2E0,1.3E1,-4.8E0,2E1,1E1,8E0,4.278349E-4,-2.5602153E-3,3.806031E-5,2.9055523E-3,-2.3238943E-3,1.3841977E-4,-5.445578E-3,-3.1474342E-3],"split_indices":[25,77,80,25,28,51,51,0,0,0,0,0,0,0,0],"split_type":[0,0,0,0,0,0,0,0,0,0,0,0,0,0,0],"sum_hessian":[6.4173667E3,2.121772E3,4.2955947E3,6.8104205E2,1.4407299E3,2.1487131E3,2.1468813E3,3.4730612E2,3.3373596E2,3.0535632E2,1.1353735E3,1.0927943E3,1.055919E3,7.847589E2,1.3621224E3],"tree_param":{"num_deleted":"0","num_feature":"106","num_nodes":"15","size_leaf_vector":"1"}},{"base_weights":[1.302409E-1,-1.2273925E-1,2.5519776E-1,1.0380278E-1,-2.2982481E-1,1.1143642E-1,3.989629E-1,-4.2783472E-4,2.5602148E-3,-3.806029E-5,-2.9055523E-3,2.3238943E-3,-1.3842013E-4,5.445578E-3,3.147434E-3],"categories":[],"categories_nodes":[],"categories_segments":[],"categories_sizes":[],"default_left":[0,0,0,0,0,0,0,0,0,0,0,0,0,0,0],"id":35,"left_children":[1,3,5,7,9,11,13,-1,-1,-1,-1,-1,-1,-1,-1],"loss_changes":[2.0292615E2,5.1520992E1,8.875702E1,1.5229476E1,1.9788399E1,3.2577396E1,2.6165802E1,0E0,0E0,0E0,0E0,0E0,0E0,0E0,0E0],"parents":[2147483647,0,0,1,1,2,2,3,3,4,4,5,5,6,6],"right_children":[2,4,6,8,10,12,14,-1,-1,-1,-1,-1,-1,-1,-1],"split_conditions":[-1.6E0,-2E0,1.3E1,-4.8E0,2E1,1E1,8E0,-4.2783472E-4,2.5602148E-3,-3.806029E-5,-2.9055523E-3,2.3238943E-3,-1.3842013E-4,5.445578E-3,3.147434E-3],"split_indices":[25,77,80,25,28,51,51,0,0,0,0,0,0,0,0],"split_type":[0,0,0,0,0,0,0,0,0,0,0,0,0,0,0],"sum_hessian":[6.4173667E3,2.121772E3,4.2955947E3,6.8104205E2,1.4407299E3,2.1487131E3,2.1468813E3,3.473061E2,3.3373596E2,3.0535632E2,1.1353735E3,1.0927943E3,1.055919E3,7.847589E2,1.3621223E3],"tree_param":{"num_deleted":"0","num_feature":"106","num_nodes":"15","size_leaf_vector":"1"}},{"base_weights":[-1.2897779E-1,9.1517396E-2,-2.69718E-1,-4.8465278E-2,2.5087538E-1,-3.9202183E-1,-9.922957E-2,1.2979379E-3,-1.8108786E-3,4.1243536E-3,1.7688354E-3,-3.1613873E-3,-5.4048E-3,-2.3092064E-3,2.673048E-4],"categories":[],"categories_nodes":[],"categories_segments":[],"categories_sizes":[],"default_left":[0,0,0,0,0,0,0,0,0,0,0,0,0,0,0],"id":36,"left_children":[1,3,5,7,9,11,13,-1,-1,-1,-1,-1,-1,-1,-1],"loss_changes":[1.9914525E2,5.5795494E1,8.163263E1,3.151599E1,1.39081955E1,2.5518677E1,2.716811E1,0E0,0E0,0E0,0E0,0E0,0E0,0E0,0E0],"parents":[2147483647,0,0,1,1,2,2,3,3,4,4,5,5,6,6],"right_children":[2,4,6,8,10,12,14,-1,-1,-1,-1,-1,-1,-1,-1],"split_conditions":[4.69E-1,5.19E-1,1.6E0,-4.9E0,-6.1E0,2.3E1,9E0,1.2979379E-3,-1.8108786E-3,4.1243536E-3,1.7688354E-3,-3.1613873E-3,-5.4048E-3,-2.3092064E-3,2.673048E-4],"split_indices":[3,55,77,25,25,80,51,0,0,0,0,0,0,0,0],"split_type":[0,0,0,0,0,0,0,0,0,0,0,0,0,0,0],"sum_hessian":[6.41551E3,2.4996702E3,3.9158394E3,1.3311031E3,1.168567E3,2.2793765E3,1.6364631E3,5.678597E2,7.632434E2,3.6563492E2,8.029321E2,1.5104518E3,7.6892456E2,7.996239E2,8.368392E2],"tree_param":{"num_deleted":"0","num_feature":"106","num_nodes":"15","size_leaf_vector":"1"}},{"base_weights":[1.2897778E-1,-9.151741E-2,2.6971796E-1,4.8465278E-2,-2.508754E-1,3.920218E-1,9.922953E-2,-1.297938E-3,1.8108786E-3,-4.124354E-3,-1.7688356E-3,3.1613873E-3,5.4047992E-3,2.3092057E-3,-2.673049E-4],"categories":[],"categories_nodes":[],"categories_segments":[],"categories_sizes":[],"default_left":[0,0,0,0,0,0,0,0,0,0,0,0,0,0,0],"id":37,"left_children":[1,3,5,7,9,11,13,-1,-1,-1,-1,-1,-1,-1,-1],"loss_changes":[1.9914525E2,5.5795506E1,8.163266E1,3.1515997E1,1.39081955E1,2.5518616E1,2.7168097E1,0E0,0E0,0E0,0E0,0E0,0E0,0E0,0E0],"parents":[2147483647,0,0,1,1,2,2,3,3,4,4,5,5,6,6],"right_children":[2,4,6,8,10,12,14,-1,-1,-1,-1,-1,-1,-1,-1],"split_conditions":[4.69E-1,5.19E-1,1.6E0,-4.9E0,-6.1E0,2.3E1,9E0,-1.297938E-3,1.8108786E-3,-4.124354E-3,-1.7688356E-3,3.1613873E-3,5.4047992E-3,2.3092057E-3,-2.673049E-4],"split_indices":[3,55,77,25,25,80,51,0,0,0,0,0,0,0,0],"split_type":[0,0,0,0,0,0,0,0,0,0,0,0,0,0,0],"sum_hessian":[6.41551E3,2.4996702E3,3.9158396E3,1.3311031E3,1.168567E3,2.2793765E3,1.6364631E3,5.678597E2,7.632434E2,3.6563492E2,8.029321E2,1.5104519E3,7.689246E2,7.996239E2,8.368392E2],"tree_param":{"num_deleted":"0","num_feature":"106","num_nodes":"15","size_leaf_vector":"1"}},{"base_weights":[-1.2772807E-1,-2.4167773E-1,1.3991879E-1,-1.08918235E-1,-3.927761E-1,-3.1968907E-3,2.98603E-1,-2.4094586E-3,1.4131013E-4,-5.367248E-3,-3.157205E-3,1.2809422E-3,-1.3724943E-3,4.440347E-3,2.088623E-3],"categories":[],"categories_nodes":[],"categories_segments":[],"categories_sizes":[],"default_left":[0,0,0,0,0,0,0,0,0,0,0,0,0,0,0],"id":38,"left_children":[1,3,5,7,9,11,13,-1,-1,-1,-1,-1,-1,-1,-1],"loss_changes":[1.9566681E2,9.021512E1,4.3516052E1,3.8936005E1,2.3168213E1,1.7766438E1,1.17660675E1,0E0,0E0,0E0,0E0,0E0,0E0,0E0,0E0],"parents":[2147483647,0,0,1,1,2,2,3,3,4,4,5,5,6,6],"right_children":[2,4,6,8,10,12,14,-1,-1,-1,-1,-1,-1,-1,-1],"split_conditions":[2E1,1.4E1,4E-1,1E1,8E0,-4.9E0,-6.1E0,-2.4094586E-3,1.4131013E-4,-5.367248E-3,-3.157205E-3,1.2809422E-3,-1.3724943E-3,4.440347E-3,2.088623E-3],"split_indices":[28,80,77,51,51,25,25,0,0,0,0,0,0,0,0],"split_type":[0,0,0,0,0,0,0,0,0,0,0,0,0,0,0],"sum_hessian":[6.41356E3,4.498456E3,1.915104E3,2.395457E3,2.1029988E3,1.00746313E3,9.076409E2,1.1551079E3,1.2403492E3,7.31154E2,1.3718448E3,5.0899634E2,4.9846677E2,3.4484503E2,5.627959E2],"tree_param":{"num_deleted":"0","num_feature":"106","num_nodes":"15","size_leaf_vector":"1"}},{"base_weights":[1.2772809E-1,2.4167776E-1,-1.3991879E-1,1.0891825E-1,3.9277613E-1,3.1968923E-3,-2.98603E-1,2.4094584E-3,-1.4130962E-4,5.3672483E-3,3.1572052E-3,-1.2809421E-3,1.3724943E-3,-4.440347E-3,-2.088623E-3],"categories":[],"categories_nodes":[],"categories_segments":[],"categories_sizes":[],"default_left":[0,0,0,0,0,0,0,0,0,0,0,0,0,0,0],"id":39,"left_children":[1,3,5,7,9,11,13,-1,-1,-1,-1,-1,-1,-1,-1],"loss_changes":[1.9566681E2,9.021518E1,4.3516056E1,3.8935993E1,2.3168213E1,1.7766434E1,1.17660675E1,0E0,0E0,0E0,0E0,0E0,0E0,0E0,0E0],"parents":[2147483647,0,0,1,1,2,2,3,3,4,4,5,5,6,6],"right_children":[2,4,6,8,10,12,14,-1,-1,-1,-1,-1,-1,-1,-1],"split_conditions":[2E1,1.4E1,4E-1,1E1,8E0,-4.9E0,-6.1E0,2.4094584E-3,-1.4130962E-4,5.3672483E-3,3.1572052E-3,-1.2809421E-3,1.3724943E-3,-4.440347E-3,-2.088623E-3],"split_indices":[28,80,77,51,51,25,25,0,0,0,0,0,0,0,0],"split_type":[0,0,0,0,0,0,0,0,0,0,0,0,0,0,0],"sum_hessian":[6.41356E3,4.498456E3,1.915104E3,2.3954573E3,2.1029988E3,1.0074631E3,9.076409E2,1.1551079E3,1.2403492E3,7.31154E2,1.3718448E3,5.089963E2,4.9846677E2,3.4484503E2,5.627959E2],"tree_param":{"num_deleted":"0","num_feature":"106","num_nodes":"15","size_leaf_vector":"1"}},{"base_weights":[-1.264924E-1,1.19729415E-1,-2.4817215E-1,-1.0177344E-1,2.2445868E-1,-1.0815089E-1,-3.8839749E-1,-2.3276515E-3,5.955648E-4,3.8810962E-5,2.837661E-3,-2.2552556E-3,1.33423E-4,-2.9907187E-3,-5.23421E-3],"categories":[],"categories_nodes":[],"categories_segments":[],"categories_sizes":[],"default_left":[0,0,0,0,0,0,0,0,0,0,0,0,0,0,0],"id":40,"left_children":[1,3,5,7,9,11,13,-1,-1,-1,-1,-1,-1,-1,-1],"loss_changes":[1.9214978E2,4.923813E1,8.422861E1,1.4421448E1,1.88471E1,3.064721E1,2.5702728E1,0E0,0E0,0E0,0E0,0E0,0E0,0E0,0E0],"parents":[2147483647,0,0,1,1,2,2,3,3,4,4,5,5,6,6],"right_children":[2,4,6,8,10,12,14,-1,-1,-1,-1,-1,-1,-1,-1],"split_conditions":[-1.6E0,-2E0,1.3E1,2.6E1,2E1,1E1,2.3E1,-2.3276515E-3,5.955648E-4,3.8810962E-5,2.837661E-3,-2.2552556E-3,1.33423E-4,-2.9907187E-3,-5.23421E-3],"split_indices":[25,77,80,51,28,51,80,0,0,0,0,0,0,0,0],"split_type":[0,0,0,0,0,0,0,0,0,0,0,0,0,0,0],"sum_hessian":[6.411507E3,2.1205469E3,4.29096E3,6.807615E2,1.4397853E3,2.1479285E3,2.1430312E3,3.7546234E2,3.0529916E2,3.0531522E2,1.1344701E3,1.0920459E3,1.0558827E3,1.2917086E3,8.5132263E2],"tree_param":{"num_deleted":"0","num_feature":"106","num_nodes":"15","size_leaf_vector":"1"}},{"base_weights":[1.264924E-1,-1.1972942E-1,2.4817213E-1,1.01773396E-1,-2.2445866E-1,1.08150885E-1,3.8839749E-1,2.3276513E-3,-5.955656E-4,-3.881039E-5,-2.8376612E-3,2.2552551E-3,-1.3342299E-4,2.9907187E-3,5.23421E-3],"categories":[],"categories_nodes":[],"categories_segments":[],"categories_sizes":[],"default_left":[0,0,0,0,0,0,0,0,0,0,0,0,0,0,0],"id":41,"left_children":[1,3,5,7,9,11,13,-1,-1,-1,-1,-1,-1,-1,-1],"loss_changes":[1.9214978E2,4.923812E1,8.422861E1,1.4421452E1,1.88471E1,3.0647203E1,2.5702728E1,0E0,0E0,0E0,0E0,0E0,0E0,0E0,0E0],"parents":[2147483647,0,0,1,1,2,2,3,3,4,4,5,5,6,6],"right_children":[2,4,6,8,10,12,14,-1,-1,-1,-1,-1,-1,-1,-1],"split_conditions":[-1.6E0,-2E0,1.3E1,2.6E1,2E1,1E1,2.3E1,2.3276513E-3,-5.955656E-4,-3.881039E-5,-2.8376612E-3,2.2552551E-3,-1.3342299E-4,2.9907187E-3,5.23421E-3],"split_indices":[25,77,80,51,28,51,80,0,0,0,0,0,0,0,0],"split_type":[0,0,0,0,0,0,0,0,0,0,0,0,0,0,0],"sum_hessian":[6.411507E3,2.1205469E3,4.29096E3,6.807615E2,1.4397853E3,2.1479285E3,2.1430312E3,3.7546234E2,3.0529913E2,3.0531522E2,1.1344701E3,1.0920459E3,1.0558827E3,1.2917086E3,8.5132263E2],"tree_param":{"num_deleted":"0","num_feature":"106","num_nodes":"15","size_leaf_vector":"1"}},{"base_weights":[-1.2527059E-1,-2.9989585E-1,4.3547843E-2,-3.6515427E-1,-5.9115863E-3,-1.9676083E-1,1.3811076E-1,-3.0067733E-3,-5.759124E-3,2.354314E-4,-4.3490636E-3,4.139317E-4,-3.1840985E-3,3.6921792E-4,2.682669E-3],"categories":[],"categories_nodes":[],"categories_segments":[],"categories_sizes":[],"default_left":[0,0,0,0,0,0,0,0,0,0,0,0,0,0,0],"id":42,"left_children":[1,3,5,7,9,11,13,-1,-1,-1,-1,-1,-1,-1,-1],"loss_changes":[1.8899132E2,6.045218E1,7.4114365E1,3.4868835E1,7.2561483E0,2.6697517E1,3.081139E1,0E0,0E0,0E0,0E0,0E0,0E0,0E0,0E0],"parents":[2147483647,0,0,1,1,2,2,3,3,4,4,5,5,6,6],"right_children":[2,4,6,8,10,12,14,-1,-1,-1,-1,-1,-1,-1,-1],"split_conditions":[1.5E1,5.3E0,-2.4E0,2.3E1,1.08E1,-4.9E0,2.4E1,-3.0067733E-3,-5.759124E-3,2.354314E-4,-4.3490636E-3,4.139317E-4,-3.1840985E-3,3.6921792E-4,2.682669E-3],"split_indices":[51,77,77,80,25,25,51,0,0,0,0,0,0,0,0],"split_type":[0,0,0,0,0,0,0,0,0,0,0,0,0,0,0],"sum_hessian":[6.4093975E3,3.150133E3,3.2592644E3,2.5776958E3,5.724372E2,9.2006415E2,2.3392002E3,1.9756995E3,6.019964E2,5.3654333E2,3.5893875E1,3.1129575E2,6.087684E2,1.3167703E3,1.02242993E3],"tree_param":{"num_deleted":"0","num_feature":"106","num_nodes":"15","size_leaf_vector":"1"}},{"base_weights":[1.2527058E-1,2.9989582E-1,-4.354785E-2,3.6515424E-1,5.911588E-3,1.9676083E-1,-1.3811077E-1,3.0067728E-3,5.759124E-3,-2.3543139E-4,4.3490636E-3,-4.1393167E-4,3.1840983E-3,-3.692182E-4,-2.6826689E-3],"categories":[],"categories_nodes":[],"categories_segments":[],"categories_sizes":[],"default_left":[0,0,0,0,0,0,0,0,0,0,0,0,0,0,0],"id":43,"left_children":[1,3,5,7,9,11,13,-1,-1,-1,-1,-1,-1,-1,-1],"loss_changes":[1.8899129E2,6.045218E1,7.4114365E1,3.4868835E1,7.2561483E0,2.669751E1,3.081137E1,0E0,0E0,0E0,0E0,0E0,0E0,0E0,0E0],"parents":[2147483647,0,0,1,1,2,2,3,3,4,4,5,5,6,6],"right_children":[2,4,6,8,10,12,14,-1,-1,-1,-1,-1,-1,-1,-1],"split_conditions":[1.5E1,5.3E0,-2.4E0,2.3E1,1.08E1,-4.9E0,2.4E1,3.0067728E-3,5.759124E-3,-2.3543139E-4,4.3490636E-3,-4.1393167E-4,3.1840983E-3,-3.692182E-4,-2.6826689E-3],"split_indices":[51,77,77,80,25,25,51,0,0,0,0,0,0,0,0],"split_type":[0,0,0,0,0,0,0,0,0,0,0,0,0,0,0],"sum_hessian":[6.4093975E3,3.150133E3,3.2592644E3,2.5776958E3,5.724372E2,9.2006415E2,2.3392002E3,1.9756995E3,6.0199634E2,5.3654333E2,3.5893875E1,3.1129575E2,6.087684E2,1.3167703E3,1.02242993E3],"tree_param":{"num_deleted":"0","num_feature":"106","num_nodes":"15","size_leaf_vector":"1"}},{"base_weights":[-1.2405989E-1,8.8726655E-2,-2.5999686E-1,-4.699362E-2,2.4327774E-1,-3.7901148E-1,-9.44091E-2,1.24521E-3,-1.7463258E-3,4.001272E-3,1.7153538E-3,-3.0551453E-3,-5.231758E-3,-2.2221133E-3,2.77222E-4],"categories":[],"categories_nodes":[],"categories_segments":[],"categories_sizes":[],"default_left":[0,0,0,0,0,0,0,0,0,0,0,0,0,0,0],"id":44,"left_children":[1,3,5,7,9,11,13,-1,-1,-1,-1,-1,-1,-1,-1],"loss_changes":[1.8538828E2,5.242566E1,7.703082E1,2.9166355E1,1.3080345E1,2.3944275E1,2.5551895E1,0E0,0E0,0E0,0E0,0E0,0E0,0E0,0E0],"parents":[2147483647,0,0,1,1,2,2,3,3,4,4,5,5,6,6],"right_children":[2,4,6,8,10,12,14,-1,-1,-1,-1,-1,-1,-1,-1],"split_conditions":[4.69E-1,5.19E-1,1.6E0,-4.9E0,-6.1E0,2.3E1,9E0,1.24521E-3,-1.7463258E-3,4.001272E-3,1.7153538E-3,-3.0551453E-3,-5.231758E-3,-2.2221133E-3,2.77222E-4],"split_indices":[3,55,77,25,25,80,51,0,0,0,0,0,0,0,0],"split_type":[0,0,0,0,0,0,0,0,0,0,0,0,0,0,0],"sum_hessian":[6.4073545E3,2.4978057E3,3.9095488E3,1.3302936E3,1.1675121E3,2.2739094E3,1.6356394E3,5.676028E2,7.6269073E2,3.6498102E2,8.02531E2,1.5081522E3,7.6575714E2,7.9886316E2,8.3677625E2],"tree_param":{"num_deleted":"0","num_feature":"106","num_nodes":"15","size_leaf_vector":"1"}},{"base_weights":[1.2405991E-1,-8.8726655E-2,2.599969E-1,4.699362E-2,-2.4327774E-1,3.7901148E-1,9.440915E-2,-1.2452098E-3,1.7463258E-3,-4.001272E-3,-1.7153538E-3,3.0551457E-3,5.2317576E-3,2.222114E-3,-2.7722173E-4],"categories":[],"categories_nodes":[],"categories_segments":[],"categories_sizes":[],"default_left":[0,0,0,0,0,0,0,0,0,0,0,0,0,0,0],"id":45,"left_children":[1,3,5,7,9,11,13,-1,-1,-1,-1,-1,-1,-1,-1],"loss_changes":[1.8538829E2,5.2425667E1,7.703079E1,2.9166351E1,1.3080345E1,2.3944305E1,2.5551908E1,0E0,0E0,0E0,0E0,0E0,0E0,0E0,0E0],"parents":[2147483647,0,0,1,1,2,2,3,3,4,4,5,5,6,6],"right_children":[2,4,6,8,10,12,14,-1,-1,-1,-1,-1,-1,-1,-1],"split_conditions":[4.69E-1,5.19E-1,1.6E0,-4.9E0,-6.1E0,2.3E1,9E0,-1.2452098E-3,1.7463258E-3,-4.001272E-3,-1.7153538E-3,3.0551457E-3,5.2317576E-3,2.222114E-3,-2.7722173E-4],"split_indices":[3,55,77,25,25,80,51,0,0,0,0,0,0,0,0],"split_type":[0,0,0,0,0,0,0,0,0,0,0,0,0,0,0],"sum_hessian":[6.4073545E3,2.4978057E3,3.9095488E3,1.3302935E3,1.1675121E3,2.2739094E3,1.6356394E3,5.676028E2,7.6269073E2,3.6498102E2,8.02531E2,1.5081522E3,7.6575714E2,7.9886316E2,8.3677625E2],"tree_param":{"num_deleted":"0","num_feature":"106","num_nodes":"15","size_leaf_vector":"1"}},{"base_weights":[-1.228636E-1,-2.945626E-1,4.3038625E-2,-3.58966E-1,-4.705544E-3,-1.93447E-1,1.3606799E-1,-2.955865E-3,-5.665177E-3,2.4394966E-4,-4.2883125E-3,3.9878624E-4,-3.127293E-3,3.6835638E-4,2.6376697E-3],"categories":[],"categories_nodes":[],"categories_segments":[],"categories_sizes":[],"default_left":[0,0,0,0,0,0,0,0,0,0,0,0,0,0,0],"id":46,"left_children":[1,3,5,7,9,11,13,-1,-1,-1,-1,-1,-1,-1,-1],"loss_changes":[1.8249234E2,5.8767914E1,7.172304E1,3.371649E1,7.086818E0,2.5630913E1,2.9635433E1,0E0,0E0,0E0,0E0,0E0,0E0,0E0,0E0],"parents":[2147483647,0,0,1,1,2,2,3,3,4,4,5,5,6,6],"right_children":[2,4,6,8,10,12,14,-1,-1,-1,-1,-1,-1,-1,-1],"split_conditions":[1.5E1,5.3E0,-2.4E0,2.3E1,1.08E1,-4.9E0,2.4E1,-2.955865E-3,-5.665177E-3,2.4394966E-4,-4.2883125E-3,3.9878624E-4,-3.127293E-3,3.6835638E-4,2.6376697E-3],"split_indices":[51,77,77,80,25,25,51,0,0,0,0,0,0,0,0],"split_type":[0,0,0,0,0,0,0,0,0,0,0,0,0,0,0],"sum_hessian":[6.405111E3,3.1471848E3,3.2579258E3,2.5748418E3,5.7234296E2,9.1947974E2,2.338446E3,1.9743611E3,6.004807E2,5.3647626E2,3.5866726E1,3.1127225E2,6.0820746E2,1.3166174E3,1.0218288E3],"tree_param":{"num_deleted":"0","num_feature":"106","num_nodes":"15","size_leaf_vector":"1"}},{"base_weights":[1.2286359E-1,2.9456258E-1,-4.3038618E-2,3.58966E-1,4.7055013E-3,1.9344701E-1,-1.3606799E-1,2.9558649E-3,5.6651775E-3,-2.4395013E-4,4.2883125E-3,-3.9878688E-4,3.1272934E-3,-3.6835633E-4,-2.6376697E-3],"categories":[],"categories_nodes":[],"categories_segments":[],"categories_sizes":[],"default_left":[0,0,0,0,0,0,0,0,0,0,0,0,0,0,0],"id":47,"left_children":[1,3,5,7,9,11,13,-1,-1,-1,-1,-1,-1,-1,-1],"loss_changes":[1.824923E2,5.8767944E1,7.1723045E1,3.371649E1,7.086819E0,2.5630932E1,2.963544E1,0E0,0E0,0E0,0E0,0E0,0E0,0E0,0E0],"parents":[2147483647,0,0,1,1,2,2,3,3,4,4,5,5,6,6],"right_children":[2,4,6,8,10,12,14,-1,-1,-1,-1,-1,-1,-1,-1],"split_conditions":[1.5E1,5.3E0,-2.4E0,2.3E1,1.08E1,-4.9E0,2.4E1,2.9558649E-3,5.6651775E-3,-2.4395013E-4,4.2883125E-3,-3.9878688E-4,3.1272934E-3,-3.6835633E-4,-2.6376697E-3],"split_indices":[51,77,77,80,25,25,51,0,0,0,0,0,0,0,0],"split_type":[0,0,0,0,0,0,0,0,0,0,0,0,0,0,0],"sum_hessian":[6.4051104E3,3.1471846E3,3.2579258E3,2.5748418E3,5.723429E2,9.1947974E2,2.338446E3,1.9743611E3,6.004807E2,5.364762E2,3.5866726E1,3.1127225E2,6.0820746E2,1.3166174E3,1.02182874E3],"tree_param":{"num_deleted":"0","num_feature":"106","num_nodes":"15","size_leaf_vector":"1"}},{"base_weights":[-1.21679015E-1,-2.3085724E-1,1.3454041E-1,-1.0324243E-1,-3.7649536E-1,-3.5547554E-3,2.8779185E-1,-2.3015582E-3,1.490163E-4,-5.177504E-3,-3.010224E-3,7.9218333E-4,-2.0393261E-3,4.2899908E-3,2.0079783E-3],"categories":[],"categories_nodes":[],"categories_segments":[],"categories_sizes":[],"default_left":[0,0,0,0,0,0,0,0,0,0,0,0,0,0,0],"id":48,"left_children":[1,3,5,7,9,11,13,-1,-1,-1,-1,-1,-1,-1,-1],"loss_changes":[1.7917169E2,8.34261E1,4.0509205E1,3.591277E1,2.2199463E1,1.6731646E1,1.1058868E1,0E0,0E0,0E0,0E0,0E0,0E0,0E0,0E0],"parents":[2147483647,0,0,1,1,2,2,3,3,4,4,5,5,6,6],"right_children":[2,4,6,8,10,12,14,-1,-1,-1,-1,-1,-1,-1,-1],"split_conditions":[2E1,1.4E1,4E-1,1E1,8E0,2.6E1,-6.1E0,-2.3015582E-3,1.490163E-4,-5.177504E-3,-3.010224E-3,7.9218333E-4,-2.0393261E-3,4.2899908E-3,2.0079783E-3],"split_indices":[28,80,77,51,51,103,25,0,0,0,0,0,0,0,0],"split_type":[0,0,0,0,0,0,0,0,0,0,0,0,0,0,0],"sum_hessian":[6.4029224E3,4.4898438E3,1.9130784E3,2.393904E3,2.0959397E3,1.0068136E3,9.062648E2,1.1536624E3,1.2402418E3,7.278456E2,1.3680942E3,7.129212E2,2.9389243E2,3.439841E2,5.6228064E2],"tree_param":{"num_deleted":"0","num_feature":"106","num_nodes":"15","size_leaf_vector":"1"}},{"base_weights":[1.21679E-1,2.3085722E-1,-1.3454041E-1,1.0324241E-1,3.7649533E-1,3.554754E-3,-2.8779185E-1,2.3015582E-3,-1.490166E-4,5.177504E-3,3.0102239E-3,-7.921834E-4,2.0393261E-3,-4.2899908E-3,-2.0079785E-3],"categories":[],"categories_nodes":[],"categories_segments":[],"categories_sizes":[],"default_left":[0,0,0,0,0,0,0,0,0,0,0,0,0,0,0],"id":49,"left_children":[1,3,5,7,9,11,13,-1,-1,-1,-1,-1,-1,-1,-1],"loss_changes":[1.7917169E2,8.342607E1,4.0509197E1,3.5912773E1,2.2199463E1,1.6731647E1,1.1058868E1,0E0,0E0,0E0,0E0,0E0,0E0,0E0,0E0],"parents":[2147483647,0,0,1,1,2,2,3,3,4,4,5,5,6,6],"right_children":[2,4,6,8,10,12,14,-1,-1,-1,-1,-1,-1,-1,-1],"split_conditions":[2E1,1.4E1,4E-1,1E1,8E0,2.6E1,-6.1E0,2.3015582E-3,-1.490166E-4,5.177504E-3,3.0102239E-3,-7.921834E-4,2.0393261E-3,-4.2899908E-3,-2.0079785E-3],"split_indices":[28,80,77,51,51,103,25,0,0,0,0,0,0,0,0],"split_type":[0,0,0,0,0,0,0,0,0,0,0,0,0,0,0],"sum_hessian":[6.4029224E3,4.4898438E3,1.9130784E3,2.393904E3,2.0959397E3,1.0068136E3,9.062648E2,1.1536624E3,1.2402418E3,7.278455E2,1.3680942E3,7.129212E2,2.9389243E2,3.4398407E2,5.6228064E2],"tree_param":{"num_deleted":"0","num_feature":"106","num_nodes":"15","size_leaf_vector":"1"}},{"base_weights":[-1.2050761E-1,-2.8924176E-1,4.2431813E-2,-3.5285825E-1,-3.2163998E-3,-1.8999755E-1,1.3384569E-1,-2.9025918E-3,-5.5819685E-3,2.554833E-4,-4.227702E-3,4.0252108E-4,-3.0780616E-3,3.6532703E-4,2.5914246E-3],"categories":[],"categories_nodes":[],"categories_segments":[],"categories_sizes":[],"default_left":[0,0,0,0,0,0,0,0,0,0,0,0,0,0,0],"id":50,"left_children":[1,3,5,7,9,11,13,-1,-1,-1,-1,-1,-1,-1,-1],"loss_changes":[1.7601372E2,5.7225006E1,6.924017E1,3.2908264E1,6.928784E0,2.4966606E1,2.8505398E1,0E0,0E0,0E0,0E0,0E0,0E0,0E0,0E0],"parents":[2147483647,0,0,1,1,2,2,3,3,4,4,5,5,6,6],"right_children":[2,4,6,8,10,12,14,-1,-1,-1,-1,-1,-1,-1,-1],"split_conditions":[1.5E1,5.3E0,-2.4E0,2.3E1,1.08E1,-4.9E0,2.4E1,-2.9025918E-3,-5.5819685E-3,2.554833E-4,-4.227702E-3,4.0252108E-4,-3.0780616E-3,3.6532703E-4,2.5914246E-3],"split_indices":[51,77,77,80,25,25,51,0,0,0,0,0,0,0,0],"split_type":[0,0,0,0,0,0,0,0,0,0,0,0,0,0,0],"sum_hessian":[6.4005786E3,3.1439958E3,3.256583E3,2.5717622E3,5.7223346E2,9.189579E2,2.3376252E3,1.9727635E3,5.989987E2,5.3639703E2,3.583643E1,3.11266E2,6.076919E2,1.3164685E3,1.02115674E3],"tree_param":{"num_deleted":"0","num_feature":"106","num_nodes":"15","size_leaf_vector":"1"}},{"base_weights":[1.20507635E-1,2.892418E-1,-4.2431787E-2,3.5285828E-1,3.2164308E-3,1.8999755E-1,-1.3384566E-1,2.9025918E-3,5.5819694E-3,-2.55483E-4,4.227703E-3,-4.0252059E-4,3.0780614E-3,-3.6532665E-4,-2.5914242E-3],"categories":[],"categories_nodes":[],"categories_segments":[],"categories_sizes":[],"default_left":[0,0,0,0,0,0,0,0,0,0,0,0,0,0,0],"id":51,"left_children":[1,3,5,7,9,11,13,-1,-1,-1,-1,-1,-1,-1,-1],"loss_changes":[1.7601375E2,5.7224945E1,6.9240166E1,3.2908295E1,6.9287863E0,2.4966599E1,2.8505394E1,0E0,0E0,0E0,0E0,0E0,0E0,0E0,0E0],"parents":[2147483647,0,0,1,1,2,2,3,3,4,4,5,5,6,6],"right_children":[2,4,6,8,10,12,14,-1,-1,-1,-1,-1,-1,-1,-1],"split_conditions":[1.5E1,5.3E0,-2.4E0,2.3E1,1.08E1,-4.9E0,2.4E1,2.9025918E-3,5.5819694E-3,-2.55483E-4,4.227703E-3,-4.0252059E-4,3.0780614E-3,-3.6532665E-4,-2.5914242E-3],"split_indices":[51,77,77,80,25,25,51,0,0,0,0,0,0,0,0],"split_type":[0,0,0,0,0,0,0,0,0,0,0,0,0,0,0],"sum_hessian":[6.4005786E3,3.1439956E3,3.256583E3,2.5717622E3,5.7223346E2,9.189579E2,2.3376252E3,1.9727635E3,5.989987E2,5.3639703E2,3.5836426E1,3.1126602E2,6.076919E2,1.3164685E3,1.02115674E3],"tree_param":{"num_deleted":"0","num_feature":"106","num_nodes":"15","size_leaf_vector":"1"}},{"base_weights":[-1.1934832E-1,-2.2664338E-1,1.3235171E-1,-1.3722715E-1,-4.2864835E-1,-3.6285042E-3,2.833298E-1,-2.2609971E-4,-2.7348197E-3,-3.591756E-3,-5.516655E-3,7.760959E-4,-2.0031766E-3,4.226731E-3,1.9755475E-3],"categories":[],"categories_nodes":[],"categories_segments":[],"categories_sizes":[],"default_left":[0,0,0,0,0,0,0,0,0,0,0,0,0,0,0],"id":52,"left_children":[1,3,5,7,9,11,13,-1,-1,-1,-1,-1,-1,-1,-1],"loss_changes":[1.7284943E2,8.0988434E1,3.927943E1,4.8590622E1,1.1563995E1,1.6115524E1,1.0752632E1,0E0,0E0,0E0,0E0,0E0,0E0,0E0,0E0],"parents":[2147483647,0,0,1,1,2,2,3,3,4,4,5,5,6,6],"right_children":[2,4,6,8,10,12,14,-1,-1,-1,-1,-1,-1,-1,-1],"split_conditions":[2E1,1.9E1,4E-1,2.9E0,2.7E1,2.6E1,-6.1E0,-2.2609971E-4,-2.7348197E-3,-3.591756E-3,-5.516655E-3,7.760959E-4,-2.0031766E-3,4.226731E-3,1.9755475E-3],"split_indices":[28,80,77,25,103,103,25,0,0,0,0,0,0,0,0],"split_type":[0,0,0,0,0,0,0,0,0,0,0,0,0,0,0],"sum_hessian":[6.3982573E3,4.4860405E3,1.9122167E3,3.110761E3,1.3752795E3,1.0065929E3,9.056238E2,1.6901648E3,1.4205963E3,8.814237E2,4.938558E2,7.1279443E2,2.9379852E2,3.4356604E2,5.6205774E2],"tree_param":{"num_deleted":"0","num_feature":"106","num_nodes":"15","size_leaf_vector":"1"}},{"base_weights":[1.193483E-1,2.2664337E-1,-1.3235171E-1,1.3722713E-1,4.2864835E-1,3.6284984E-3,-2.8332984E-1,2.2609954E-4,2.7348192E-3,3.591756E-3,5.516655E-3,-7.760961E-4,2.0031766E-3,-4.2267316E-3,-1.9755475E-3],"categories":[],"categories_nodes":[],"categories_segments":[],"categories_sizes":[],"default_left":[0,0,0,0,0,0,0,0,0,0,0,0,0,0,0],"id":53,"left_children":[1,3,5,7,9,11,13,-1,-1,-1,-1,-1,-1,-1,-1],"loss_changes":[1.7284943E2,8.0988434E1,3.927943E1,4.8590633E1,1.1563995E1,1.6115528E1,1.075264E1,0E0,0E0,0E0,0E0,0E0,0E0,0E0,0E0],"parents":[2147483647,0,0,1,1,2,2,3,3,4,4,5,5,6,6],"right_children":[2,4,6,8,10,12,14,-1,-1,-1,-1,-1,-1,-1,-1],"split_conditions":[2E1,1.9E1,4E-1,2.9E0,2.7E1,2.6E1,-6.1E0,2.2609954E-4,2.7348192E-3,3.591756E-3,5.516655E-3,-7.760961E-4,2.0031766E-3,-4.2267316E-3,-1.9755475E-3],"split_indices":[28,80,77,25,103,103,25,0,0,0,0,0,0,0,0],"split_type":[0,0,0,0,0,0,0,0,0,0,0,0,0,0,0],"sum_hessian":[6.3982573E3,4.4860405E3,1.9122167E3,3.1107612E3,1.3752795E3,1.00659296E3,9.056238E2,1.6901648E3,1.4205963E3,8.814237E2,4.938558E2,7.1279443E2,2.9379852E2,3.4356604E2,5.6205774E2],"tree_param":{"num_deleted":"0","num_feature":"106","num_nodes":"15","size_leaf_vector":"1"}},{"base_weights":[-1.1820073E-1,-2.8411284E-1,4.191916E-2,-3.470628E-1,-1.3701913E-3,-9.086963E-2,1.9658035E-1,-2.8544657E-3,-5.4958323E-3,2.705844E-4,-4.1639963E-3,-1.8955136E-3,1.2369632E-3,3.8632422E-3,1.3643948E-3],"categories":[],"categories_nodes":[],"categories_segments":[],"categories_sizes":[],"default_left":[0,0,0,0,0,0,0,0,0,0,0,0,0,0,0],"id":54,"left_children":[1,3,5,7,9,11,13,-1,-1,-1,-1,-1,-1,-1,-1],"loss_changes":[1.6994978E2,5.591812E1,6.688976E1,3.1908356E1,6.7732077E0,3.7133114E1,1.7115646E1,0E0,0E0,0E0,0E0,0E0,0E0,0E0,0E0],"parents":[2147483647,0,0,1,1,2,2,3,3,4,4,5,5,6,6],"right_children":[2,4,6,8,10,12,14,-1,-1,-1,-1,-1,-1,-1,-1],"split_conditions":[1.5E1,5.3E0,5.23E-1,2.3E1,1.08E1,2.6E1,-6.1E0,-2.8544657E-3,-5.4958323E-3,2.705844E-4,-4.1639963E-3,-1.8955136E-3,1.2369632E-3,3.8632422E-3,1.3643948E-3],"split_indices":[51,77,55,80,25,51,25,0,0,0,0,0,0,0,0],"split_type":[0,0,0,0,0,0,0,0,0,0,0,0,0,0,0],"sum_hessian":[6.3958594E3,3.1407356E3,3.2551235E3,2.5686274E3,5.7210803E2,1.7516268E3,1.5034968E3,1.9712808E3,5.9734674E2,5.3630695E2,3.580108E1,1.1998955E3,5.517313E2,3.605479E2,1.142949E3],"tree_param":{"num_deleted":"0","num_feature":"106","num_nodes":"15","size_leaf_vector":"1"}},{"base_weights":[1.1820074E-1,2.8411287E-1,-4.1919164E-2,3.4706283E-1,1.3702761E-3,9.086962E-2,-1.9658035E-1,2.8544657E-3,5.4958323E-3,-2.7058346E-4,4.163996E-3,1.8955136E-3,-1.2369634E-3,-3.8632422E-3,-1.3643947E-3],"categories":[],"categories_nodes":[],"categories_segments":[],"categories_sizes":[],"default_left":[0,0,0,0,0,0,0,0,0,0,0,0,0,0,0],"id":55,"left_children":[1,3,5,7,9,11,13,-1,-1,-1,-1,-1,-1,-1,-1],"loss_changes":[1.6994983E2,5.5918137E1,6.6889755E1,3.1908325E1,6.773204E0,3.713312E1,1.7115646E1,0E0,0E0,0E0,0E0,0E0,0E0,0E0,0E0],"parents":[2147483647,0,0,1,1,2,2,3,3,4,4,5,5,6,6],"right_children":[2,4,6,8,10,12,14,-1,-1,-1,-1,-1,-1,-1,-1],"split_conditions":[1.5E1,5.3E0,5.23E-1,2.3E1,1.08E1,2.6E1,-6.1E0,2.8544657E-3,5.4958323E-3,-2.7058346E-4,4.163996E-3,1.8955136E-3,-1.2369634E-3,-3.8632422E-3,-1.3643947E-3],"split_indices":[51,77,55,80,25,51,25,0,0,0,0,0,0,0,0],"split_type":[0,0,0,0,0,0,0,0,0,0,0,0,0,0,0],"sum_hessian":[6.3958594E3,3.1407356E3,3.2551238E3,2.5686274E3,5.7210803E2,1.7516268E3,1.5034968E3,1.9712808E3,5.973468E2,5.3630695E2,3.5801075E1,1.1998955E3,5.517314E2,3.6054794E2,1.1429489E3],"tree_param":{"num_deleted":"0","num_feature":"106","num_nodes":"15","size_leaf_vector":"1"}},{"base_weights":[-1.1706484E-1,8.4907636E-2,-2.4628969E-1,-4.4565026E-2,2.3243774E-1,-3.4016916E-1,-5.114441E-2,1.1903114E-3,-1.6637794E-3,3.815317E-3,1.6441958E-3,-4.637911E-3,-2.549393E-3,-1.6060366E-3,5.689546E-4],"categories":[],"categories_nodes":[],"categories_segments":[],"categories_sizes":[],"default_left":[0,0,0,0,0,0,0,0,0,0,0,0,0,0,0],"id":56,"left_children":[1,3,5,7,9,11,13,-1,-1,-1,-1,-1,-1,-1,-1],"loss_changes":[1.6691476E2,4.7680836E1,7.142645E1,2.6524809E1,1.176849E1,2.7622437E1,1.5002931E1,0E0,0E0,0E0,0E0,0E0,0E0,0E0,0E0],"parents":[2147483647,0,0,1,1,2,2,3,3,4,4,5,5,6,6],"right_children":[2,4,6,8,10,12,14,-1,-1,-1,-1,-1,-1,-1,-1],"split_conditions":[4.69E-1,5.19E-1,2.9E0,-4.9E0,-6.1E0,8E0,9E0,1.1903114E-3,-1.6637794E-3,3.815317E-3,1.6441958E-3,-4.637911E-3,-2.549393E-3,-1.6060366E-3,5.689546E-4],"split_indices":[3,55,77,25,25,51,51,0,0,0,0,0,0,0,0],"split_type":[0,0,0,0,0,0,0,0,0,0,0,0,0,0,0],"sum_hessian":[6.3934346E3,2.4946907E3,3.8987437E3,1.3290299E3,1.1656608E3,2.6318728E3,1.2668708E3,5.672413E2,7.617887E2,3.6374106E2,8.0191974E2,1.072222E3,1.5596509E3,6.2906E2,6.3781085E2],"tree_param":{"num_deleted":"0","num_feature":"106","num_nodes":"15","size_leaf_vector":"1"}},{"base_weights":[1.1706484E-1,-8.490764E-2,2.4628969E-1,4.4565026E-2,-2.3243777E-1,3.4016916E-1,5.114445E-2,-1.1903114E-3,1.6637796E-3,-3.815318E-3,-1.6441958E-3,4.637911E-3,2.549393E-3,1.6060371E-3,-5.6895433E-4],"categories":[],"categories_nodes":[],"categories_segments":[],"categories_sizes":[],"default_left":[0,0,0,0,0,0,0,0,0,0,0,0,0,0,0],"id":57,"left_children":[1,3,5,7,9,11,13,-1,-1,-1,-1,-1,-1,-1,-1],"loss_changes":[1.669148E2,4.7680847E1,7.142641E1,2.652481E1,1.1768497E1,2.7622437E1,1.5002935E1,0E0,0E0,0E0,0E0,0E0,0E0,0E0,0E0],"parents":[2147483647,0,0,1,1,2,2,3,3,4,4,5,5,6,6],"right_children":[2,4,6,8,10,12,14,-1,-1,-1,-1,-1,-1,-1,-1],"split_conditions":[4.69E-1,5.19E-1,2.9E0,-4.9E0,-6.1E0,8E0,9E0,-1.1903114E-3,1.6637796E-3,-3.815318E-3,-1.6441958E-3,4.637911E-3,2.549393E-3,1.6060371E-3,-5.6895433E-4],"split_indices":[3,55,77,25,25,51,51,0,0,0,0,0,0,0,0],"split_type":[0,0,0,0,0,0,0,0,0,0,0,0,0,0,0],"sum_hessian":[6.3934346E3,2.4946907E3,3.8987437E3,1.3290299E3,1.1656608E3,2.6318728E3,1.2668708E3,5.672413E2,7.6178864E2,3.6374103E2,8.0191974E2,1.072222E3,1.5596509E3,6.2906E2,6.3781085E2],"tree_param":{"num_deleted":"0","num_feature":"106","num_nodes":"15","size_leaf_vector":"1"}},{"base_weights":[-1.15940124E-1,-2.2053991E-1,1.2928195E-1,-1.3883193E-1,-4.332251E-1,-1.4506559E-1,2.0127624E-1,-2.938008E-3,-4.7667592E-4,-3.563365E-3,-5.5281213E-3,-2.3306743E-3,5.984317E-4,3.2768873E-3,1.1708066E-3],"categories":[],"categories_nodes":[],"categories_segments":[],"categories_sizes":[],"default_left":[0,0,0,0,0,0,0,0,0,0,0,0,0,0,0],"id":58,"left_children":[1,3,5,7,9,11,13,-1,-1,-1,-1,-1,-1,-1,-1],"loss_changes":[1.6398329E2,7.781232E1,3.7791634E1,4.5743095E1,1.1234436E1,7.190914E0,1.6085026E1,0E0,0E0,0E0,0E0,0E0,0E0,0E0,0E0],"parents":[2147483647,0,0,1,1,2,2,3,3,4,4,5,5,6,6],"right_children":[2,4,6,8,10,12,14,-1,-1,-1,-1,-1,-1,-1,-1],"split_conditions":[2E1,2E1,3.61E-1,8E0,2.7E1,2.7E1,-6E0,-2.938008E-3,-4.7667592E-4,-3.563365E-3,-5.5281213E-3,-2.3306743E-3,5.984317E-4,3.2768873E-3,1.1708066E-3],"split_indices":[28,80,55,51,103,28,25,0,0,0,0,0,0,0,0],"split_type":[0,0,0,0,0,0,0,0,0,0,0,0,0,0,0],"sum_hessian":[6.390955E3,4.480074E3,1.9108807E3,3.2378367E3,1.2422377E3,3.9700504E2,1.5138757E3,1.1984266E3,2.03941E3,7.58524E2,4.8371368E2,2.77633E2,1.1937203E2,6.040516E2,9.0982416E2],"tree_param":{"num_deleted":"0","num_feature":"106","num_nodes":"15","size_leaf_vector":"1"}},{"base_weights":[1.1594014E-1,2.2053993E-1,-1.2928194E-1,1.3883196E-1,4.332251E-1,1.4506559E-1,-2.0127623E-1,2.9380086E-3,4.766761E-4,3.563365E-3,5.5281213E-3,2.3306743E-3,-5.9843156E-4,-3.2768871E-3,-1.1708065E-3],"categories":[],"categories_nodes":[],"categories_segments":[],"categories_sizes":[],"default_left":[0,0,0,0,0,0,0,0,0,0,0,0,0,0,0],"id":59,"left_children":[1,3,5,7,9,11,13,-1,-1,-1,-1,-1,-1,-1,-1],"loss_changes":[1.639833E2,7.781229E1,3.7791634E1,4.5743107E1,1.12344055E1,7.190914E0,1.6085018E1,0E0,0E0,0E0,0E0,0E0,0E0,0E0,0E0],"parents":[2147483647,0,0,1,1,2,2,3,3,4,4,5,5,6,6],"right_children":[2,4,6,8,10,12,14,-1,-1,-1,-1,-1,-1,-1,-1],"split_conditions":[2E1,2E1,3.61E-1,8E0,2.7E1,2.7E1,-6E0,2.9380086E-3,4.766761E-4,3.563365E-3,5.5281213E-3,2.3306743E-3,-5.9843156E-4,-3.2768871E-3,-1.1708065E-3],"split_indices":[28,80,55,51,103,28,25,0,0,0,0,0,0,0,0],"split_type":[0,0,0,0,0,0,0,0,0,0,0,0,0,0,0],"sum_hessian":[6.390955E3,4.480074E3,1.9108807E3,3.2378367E3,1.2422377E3,3.9700504E2,1.5138757E3,1.1984268E3,2.03941E3,7.5852405E2,4.837137E2,2.77633E2,1.1937203E2,6.040516E2,9.0982416E2],"tree_param":{"num_deleted":"0","num_feature":"106","num_nodes":"15","size_leaf_vector":"1"}},{"base_weights":[-1.1482798E-1,-2.7669647E-1,4.1239083E-2,-3.3862966E-1,1.0321151E-3,-1.8277735E-1,1.2928738E-1,-2.7808258E-3,-5.3818393E-3,2.9050963E-4,-4.085089E-3,3.85596E-4,-2.9626554E-3,3.6389942E-4,2.4906087E-3],"categories":[],"categories_nodes":[],"categories_segments":[],"categories_sizes":[],"default_left":[0,0,0,0,0,0,0,0,0,0,0,0,0,0,0],"id":60,"left_children":[1,3,5,7,9,11,13,-1,-1,-1,-1,-1,-1,-1,-1],"loss_changes":[1.6142366E2,5.3951065E1,6.420414E1,3.0837494E1,6.58593E0,2.3083094E1,2.598719E1,0E0,0E0,0E0,0E0,0E0,0E0,0E0,0E0],"parents":[2147483647,0,0,1,1,2,2,3,3,4,4,5,5,6,6],"right_children":[2,4,6,8,10,12,14,-1,-1,-1,-1,-1,-1,-1,-1],"split_conditions":[1.5E1,5.3E0,-2.4E0,2.3E1,1.08E1,-4.9E0,2.4E1,-2.7808258E-3,-5.3818393E-3,2.9050963E-4,-4.085089E-3,3.85596E-4,-2.9626554E-3,3.6389942E-4,2.4906087E-3],"split_indices":[51,77,77,80,25,25,51,0,0,0,0,0,0,0,0],"split_type":[0,0,0,0,0,0,0,0,0,0,0,0,0,0,0],"sum_hessian":[6.3884414E3,3.1355557E3,3.2528857E3,2.563646E3,5.7190955E2,9.174902E2,2.3353955E3,1.9687102E3,5.949359E2,5.361573E2,3.5752262E1,3.1120493E2,6.062853E2,1.3159987E3,1.019397E3],"tree_param":{"num_deleted":"0","num_feature":"106","num_nodes":"15","size_leaf_vector":"1"}},{"base_weights":[1.14827976E-1,2.7669647E-1,-4.123909E-2,3.3862966E-1,-1.0320934E-3,1.8277732E-1,-1.2928738E-1,2.7808254E-3,5.38184E-3,-2.905094E-4,4.085089E-3,-3.855963E-4,2.9626552E-3,-3.6389916E-4,-2.490609E-3],"categories":[],"categories_nodes":[],"categories_segments":[],"categories_sizes":[],"default_left":[0,0,0,0,0,0,0,0,0,0,0,0,0,0,0],"id":61,"left_children":[1,3,5,7,9,11,13,-1,-1,-1,-1,-1,-1,-1,-1],"loss_changes":[1.614237E2,5.3951004E1,6.4204124E1,3.0837524E1,6.585929E0,2.3083092E1,2.5987206E1,0E0,0E0,0E0,0E0,0E0,0E0,0E0,0E0],"parents":[2147483647,0,0,1,1,2,2,3,3,4,4,5,5,6,6],"right_children":[2,4,6,8,10,12,14,-1,-1,-1,-1,-1,-1,-1,-1],"split_conditions":[1.5E1,5.3E0,-2.4E0,2.3E1,1.08E1,-4.9E0,2.4E1,2.7808254E-3,5.38184E-3,-2.905094E-4,4.085089E-3,-3.855963E-4,2.9626552E-3,-3.6389916E-4,-2.490609E-3],"split_indices":[51,77,77,80,25,25,51,0,0,0,0,0,0,0,0],"split_type":[0,0,0,0,0,0,0,0,0,0,0,0,0,0,0],"sum_hessian":[6.3884414E3,3.1355557E3,3.2528857E3,2.5636462E3,5.7190955E2,9.174902E2,2.3353955E3,1.9687102E3,5.949359E2,5.361573E2,3.5752262E1,3.1120493E2,6.062853E2,1.3159987E3,1.019397E3],"tree_param":{"num_deleted":"0","num_feature":"106","num_nodes":"15","size_leaf_vector":"1"}},{"base_weights":[-1.13728546E-1,1.1003827E-1,-2.2456658E-1,-9.26242E-2,2.0594515E-1,-9.485854E-2,-3.552671E-1,-2.1211328E-3,5.417158E-4,3.1282875E-7,2.614751E-3,-2.0238212E-3,1.6108248E-4,-4.9271956E-3,-2.7622443E-3],"categories":[],"categories_nodes":[],"categories_segments":[],"categories_sizes":[],"default_left":[0,0,0,0,0,0,0,0,0,0,0,0,0,0,0],"id":62,"left_children":[1,3,5,7,9,11,13,-1,-1,-1,-1,-1,-1,-1,-1],"loss_changes":[1.5843018E2,4.1153282E1,7.238101E1,1.1947708E1,1.6429127E1,2.5599583E1,2.2975708E1,0E0,0E0,0E0,0E0,0E0,0E0,0E0,0E0],"parents":[2147483647,0,0,1,1,2,2,3,3,4,4,5,5,6,6],"right_children":[2,4,6,8,10,12,14,-1,-1,-1,-1,-1,-1,-1,-1],"split_conditions":[-1.6E0,-2E0,1.3E1,2.6E1,2E1,1E1,8E0,-2.1211328E-3,5.417158E-4,3.1282875E-7,2.614751E-3,-2.0238212E-3,1.6108248E-4,-4.9271956E-3,-2.7622443E-3],"split_indices":[25,77,80,51,28,51,51,0,0,0,0,0,0,0,0],"split_type":[0,0,0,0,0,0,0,0,0,0,0,0,0,0,0],"sum_hessian":[6.3858345E3,2.1153135E3,4.270521E3,6.79495E2,1.4358184E3,2.1442646E3,2.126256E3,3.7434232E2,3.051527E2,3.0517642E2,1.130642E3,1.0886099E3,1.0556549E3,7.743884E2,1.3518678E3],"tree_param":{"num_deleted":"0","num_feature":"106","num_nodes":"15","size_leaf_vector":"1"}},{"base_weights":[1.13728546E-1,-1.1003829E-1,2.2456658E-1,9.262419E-2,-2.0594516E-1,9.4858535E-2,3.552671E-1,2.1211326E-3,-5.4171594E-4,-3.1268078E-7,-2.614751E-3,2.0238212E-3,-1.6108272E-4,4.9271956E-3,2.7622443E-3],"categories":[],"categories_nodes":[],"categories_segments":[],"categories_sizes":[],"default_left":[0,0,0,0,0,0,0,0,0,0,0,0,0,0,0],"id":63,"left_children":[1,3,5,7,9,11,13,-1,-1,-1,-1,-1,-1,-1,-1],"loss_changes":[1.584302E2,4.1153275E1,7.238101E1,1.1947706E1,1.6429138E1,2.5599592E1,2.2975708E1,0E0,0E0,0E0,0E0,0E0,0E0,0E0,0E0],"parents":[2147483647,0,0,1,1,2,2,3,3,4,4,5,5,6,6],"right_children":[2,4,6,8,10,12,14,-1,-1,-1,-1,-1,-1,-1,-1],"split_conditions":[-1.6E0,-2E0,1.3E1,2.6E1,2E1,1E1,8E0,2.1211326E-3,-5.4171594E-4,-3.1268078E-7,-2.614751E-3,2.0238212E-3,-1.6108272E-4,4.9271956E-3,2.7622443E-3],"split_indices":[25,77,80,51,28,51,51,0,0,0,0,0,0,0,0],"split_type":[0,0,0,0,0,0,0,0,0,0,0,0,0,0,0],"sum_hessian":[6.3858345E3,2.1153135E3,4.270521E3,6.79495E2,1.4358184E3,2.1442646E3,2.1262563E3,3.7434232E2,3.051527E2,3.0517642E2,1.130642E3,1.0886099E3,1.0556549E3,7.743885E2,1.3518678E3],"tree_param":{"num_deleted":"0","num_feature":"106","num_nodes":"15","size_leaf_vector":"1"}},{"base_weights":[-1.1264131E-1,-2.7170047E-1,4.060558E-2,-3.3287892E-1,2.3033714E-3,-8.752655E-2,1.8982185E-1,-2.7302164E-3,-5.3055054E-3,3.000419E-4,-4.0298104E-3,-1.8181718E-3,1.1734542E-3,3.7217115E-3,1.3216815E-3],"categories":[],"categories_nodes":[],"categories_segments":[],"categories_sizes":[],"default_left":[0,0,0,0,0,0,0,0,0,0,0,0,0,0,0],"id":64,"left_children":[1,3,5,7,9,11,13,-1,-1,-1,-1,-1,-1,-1,-1],"loss_changes":[1.5562563E2,5.2515884E1,6.219918E1,3.015686E1,6.442711E0,3.3836067E1,1.575053E1,0E0,0E0,0E0,0E0,0E0,0E0,0E0,0E0],"parents":[2147483647,0,0,1,1,2,2,3,3,4,4,5,5,6,6],"right_children":[2,4,6,8,10,12,14,-1,-1,-1,-1,-1,-1,-1,-1],"split_conditions":[1.5E1,5.3E0,5.23E-1,2.3E1,1.08E1,2.6E1,-6.1E0,-2.7302164E-3,-5.3055054E-3,3.000419E-4,-4.0298104E-3,-1.8181718E-3,1.1734542E-3,3.7217115E-3,1.3216815E-3],"split_indices":[51,77,55,80,25,51,25,0,0,0,0,0,0,0,0],"split_type":[0,0,0,0,0,0,0,0,0,0,0,0,0,0,0],"sum_hessian":[6.3831035E3,3.1317751E3,3.2513284E3,2.5599788E3,5.717964E2,1.7494703E3,1.5018582E3,1.9667924E3,5.931865E2,5.3608167E2,3.571472E1,1.198146E3,5.5132434E2,3.5946698E2,1.1423911E3],"tree_param":{"num_deleted":"0","num_feature":"106","num_nodes":"15","size_leaf_vector":"1"}},{"base_weights":[1.12641305E-1,2.7170047E-1,-4.060558E-2,3.3287892E-1,-2.3033805E-3,8.7526545E-2,-1.8982185E-1,2.7302161E-3,5.3055054E-3,-3.000419E-4,4.0298095E-3,1.8181717E-3,-1.1734542E-3,-3.7217115E-3,-1.3216814E-3],"categories":[],"categories_nodes":[],"categories_segments":[],"categories_sizes":[],"default_left":[0,0,0,0,0,0,0,0,0,0,0,0,0,0,0],"id":65,"left_children":[1,3,5,7,9,11,13,-1,-1,-1,-1,-1,-1,-1,-1],"loss_changes":[1.5562561E2,5.2515915E1,6.219918E1,3.015686E1,6.442707E0,3.3836063E1,1.575053E1,0E0,0E0,0E0,0E0,0E0,0E0,0E0,0E0],"parents":[2147483647,0,0,1,1,2,2,3,3,4,4,5,5,6,6],"right_children":[2,4,6,8,10,12,14,-1,-1,-1,-1,-1,-1,-1,-1],"split_conditions":[1.5E1,5.3E0,5.23E-1,2.3E1,1.08E1,2.6E1,-6.1E0,2.7302161E-3,5.3055054E-3,-3.000419E-4,4.0298095E-3,1.8181717E-3,-1.1734542E-3,-3.7217115E-3,-1.3216814E-3],"split_indices":[51,77,55,80,25,51,25,0,0,0,0,0,0,0,0],"split_type":[0,0,0,0,0,0,0,0,0,0,0,0,0,0,0],"sum_hessian":[6.383104E3,3.1317754E3,3.2513286E3,2.5599788E3,5.717964E2,1.7494703E3,1.5018582E3,1.9667924E3,5.931865E2,5.3608167E2,3.571472E1,1.198146E3,5.5132434E2,3.5946698E2,1.1423911E3],"tree_param":{"num_deleted":"0","num_feature":"106","num_nodes":"15","size_leaf_vector":"1"}},{"base_weights":[-1.1156374E-1,8.178723E-2,-2.3544762E-1,-1.6456582E-1,1.5412612E-1,-3.2663026E-1,-4.6434432E-2,-1.0183782E-3,-5.547649E-3,6.9430174E-4,2.763638E-3,-4.468936E-3,-2.4391366E-3,-1.5183183E-3,5.74604E-4],"categories":[],"categories_nodes":[],"categories_segments":[],"categories_sizes":[],"default_left":[0,0,0,0,0,0,0,0,0,0,0,0,0,0,0],"id":66,"left_children":[1,3,5,7,9,11,13,-1,-1,-1,-1,-1,-1,-1,-1],"loss_changes":[1.5287354E2,4.4448532E1,6.702194E1,1.3804652E1,1.9935757E1,2.5990906E1,1.3882189E1,0E0,0E0,0E0,0E0,0E0,0E0,0E0,0E0],"parents":[2147483647,0,0,1,1,2,2,3,3,4,4,5,5,6,6],"right_children":[2,4,6,8,10,12,14,-1,-1,-1,-1,-1,-1,-1,-1],"split_conditions":[4.69E-1,3.71E-1,2.9E0,-1E0,2.6E1,8E0,9E0,-1.0183782E-3,-5.547649E-3,6.9430174E-4,2.763638E-3,-4.468936E-3,-2.4391366E-3,-1.5183183E-3,5.74604E-4],"split_indices":[3,55,77,25,51,51,51,0,0,0,0,0,0,0,0],"split_type":[0,0,0,0,0,0,0,0,0,0,0,0,0,0,0],"sum_hessian":[6.380407E3,2.4917556E3,3.8886519E3,5.6530646E2,1.9264491E3,2.6226973E3,1.2659546E3,4.8810086E2,7.720559E1,1.1388983E3,7.875509E2,1.0669844E3,1.5557129E3,6.282039E2,6.377507E2],"tree_param":{"num_deleted":"0","num_feature":"106","num_nodes":"15","size_leaf_vector":"1"}},{"base_weights":[1.1156374E-1,-8.1787206E-2,2.354476E-1,1.6456583E-1,-1.541261E-1,3.2663026E-1,4.643441E-2,1.0183783E-3,5.547649E-3,-6.943013E-4,-2.7636378E-3,4.4689355E-3,2.4391368E-3,1.5183178E-3,-5.74604E-4],"categories":[],"categories_nodes":[],"categories_segments":[],"categories_sizes":[],"default_left":[0,0,0,0,0,0,0,0,0,0,0,0,0,0,0],"id":67,"left_children":[1,3,5,7,9,11,13,-1,-1,-1,-1,-1,-1,-1,-1],"loss_changes":[1.5287349E2,4.4448524E1,6.702193E1,1.3804651E1,1.9935764E1,2.5990906E1,1.3882182E1,0E0,0E0,0E0,0E0,0E0,0E0,0E0,0E0],"parents":[2147483647,0,0,1,1,2,2,3,3,4,4,5,5,6,6],"right_children":[2,4,6,8,10,12,14,-1,-1,-1,-1,-1,-1,-1,-1],"split_conditions":[4.69E-1,3.71E-1,2.9E0,-1E0,2.6E1,8E0,9E0,1.0183783E-3,5.547649E-3,-6.943013E-4,-2.7636378E-3,4.4689355E-3,2.4391368E-3,1.5183178E-3,-5.74604E-4],"split_indices":[3,55,77,25,51,51,51,0,0,0,0,0,0,0,0],"split_type":[0,0,0,0,0,0,0,0,0,0,0,0,0,0,0],"sum_hessian":[6.380407E3,2.4917556E3,3.8886519E3,5.6530646E2,1.9264491E3,2.6226973E3,1.2659546E3,4.8810086E2,7.720559E1,1.1388983E3,7.8755084E2,1.0669845E3,1.5557129E3,6.282039E2,6.377507E2],"tree_param":{"num_deleted":"0","num_feature":"106","num_nodes":"15","size_leaf_vector":"1"}},{"base_weights":[-1.1049627E-1,-2.1075466E-1,1.2427728E-1,-1.3170241E-1,-4.1732115E-1,-4.8257555E-3,2.6788718E-1,-2.8132764E-3,-4.38529E-4,-3.4138798E-3,-5.356638E-3,7.2321895E-4,-1.9167269E-3,3.106047E-3,9.767935E-5],"categories":[],"categories_nodes":[],"categories_segments":[],"categories_sizes":[],"default_left":[0,0,0,0,0,0,0,0,0,0,0,0,0,0,0],"id":68,"left_children":[1,3,5,7,9,11,13,-1,-1,-1,-1,-1,-1,-1,-1],"loss_changes":[1.5016948E2,7.29427E1,3.540383E1,4.25033E1,1.0931229E1,1.4522449E1,9.96431E0,0E0,0E0,0E0,0E0,0E0,0E0,0E0,0E0],"parents":[2147483647,0,0,1,1,2,2,3,3,4,4,5,5,6,6],"right_children":[2,4,6,8,10,12,14,-1,-1,-1,-1,-1,-1,-1,-1],"split_conditions":[2E1,2E1,4E-1,8E0,2.7E1,2.6E1,-1.6E0,-2.8132764E-3,-4.38529E-4,-3.4138798E-3,-5.356638E-3,7.2321895E-4,-1.9167269E-3,3.106047E-3,9.767935E-5],"split_indices":[28,80,77,51,103,103,25,0,0,0,0,0,0,0,0],"split_type":[0,0,0,0,0,0,0,0,0,0,0,0,0,0,0],"sum_hessian":[6.377757E3,4.469283E3,1.9084736E3,3.2334797E3,1.2358035E3,1.0055059E3,9.0296765E2,1.1953529E3,2.0381268E3,7.5515326E2,4.806502E2,7.120988E2,2.9340714E2,7.745757E2,1.2839197E2],"tree_param":{"num_deleted":"0","num_feature":"106","num_nodes":"15","size_leaf_vector":"1"}},{"base_weights":[1.1049627E-1,2.1075465E-1,-1.2427727E-1,1.3170242E-1,4.1732112E-1,4.8257606E-3,-2.6788715E-1,2.8132766E-3,4.3852907E-4,3.4138795E-3,5.3566378E-3,-7.2321895E-4,1.916727E-3,-3.1060465E-3,-9.7679316E-5],"categories":[],"categories_nodes":[],"categories_segments":[],"categories_sizes":[],"default_left":[0,0,0,0,0,0,0,0,0,0,0,0,0,0,0],"id":69,"left_children":[1,3,5,7,9,11,13,-1,-1,-1,-1,-1,-1,-1,-1],"loss_changes":[1.5016946E2,7.29427E1,3.540383E1,4.2503296E1,1.0931213E1,1.4522449E1,9.964302E0,0E0,0E0,0E0,0E0,0E0,0E0,0E0,0E0],"parents":[2147483647,0,0,1,1,2,2,3,3,4,4,5,5,6,6],"right_children":[2,4,6,8,10,12,14,-1,-1,-1,-1,-1,-1,-1,-1],"split_conditions":[2E1,2E1,4E-1,8E0,2.7E1,2.6E1,-1.6E0,2.8132766E-3,4.3852907E-4,3.4138795E-3,5.3566378E-3,-7.2321895E-4,1.916727E-3,-3.1060465E-3,-9.7679316E-5],"split_indices":[28,80,77,51,103,103,25,0,0,0,0,0,0,0,0],"split_type":[0,0,0,0,0,0,0,0,0,0,0,0,0,0,0],"sum_hessian":[6.377757E3,4.469283E3,1.9084736E3,3.2334797E3,1.2358035E3,1.0055059E3,9.029677E2,1.1953529E3,2.0381268E3,7.5515326E2,4.806502E2,7.120988E2,2.9340714E2,7.7457574E2,1.2839197E2],"tree_param":{"num_deleted":"0","num_feature":"106","num_nodes":"15","size_leaf_vector":"1"}},{"base_weights":[-1.0944118E-1,-2.64626E-1,3.9908443E-2,-3.2484242E-1,4.5803124E-3,-1.7589186E-1,1.2468113E-1,-2.6602133E-3,-5.1968885E-3,3.188643E-4,-3.9548217E-3,3.803966E-4,-2.8582495E-3,3.6159426E-4,2.389815E-3],"categories":[],"categories_nodes":[],"categories_segments":[],"categories_sizes":[],"default_left":[0,0,0,0,0,0,0,0,0,0,0,0,0,0,0],"id":70,"left_children":[1,3,5,7,9,11,13,-1,-1,-1,-1,-1,-1,-1,-1],"loss_changes":[1.4778525E2,5.069272E1,5.947627E1,2.9149902E1,6.267655E0,2.1577452E1,2.3606148E1,0E0,0E0,0E0,0E0,0E0,0E0,0E0,0E0],"parents":[2147483647,0,0,1,1,2,2,3,3,4,4,5,5,6,6],"right_children":[2,4,6,8,10,12,14,-1,-1,-1,-1,-1,-1,-1,-1],"split_conditions":[1.5E1,5.3E0,-2.4E0,2.3E1,1.08E1,-4.9E0,2.4E1,-2.6602133E-3,-5.1968885E-3,3.188643E-4,-3.9548217E-3,3.803966E-4,-2.8582495E-3,3.6159426E-4,2.389815E-3],"split_indices":[51,77,77,80,25,25,51,0,0,0,0,0,0,0,0],"split_type":[0,0,0,0,0,0,0,0,0,0,0,0,0,0,0],"sum_hessian":[6.374975E3,3.1260334E3,3.2489417E3,2.554445E3,5.715884E2,9.1601843E2,2.3329233E3,1.9639304E3,5.9051465E2,5.35929E2,3.5659344E1,3.1115662E2,6.0486176E2,1.3154606E3,1.01746265E3],"tree_param":{"num_deleted":"0","num_feature":"106","num_nodes":"15","size_leaf_vector":"1"}},{"base_weights":[1.09441176E-1,2.64626E-1,-3.9908458E-2,3.2484242E-1,-4.5803064E-3,1.7589186E-1,-1.2468115E-1,2.6602133E-3,5.1968885E-3,-3.1886424E-4,3.9548217E-3,-3.8039684E-4,2.8582495E-3,-3.615944E-4,-2.3898152E-3],"categories":[],"categories_nodes":[],"categories_segments":[],"categories_sizes":[],"default_left":[0,0,0,0,0,0,0,0,0,0,0,0,0,0,0],"id":71,"left_children":[1,3,5,7,9,11,13,-1,-1,-1,-1,-1,-1,-1,-1],"loss_changes":[1.4778525E2,5.069272E1,5.947628E1,2.9149902E1,6.2676544E0,2.1577456E1,2.3606148E1,0E0,0E0,0E0,0E0,0E0,0E0,0E0,0E0],"parents":[2147483647,0,0,1,1,2,2,3,3,4,4,5,5,6,6],"right_children":[2,4,6,8,10,12,14,-1,-1,-1,-1,-1,-1,-1,-1],"split_conditions":[1.5E1,5.3E0,-2.4E0,2.3E1,1.08E1,-4.9E0,2.4E1,2.6602133E-3,5.1968885E-3,-3.1886424E-4,3.9548217E-3,-3.8039684E-4,2.8582495E-3,-3.615944E-4,-2.3898152E-3],"split_indices":[51,77,77,80,25,25,51,0,0,0,0,0,0,0,0],"split_type":[0,0,0,0,0,0,0,0,0,0,0,0,0,0,0],"sum_hessian":[6.374975E3,3.1260334E3,3.2489417E3,2.554445E3,5.715884E2,9.1601843E2,2.3329233E3,1.9639304E3,5.9051465E2,5.35929E2,3.5659344E1,3.1115662E2,6.0486176E2,1.3154606E3,1.01746265E3],"tree_param":{"num_deleted":"0","num_feature":"106","num_nodes":"15","size_leaf_vector":"1"}},{"base_weights":[-1.0839765E-1,-2.6215923E-1,3.951878E-2,-3.21859E-1,4.528152E-3,-8.514631E-2,1.8468937E-1,-2.634938E-3,-5.154574E-3,3.156733E-4,-3.919359E-3,9.898682E-4,-1.8370649E-3,3.6192706E-3,1.2876551E-3],"categories":[],"categories_nodes":[],"categories_segments":[],"categories_sizes":[],"default_left":[0,0,0,0,0,0,0,0,0,0,0,0,0,0,0],"id":72,"left_children":[1,3,5,7,9,11,13,-1,-1,-1,-1,-1,-1,-1,-1],"loss_changes":[1.4495984E2,4.9754395E1,5.881829E1,2.871582E1,6.1504016E0,3.1754433E1,1.4835453E1,0E0,0E0,0E0,0E0,0E0,0E0,0E0,0E0],"parents":[2147483647,0,0,1,1,2,2,3,3,4,4,5,5,6,6],"right_children":[2,4,6,8,10,12,14,-1,-1,-1,-1,-1,-1,-1,-1],"split_conditions":[1.5E1,5.3E0,5.23E-1,2.3E1,1.08E1,-4.7E0,-6.1E0,-2.634938E-3,-5.154574E-3,3.156733E-4,-3.919359E-3,9.898682E-4,-1.8370649E-3,3.6192706E-3,1.2876551E-3],"split_indices":[51,77,55,80,25,25,25,0,0,0,0,0,0,0,0],"split_type":[0,0,0,0,0,0,0,0,0,0,0,0,0,0,0],"sum_hessian":[6.3721255E3,3.1239526E3,3.2481726E3,2.5523787E3,5.7157404E2,1.7477273E3,1.5004454E3,1.9629562E3,5.8942236E2,5.359427E2,3.5631367E1,6.0933844E2,1.1383888E3,3.5856982E2,1.1418756E3],"tree_param":{"num_deleted":"0","num_feature":"106","num_nodes":"15","size_leaf_vector":"1"}},{"base_weights":[1.0839763E-1,2.621592E-1,-3.95188E-2,3.2185897E-1,-4.5281607E-3,8.5146286E-2,-1.8468937E-1,2.6349376E-3,5.154574E-3,-3.156734E-4,3.919358E-3,-9.898684E-4,1.8370647E-3,-3.619271E-3,-1.2876549E-3],"categories":[],"categories_nodes":[],"categories_segments":[],"categories_sizes":[],"default_left":[0,0,0,0,0,0,0,0,0,0,0,0,0,0,0],"id":73,"left_children":[1,3,5,7,9,11,13,-1,-1,-1,-1,-1,-1,-1,-1],"loss_changes":[1.4495984E2,4.9754395E1,5.8818287E1,2.871585E1,6.1504E0,3.1754429E1,1.48354645E1,0E0,0E0,0E0,0E0,0E0,0E0,0E0,0E0],"parents":[2147483647,0,0,1,1,2,2,3,3,4,4,5,5,6,6],"right_children":[2,4,6,8,10,12,14,-1,-1,-1,-1,-1,-1,-1,-1],"split_conditions":[1.5E1,5.3E0,5.23E-1,2.3E1,1.08E1,-4.7E0,-6.1E0,2.6349376E-3,5.154574E-3,-3.156734E-4,3.919358E-3,-9.898684E-4,1.8370647E-3,-3.619271E-3,-1.2876549E-3],"split_indices":[51,77,55,80,25,25,25,0,0,0,0,0,0,0,0],"split_type":[0,0,0,0,0,0,0,0,0,0,0,0,0,0,0],"sum_hessian":[6.3721255E3,3.1239526E3,3.2481726E3,2.5523784E3,5.7157404E2,1.7477272E3,1.5004454E3,1.9629562E3,5.894223E2,5.359427E2,3.5631367E1,6.0933844E2,1.1383888E3,3.5856982E2,1.1418756E3],"tree_param":{"num_deleted":"0","num_feature":"106","num_nodes":"15","size_leaf_vector":"1"}},{"base_weights":[-1.07364014E-1,-2.0519467E-1,1.2155858E-1,-8.8589564E-2,-3.393642E-1,-4.7098463E-3,2.6213214E-1,-2.0323447E-3,1.7702367E-4,-4.721897E-3,-2.6890975E-3,7.0816505E-4,-1.8767993E-3,3.040524E-3,9.179934E-5],"categories":[],"categories_nodes":[],"categories_segments":[],"categories_sizes":[],"default_left":[0,0,0,0,0,0,0,0,0,0,0,0,0,0,0],"id":74,"left_children":[1,3,5,7,9,11,13,-1,-1,-1,-1,-1,-1,-1,-1],"loss_changes":[1.4269058E2,6.9798355E1,3.3866318E1,2.9119629E1,1.929129E1,1.3916216E1,9.570595E0,0E0,0E0,0E0,0E0,0E0,0E0,0E0,0E0],"parents":[2147483647,0,0,1,1,2,2,3,3,4,4,5,5,6,6],"right_children":[2,4,6,8,10,12,14,-1,-1,-1,-1,-1,-1,-1,-1],"split_conditions":[2E1,1.4E1,4E-1,1E1,8E0,2.6E1,-1.6E0,-2.0323447E-3,1.7702367E-4,-4.721897E-3,-2.6890975E-3,7.0816505E-4,-1.8767993E-3,3.040524E-3,9.179934E-5],"split_indices":[28,80,77,51,51,103,25,0,0,0,0,0,0,0,0],"split_type":[0,0,0,0,0,0,0,0,0,0,0,0,0,0,0],"sum_hessian":[6.36924E3,4.462348E3,1.9068921E3,2.3883357E3,2.0740127E3,1.0050685E3,9.0182367E2,1.148581E3,1.2397546E3,7.1685223E2,1.3571604E3,7.118459E2,2.9322263E2,7.734434E2,1.2838023E2],"tree_param":{"num_deleted":"0","num_feature":"106","num_nodes":"15","size_leaf_vector":"1"}},{"base_weights":[1.0736402E-1,2.0519468E-1,-1.2155859E-1,8.8589564E-2,3.3936426E-1,4.7098473E-3,-2.6213217E-1,2.0323447E-3,-1.7702363E-4,4.721897E-3,2.689098E-3,-7.0816505E-4,1.8767993E-3,-3.0405244E-3,-9.179961E-5],"categories":[],"categories_nodes":[],"categories_segments":[],"categories_sizes":[],"default_left":[0,0,0,0,0,0,0,0,0,0,0,0,0,0,0],"id":75,"left_children":[1,3,5,7,9,11,13,-1,-1,-1,-1,-1,-1,-1,-1],"loss_changes":[1.4269061E2,6.9798386E1,3.3866325E1,2.911963E1,1.929129E1,1.3916217E1,9.570591E0,0E0,0E0,0E0,0E0,0E0,0E0,0E0,0E0],"parents":[2147483647,0,0,1,1,2,2,3,3,4,4,5,5,6,6],"right_children":[2,4,6,8,10,12,14,-1,-1,-1,-1,-1,-1,-1,-1],"split_conditions":[2E1,1.4E1,4E-1,1E1,8E0,2.6E1,-1.6E0,2.0323447E-3,-1.7702363E-4,4.721897E-3,2.689098E-3,-7.0816505E-4,1.8767993E-3,-3.0405244E-3,-9.179961E-5],"split_indices":[28,80,77,51,51,103,25,0,0,0,0,0,0,0,0],"split_type":[0,0,0,0,0,0,0,0,0,0,0,0,0,0,0],"sum_hessian":[6.36924E3,4.462348E3,1.9068921E3,2.3883357E3,2.0740127E3,1.0050685E3,9.018236E2,1.148581E3,1.2397546E3,7.1685223E2,1.3571604E3,7.118459E2,2.9322263E2,7.734434E2,1.2838025E2],"tree_param":{"num_deleted":"0","num_feature":"106","num_nodes":"15","size_leaf_vector":"1"}},{"base_weights":[-1.0634194E-1,7.8778185E-2,-2.2513893E-1,-4.1603904E-2,2.1611343E-1,-3.1377396E-1,-4.196485E-2,1.0956276E-3,-1.5426736E-3,3.5501053E-3,1.5304404E-3,-4.3095625E-3,-2.333904E-3,6.201563E-4,-1.3953838E-3],"categories":[],"categories_nodes":[],"categories_segments":[],"categories_sizes":[],"default_left":[0,0,0,0,0,0,0,0,0,0,0,0,0,0,0],"id":76,"left_children":[1,3,5,7,9,11,13,-1,-1,-1,-1,-1,-1,-1,-1],"loss_changes":[1.4004456E2,4.116901E1,6.2959045E1,2.262602E1,1.0134445E1,2.4519165E1,1.2852675E1,0E0,0E0,0E0,0E0,0E0,0E0,0E0,0E0],"parents":[2147483647,0,0,1,1,2,2,3,3,4,4,5,5,6,6],"right_children":[2,4,6,8,10,12,14,-1,-1,-1,-1,-1,-1,-1,-1],"split_conditions":[4.69E-1,5.19E-1,2.9E0,-4.9E0,-6.1E0,8E0,3.1E0,1.0956276E-3,-1.5426736E-3,3.5501053E-3,1.5304404E-3,-4.3095625E-3,-2.333904E-3,6.201563E-4,-1.3953838E-3],"split_indices":[3,55,77,25,25,51,25,0,0,0,0,0,0,0,0],"split_type":[0,0,0,0,0,0,0,0,0,0,0,0,0,0,0],"sum_hessian":[6.366254E3,2.488612E3,3.8776418E3,1.3265305E3,1.1620817E3,2.61269E3,1.2649519E3,5.6648047E2,7.6005E2,3.6144528E2,8.006364E2,1.0612495E3,1.5514404E3,6.125474E2,6.5240454E2],"tree_param":{"num_deleted":"0","num_feature":"106","num_nodes":"15","size_leaf_vector":"1"}},{"base_weights":[1.0634194E-1,-7.8778185E-2,2.2513893E-1,4.1603915E-2,-2.1611345E-1,3.1377393E-1,4.1964833E-2,-1.0956277E-3,1.5426738E-3,-3.5501053E-3,-1.5304405E-3,4.3095625E-3,2.3339042E-3,-6.201565E-4,1.3953837E-3],"categories":[],"categories_nodes":[],"categories_segments":[],"categories_sizes":[],"default_left":[0,0,0,0,0,0,0,0,0,0,0,0,0,0,0],"id":77,"left_children":[1,3,5,7,9,11,13,-1,-1,-1,-1,-1,-1,-1,-1],"loss_changes":[1.4004456E2,4.1169018E1,6.295906E1,2.2626024E1,1.0134438E1,2.4519135E1,1.2852678E1,0E0,0E0,0E0,0E0,0E0,0E0,0E0,0E0],"parents":[2147483647,0,0,1,1,2,2,3,3,4,4,5,5,6,6],"right_children":[2,4,6,8,10,12,14,-1,-1,-1,-1,-1,-1,-1,-1],