{"learner":{"attributes":{},"feature_names":[],"feature_types":[],"gradient_booster":{"model":{"gbtree_model_param":{"num_parallel_tree":"1","num_trees":"1500"},"iteration_indptr":[0,2,4,6,8,10,12,14,16,18,20,22,24,26,28,30,32,34,36,38,40,42,44,46,48,50,52,54,56,58,60,62,64,66,68,70,72,74,76,78,80,82,84,86,88,90,92,94,96,98,100,102,104,106,108,110,112,114,116,118,120,122,124,126,128,130,132,134,136,138,140,142,144,146,148,150,152,154,156,158,160,162,164,166,168,170,172,174,176,178,180,182,184,186,188,190,192,194,196,198,200,202,204,206,208,210,212,214,216,218,220,222,224,226,228,230,232,234,236,238,240,242,244,246,248,250,252,254,256,258,260,262,264,266,268,270,272,274,276,278,280,282,284,286,288,290,292,294,296,298,300,302,304,306,308,310,312,314,316,318,320,322,324,326,328,330,332,334,336,338,340,342,344,346,348,350,352,354,356,358,360,362,364,366,368,370,372,374,376,378,380,382,384,386,388,390,392,394,396,398,400,402,404,406,408,410,412,414,416,418,420,422,424,426,428,430,432,434,436,438,440,442,444,446,448,450,452,454,456,458,460,462,464,466,468,470,472,474,476,478,480,482,484,486,488,490,492,494,496,498,500,502,504,506,508,510,512,514,516,518,520,522,524,526,528,530,532,534,536,538,540,542,544,546,548,550,552,554,556,558,560,562,564,566,568,570,572,574,576,578,580,582,584,586,588,590,592,594,596,598,600,602,604,606,608,610,612,614,616,618,620,622,624,626,628,630,632,634,636,638,640,642,644,646,648,650,652,654,656,658,660,662,664,666,668,670,672,674,676,678,680,682,684,686,688,690,692,694,696,698,700,702,704,706,708,710,712,714,716,718,720,722,724,726,728,730,732,734,736,738,740,742,744,746,748,750,752,754,756,758,760,762,764,766,768,770,772,774,776,778,780,782,784,786,788,790,792,794,796,798,800,802,804,806,808,810,812,814,816,818,820,822,824,826,828,830,832,834,836,838,840,842,844,846,848,850,852,854,856,858,860,862,864,866,868,870,872,874,876,878,880,882,884,886,888,890,892,894,896,898,900,902,904,906,908,910,912,914,916,918,920,922,924,926,928,930,932,934,936,938,940,942,944,946,948,950,952,954,956,958,960,962,964,966,968,970,972,974,976,978,980,982,984,986,988,990,992,994,996,998,1000,1002,1004,1006,1008,1010,1012,1014,1016,1018,1020,1022,1024,1026,1028,1030,1032,1034,1036,1038,1040,1042,1044,1046,1048,1050,1052,1054,1056,1058,1060,1062,1064,1066,1068,1070,1072,1074,1076,1078,1080,1082,1084,1086,1088,1090,1092,1094,1096,1098,1100,1102,1104,1106,1108,1110,1112,1114,1116,1118,1120,1122,1124,1126,1128,1130,1132,1134,1136,1138,1140,1142,1144,1146,1148,1150,1152,1154,1156,1158,1160,1162,1164,1166,1168,1170,1172,1174,1176,1178,1180,1182,1184,1186,1188,1190,1192,1194,1196,1198,1200,1202,1204,1206,1208,1210,1212,1214,1216,1218,1220,1222,1224,1226,1228,1230,1232,1234,1236,1238,1240,1242,1244,1246,1248,1250,1252,1254,1256,1258,1260,1262,1264,1266,1268,1270,1272,1274,1276,1278,1280,1282,1284,1286,1288,1290,1292,1294,1296,1298,1300,1302,1304,1306,1308,1310,1312,1314,1316,1318,1320,1322,1324,1326,1328,1330,1332,1334,1336,1338,1340,1342,1344,1346,1348,1350,1352,1354,1356,1358,1360,1362,1364,1366,1368,1370,1372,1374,1376,1378,1380,1382,1384,1386,1388,1390,1392,1394,1396,1398,1400,1402,1404,1406,1408,1410,1412,1414,1416,1418,1420,1422,1424,1426,1428,1430,1432,1434,1436,1438,1440,1442,1444,1446,1448,1450,1452,1454,1456,1458,1460,1462,1464,1466,1468,1470,1472,1474,1476,1478,1480,1482,1484,1486,1488,1490,1492,1494,1496,1498,1500],"tree_info":[0,1,0,1,0,1,0,1,0,1,0,1,0,1,0,1,0,1,0,1,0,1,0,1,0,1,0,1,0,1,0,1,0,1,0,1,0,1,0,1,0,1,0,1,0,1,0,1,0,1,0,1,0,1,0,1,0,1,0,1,0,1,0,1,0,1,0,1,0,1,0,1,0,1,0,1,0,1,0,1,0,1,0,1,0,1,0,1,0,1,0,1,0,1,0,1,0,1,0,1,0,1,0,1,0,1,0,1,0,1,0,1,0,1,0,1,0,1,0,1,0,1,0,1,0,1,0,1,0,1,0,1,0,1,0,1,0,1,0,1,0,1,0,1,0,1,0,1,0,1,0,1,0,1,0,1,0,1,0,1,0,1,0,1,0,1,0,1,0,1,0,1,0,1,0,1,0,1,0,1,0,1,0,1,0,1,0,1,0,1,0,1,0,1,0,1,0,1,0,1,0,1,0,1,0,1,0,1,0,1,0,1,0,1,0,1,0,1,0,1,0,1,0,1,0,1,0,1,0,1,0,1,0,1,0,1,0,1,0,1,0,1,0,1,0,1,0,1,0,1,0,1,0,1,0,1,0,1,0,1,0,1,0,1,0,1,0,1,0,1,0,1,0,1,0,1,0,1,0,1,0,1,0,1,0,1,0,1,0,1,0,1,0,1,0,1,0,1,0,1,0,1,0,1,0,1,0,1,0,1,0,1,0,1,0,1,0,1,0,1,0,1,0,1,0,1,0,1,0,1,0,1,0,1,0,1,0,1,0,1,0,1,0,1,0,1,0,1,0,1,0,1,0,1,0,1,0,1,0,1,0,1,0,1,0,1,0,1,0,1,0,1,0,1,0,1,0,1,0,1,0,1,0,1,0,1,0,1,0,1,0,1,0,1,0,1,0,1,0,1,0,1,0,1,0,1,0,1,0,1,0,1,0,1,0,1,0,1,0,1,0,1,0,1,0,1,0,1,0,1,0,1,0,1,0,1,0,1,0,1,0,1,0,1,0,1,0,1,0,1,0,1,0,1,0,1,0,1,0,1,0,1,0,1,0,1,0,1,0,1,0,1,0,1,0,1,0,1,0,1,0,1,0,1,0,1,0,1,0,1,0,1,0,1,0,1,0,1,0,1,0,1,0,1,0,1,0,1,0,1,0,1,0,1,0,1,0,1,0,1,0,1,0,1,0,1,0,1,0,1,0,1,0,1,0,1,0,1,0,1,0,1,0,1,0,1,0,1,0,1,0,1,0,1,0,1,0,1,0,1,0,1,0,1,0,1,0,1,0,1,0,1,0,1,0,1,0,1,0,1,0,1,0,1,0,1,0,1,0,1,0,1,0,1,0,1,0,1,0,1,0,1,0,1,0,1,0,1,0,1,0,1,0,1,0,1,0,1,0,1,0,1,0,1,0,1,0,1,0,1,0,1,0,1,0,1,0,1,0,1,0,1,0,1,0,1,0,1,0,1,0,1,0,1,0,1,0,1,0,1,0,1,0,1,0,1,0,1,0,1,0,1,0,1,0,1,0,1,0,1,0,1,0,1,0,1,0,1,0,1,0,1,0,1,0,1,0,1,0,1,0,1,0,1,0,1,0,1,0,1,0,1,0,1,0,1,0,1,0,1,0,1,0,1,0,1,0,1,0,1,0,1,0,1,0,1,0,1,0,1,0,1,0,1,0,1,0,1,0,1,0,1,0,1,0,1,0,1,0,1,0,1,0,1,0,1,0,1,0,1,0,1,0,1,0,1,0,1,0,1,0,1,0,1,0,1,0,1,0,1,0,1,0,1,0,1,0,1,0,1,0,1,0,1,0,1,0,1,0,1,0,1,0,1,0,1,0,1,0,1,0,1,0,1,0,1,0,1,0,1,0,1,0,1,0,1,0,1,0,1,0,1,0,1,0,1,0,1,0,1,0,1,0,1,0,1,0,1,0,1,0,1,0,1,0,1,0,1,0,1,0,1,0,1,0,1,0,1,0,1,0,1,0,1,0,1,0,1,0,1,0,1,0,1,0,1,0,1,0,1,0,1,0,1,0,1,0,1,0,1,0,1,0,1,0,1,0,1,0,1,0,1,0,1,0,1,0,1,0,1,0,1,0,1,0,1,0,1,0,1,0,1,0,1,0,1,0,1,0,1,0,1,0,1,0,1,0,1,0,1,0,1,0,1,0,1,0,1,0,1,0,1,0,1,0,1,0,1,0,1,0,1,0,1,0,1,0,1,0,1,0,1,0,1,0,1,0,1,0,1,0,1,0,1,0,1,0,1,0,1,0,1,0,1,0,1,0,1,0,1,0,1,0,1,0,1,0,1,0,1,0,1,0,1,0,1,0,1,0,1,0,1,0,1,0,1,0,1,0,1,0,1,0,1,0,1,0,1,0,1,0,1,0,1,0,1,0,1,0,1,0,1,0,1,0,1,0,1,0,1,0,1,0,1,0,1,0,1,0,1,0,1,0,1,0,1,0,1,0,1,0,1,0,1,0,1,0,1,0,1,0,1,0,1,0,1,0,1,0,1,0,1,0,1,0,1,0,1,0,1,0,1,0,1,0,1,0,1,0,1,0,1,0,1,0,1,0,1,0,1,0,1,0,1,0,1,0,1,0,1,0,1,0,1,0,1,0,1,0,1,0,1,0,1,0,1,0,1,0,1,0,1,0,1,0,1,0,1,0,1,0,1,0,1,0,1,0,1,0,1,0,1,0,1,0,1,0,1,0,1,0,1,0,1,0,1,0,1,0,1,0,1,0,1,0,1,0,1,0,1,0,1,0,1,0,1,0,1,0,1,0,1,0,1,0,1,0,1,0,1,0,1,0,1,0,1,0,1,0,1,0,1,0,1,0,1,0,1,0,1,0,1,0,1,0,1,0,1,0,1,0,1,0,1,0,1,0,1,0,1,0,1,0,1,0,1,0,1,0,1,0,1,0,1,0,1,0,1,0,1,0,1,0,1,0,1,0,1,0,1,0,1,0,1,0,1,0,1,0,1,0,1,0,1,0,1,0,1,0,1,0,1,0,1,0,1,0,1,0,1,0,1,0,1,0,1,0,1,0,1,0,1,0,1,0,1,0,1,0,1,0,1,0,1,0,1,0,1,0,1,0,1,0,1,0,1,0,1,0,1,0,1,0,1,0,1,0,1,0,1,0,1,0,1,0,1,0,1,0,1,0,1,0,1,0,1,0,1,0,1,0,1,0,1,0,1,0,1,0,1,0,1,0,1,0,1,0,1,0,1,0,1,0,1,0,1,0,1,0,1,0,1,0,1,0,1,0,1,0,1,0,1,0,1,0,1,0,1,0,1,0,1,0,1,0,1,0,1,0,1,0,1,0,1,0,1,0,1,0,1,0,1,0,1,0,1,0,1,0,1],"trees":[{"base_weights":[-1.4882384E-1,-2.799912E-1,1.6513036E-1,-1.2195122E-1,-4.5976472E-1,-1.00548446E-1,2.724584E-1,-2.7722344E-3,1.9329388E-4,-3.5798457E-3,-5.9910663E-3,6.9518713E-4,-2.7850466E-3,3.317691E-3,5.208333E-4],"categories":[],"categories_nodes":[],"categories_segments":[],"categories_sizes":[],"default_left":[0,0,0,0,0,0,0,0,0,0,0,0,0,0,0],"id":0,"left_children":[1,3,5,7,9,11,13,-1,-1,-1,-1,-1,-1,-1,-1],"loss_changes":[2.6526953E2,1.2901694E2,5.416272E1,5.3070847E1,2.992279E1,1.6574049E1,1.7660713E1,0E0,0E0,0E0,0E0,0E0,0E0,0E0,0E0],"parents":[2147483647,0,0,1,1,2,2,3,3,4,4,5,5,6,6],"right_children":[2,4,6,8,10,12,14,-1,-1,-1,-1,-1,-1,-1,-1],"split_conditions":[2E1,1.4E1,-2.4E0,1E1,2.3E1,-4.8E0,-2.4E0,-2.7722344E-3,1.9329388E-4,-3.5798457E-3,-5.9910663E-3,6.9518713E-4,-2.7850466E-3,3.317691E-3,5.208333E-4],"split_indices":[28,80,77,51,80,25,25,0,0,0,0,0,0,0,0],"split_type":[0,0,0,0,0,0,0,0,0,0,0,0,0,0,0],"sum_hessian":[6.4395E3,4.542E3,1.8975E3,2.418E3,2.124E3,5.46E2,1.3515E3,1.1515E3,1.2665E3,1.2295E3,8.945E2,2.795E2,2.665E2,1.0645E3,2.87E2],"tree_param":{"num_deleted":"0","num_feature":"106","num_nodes":"15","size_leaf_vector":"1"}},{"base_weights":[1.4882384E-1,2.799912E-1,-1.6513036E-1,1.2195122E-1,4.5976472E-1,1.00548446E-1,-2.724584E-1,2.7722344E-3,-1.9329388E-4,3.5798457E-3,5.9910663E-3,-6.9518713E-4,2.7850466E-3,-3.317691E-3,-5.208333E-4],"categories":[],"categories_nodes":[],"categories_segments":[],"categories_sizes":[],"default_left":[0,0,0,0,0,0,0,0,0,0,0,0,0,0,0],"id":1,"left_children":[1,3,5,7,9,11,13,-1,-1,-1,-1,-1,-1,-1,-1],"loss_changes":[2.6526953E2,1.2901694E2,5.416272E1,5.3070847E1,2.992279E1,1.6574049E1,1.7660713E1,0E0,0E0,0E0,0E0,0E0,0E0,0E0,0E0],"parents":[2147483647,0,0,1,1,2,2,3,3,4,4,5,5,6,6],"right_children":[2,4,6,8,10,12,14,-1,-1,-1,-1,-1,-1,-1,-1],"split_conditions":[2E1,1.4E1,-2.4E0,1E1,2.3E1,-4.8E0,-2.4E0,2.7722344E-3,-1.9329388E-4,3.5798457E-3,5.9910663E-3,-6.9518713E-4,2.7850466E-3,-3.317691E-3,-5.208333E-4],"split_indices":[28,80,77,51,80,25,25,0,0,0,0,0,0,0,0],"split_type":[0,0,0,0,0,0,0,0,0,0,0,0,0,0,0],"sum_hessian":[6.4395E3,4.542E3,1.8975E3,2.418E3,2.124E3,5.46E2,1.3515E3,1.1515E3,1.2665E3,1.2295E3,8.945E2,2.795E2,2.665E2,1.0645E3,2.87E2],"tree_param":{"num_deleted":"0","num_feature":"106","num_nodes":"15","size_leaf_vector":"1"}},{"base_weights":[-1.4733887E-1,-2.7719742E-1,1.6348118E-1,-1.207332E-1,-4.5518184E-1,-9.954723E-2,2.69739E-1,-2.744557E-3,1.9136304E-4,-3.5441215E-3,-5.9314356E-3,6.8825996E-4,-2.757322E-3,3.2845812E-3,5.1564333E-4],"categories":[],"categories_nodes":[],"categories_segments":[],"categories_sizes":[],"default_left":[0,0,0,0,0,0,0,0,0,0,0,0,0,0,0],"id":2,"left_children":[1,3,5,7,9,11,13,-1,-1,-1,-1,-1,-1,-1,-1],"loss_changes":[2.5999808E2,1.26457825E2,5.3087303E1,5.2016212E1,2.9331604E1,1.6245577E1,1.7309822E1,0E0,0E0,0E0,0E0,0E0,0E0,0E0,0E0],"parents":[2147483647,0,0,1,1,2,2,3,3,4,4,5,5,6,6],"right_children":[2,4,6,8,10,12,14,-1,-1,-1,-1,-1,-1,-1,-1],"split_conditions":[2E1,1.4E1,-2.4E0,1E1,2.3E1,-4.8E0,-2.4E0,-2.744557E-3,1.9136304E-4,-3.5441215E-3,-5.9314356E-3,6.8825996E-4,-2.757322E-3,3.2845812E-3,5.1564333E-4],"split_indices":[28,80,77,51,80,25,25,0,0,0,0,0,0,0,0],"split_type":[0,0,0,0,0,0,0,0,0,0,0,0,0,0,0],"sum_hessian":[6.439429E3,4.5419434E3,1.897486E3,2.417991E3,2.1239521E3,5.459978E2,1.3514882E3,1.1514911E3,1.2664999E3,1.2294844E3,8.944679E2,2.7949988E2,2.6649792E2,1.0644883E3,2.869999E2],"tree_param":{"num_deleted":"0","num_feature":"106","num_nodes":"15","size_leaf_vector":"1"}},{"base_weights":[1.4733887E-1,2.7719745E-1,-1.6348124E-1,1.2073326E-1,4.5518184E-1,9.954716E-2,-2.697391E-1,2.744557E-3,-1.9136185E-4,3.5441213E-3,5.9314356E-3,-6.8826025E-4,2.7573213E-3,-3.2845824E-3,-5.1564333E-4],"categories":[],"categories_nodes":[],"categories_segments":[],"categories_sizes":[],"default_left":[0,0,0,0,0,0,0,0,0,0,0,0,0,0,0],"id":3,"left_children":[1,3,5,7,9,11,13,-1,-1,-1,-1,-1,-1,-1,-1],"loss_changes":[2.5999817E2,1.26457794E2,5.3087303E1,5.2016167E1,2.9331635E1,1.6245571E1,1.7309853E1,0E0,0E0,0E0,0E0,0E0,0E0,0E0,0E0],"parents":[2147483647,0,0,1,1,2,2,3,3,4,4,5,5,6,6],"right_children":[2,4,6,8,10,12,14,-1,-1,-1,-1,-1,-1,-1,-1],"split_conditions":[2E1,1.4E1,-2.4E0,1E1,2.3E1,-4.8E0,-2.4E0,2.744557E-3,-1.9136185E-4,3.5441213E-3,5.9314356E-3,-6.8826025E-4,2.7573213E-3,-3.2845824E-3,-5.1564333E-4],"split_indices":[28,80,77,51,80,25,25,0,0,0,0,0,0,0,0],"split_type":[0,0,0,0,0,0,0,0,0,0,0,0,0,0,0],"sum_hessian":[6.439429E3,4.5419434E3,1.897486E3,2.417991E3,2.1239521E3,5.459978E2,1.3514882E3,1.1514911E3,1.2664999E3,1.2294843E3,8.944679E2,2.7949988E2,2.6649792E2,1.0644882E3,2.869999E2],"tree_param":{"num_deleted":"0","num_feature":"106","num_nodes":"15","size_leaf_vector":"1"}},{"base_weights":[-1.4587186E-1,-3.4782234E-1,5.021936E-2,-1.9417061E-1,-5.063797E-1,-1.985329E-1,1.7962922E-1,-2.7302243E-3,-6.924388E-5,-4.057068E-3,-6.595586E-3,6.522503E-4,-3.3973542E-3,6.334916E-4,3.3115877E-3],"categories":[],"categories_nodes":[],"categories_segments":[],"categories_sizes":[],"default_left":[0,0,0,0,0,0,0,0,0,0,0,0,0,0,0],"id":4,"left_children":[1,3,5,7,9,11,13,-1,-1,-1,-1,-1,-1,-1,-1],"loss_changes":[2.5505481E2,7.7200226E1,1.052482E2,2.3813076E1,2.3802551E1,4.169517E1,3.7869568E1,0E0,0E0,0E0,0E0,0E0,0E0,0E0,0E0],"parents":[2147483647,0,0,1,1,2,2,3,3,4,4,5,5,6,6],"right_children":[2,4,6,8,10,12,14,-1,-1,-1,-1,-1,-1,-1,-1],"split_conditions":[1.5E1,1.3E1,-1.5E0,6E0,2.3E1,-4.8E0,2.4E1,-2.7302243E-3,-6.924388E-5,-4.057068E-3,-6.595586E-3,6.522503E-4,-3.3973542E-3,6.334916E-4,3.3115877E-3],"split_indices":[51,80,77,77,80,25,51,0,0,0,0,0,0,0,0],"split_type":[0,0,0,0,0,0,0,0,0,0,0,0,0,0,0],"sum_hessian":[6.4392197E3,3.1718354E3,3.2673843E3,1.6119667E3,1.5598689E3,1.1179402E3,2.149444E3,1.1339764E3,4.7799033E2,9.434553E2,6.164135E2,3.8999353E2,7.2794666E2,1.2169808E3,9.324632E2],"tree_param":{"num_deleted":"0","num_feature":"106","num_nodes":"15","size_leaf_vector":"1"}},{"base_weights":[1.4587183E-1,3.4782234E-1,-5.021941E-2,1.9417056E-1,5.063797E-1,1.985329E-1,-1.7962931E-1,2.7302238E-3,6.924338E-5,4.057068E-3,6.5955864E-3,-6.522505E-4,3.3973542E-3,-6.334923E-4,-3.3115887E-3],"categories":[],"categories_nodes":[],"categories_segments":[],"categories_sizes":[],"default_left":[0,0,0,0,0,0,0,0,0,0,0,0,0,0,0],"id":5,"left_children":[1,3,5,7,9,11,13,-1,-1,-1,-1,-1,-1,-1,-1],"loss_changes":[2.5505484E2,7.720026E1,1.0524826E2,2.3813087E1,2.380252E1,4.1695175E1,3.7869568E1,0E0,0E0,0E0,0E0,0E0,0E0,0E0,0E0],"parents":[2147483647,0,0,1,1,2,2,3,3,4,4,5,5,6,6],"right_children":[2,4,6,8,10,12,14,-1,-1,-1,-1,-1,-1,-1,-1],"split_conditions":[1.5E1,1.3E1,-1.5E0,6E0,2.3E1,-4.8E0,2.4E1,2.7302238E-3,6.924338E-5,4.057068E-3,6.5955864E-3,-6.522505E-4,3.3973542E-3,-6.334923E-4,-3.3115887E-3],"split_indices":[51,80,77,77,80,25,51,0,0,0,0,0,0,0,0],"split_type":[0,0,0,0,0,0,0,0,0,0,0,0,0,0,0],"sum_hessian":[6.4392197E3,3.1718354E3,3.2673843E3,1.6119667E3,1.5598689E3,1.1179402E3,2.1494438E3,1.1339763E3,4.7799033E2,9.434553E2,6.164136E2,3.8999353E2,7.279467E2,1.2169808E3,9.3246313E2],"tree_param":{"num_deleted":"0","num_feature":"106","num_nodes":"15","size_leaf_vector":"1"}},{"base_weights":[-1.4442211E-1,-2.7193645E-1,1.6077515E-1,-1.1836031E-1,-4.466603E-1,-9.717655E-2,2.649841E-1,-2.696613E-3,1.9298863E-4,-3.4784516E-3,-5.819692E-3,6.7490514E-4,-2.6949632E-3,3.2260343E-3,5.091E-4],"categories":[],"categories_nodes":[],"categories_segments":[],"categories_sizes":[],"default_left":[0,0,0,0,0,0,0,0,0,0,0,0,0,0,0],"id":6,"left_children":[1,3,5,7,9,11,13,-1,-1,-1,-1,-1,-1,-1,-1],"loss_changes":[2.506658E2,1.2183853E2,5.1055946E1,5.038656E1,2.820462E1,1.553887E1,1.6665253E1,0E0,0E0,0E0,0E0,0E0,0E0,0E0,0E0],"parents":[2147483647,0,0,1,1,2,2,3,3,4,4,5,5,6,6],"right_children":[2,4,6,8,10,12,14,-1,-1,-1,-1,-1,-1,-1,-1],"split_conditions":[2E1,1.4E1,-2.4E0,1E1,2.3E1,-4.8E0,-2.4E0,-2.696613E-3,1.9298863E-4,-3.4784516E-3,-5.819692E-3,6.7490514E-4,-2.6949632E-3,3.2260343E-3,5.091E-4],"split_indices":[28,80,77,51,80,25,25,0,0,0,0,0,0,0,0],"split_type":[0,0,0,0,0,0,0,0,0,0,0,0,0,0,0],"sum_hessian":[6.438907E3,4.541524E3,1.8973832E3,2.417928E3,2.1235962E3,5.459768E2,1.3514064E3,1.151432E3,1.266496E3,1.2293682E3,8.942281E2,2.7949884E2,2.66478E2,1.0644076E3,2.8699875E2],"tree_param":{"num_deleted":"0","num_feature":"106","num_nodes":"15","size_leaf_vector":"1"}},{"base_weights":[1.4442216E-1,2.719365E-1,-1.607751E-1,1.18360355E-1,4.4666037E-1,9.717657E-2,-2.64984E-1,2.696614E-3,-1.929887E-4,3.4784526E-3,5.819692E-3,-6.7490607E-4,2.6949644E-3,-3.2260334E-3,-5.090991E-4],"categories":[],"categories_nodes":[],"categories_segments":[],"categories_sizes":[],"default_left":[0,0,0,0,0,0,0,0,0,0,0,0,0,0,0],"id":7,"left_children":[1,3,5,7,9,11,13,-1,-1,-1,-1,-1,-1,-1,-1],"loss_changes":[2.5066574E2,1.2183859E2,5.105593E1,5.0386593E1,2.820459E1,1.5538889E1,1.6665245E1,0E0,0E0,0E0,0E0,0E0,0E0,0E0,0E0],"parents":[2147483647,0,0,1,1,2,2,3,3,4,4,5,5,6,6],"right_children":[2,4,6,8,10,12,14,-1,-1,-1,-1,-1,-1,-1,-1],"split_conditions":[2E1,1.4E1,-2.4E0,1E1,2.3E1,-4.8E0,-2.4E0,2.696614E-3,-1.929887E-4,3.4784526E-3,5.819692E-3,-6.7490607E-4,2.6949644E-3,-3.2260334E-3,-5.090991E-4],"split_indices":[28,80,77,51,80,25,25,0,0,0,0,0,0,0,0],"split_type":[0,0,0,0,0,0,0,0,0,0,0,0,0,0,0],"sum_hessian":[6.438907E3,4.541524E3,1.8973832E3,2.4179277E3,2.1235962E3,5.459768E2,1.3514064E3,1.1514319E3,1.2664958E3,1.2293682E3,8.942281E2,2.794988E2,2.66478E2,1.0644076E3,2.8699875E2],"tree_param":{"num_deleted":"0","num_feature":"106","num_nodes":"15","size_leaf_vector":"1"}},{"base_weights":[-1.4298978E-1,-3.414155E-1,4.9664035E-2,-1.904817E-1,-4.9720234E-1,-1.9445951E-1,1.7665802E-1,-2.6853615E-3,-5.139382E-5,-3.984448E-3,-6.475095E-3,6.3954515E-4,-3.3282219E-3,6.277724E-4,3.2507447E-3],"categories":[],"categories_nodes":[],"categories_segments":[],"categories_sizes":[],"default_left":[0,0,0,0,0,0,0,0,0,0,0,0,0,0,0],"id":8,"left_children":[1,3,5,7,9,11,13,-1,-1,-1,-1,-1,-1,-1,-1],"loss_changes":[2.4618082E2,7.449786E1,1.01353226E2,2.3331875E1,2.2905304E1,4.0023975E1,3.6323692E1,0E0,0E0,0E0,0E0,0E0,0E0,0E0,0E0],"parents":[2147483647,0,0,1,1,2,2,3,3,4,4,5,5,6,6],"right_children":[2,4,6,8,10,12,14,-1,-1,-1,-1,-1,-1,-1,-1],"split_conditions":[1.5E1,1.3E1,-1.5E0,6E0,2.3E1,-4.8E0,2.4E1,-2.6853615E-3,-5.139382E-5,-3.984448E-3,-6.475095E-3,6.3954515E-4,-3.3282219E-3,6.277724E-4,3.2507447E-3],"split_indices":[51,80,77,77,80,25,51,0,0,0,0,0,0,0,0],"split_type":[0,0,0,0,0,0,0,0,0,0,0,0,0,0,0],"sum_hessian":[6.4384487E3,3.1713318E3,3.2671167E3,1.6118838E3,1.5594481E3,1.1178041E3,2.1493125E3,1.1339056E3,4.779782E2,9.433091E2,6.16139E2,3.8998456E2,7.278195E2,1.2169573E3,9.323552E2],"tree_param":{"num_deleted":"0","num_feature":"106","num_nodes":"15","size_leaf_vector":"1"}},{"base_weights":[1.4298978E-1,3.414155E-1,-4.966404E-2,1.9048168E-1,4.9720234E-1,1.9445948E-1,-1.76658E-1,2.6853615E-3,5.1393545E-5,3.984448E-3,6.475095E-3,-6.395451E-4,3.3282214E-3,-6.2777236E-4,-3.2507447E-3],"categories":[],"categories_nodes":[],"categories_segments":[],"categories_sizes":[],"default_left":[0,0,0,0,0,0,0,0,0,0,0,0,0,0,0],"id":9,"left_children":[1,3,5,7,9,11,13,-1,-1,-1,-1,-1,-1,-1,-1],"loss_changes":[2.4618079E2,7.4497894E1,1.0135321E2,2.3331879E1,2.2905243E1,4.0023956E1,3.63237E1,0E0,0E0,0E0,0E0,0E0,0E0,0E0,0E0],"parents":[2147483647,0,0,1,1,2,2,3,3,4,4,5,5,6,6],"right_children":[2,4,6,8,10,12,14,-1,-1,-1,-1,-1,-1,-1,-1],"split_conditions":[1.5E1,1.3E1,-1.5E0,6E0,2.3E1,-4.8E0,2.4E1,2.6853615E-3,5.1393545E-5,3.984448E-3,6.475095E-3,-6.395451E-4,3.3282214E-3,-6.2777236E-4,-3.2507447E-3],"split_indices":[51,80,77,77,80,25,51,0,0,0,0,0,0,0,0],"split_type":[0,0,0,0,0,0,0,0,0,0,0,0,0,0,0],"sum_hessian":[6.438448E3,3.1713318E3,3.2671167E3,1.6118838E3,1.559448E3,1.1178041E3,2.1493125E3,1.1339056E3,4.7797818E2,9.433091E2,6.16139E2,3.8998453E2,7.278196E2,1.2169573E3,9.323552E2],"tree_param":{"num_deleted":"0","num_feature":"106","num_nodes":"15","size_leaf_vector":"1"}},{"base_weights":[-1.4157419E-1,-2.667995E-1,1.5812202E-1,-1.1603798E-1,-4.3836817E-1,-9.486137E-2,2.603276E-1,-2.649661E-3,1.9449848E-4,-3.4143107E-3,-5.711496E-3,6.6181255E-4,-2.6341297E-3,3.8822065E-4,3.1402553E-3],"categories":[],"categories_nodes":[],"categories_segments":[],"categories_sizes":[],"default_left":[0,0,0,0,0,0,0,0,0,0,0,0,0,0,0],"id":10,"left_children":[1,3,5,7,9,11,13,-1,-1,-1,-1,-1,-1,-1,-1],"loss_changes":[2.4169086E2,1.1742468E2,4.9104706E1,4.8811615E1,2.71427E1,1.4863429E1,1.6071976E1,0E0,0E0,0E0,0E0,0E0,0E0,0E0,0E0],"parents":[2147483647,0,0,1,1,2,2,3,3,4,4,5,5,6,6],"right_children":[2,4,6,8,10,12,14,-1,-1,-1,-1,-1,-1,-1,-1],"split_conditions":[2E1,1.4E1,-2.4E0,1E1,2.3E1,-4.8E0,2.2E1,-2.649661E-3,1.9449848E-4,-3.4143107E-3,-5.711496E-3,6.6181255E-4,-2.6341297E-3,3.8822065E-4,3.1402553E-3],"split_indices":[28,80,77,51,80,25,51,0,0,0,0,0,0,0,0],"split_type":[0,0,0,0,0,0,0,0,0,0,0,0,0,0,0],"sum_hessian":[6.4378896E3,4.5407065E3,1.8971829E3,2.417802E3,2.1229045E3,5.459348E2,1.351248E3,1.1513182E3,1.2664838E3,1.2291412E3,8.9376324E2,2.7949686E2,2.6643793E2,2.6399286E2,1.0872551E3],"tree_param":{"num_deleted":"0","num_feature":"106","num_nodes":"15","size_leaf_vector":"1"}},{"base_weights":[1.415742E-1,2.667995E-1,-1.5812197E-1,1.16038024E-1,4.383681E-1,9.4861425E-2,-2.6032758E-1,2.6496619E-3,-1.9449847E-4,3.41431E-3,5.711496E-3,-6.618117E-4,2.6341297E-3,-3.8822007E-4,-3.140255E-3],"categories":[],"categories_nodes":[],"categories_segments":[],"categories_sizes":[],"default_left":[0,0,0,0,0,0,0,0,0,0,0,0,0,0,0],"id":11,"left_children":[1,3,5,7,9,11,13,-1,-1,-1,-1,-1,-1,-1,-1],"loss_changes":[2.4169078E2,1.1742465E2,4.910472E1,4.8811638E1,2.714273E1,1.4863422E1,1.6071983E1,0E0,0E0,0E0,0E0,0E0,0E0,0E0,0E0],"parents":[2147483647,0,0,1,1,2,2,3,3,4,4,5,5,6,6],"right_children":[2,4,6,8,10,12,14,-1,-1,-1,-1,-1,-1,-1,-1],"split_conditions":[2E1,1.4E1,-2.4E0,1E1,2.3E1,-4.8E0,2.2E1,2.6496619E-3,-1.9449847E-4,3.41431E-3,5.711496E-3,-6.618117E-4,2.6341297E-3,-3.8822007E-4,-3.140255E-3],"split_indices":[28,80,77,51,80,25,51,0,0,0,0,0,0,0,0],"split_type":[0,0,0,0,0,0,0,0,0,0,0,0,0,0,0],"sum_hessian":[6.437889E3,4.5407065E3,1.8971829E3,2.417802E3,2.1229045E3,5.459348E2,1.351248E3,1.1513182E3,1.2664838E3,1.2291414E3,8.937632E2,2.794969E2,2.6643796E2,2.639929E2,1.0872551E3],"tree_param":{"num_deleted":"0","num_feature":"106","num_nodes":"15","size_leaf_vector":"1"}},{"base_weights":[-1.4017524E-1,-3.3516082E-1,4.9113184E-2,-1.8686607E-1,-4.8827934E-1,-1.9048622E-1,1.7374189E-1,-2.6413626E-3,-3.4023647E-5,-3.9135376E-3,-6.358679E-3,6.271329E-4,-3.260897E-3,6.223041E-4,3.1909358E-3],"categories":[],"categories_nodes":[],"categories_segments":[],"categories_sizes":[],"default_left":[0,0,0,0,0,0,0,0,0,0,0,0,0,0,0],"id":12,"left_children":[1,3,5,7,9,11,13,-1,-1,-1,-1,-1,-1,-1,-1],"loss_changes":[2.3764072E2,7.1923035E1,9.760966E1,2.2861877E1,2.2063568E1,3.8427002E1,3.4829872E1,0E0,0E0,0E0,0E0,0E0,0E0,0E0,0E0],"parents":[2147483647,0,0,1,1,2,2,3,3,4,4,5,5,6,6],"right_children":[2,4,6,8,10,12,14,-1,-1,-1,-1,-1,-1,-1,-1],"split_conditions":[1.5E1,1.3E1,-1.5E0,6E0,2.3E1,-4.8E0,2.4E1,-2.6413626E-3,-3.4023647E-5,-3.9135376E-3,-6.358679E-3,6.271329E-4,-3.260897E-3,6.223041E-4,3.1909358E-3],"split_indices":[51,80,77,77,80,25,51,0,0,0,0,0,0,0,0],"split_type":[0,0,0,0,0,0,0,0,0,0,0,0,0,0,0],"sum_hessian":[6.4371978E3,3.1705012E3,3.2666965E3,1.6117488E3,1.5587523E3,1.1175917E3,2.1491047E3,1.1337871E3,4.7796167E2,9.4306586E2,6.1568646E2,3.8997183E2,7.276198E2,1.2169265E3,9.321783E2],"tree_param":{"num_deleted":"0","num_feature":"106","num_nodes":"15","size_leaf_vector":"1"}},{"base_weights":[1.4017524E-1,3.3516082E-1,-4.91132E-2,1.8686612E-1,4.8827934E-1,1.9048622E-1,-1.7374192E-1,2.6413633E-3,3.402375E-5,3.913537E-3,6.358679E-3,-6.271328E-4,3.260897E-3,-6.2230485E-4,-3.1909356E-3],"categories":[],"categories_nodes":[],"categories_segments":[],"categories_sizes":[],"default_left":[0,0,0,0,0,0,0,0,0,0,0,0,0,0,0],"id":13,"left_children":[1,3,5,7,9,11,13,-1,-1,-1,-1,-1,-1,-1,-1],"loss_changes":[2.3764078E2,7.192297E1,9.760968E1,2.2861881E1,2.2063568E1,3.8427006E1,3.4829834E1,0E0,0E0,0E0,0E0,0E0,0E0,0E0,0E0],"parents":[2147483647,0,0,1,1,2,2,3,3,4,4,5,5,6,6],"right_children":[2,4,6,8,10,12,14,-1,-1,-1,-1,-1,-1,-1,-1],"split_conditions":[1.5E1,1.3E1,-1.5E0,6E0,2.3E1,-4.8E0,2.4E1,2.6413633E-3,3.402375E-5,3.913537E-3,6.358679E-3,-6.271328E-4,3.260897E-3,-6.2230485E-4,-3.1909356E-3],"split_indices":[51,80,77,77,80,25,51,0,0,0,0,0,0,0,0],"split_type":[0,0,0,0,0,0,0,0,0,0,0,0,0,0,0],"sum_hessian":[6.4371978E3,3.1705012E3,3.2666965E3,1.6117488E3,1.5587523E3,1.1175917E3,2.1491047E3,1.1337871E3,4.7796167E2,9.4306586E2,6.156865E2,3.899718E2,7.276198E2,1.2169265E3,9.321783E2],"tree_param":{"num_deleted":"0","num_feature":"106","num_nodes":"15","size_leaf_vector":"1"}},{"base_weights":[-1.3879259E-1,-2.6178205E-1,1.5552023E-1,-1.1376501E-1,-4.3029463E-1,-9.26E-2,2.557664E-1,-2.6036727E-3,1.9589456E-4,-3.3516407E-3,-5.606649E-3,6.4897496E-4,-2.5747637E-3,3.1140095E-3,4.9132394E-4],"categories":[],"categories_nodes":[],"categories_segments":[],"categories_sizes":[],"default_left":[0,0,0,0,0,0,0,0,0,0,0,0,0,0,0],"id":14,"left_children":[1,3,5,7,9,11,13,-1,-1,-1,-1,-1,-1,-1,-1],"loss_changes":[2.3305786E2,1.1320389E2,4.723015E1,4.728922E1,2.6140656E1,1.4217705E1,1.5527519E1,0E0,0E0,0E0,0E0,0E0,0E0,0E0,0E0],"parents":[2147483647,0,0,1,1,2,2,3,3,4,4,5,5,6,6],"right_children":[2,4,6,8,10,12,14,-1,-1,-1,-1,-1,-1,-1,-1],"split_conditions":[2E1,1.4E1,-2.4E0,1E1,2.3E1,-4.8E0,-2.4E0,-2.6036727E-3,1.9589456E-4,-3.3516407E-3,-5.606649E-3,6.4897496E-4,-2.5747637E-3,3.1140095E-3,4.9132394E-4],"split_indices":[28,80,77,51,80,25,25,0,0,0,0,0,0,0,0],"split_type":[0,0,0,0,0,0,0,0,0,0,0,0,0,0,0],"sum_hessian":[6.436406E3,4.5395137E3,1.8968923E3,2.4176172E3,2.1218962E3,5.458731E2,1.3510193E3,1.151153E3,1.2664642E3,1.22881E3,8.930862E2,2.79494E2,2.663791E2,1.0640304E3,2.869888E2],"tree_param":{"num_deleted":"0","num_feature":"106","num_nodes":"15","size_leaf_vector":"1"}},{"base_weights":[1.3879259E-1,2.6178202E-1,-1.555202E-1,1.13764994E-1,4.3029463E-1,9.259998E-2,-2.5576633E-1,2.6036727E-3,-1.9589474E-4,3.3516407E-3,5.606648E-3,-6.489762E-4,2.5747647E-3,-3.1140088E-3,-4.913238E-4],"categories":[],"categories_nodes":[],"categories_segments":[],"categories_sizes":[],"default_left":[0,0,0,0,0,0,0,0,0,0,0,0,0,0,0],"id":15,"left_children":[1,3,5,7,9,11,13,-1,-1,-1,-1,-1,-1,-1,-1],"loss_changes":[2.3305783E2,1.1320389E2,4.7230133E1,4.7289238E1,2.6140625E1,1.4217719E1,1.5527496E1,0E0,0E0,0E0,0E0,0E0,0E0,0E0,0E0],"parents":[2147483647,0,0,1,1,2,2,3,3,4,4,5,5,6,6],"right_children":[2,4,6,8,10,12,14,-1,-1,-1,-1,-1,-1,-1,-1],"split_conditions":[2E1,1.4E1,-2.4E0,1E1,2.3E1,-4.8E0,-2.4E0,2.6036727E-3,-1.9589474E-4,3.3516407E-3,5.606648E-3,-6.489762E-4,2.5747647E-3,-3.1140088E-3,-4.913238E-4],"split_indices":[28,80,77,51,80,25,25,0,0,0,0,0,0,0,0],"split_type":[0,0,0,0,0,0,0,0,0,0,0,0,0,0,0],"sum_hessian":[6.436406E3,4.5395137E3,1.8968923E3,2.4176172E3,2.1218962E3,5.4587305E2,1.3510193E3,1.151153E3,1.2664642E3,1.22881E3,8.9308624E2,2.79494E2,2.663791E2,1.0640305E3,2.8698877E2],"tree_param":{"num_deleted":"0","num_feature":"106","num_nodes":"15","size_leaf_vector":"1"}},{"base_weights":[-1.3742593E-1,-3.2905492E-1,4.856936E-2,-1.8332517E-1,-4.7960016E-1,-1.8660077E-1,1.7087898E-1,-2.59824E-3,-1.7147404E-5,-3.8442984E-3,-6.2460983E-3,6.1491184E-4,-3.1951228E-3,6.166231E-4,3.1327084E-3],"categories":[],"categories_nodes":[],"categories_segments":[],"categories_sizes":[],"default_left":[0,0,0,0,0,0,0,0,0,0,0,0,0,0,0],"id":16,"left_children":[1,3,5,7,9,11,13,-1,-1,-1,-1,-1,-1,-1,-1],"loss_changes":[2.2942596E2,6.94664E1,9.400619E1,2.2402897E1,2.1272217E1,3.689501E1,3.3413776E1,0E0,0E0,0E0,0E0,0E0,0E0,0E0,0E0],"parents":[2147483647,0,0,1,1,2,2,3,3,4,4,5,5,6,6],"right_children":[2,4,6,8,10,12,14,-1,-1,-1,-1,-1,-1,-1,-1],"split_conditions":[1.5E1,1.3E1,-1.5E0,6E0,2.3E1,-4.8E0,2.4E1,-2.59824E-3,-1.7147404E-5,-3.8442984E-3,-6.2460983E-3,6.1491184E-4,-3.1951228E-3,6.166231E-4,3.1327084E-3],"split_indices":[51,80,77,77,80,25,51,0,0,0,0,0,0,0,0],"split_type":[0,0,0,0,0,0,0,0,0,0,0,0,0,0,0],"sum_hessian":[6.435491E3,3.1693618E3,3.2661292E3,1.6115645E3,1.5577974E3,1.1173073E3,2.1488218E3,1.1336234E3,4.7794107E2,9.42731E2,6.150664E2,3.899555E2,7.2735175E2,1.2168856E3,9.319363E2],"tree_param":{"num_deleted":"0","num_feature":"106","num_nodes":"15","size_leaf_vector":"1"}},{"base_weights":[1.3742594E-1,3.290549E-1,-4.8569325E-2,1.8332516E-1,4.7960013E-1,1.8660077E-1,-1.7087892E-1,2.5982398E-3,1.7147588E-5,3.8442984E-3,6.246097E-3,-6.1491196E-4,3.1951228E-3,-6.166223E-4,-3.132708E-3],"categories":[],"categories_nodes":[],"categories_segments":[],"categories_sizes":[],"default_left":[0,0,0,0,0,0,0,0,0,0,0,0,0,0,0],"id":17,"left_children":[1,3,5,7,9,11,13,-1,-1,-1,-1,-1,-1,-1,-1],"loss_changes":[2.294259E2,6.946637E1,9.400615E1,2.2402885E1,2.1272278E1,3.6895027E1,3.341379E1,0E0,0E0,0E0,0E0,0E0,0E0,0E0,0E0],"parents":[2147483647,0,0,1,1,2,2,3,3,4,4,5,5,6,6],"right_children":[2,4,6,8,10,12,14,-1,-1,-1,-1,-1,-1,-1,-1],"split_conditions":[1.5E1,1.3E1,-1.5E0,6E0,2.3E1,-4.8E0,2.4E1,2.5982398E-3,1.7147588E-5,3.8442984E-3,6.246097E-3,-6.1491196E-4,3.1951228E-3,-6.166223E-4,-3.132708E-3],"split_indices":[51,80,77,77,80,25,51,0,0,0,0,0,0,0,0],"split_type":[0,0,0,0,0,0,0,0,0,0,0,0,0,0,0],"sum_hessian":[6.435491E3,3.1693618E3,3.2661292E3,1.6115645E3,1.5577975E3,1.1173073E3,2.1488218E3,1.1336234E3,4.7794107E2,9.42731E2,6.150664E2,3.899555E2,7.273517E2,1.2168856E3,9.319362E2],"tree_param":{"num_deleted":"0","num_feature":"106","num_nodes":"15","size_leaf_vector":"1"}},{"base_weights":[-1.3607512E-1,-3.2584295E-1,4.808827E-2,-1.8150572E-1,-4.7499838E-1,-1.8476033E-1,1.691839E-1,-2.572525E-3,-1.6976273E-5,-3.8067838E-3,-6.1877137E-3,6.0878176E-4,-3.163813E-3,6.1046315E-4,3.10191E-3],"categories":[],"categories_nodes":[],"categories_segments":[],"categories_sizes":[],"default_left":[0,0,0,0,0,0,0,0,0,0,0,0,0,0,0],"id":18,"left_children":[1,3,5,7,9,11,13,-1,-1,-1,-1,-1,-1,-1,-1],"loss_changes":[2.2492467E2,6.815198E1,9.214613E1,2.1961048E1,2.08945E1,3.6170937E1,3.27596E1,0E0,0E0,0E0,0E0,0E0,0E0,0E0,0E0],"parents":[2147483647,0,0,1,1,2,2,3,3,4,4,5,5,6,6],"right_children":[2,4,6,8,10,12,14,-1,-1,-1,-1,-1,-1,-1,-1],"split_conditions":[1.5E1,1.3E1,-1.5E0,6E0,2.3E1,-4.8E0,2.4E1,-2.572525E-3,-1.6976273E-5,-3.8067838E-3,-6.1877137E-3,6.0878176E-4,-3.163813E-3,6.1046315E-4,3.10191E-3],"split_indices":[51,80,77,77,80,25,51,0,0,0,0,0,0,0,0],"split_type":[0,0,0,0,0,0,0,0,0,0,0,0,0,0,0],"sum_hessian":[6.43448E3,3.1686414E3,3.2658384E3,1.6114569E3,1.5571844E3,1.1171678E3,2.1486707E3,1.133516E3,4.7794092E2,9.42512E2,6.146725E2,3.8995294E2,7.2721484E2,1.2168827E3,9.317879E2],"tree_param":{"num_deleted":"0","num_feature":"106","num_nodes":"15","size_leaf_vector":"1"}},{"base_weights":[1.3607512E-1,3.2584298E-1,-4.8088282E-2,1.8150574E-1,4.749984E-1,1.8476033E-1,-1.6918391E-1,2.572525E-3,1.6976659E-5,3.8067838E-3,6.187714E-3,-6.0878263E-4,3.1638134E-3,-6.1046315E-4,-3.10191E-3],"categories":[],"categories_nodes":[],"categories_segments":[],"categories_sizes":[],"default_left":[0,0,0,0,0,0,0,0,0,0,0,0,0,0,0],"id":19,"left_children":[1,3,5,7,9,11,13,-1,-1,-1,-1,-1,-1,-1,-1],"loss_changes":[2.2492468E2,6.815201E1,9.214613E1,2.196104E1,2.089447E1,3.6170967E1,3.2759598E1,0E0,0E0,0E0,0E0,0E0,0E0,0E0,0E0],"parents":[2147483647,0,0,1,1,2,2,3,3,4,4,5,5,6,6],"right_children":[2,4,6,8,10,12,14,-1,-1,-1,-1,-1,-1,-1,-1],"split_conditions":[1.5E1,1.3E1,-1.5E0,6E0,2.3E1,-4.8E0,2.4E1,2.572525E-3,1.6976659E-5,3.8067838E-3,6.187714E-3,-6.0878263E-4,3.1638134E-3,-6.1046315E-4,-3.10191E-3],"split_indices":[51,80,77,77,80,25,51,0,0,0,0,0,0,0,0],"split_type":[0,0,0,0,0,0,0,0,0,0,0,0,0,0,0],"sum_hessian":[6.43448E3,3.1686414E3,3.2658386E3,1.6114569E3,1.5571844E3,1.1171678E3,2.1486707E3,1.133516E3,4.7794092E2,9.42512E2,6.146725E2,3.8995294E2,7.2721484E2,1.2168828E3,9.3178796E2],"tree_param":{"num_deleted":"0","num_feature":"106","num_nodes":"15","size_leaf_vector":"1"}},{"base_weights":[-1.3473998E-1,-2.5457856E-1,1.5196845E-1,-1.1045836E-1,-4.187877E-1,-8.911229E-2,2.4937968E-1,-2.5395518E-3,2.0039562E-4,-3.2624213E-3,-5.457402E-3,6.30329E-4,-2.484596E-3,3.821642E-3,1.6692006E-3],"categories":[],"categories_nodes":[],"categories_segments":[],"categories_sizes":[],"default_left":[0,0,0,0,0,0,0,0,0,0,0,0,0,0,0],"id":20,"left_children":[1,3,5,7,9,11,13,-1,-1,-1,-1,-1,-1,-1,-1],"loss_changes":[2.2111497E2,1.0735089E2,4.4578194E1,4.5288895E1,2.473944E1,1.3270777E1,1.4734848E1,0E0,0E0,0E0,0E0,0E0,0E0,0E0,0E0],"parents":[2147483647,0,0,1,1,2,2,3,3,4,4,5,5,6,6],"right_children":[2,4,6,8,10,12,14,-1,-1,-1,-1,-1,-1,-1,-1],"split_conditions":[2E1,1.4E1,-2.4E0,1E1,2.3E1,-4.8E0,-6.3E0,-2.5395518E-3,2.0039562E-4,-3.2624213E-3,-5.457402E-3,6.30329E-4,-2.484596E-3,3.821642E-3,1.6692006E-3],"split_indices":[28,80,77,51,80,25,25,0,0,0,0,0,0,0,0],"split_type":[0,0,0,0,0,0,0,0,0,0,0,0,0,0,0],"sum_hessian":[6.4333555E3,4.537063E3,1.8962926E3,2.4172263E3,2.1198367E3,5.457397E2,1.3505529E3,1.1508232E3,1.2664031E3,1.2281284E3,8.917081E2,2.7948816E2,2.6625153E2,5.1600183E2,8.345511E2],"tree_param":{"num_deleted":"0","num_feature":"106","num_nodes":"15","size_leaf_vector":"1"}},{"base_weights":[1.3473997E-1,2.5457856E-1,-1.5196843E-1,1.1045833E-1,4.187877E-1,8.911229E-2,-2.4937966E-1,2.5395511E-3,-2.0039547E-4,3.262421E-3,5.457402E-3,-6.30329E-4,2.484596E-3,-3.821642E-3,-1.6692004E-3],"categories":[],"categories_nodes":[],"categories_segments":[],"categories_sizes":[],"default_left":[0,0,0,0,0,0,0,0,0,0,0,0,0,0,0],"id":21,"left_children":[1,3,5,7,9,11,13,-1,-1,-1,-1,-1,-1,-1,-1],"loss_changes":[2.2111493E2,1.0735089E2,4.457819E1,4.528886E1,2.473944E1,1.3270777E1,1.4734848E1,0E0,0E0,0E0,0E0,0E0,0E0,0E0,0E0],"parents":[2147483647,0,0,1,1,2,2,3,3,4,4,5,5,6,6],"right_children":[2,4,6,8,10,12,14,-1,-1,-1,-1,-1,-1,-1,-1],"split_conditions":[2E1,1.4E1,-2.4E0,1E1,2.3E1,-4.8E0,-6.3E0,2.5395511E-3,-2.0039547E-4,3.262421E-3,5.457402E-3,-6.30329E-4,2.484596E-3,-3.821642E-3,-1.6692004E-3],"split_indices":[28,80,77,51,80,25,25,0,0,0,0,0,0,0,0],"split_type":[0,0,0,0,0,0,0,0,0,0,0,0,0,0,0],"sum_hessian":[6.4333555E3,4.537063E3,1.8962926E3,2.4172263E3,2.1198367E3,5.457397E2,1.3505529E3,1.1508232E3,1.266403E3,1.2281285E3,8.917081E2,2.7948816E2,2.6625153E2,5.1600183E2,8.345511E2],"tree_param":{"num_deleted":"0","num_feature":"106","num_nodes":"15","size_leaf_vector":"1"}},{"base_weights":[-1.3341899E-1,-3.1996256E-1,4.7566805E-2,-1.7808715E-1,-4.6667585E-1,-1.809995E-1,1.6641554E-1,-2.5308614E-3,-8.443441E-7,-3.7400974E-3,-6.0805464E-3,5.9664156E-4,-3.1001144E-3,6.0433504E-4,3.0465461E-3],"categories":[],"categories_nodes":[],"categories_segments":[],"categories_sizes":[],"default_left":[0,0,0,0,0,0,0,0,0,0,0,0,0,0,0],"id":22,"left_children":[1,3,5,7,9,11,13,-1,-1,-1,-1,-1,-1,-1,-1],"loss_changes":[2.1720958E2,6.586014E1,8.875277E1,2.1522942E1,2.0169067E1,3.472416E1,3.1470661E1,0E0,0E0,0E0,0E0,0E0,0E0,0E0,0E0],"parents":[2147483647,0,0,1,1,2,2,3,3,4,4,5,5,6,6],"right_children":[2,4,6,8,10,12,14,-1,-1,-1,-1,-1,-1,-1,-1],"split_conditions":[1.5E1,1.3E1,-1.5E0,6E0,2.3E1,-4.8E0,2.4E1,-2.5308614E-3,-8.443441E-7,-3.7400974E-3,-6.0805464E-3,5.9664156E-4,-3.1001144E-3,6.0433504E-4,3.0465461E-3],"split_indices":[51,80,77,77,80,25,51,0,0,0,0,0,0,0,0],"split_type":[0,0,0,0,0,0,0,0,0,0,0,0,0,0,0],"sum_hessian":[6.432151E3,3.1670637E3,3.265087E3,1.6112036E3,1.5558602E3,1.116789E3,2.1482979E3,1.1332869E3,4.7791663E2,9.420459E2,6.1381433E2,3.8993237E2,7.268566E2,1.2168375E3,9.314603E2],"tree_param":{"num_deleted":"0","num_feature":"106","num_nodes":"15","size_leaf_vector":"1"}},{"base_weights":[1.33419E-1,3.1996256E-1,-4.7566764E-2,1.7808716E-1,4.6667582E-1,1.809995E-1,-1.6641548E-1,2.5308616E-3,8.4356867E-7,3.7400972E-3,6.0805464E-3,-5.9664075E-4,3.1001144E-3,-6.043344E-4,-3.0465457E-3],"categories":[],"categories_nodes":[],"categories_segments":[],"categories_sizes":[],"default_left":[0,0,0,0,0,0,0,0,0,0,0,0,0,0,0],"id":23,"left_children":[1,3,5,7,9,11,13,-1,-1,-1,-1,-1,-1,-1,-1],"loss_changes":[2.1720949E2,6.586017E1,8.875274E1,2.152295E1,2.0169037E1,3.4724144E1,3.1470657E1,0E0,0E0,0E0,0E0,0E0,0E0,0E0,0E0],"parents":[2147483647,0,0,1,1,2,2,3,3,4,4,5,5,6,6],"right_children":[2,4,6,8,10,12,14,-1,-1,-1,-1,-1,-1,-1,-1],"split_conditions":[1.5E1,1.3E1,-1.5E0,6E0,2.3E1,-4.8E0,2.4E1,2.5308616E-3,8.4356867E-7,3.7400972E-3,6.0805464E-3,-5.9664075E-4,3.1001144E-3,-6.043344E-4,-3.0465457E-3],"split_indices":[51,80,77,77,80,25,51,0,0,0,0,0,0,0,0],"split_type":[0,0,0,0,0,0,0,0,0,0,0,0,0,0,0],"sum_hessian":[6.432151E3,3.1670637E3,3.265087E3,1.6112036E3,1.5558602E3,1.1167891E3,2.148298E3,1.133287E3,4.7791663E2,9.4204584E2,6.1381433E2,3.899324E2,7.268566E2,1.2168376E3,9.314604E2],"tree_param":{"num_deleted":"0","num_feature":"106","num_nodes":"15","size_leaf_vector":"1"}},{"base_weights":[-1.321141E-1,-2.498411E-1,1.4948799E-1,-1.0830268E-1,-4.1121808E-1,1.2086624E-2,3.1614262E-1,-2.4958274E-3,2.0151756E-4,-5.570185E-3,-3.3273445E-3,1.3822911E-3,-1.2590111E-3,8.611384E-4,3.752344E-3],"categories":[],"categories_nodes":[],"categories_segments":[],"categories_sizes":[],"default_left":[0,0,0,0,0,0,0,0,0,0,0,0,0,0,0],"id":24,"left_children":[1,3,5,7,9,11,13,-1,-1,-1,-1,-1,-1,-1,-1],"loss_changes":[2.1326639E2,1.035629E2,4.3430313E1,4.3885296E1,2.406363E1,1.8131744E1,1.1618324E1,0E0,0E0,0E0,0E0,0E0,0E0,0E0,0E0],"parents":[2147483647,0,0,1,1,2,2,3,3,4,4,5,5,6,6],"right_children":[2,4,6,8,10,12,14,-1,-1,-1,-1,-1,-1,-1,-1],"split_conditions":[2E1,1.4E1,6E-1,1E1,8E0,-4.8E0,2.2E1,-2.4958274E-3,2.0151756E-4,-5.570185E-3,-3.3273445E-3,1.3822911E-3,-1.2590111E-3,8.611384E-4,3.752344E-3],"split_indices":[28,80,77,51,51,25,51,0,0,0,0,0,0,0,0],"split_type":[0,0,0,0,0,0,0,0,0,0,0,0,0,0,0],"sum_hessian":[6.4308267E3,4.5350215E3,1.8958053E3,2.416905E3,2.1181165E3,1.0396884E3,8.56117E2,1.1505426E3,1.2663624E3,7.3905774E2,1.3790587E3,5.431563E2,4.96532E2,1.7547939E2,6.806376E2],"tree_param":{"num_deleted":"0","num_feature":"106","num_nodes":"15","size_leaf_vector":"1"}},{"base_weights":[1.321141E-1,2.4984111E-1,-1.4948799E-1,1.0830267E-1,4.112181E-1,-1.2086619E-2,-3.1614262E-1,2.4958276E-3,-2.0151798E-4,5.570185E-3,3.3273448E-3,-1.3822911E-3,1.2590113E-3,-8.611384E-4,-3.752344E-3],"categories":[],"categories_nodes":[],"categories_segments":[],"categories_sizes":[],"default_left":[0,0,0,0,0,0,0,0,0,0,0,0,0,0,0],"id":25,"left_children":[1,3,5,7,9,11,13,-1,-1,-1,-1,-1,-1,-1,-1],"loss_changes":[2.1326639E2,1.0356293E2,4.3430317E1,4.3885315E1,2.406363E1,1.813175E1,1.1618324E1,0E0,0E0,0E0,0E0,0E0,0E0,0E0,0E0],"parents":[2147483647,0,0,1,1,2,2,3,3,4,4,5,5,6,6],"right_children":[2,4,6,8,10,12,14,-1,-1,-1,-1,-1,-1,-1,-1],"split_conditions":[2E1,1.4E1,6E-1,1E1,8E0,-4.8E0,2.2E1,2.4958276E-3,-2.0151798E-4,5.570185E-3,3.3273448E-3,-1.3822911E-3,1.2590113E-3,-8.611384E-4,-3.752344E-3],"split_indices":[28,80,77,51,51,25,51,0,0,0,0,0,0,0,0],"split_type":[0,0,0,0,0,0,0,0,0,0,0,0,0,0,0],"sum_hessian":[6.4308267E3,4.5350215E3,1.8958054E3,2.416905E3,2.1181165E3,1.0396884E3,8.56117E2,1.1505426E3,1.2663624E3,7.3905774E2,1.3790587E3,5.431563E2,4.9653204E2,1.7547939E2,6.8063763E2],"tree_param":{"num_deleted":"0","num_feature":"106","num_nodes":"15","size_leaf_vector":"1"}},{"base_weights":[-1.3082126E-1,-3.1403604E-1,4.6873197E-2,-1.7472196E-1,-4.5821944E-1,-1.7801978E-1,1.6379794E-1,-2.4898225E-3,1.4926991E-5,-3.6636002E-3,-5.9848684E-3,5.8140286E-4,-3.0466926E-3,5.999439E-4,2.9924454E-3],"categories":[],"categories_nodes":[],"categories_segments":[],"categories_sizes":[],"default_left":[0,0,0,0,0,0,0,0,0,0,0,0,0,0,0],"id":26,"left_children":[1,3,5,7,9,11,13,-1,-1,-1,-1,-1,-1,-1,-1],"loss_changes":[2.0936765E2,6.3518707E1,8.589199E1,2.1093395E1,1.9820465E1,3.34396E1,3.0194767E1,0E0,0E0,0E0,0E0,0E0,0E0,0E0,0E0],"parents":[2147483647,0,0,1,1,2,2,3,3,4,4,5,5,6,6],"right_children":[2,4,6,8,10,12,14,-1,-1,-1,-1,-1,-1,-1,-1],"split_conditions":[1.5E1,1.3E1,-1.5E0,6E0,2.3E1,-4.8E0,2.4E1,-2.4898225E-3,1.4926991E-5,-3.6636002E-3,-5.9848684E-3,5.8140286E-4,-3.0466926E-3,5.999439E-4,2.9924454E-3],"split_indices":[51,80,77,77,80,25,51,0,0,0,0,0,0,0,0],"split_type":[0,0,0,0,0,0,0,0,0,0,0,0,0,0,0],"sum_hessian":[6.4294985E3,3.1652E3,3.2642988E3,1.6109072E3,1.5542927E3,1.1164319E3,2.147867E3,1.1330182E3,4.7788895E2,9.41396E2,6.128968E2,3.899127E2,7.265192E2,1.2167881E3,9.310788E2],"tree_param":{"num_deleted":"0","num_feature":"106","num_nodes":"15","size_leaf_vector":"1"}},{"base_weights":[1.3082127E-1,3.1403607E-1,-4.6873182E-2,1.7472202E-1,4.582194E-1,1.7801979E-1,-1.6379793E-1,2.4898231E-3,-1.4926818E-5,3.6636002E-3,5.9848684E-3,-5.814028E-4,3.0466928E-3,-5.9994333E-4,-2.992446E-3],"categories":[],"categories_nodes":[],"categories_segments":[],"categories_sizes":[],"default_left":[0,0,0,0,0,0,0,0,0,0,0,0,0,0,0],"id":27,"left_children":[1,3,5,7,9,11,13,-1,-1,-1,-1,-1,-1,-1,-1],"loss_changes":[2.0936768E2,6.3518646E1,8.589199E1,2.1093391E1,1.9820465E1,3.343961E1,3.0194809E1,0E0,0E0,0E0,0E0,0E0,0E0,0E0,0E0],"parents":[2147483647,0,0,1,1,2,2,3,3,4,4,5,5,6,6],"right_children":[2,4,6,8,10,12,14,-1,-1,-1,-1,-1,-1,-1,-1],"split_conditions":[1.5E1,1.3E1,-1.5E0,6E0,2.3E1,-4.8E0,2.4E1,2.4898231E-3,-1.4926818E-5,3.6636002E-3,5.9848684E-3,-5.814028E-4,3.0466928E-3,-5.9994333E-4,-2.992446E-3],"split_indices":[51,80,77,77,80,25,51,0,0,0,0,0,0,0,0],"split_type":[0,0,0,0,0,0,0,0,0,0,0,0,0,0,0],"sum_hessian":[6.4294985E3,3.1652E3,3.2642988E3,1.6109071E3,1.5542927E3,1.1164319E3,2.147867E3,1.1330182E3,4.7788895E2,9.41396E2,6.128968E2,3.899127E2,7.2651917E2,1.2167882E3,9.3107874E2],"tree_param":{"num_deleted":"0","num_feature":"106","num_nodes":"15","size_leaf_vector":"1"}},{"base_weights":[-1.2954557E-1,-2.4520737E-1,1.4705385E-1,-4.6774372E-1,-1.4580597E-1,1.193855E-2,3.1097147E-1,-3.6584816E-3,-5.9201936E-3,-3.26192E-3,-4.091433E-4,1.3541462E-3,-1.231395E-3,8.499958E-4,3.6904744E-3],"categories":[],"categories_nodes":[],"categories_segments":[],"categories_sizes":[],"default_left":[0,0,0,0,0,0,0,0,0,0,0,0,0,0,0],"id":28,"left_children":[1,3,5,7,9,11,13,-1,-1,-1,-1,-1,-1,-1,-1],"loss_changes":[2.0571223E2,1.0021951E2,4.1994488E1,1.7503906E1,5.931041E1,1.7371048E1,1.1212524E1,0E0,0E0,0E0,0E0,0E0,0E0,0E0,0E0],"parents":[2147483647,0,0,1,1,2,2,3,3,4,4,5,5,6,6],"right_children":[2,4,6,8,10,12,14,-1,-1,-1,-1,-1,-1,-1,-1],"split_conditions":[2E1,-1.7E0,6E-1,2.3E1,8E0,-4.8E0,2.2E1,-3.6584816E-3,-5.9201936E-3,-3.26192E-3,-4.091433E-4,1.3541462E-3,-1.231395E-3,8.499958E-4,3.6904744E-3],"split_indices":[28,77,77,1,51,25,51,0,0,0,0,0,0,0,0],"split_type":[0,0,0,0,0,0,0,0,0,0,0,0,0,0,0],"sum_hessian":[6.4279893E3,4.532718E3,1.8952712E3,1.3983765E3,3.1343416E3,1.0394983E3,8.557729E2,7.705413E2,6.278351E2,1.151667E3,1.9826744E3,5.430704E2,4.9642798E2,1.7547371E2,6.802992E2],"tree_param":{"num_deleted":"0","num_feature":"106","num_nodes":"15","size_leaf_vector":"1"}},{"base_weights":[1.2954555E-1,2.4520735E-1,-1.4705385E-1,4.6774372E-1,1.4580595E-1,-1.1938573E-2,-3.1097147E-1,3.6584814E-3,5.9201936E-3,3.26192E-3,4.091431E-4,-1.3541463E-3,1.2313947E-3,-8.49995E-4,-3.690475E-3],"categories":[],"categories_nodes":[],"categories_segments":[],"categories_sizes":[],"default_left":[0,0,0,0,0,0,0,0,0,0,0,0,0,0,0],"id":29,"left_children":[1,3,5,7,9,11,13,-1,-1,-1,-1,-1,-1,-1,-1],"loss_changes":[2.0571222E2,1.0021954E2,4.1994476E1,1.7503906E1,5.9310425E1,1.7371048E1,1.1212532E1,0E0,0E0,0E0,0E0,0E0,0E0,0E0,0E0],"parents":[2147483647,0,0,1,1,2,2,3,3,4,4,5,5,6,6],"right_children":[2,4,6,8,10,12,14,-1,-1,-1,-1,-1,-1,-1,-1],"split_conditions":[2E1,-1.7E0,6E-1,2.3E1,8E0,-4.8E0,2.2E1,3.6584814E-3,5.9201936E-3,3.26192E-3,4.091431E-4,-1.3541463E-3,1.2313947E-3,-8.49995E-4,-3.690475E-3],"split_indices":[28,77,77,1,51,25,51,0,0,0,0,0,0,0,0],"split_type":[0,0,0,0,0,0,0,0,0,0,0,0,0,0,0],"sum_hessian":[6.4279893E3,4.532718E3,1.8952712E3,1.3983765E3,3.1343416E3,1.0394984E3,8.5577295E2,7.705414E2,6.278351E2,1.151667E3,1.9826744E3,5.430704E2,4.96428E2,1.7547371E2,6.8029926E2],"tree_param":{"num_deleted":"0","num_feature":"106","num_nodes":"15","size_leaf_vector":"1"}},{"base_weights":[-1.282811E-1,-3.0834785E-1,4.629516E-2,-1.7107517E-1,-4.5054278E-1,-1.7460154E-1,1.6111973E-1,-2.4459728E-3,3.3456534E-5,-3.6008896E-3,-5.8881543E-3,5.6800613E-4,-2.9876588E-3,5.936656E-4,2.9394939E-3],"categories":[],"categories_nodes":[],"categories_segments":[],"categories_sizes":[],"default_left":[0,0,0,0,0,0,0,0,0,0,0,0,0,0,0],"id":30,"left_children":[1,3,5,7,9,11,13,-1,-1,-1,-1,-1,-1,-1,-1],"loss_changes":[2.0206584E2,6.168524E1,8.282718E1,2.0666931E1,1.9219147E1,3.2109818E1,2.9020088E1,0E0,0E0,0E0,0E0,0E0,0E0,0E0,0E0],"parents":[2147483647,0,0,1,1,2,2,3,3,4,4,5,5,6,6],"right_children":[2,4,6,8,10,12,14,-1,-1,-1,-1,-1,-1,-1,-1],"split_conditions":[1.5E1,1.3E1,-1.5E0,6E0,2.3E1,-4.8E0,2.4E1,-2.4459728E-3,3.3456534E-5,-3.6008896E-3,-5.8881543E-3,5.6800613E-4,-2.9876588E-3,5.936656E-4,2.9394939E-3],"split_indices":[51,80,77,77,80,25,51,0,0,0,0,0,0,0,0],"split_type":[0,0,0,0,0,0,0,0,0,0,0,0,0,0,0],"sum_hessian":[6.4265205E3,3.163136E3,3.2633843E3,1.610545E3,1.552591E3,1.1159761E3,2.1474082E3,1.1326897E3,4.7785535E2,9.4077124E2,6.1181976E2,3.8988998E2,7.260861E2,1.2167631E3,9.306452E2],"tree_param":{"num_deleted":"0","num_feature":"106","num_nodes":"15","size_leaf_vector":"1"}},{"base_weights":[1.282811E-1,3.0834785E-1,-4.629515E-2,1.7107518E-1,4.505428E-1,1.7460155E-1,-1.6111971E-1,2.4459728E-3,-3.3456283E-5,3.60089E-3,5.8881543E-3,-5.680064E-4,2.9876595E-3,-5.936656E-4,-2.9394936E-3],"categories":[],"categories_nodes":[],"categories_segments":[],"categories_sizes":[],"default_left":[0,0,0,0,0,0,0,0,0,0,0,0,0,0,0],"id":31,"left_children":[1,3,5,7,9,11,13,-1,-1,-1,-1,-1,-1,-1,-1],"loss_changes":[2.0206583E2,6.168521E1,8.282719E1,2.0666931E1,1.9219177E1,3.210983E1,2.902008E1,0E0,0E0,0E0,0E0,0E0,0E0,0E0,0E0],"parents":[2147483647,0,0,1,1,2,2,3,3,4,4,5,5,6,6],"right_children":[2,4,6,8,10,12,14,-1,-1,-1,-1,-1,-1,-1,-1],"split_conditions":[1.5E1,1.3E1,-1.5E0,6E0,2.3E1,-4.8E0,2.4E1,2.4459728E-3,-3.3456283E-5,3.60089E-3,5.8881543E-3,-5.680064E-4,2.9876595E-3,-5.936656E-4,-2.9394936E-3],"split_indices":[51,80,77,77,80,25,51,0,0,0,0,0,0,0,0],"split_type":[0,0,0,0,0,0,0,0,0,0,0,0,0,0,0],"sum_hessian":[6.4265205E3,3.1631362E3,3.2633843E3,1.6105452E3,1.5525911E3,1.1159761E3,2.1474082E3,1.1326898E3,4.7785535E2,9.4077124E2,6.1181976E2,3.8989E2,7.260861E2,1.2167631E3,9.306452E2],"tree_param":{"num_deleted":"0","num_feature":"106","num_nodes":"15","size_leaf_vector":"1"}},{"base_weights":[-1.2703367E-1,-2.4067411E-1,1.446652E-1,-1.0365096E-1,-3.9714938E-1,1.1791836E-2,3.0590457E-1,-2.4089364E-3,2.1065405E-4,-5.3939885E-3,-3.2065676E-3,1.3265776E-3,-1.204387E-3,8.3896896E-4,3.6299156E-3],"categories":[],"categories_nodes":[],"categories_segments":[],"categories_sizes":[],"default_left":[0,0,0,0,0,0,0,0,0,0,0,0,0,0,0],"id":32,"left_children":[1,3,5,7,9,11,13,-1,-1,-1,-1,-1,-1,-1,-1],"loss_changes":[1.9843878E2,9.711041E1,4.0609978E1,4.137703E1,2.2841217E1,1.6642054E1,1.0823082E1,0E0,0E0,0E0,0E0,0E0,0E0,0E0,0E0],"parents":[2147483647,0,0,1,1,2,2,3,3,4,4,5,5,6,6],"right_children":[2,4,6,8,10,12,14,-1,-1,-1,-1,-1,-1,-1,-1],"split_conditions":[2E1,1.4E1,6E-1,1E1,8E0,-4.8E0,2.2E1,-2.4089364E-3,2.1065405E-4,-5.3939885E-3,-3.2065676E-3,1.3265776E-3,-1.204387E-3,8.3896896E-4,3.6299156E-3],"split_indices":[28,80,77,51,51,25,51,0,0,0,0,0,0,0,0],"split_type":[0,0,0,0,0,0,0,0,0,0,0,0,0,0,0],"sum_hessian":[6.424837E3,4.5301685E3,1.8946683E3,2.416093E3,2.1140754E3,1.0392892E3,8.553792E2,1.1498368E3,1.2662561E3,7.371614E2,1.3769141E3,5.4297614E2,4.9631305E2,1.7546735E2,6.7991187E2],"tree_param":{"num_deleted":"0","num_feature":"106","num_nodes":"15","size_leaf_vector":"1"}},{"base_weights":[1.2703367E-1,2.4067411E-1,-1.4466523E-1,1.03650965E-1,3.9714938E-1,-1.1791853E-2,-3.0590463E-1,2.4089366E-3,-2.1065412E-4,5.393989E-3,3.2065674E-3,-1.3265776E-3,1.2043866E-3,-8.389696E-4,-3.6299159E-3],"categories":[],"categories_nodes":[],"categories_segments":[],"categories_sizes":[],"default_left":[0,0,0,0,0,0,0,0,0,0,0,0,0,0,0],"id":33,"left_children":[1,3,5,7,9,11,13,-1,-1,-1,-1,-1,-1,-1,-1],"loss_changes":[1.9843883E2,9.711041E1,4.061E1,4.137703E1,2.2841248E1,1.6642048E1,1.082309E1,0E0,0E0,0E0,0E0,0E0,0E0,0E0,0E0],"parents":[2147483647,0,0,1,1,2,2,3,3,4,4,5,5,6,6],"right_children":[2,4,6,8,10,12,14,-1,-1,-1,-1,-1,-1,-1,-1],"split_conditions":[2E1,1.4E1,6E-1,1E1,8E0,-4.8E0,2.2E1,2.4089366E-3,-2.1065412E-4,5.393989E-3,3.2065674E-3,-1.3265776E-3,1.2043866E-3,-8.389696E-4,-3.6299159E-3],"split_indices":[28,80,77,51,51,25,51,0,0,0,0,0,0,0,0],"split_type":[0,0,0,0,0,0,0,0,0,0,0,0,0,0,0],"sum_hessian":[6.424837E3,4.5301685E3,1.8946683E3,2.416093E3,2.1140754E3,1.0392892E3,8.5537915E2,1.1498368E3,1.2662561E3,7.371614E2,1.3769141E3,5.4297614E2,4.9631308E2,1.7546733E2,6.799118E2],"tree_param":{"num_deleted":"0","num_feature":"106","num_nodes":"15","size_leaf_vector":"1"}},{"base_weights":[-1.2579727E-1,-3.026818E-1,4.5617778E-2,-1.6784902E-1,-4.424952E-1,-1.7174365E-1,1.5858883E-1,-2.4065445E-3,4.8284244E-5,-3.5278015E-3,-5.797799E-3,5.534411E-4,-2.936545E-3,5.892113E-4,2.8875687E-3],"categories":[],"categories_nodes":[],"categories_segments":[],"categories_sizes":[],"default_left":[0,0,0,0,0,0,0,0,0,0,0,0,0,0,0],"id":34,"left_children":[1,3,5,7,9,11,13,-1,-1,-1,-1,-1,-1,-1,-1],"loss_changes":[1.94799E2,5.9529694E1,8.016169E1,2.0256527E1,1.8905853E1,3.0926918E1,2.784835E1,0E0,0E0,0E0,0E0,0E0,0E0,0E0,0E0],"parents":[2147483647,0,0,1,1,2,2,3,3,4,4,5,5,6,6],"right_children":[2,4,6,8,10,12,14,-1,-1,-1,-1,-1,-1,-1,-1],"split_conditions":[1.5E1,1.3E1,-1.5E0,6E0,2.3E1,-4.8E0,2.4E1,-2.4065445E-3,4.8284244E-5,-3.5278015E-3,-5.797799E-3,5.534411E-4,-2.936545E-3,5.892113E-4,2.8875687E-3],"split_indices":[51,80,77,77,80,25,51,0,0,0,0,0,0,0,0],"split_type":[0,0,0,0,0,0,0,0,0,0,0,0,0,0,0],"sum_hessian":[6.423171E3,3.160776E3,3.262395E3,1.6101678E3,1.550608E3,1.1155349E3,2.14686E3,1.1323466E3,4.7782135E2,9.399344E2,6.106736E2,3.8986508E2,7.256698E2,1.2167024E3,9.301578E2],"tree_param":{"num_deleted":"0","num_feature":"106","num_nodes":"15","size_leaf_vector":"1"}},{"base_weights":[1.2579727E-1,3.026818E-1,-4.5617785E-2,1.67849E-1,4.4249523E-1,1.7174368E-1,-1.5858886E-1,2.4065445E-3,-4.8284757E-5,3.527802E-3,5.7977997E-3,-5.534408E-4,2.9365453E-3,-5.892117E-4,-2.8875687E-3],"categories":[],"categories_nodes":[],"categories_segments":[],"categories_sizes":[],"default_left":[0,0,0,0,0,0,0,0,0,0,0,0,0,0,0],"id":35,"left_children":[1,3,5,7,9,11,13,-1,-1,-1,-1,-1,-1,-1,-1],"loss_changes":[1.9479901E2,5.9529755E1,8.016172E1,2.0256542E1,1.8905884E1,3.0926922E1,2.7848343E1,0E0,0E0,0E0,0E0,0E0,0E0,0E0,0E0],"parents":[2147483647,0,0,1,1,2,2,3,3,4,4,5,5,6,6],"right_children":[2,4,6,8,10,12,14,-1,-1,-1,-1,-1,-1,-1,-1],"split_conditions":[1.5E1,1.3E1,-1.5E0,6E0,2.3E1,-4.8E0,2.4E1,2.4065445E-3,-4.8284757E-5,3.527802E-3,5.7977997E-3,-5.534408E-4,2.9365453E-3,-5.892117E-4,-2.8875687E-3],"split_indices":[51,80,77,77,80,25,51,0,0,0,0,0,0,0,0],"split_type":[0,0,0,0,0,0,0,0,0,0,0,0,0,0,0],"sum_hessian":[6.423171E3,3.160776E3,3.262395E3,1.6101678E3,1.550608E3,1.1155349E3,2.14686E3,1.1323464E3,4.7782132E2,9.399344E2,6.106736E2,3.8986508E2,7.256698E2,1.2167023E3,9.3015784E2],"tree_param":{"num_deleted":"0","num_feature":"106","num_nodes":"15","size_leaf_vector":"1"}},{"base_weights":[-1.24577224E-1,9.247555E-2,-2.6190123E-1,-1.3461109E-1,1.8514001E-1,-3.620109E-1,-4.9636297E-2,5.1287544E-4,-2.7533376E-3,6.7662285E-4,2.7694744E-3,-2.914493E-3,-5.3375536E-3,1.8832887E-3,-1.1814492E-3],"categories":[],"categories_nodes":[],"categories_segments":[],"categories_sizes":[],"default_left":[0,0,0,0,0,0,0,0,0,0,0,0,0,0,0],"id":36,"left_children":[1,3,5,7,9,11,13,-1,-1,-1,-1,-1,-1,-1,-1],"loss_changes":[1.9145152E2,5.240994E1,8.357608E1,1.8902393E1,1.9054245E1,3.2237274E1,2.0594368E1,0E0,0E0,0E0,0E0,0E0,0E0,0E0,0E0],"parents":[2147483647,0,0,1,1,2,2,3,3,4,4,5,5,6,6],"right_children":[2,4,6,8,10,12,14,-1,-1,-1,-1,-1,-1,-1,-1],"split_conditions":[4.69E-1,-2.4E0,3E0,-4.8E0,2.4E1,2.3E1,6E-1,5.1287544E-4,-2.7533376E-3,6.7662285E-4,2.7694744E-3,-2.914493E-3,-5.3375536E-3,1.8832887E-3,-1.1814492E-3],"split_indices":[3,77,77,25,51,80,25,0,0,0,0,0,0,0,0],"split_type":[0,0,0,0,0,0,0,0,0,0,0,0,0,0,0],"sum_hessian":[6.421323E3,2.4884436E3,3.9328796E3,7.210245E2,1.7674192E3,2.6719927E3,1.260887E3,3.1092255E2,4.101019E2,7.7607837E2,9.913409E2,1.8957972E3,7.7619543E2,2.8146548E2,9.7942145E2],"tree_param":{"num_deleted":"0","num_feature":"106","num_nodes":"15","size_leaf_vector":"1"}},{"base_weights":[1.2457723E-1,-9.247557E-2,2.6190126E-1,1.3461109E-1,-1.8514004E-1,3.6201093E-1,4.963632E-2,-5.1287544E-4,2.7533376E-3,-6.7662296E-4,-2.7694746E-3,2.9144932E-3,5.3375536E-3,-1.8832887E-3,1.1814494E-3],"categories":[],"categories_nodes":[],"categories_segments":[],"categories_sizes":[],"default_left":[0,0,0,0,0,0,0,0,0,0,0,0,0,0,0],"id":37,"left_children":[1,3,5,7,9,11,13,-1,-1,-1,-1,-1,-1,-1,-1],"loss_changes":[1.9145158E2,5.2409943E1,8.357608E1,1.8902393E1,1.9054245E1,3.2237244E1,2.0594374E1,0E0,0E0,0E0,0E0,0E0,0E0,0E0,0E0],"parents":[2147483647,0,0,1,1,2,2,3,3,4,4,5,5,6,6],"right_children":[2,4,6,8,10,12,14,-1,-1,-1,-1,-1,-1,-1,-1],"split_conditions":[4.69E-1,-2.4E0,3E0,-4.8E0,2.4E1,2.3E1,6E-1,-5.1287544E-4,2.7533376E-3,-6.7662296E-4,-2.7694746E-3,2.9144932E-3,5.3375536E-3,-1.8832887E-3,1.1814494E-3],"split_indices":[3,77,77,25,51,80,25,0,0,0,0,0,0,0,0],"split_type":[0,0,0,0,0,0,0,0,0,0,0,0,0,0,0],"sum_hessian":[6.421323E3,2.4884436E3,3.9328796E3,7.210245E2,1.7674192E3,2.6719927E3,1.2608868E3,3.1092255E2,4.101019E2,7.7607837E2,9.913409E2,1.8957972E3,7.7619543E2,2.8146548E2,9.794214E2],"tree_param":{"num_deleted":"0","num_feature":"106","num_nodes":"15","size_leaf_vector":"1"}},{"base_weights":[-1.2336798E-1,-2.3406237E-1,1.4117806E-1,-4.4849116E-1,-1.3852614E-1,1.1217221E-2,2.9894146E-1,-3.4847516E-3,-5.7064295E-3,-3.13542E-3,-3.6847475E-4,1.2837804E-3,-1.169738E-3,4.290214E-3,2.0399755E-3],"categories":[],"categories_nodes":[],"categories_segments":[],"categories_sizes":[],"default_left":[0,0,0,0,0,0,0,0,0,0,0,0,0,0,0],"id":38,"left_children":[1,3,5,7,9,11,13,-1,-1,-1,-1,-1,-1,-1,-1],"loss_changes":[1.8804932E2,9.2673706E1,3.8842648E1,1.6841614E1,5.5742256E1,1.5633238E1,1.0481178E1,0E0,0E0,0E0,0E0,0E0,0E0,0E0,0E0],"parents":[2147483647,0,0,1,1,2,2,3,3,4,4,5,5,6,6],"right_children":[2,4,6,8,10,12,14,-1,-1,-1,-1,-1,-1,-1,-1],"split_conditions":[2E1,-1.7E0,6E-1,2.3E1,8E0,-4.8E0,-5.9E0,-3.4847516E-3,-5.7064295E-3,-3.13542E-3,-3.6847475E-4,1.2837804E-3,-1.169738E-3,4.290214E-3,2.0399755E-3],"split_indices":[28,77,77,1,51,25,25,0,0,0,0,0,0,0,0],"split_type":[0,0,0,0,0,0,0,0,0,0,0,0,0,0,0],"sum_hessian":[6.4194956E3,4.525852E3,1.8936438E3,1.3938021E3,3.1320498E3,1.0388999E3,8.547439E2,7.684555E2,6.253466E2,1.1501882E3,1.9818616E3,5.4280194E2,4.9609802E2,3.5915604E2,4.9558786E2],"tree_param":{"num_deleted":"0","num_feature":"106","num_nodes":"15","size_leaf_vector":"1"}},{"base_weights":[1.2336799E-1,2.3406239E-1,-1.4117806E-1,4.484912E-1,1.3852616E-1,-1.1217215E-2,-2.989415E-1,3.484752E-3,5.7064295E-3,3.13542E-3,3.684749E-4,-1.2837804E-3,1.1697381E-3,-4.2902143E-3,-2.0399753E-3],"categories":[],"categories_nodes":[],"categories_segments":[],"categories_sizes":[],"default_left":[0,0,0,0,0,0,0,0,0,0,0,0,0,0,0],"id":39,"left_children":[1,3,5,7,9,11,13,-1,-1,-1,-1,-1,-1,-1,-1],"loss_changes":[1.8804935E2,9.2673645E1,3.884266E1,1.6841644E1,5.574225E1,1.563324E1,1.0481186E1,0E0,0E0,0E0,0E0,0E0,0E0,0E0,0E0],"parents":[2147483647,0,0,1,1,2,2,3,3,4,4,5,5,6,6],"right_children":[2,4,6,8,10,12,14,-1,-1,-1,-1,-1,-1,-1,-1],"split_conditions":[2E1,-1.7E0,6E-1,2.3E1,8E0,-4.8E0,-5.9E0,3.484752E-3,5.7064295E-3,3.13542E-3,3.684749E-4,-1.2837804E-3,1.1697381E-3,-4.2902143E-3,-2.0399753E-3],"split_indices":[28,77,77,1,51,25,25,0,0,0,0,0,0,0,0],"split_type":[0,0,0,0,0,0,0,0,0,0,0,0,0,0,0],"sum_hessian":[6.4194956E3,4.5258516E3,1.8936438E3,1.3938021E3,3.1320496E3,1.0388999E3,8.5474384E2,7.6845544E2,6.253466E2,1.1501882E3,1.9818615E3,5.4280194E2,4.9609802E2,3.59156E2,4.9558786E2],"tree_param":{"num_deleted":"0","num_feature":"106","num_nodes":"15","size_leaf_vector":"1"}},{"base_weights":[-1.2217082E-1,-2.947072E-1,4.49188E-2,-1.6272464E-1,-4.3178686E-1,-1.668384E-1,1.5493633E-1,-2.3455792E-3,7.573109E-5,-3.4419938E-3,-5.660934E-3,5.3333014E-4,-2.8515544E-3,5.8353547E-4,2.8117697E-3],"categories":[],"categories_nodes":[],"categories_segments":[],"categories_sizes":[],"default_left":[0,0,0,0,0,0,0,0,0,0,0,0,0,0,0],"id":40,"left_children":[1,3,5,7,9,11,13,-1,-1,-1,-1,-1,-1,-1,-1],"loss_changes":[1.8505676E2,5.7064423E1,7.60128E1,1.9703228E1,1.8020782E1,2.9078493E1,2.6161148E1,0E0,0E0,0E0,0E0,0E0,0E0,0E0,0E0],"parents":[2147483647,0,0,1,1,2,2,3,3,4,4,5,5,6,6],"right_children":[2,4,6,8,10,12,14,-1,-1,-1,-1,-1,-1,-1,-1],"split_conditions":[1.5E1,1.3E1,-1.5E0,6E0,2.3E1,-4.8E0,2.4E1,-2.3455792E-3,7.573109E-5,-3.4419938E-3,-5.660934E-3,5.3333014E-4,-2.8515544E-3,5.8353547E-4,2.8117697E-3],"split_indices":[51,80,77,77,80,25,51,0,0,0,0,0,0,0,0],"split_type":[0,0,0,0,0,0,0,0,0,0,0,0,0,0,0],"sum_hessian":[6.41765E3,3.1569875E3,3.2606624E3,1.6095109E3,1.5474768E3,1.1146718E3,2.1459907E3,1.13175E3,4.777608E2,9.388029E2,6.086738E2,3.8982028E2,7.2485144E2,1.2166399E3,9.2935077E2],"tree_param":{"num_deleted":"0","num_feature":"106","num_nodes":"15","size_leaf_vector":"1"}},{"base_weights":[1.2217083E-1,2.947072E-1,-4.4918798E-2,1.6272463E-1,4.317869E-1,1.6683841E-1,-1.5493633E-1,2.3455794E-3,-7.573151E-5,3.441994E-3,5.660934E-3,-5.3332985E-4,2.8515544E-3,-5.8353523E-4,-2.8117702E-3],"categories":[],"categories_nodes":[],"categories_segments":[],"categories_sizes":[],"default_left":[0,0,0,0,0,0,0,0,0,0,0,0,0,0,0],"id":41,"left_children":[1,3,5,7,9,11,13,-1,-1,-1,-1,-1,-1,-1,-1],"loss_changes":[1.8505676E2,5.7064453E1,7.60128E1,1.9703243E1,1.8020752E1,2.907849E1,2.6161163E1,0E0,0E0,0E0,0E0,0E0,0E0,0E0,0E0],"parents":[2147483647,0,0,1,1,2,2,3,3,4,4,5,5,6,6],"right_children":[2,4,6,8,10,12,14,-1,-1,-1,-1,-1,-1,-1,-1],"split_conditions":[1.5E1,1.3E1,-1.5E0,6E0,2.3E1,-4.8E0,2.4E1,2.3455794E-3,-7.573151E-5,3.441994E-3,5.660934E-3,-5.3332985E-4,2.8515544E-3,-5.8353523E-4,-2.8117702E-3],"split_indices":[51,80,77,77,80,25,51,0,0,0,0,0,0,0,0],"split_type":[0,0,0,0,0,0,0,0,0,0,0,0,0,0,0],"sum_hessian":[6.41765E3,3.1569875E3,3.2606624E3,1.6095109E3,1.5474768E3,1.1146718E3,2.1459907E3,1.13175E3,4.7776083E2,9.388029E2,6.086739E2,3.8982025E2,7.2485144E2,1.2166399E3,9.293508E2],"tree_param":{"num_deleted":"0","num_feature":"106","num_nodes":"15","size_leaf_vector":"1"}},{"base_weights":[-1.2099029E-1,4.0519036E-2,-2.962454E-1,-1.7306411E-1,1.5127847E-1,-3.647208E-1,-2.7212562E-2,5.280179E-4,-2.9033087E-3,5.809493E-4,2.7845958E-3,-3.0327153E-3,-5.551983E-3,1.5234146E-5,-5.277309E-3],"categories":[],"categories_nodes":[],"categories_segments":[],"categories_sizes":[],"default_left":[0,0,0,0,0,0,0,0,0,0,0,0,0,0,0],"id":42,"left_children":[1,3,5,7,9,11,13,-1,-1,-1,-1,-1,-1,-1,-1],"loss_changes":[1.8163544E2,7.904128E1,5.668332E1,3.0238663E1,2.6056911E1,2.8543304E1,8.996585E0,0E0,0E0,0E0,0E0,0E0,0E0,0E0,0E0],"parents":[2147483647,0,0,1,1,2,2,3,3,4,4,5,5,6,6],"right_children":[2,4,6,8,10,12,14,-1,-1,-1,-1,-1,-1,-1,-1],"split_conditions":[6E-1,-1.5E0,4.9E0,-4.8E0,2.4E1,2.3E1,1.1E1,5.280179E-4,-2.9033087E-3,5.809493E-4,2.7845958E-3,-3.0327153E-3,-5.551983E-3,1.5234146E-5,-5.277309E-3],"split_indices":[25,77,77,25,51,80,25,0,0,0,0,0,0,0,0],"split_type":[0,0,0,0,0,0,0,0,0,0,0,0,0,0,0],"sum_hessian":[6.415578E3,3.3391223E3,3.0764558E3,1.1400815E3,2.1990408E3,2.4520056E3,6.244504E2,3.8981467E2,7.5026685E2,1.2699937E3,9.2904706E2,1.8558794E3,5.961262E2,5.914885E2,3.2961838E1],"tree_param":{"num_deleted":"0","num_feature":"106","num_nodes":"15","size_leaf_vector":"1"}},{"base_weights":[1.20990284E-1,-4.051906E-2,2.9624543E-1,1.7306414E-1,-1.5127853E-1,3.647208E-1,2.7212583E-2,-5.280172E-4,2.9033087E-3,-5.809496E-4,-2.7845963E-3,3.0327153E-3,5.551983E-3,-1.5233934E-5,5.277309E-3],"categories":[],"categories_nodes":[],"categories_segments":[],"categories_sizes":[],"default_left":[0,0,0,0,0,0,0,0,0,0,0,0,0,0,0],"id":43,"left_children":[1,3,5,7,9,11,13,-1,-1,-1,-1,-1,-1,-1,-1],"loss_changes":[1.8163544E2,7.9041306E1,5.668335E1,3.0238651E1,2.6056923E1,2.8543304E1,8.996584E0,0E0,0E0,0E0,0E0,0E0,0E0,0E0,0E0],"parents":[2147483647,0,0,1,1,2,2,3,3,4,4,5,5,6,6],"right_children":[2,4,6,8,10,12,14,-1,-1,-1,-1,-1,-1,-1,-1],"split_conditions":[6E-1,-1.5E0,4.9E0,-4.8E0,2.4E1,2.3E1,1.1E1,-5.280172E-4,2.9033087E-3,-5.809496E-4,-2.7845963E-3,3.0327153E-3,5.551983E-3,-1.5233934E-5,5.277309E-3],"split_indices":[25,77,77,25,51,80,25,0,0,0,0,0,0,0,0],"split_type":[0,0,0,0,0,0,0,0,0,0,0,0,0,0,0],"sum_hessian":[6.415578E3,3.3391223E3,3.076456E3,1.1400815E3,2.1990408E3,2.4520056E3,6.244504E2,3.8981467E2,7.5026685E2,1.2699937E3,9.2904706E2,1.8558794E3,5.961262E2,5.914885E2,3.2961838E1],"tree_param":{"num_deleted":"0","num_feature":"106","num_nodes":"15","size_leaf_vector":"1"}},{"base_weights":[-1.1982232E-1,-2.2775632E-1,1.3800715E-1,-9.6980974E-2,-3.775369E-1,1.106134E-2,2.9217336E-1,-2.2871343E-3,2.2610856E-4,-5.1566116E-3,-3.0340524E-3,1.2443409E-3,-1.1300769E-3,4.197612E-3,1.9912347E-3],"categories":[],"categories_nodes":[],"categories_segments":[],"categories_sizes":[],"default_left":[0,0,0,0,0,0,0,0,0,0,0,0,0,0,0],"id":44,"left_children":[1,3,5,7,9,11,13,-1,-1,-1,-1,-1,-1,-1,-1],"loss_changes":[1.7853682E2,8.853822E1,3.7053646E1,3.805925E1,2.1422882E1,1.463508E1,1.0067337E1,0E0,0E0,0E0,0E0,0E0,0E0,0E0,0E0],"parents":[2147483647,0,0,1,1,2,2,3,3,4,4,5,5,6,6],"right_children":[2,4,6,8,10,12,14,-1,-1,-1,-1,-1,-1,-1,-1],"split_conditions":[2E1,1.4E1,6E-1,1E1,8E0,-4.8E0,-5.9E0,-2.2871343E-3,2.2610856E-4,-5.1566116E-3,-3.0340524E-3,1.2443409E-3,-1.1300769E-3,4.197612E-3,1.9912347E-3],"split_indices":[28,80,77,51,51,25,25,0,0,0,0,0,0,0,0],"split_type":[0,0,0,0,0,0,0,0,0,0,0,0,0,0,0],"sum_hessian":[6.413466E3,4.5209834E3,1.8924824E3,2.4144998E3,2.1064836E3,1.0384547E3,8.540278E2,1.1484976E3,1.2660023E3,7.336217E2,1.3728619E3,5.4261597E2,4.958387E2,3.5868976E2,4.9533804E2],"tree_param":{"num_deleted":"0","num_feature":"106","num_nodes":"15","size_leaf_vector":"1"}},{"base_weights":[1.1982234E-1,2.2775634E-1,-1.380071E-1,9.6981E-2,3.775369E-1,-1.1061312E-2,-2.921733E-1,2.2871343E-3,-2.261083E-4,5.1566116E-3,3.0340524E-3,-1.2443402E-3,1.1300768E-3,-4.1976105E-3,-1.9912345E-3],"categories":[],"categories_nodes":[],"categories_segments":[],"categories_sizes":[],"default_left":[0,0,0,0,0,0,0,0,0,0,0,0,0,0,0],"id":45,"left_children":[1,3,5,7,9,11,13,-1,-1,-1,-1,-1,-1,-1,-1],"loss_changes":[1.7853679E2,8.853816E1,3.7053642E1,3.8059258E1,2.1422913E1,1.4635071E1,1.0067322E1,0E0,0E0,0E0,0E0,0E0,0E0,0E0,0E0],"parents":[2147483647,0,0,1,1,2,2,3,3,4,4,5,5,6,6],"right_children":[2,4,6,8,10,12,14,-1,-1,-1,-1,-1,-1,-1,-1],"split_conditions":[2E1,1.4E1,6E-1,1E1,8E0,-4.8E0,-5.9E0,2.2871343E-3,-2.261083E-4,5.1566116E-3,3.0340524E-3,-1.2443402E-3,1.1300768E-3,-4.1976105E-3,-1.9912345E-3],"split_indices":[28,80,77,51,51,25,25,0,0,0,0,0,0,0,0],"split_type":[0,0,0,0,0,0,0,0,0,0,0,0,0,0,0],"sum_hessian":[6.413466E3,4.5209834E3,1.8924824E3,2.4144998E3,2.1064836E3,1.0384547E3,8.540278E2,1.1484976E3,1.2660023E3,7.3362164E2,1.3728619E3,5.4261597E2,4.9583868E2,3.5868976E2,4.9533804E2],"tree_param":{"num_deleted":"0","num_feature":"106","num_nodes":"15","size_leaf_vector":"1"}},{"base_weights":[-1.1866357E-1,8.905387E-2,-2.5020796E-1,-1.2889566E-1,1.7798215E-1,-3.4730166E-1,-4.47814E-2,4.8050168E-4,-2.6304573E-3,3.8191946E-3,1.2716425E-3,-2.794474E-3,-5.130441E-3,1.8555886E-3,-1.1113262E-3],"categories":[],"categories_nodes":[],"categories_segments":[],"categories_sizes":[],"default_left":[0,0,0,0,0,0,0,0,0,0,0,0,0,0,0],"id":46,"left_children":[1,3,5,7,9,11,13,-1,-1,-1,-1,-1,-1,-1,-1],"loss_changes":[1.7523483E2,4.82268E1,7.829756E1,1.7134106E1,1.8261635E1,2.983966E1,1.9297546E1,0E0,0E0,0E0,0E0,0E0,0E0,0E0,0E0],"parents":[2147483647,0,0,1,1,2,2,3,3,4,4,5,5,6,6],"right_children":[2,4,6,8,10,12,14,-1,-1,-1,-1,-1,-1,-1,-1],"split_conditions":[4.69E-1,-2.4E0,3E0,-4.8E0,5E0,2.3E1,6E-1,4.8050168E-4,-2.6304573E-3,3.8191946E-3,1.2716425E-3,-2.794474E-3,-5.130441E-3,1.8555886E-3,-1.1113262E-3],"split_indices":[3,77,77,25,103,80,25,0,0,0,0,0,0,0,0],"split_type":[0,0,0,0,0,0,0,0,0,0,0,0,0,0,0],"sum_hessian":[6.411389E3,2.4860583E3,3.9253306E3,7.2028973E2,1.7657687E3,2.665029E3,1.2603016E3,3.108785E2,4.0941125E2,3.5093118E2,1.4148374E3,1.8928076E3,7.722214E2,2.814484E2,9.788533E2],"tree_param":{"num_deleted":"0","num_feature":"106","num_nodes":"15","size_leaf_vector":"1"}},{"base_weights":[1.18663564E-1,-8.905388E-2,2.5020793E-1,1.2889569E-1,-1.7798217E-1,3.4730166E-1,4.478138E-2,-4.8050165E-4,2.6304577E-3,-3.8191949E-3,-1.2716427E-3,2.794474E-3,5.130441E-3,-1.8555897E-3,1.1113262E-3],"categories":[],"categories_nodes":[],"categories_segments":[],"categories_sizes":[],"default_left":[0,0,0,0,0,0,0,0,0,0,0,0,0,0,0],"id":47,"left_children":[1,3,5,7,9,11,13,-1,-1,-1,-1,-1,-1,-1,-1],"loss_changes":[1.752348E2,4.8226814E1,7.829759E1,1.713411E1,1.8261639E1,2.983966E1,1.929756E1,0E0,0E0,0E0,0E0,0E0,0E0,0E0,0E0],"parents":[2147483647,0,0,1,1,2,2,3,3,4,4,5,5,6,6],"right_children":[2,4,6,8,10,12,14,-1,-1,-1,-1,-1,-1,-1,-1],"split_conditions":[4.69E-1,-2.4E0,3E0,-4.8E0,5E0,2.3E1,6E-1,-4.8050165E-4,2.6304577E-3,-3.8191949E-3,-1.2716427E-3,2.794474E-3,5.130441E-3,-1.8555897E-3,1.1113262E-3],"split_indices":[3,77,77,25,103,80,25,0,0,0,0,0,0,0,0],"split_type":[0,0,0,0,0,0,0,0,0,0,0,0,0,0,0],"sum_hessian":[6.411389E3,2.4860583E3,3.9253306E3,7.2028973E2,1.7657687E3,2.665029E3,1.2603016E3,3.1087848E2,4.0941125E2,3.5093118E2,1.4148374E3,1.8928076E3,7.722214E2,2.814484E2,9.788533E2],"tree_param":{"num_deleted":"0","num_feature":"106","num_nodes":"15","size_leaf_vector":"1"}},{"base_weights":[-1.1751639E-1,-2.84263E-1,4.378855E-2,-1.563634E-1,-4.1743982E-1,-1.7301612E-1,1.4421375E-1,-2.2659837E-3,1.0028793E-4,-3.3209163E-3,-5.4870513E-3,3.8465075E-4,-2.8672286E-3,4.947305E-4,2.674432E-3],"categories":[],"categories_nodes":[],"categories_segments":[],"categories_sizes":[],"default_left":[0,0,0,0,0,0,0,0,0,0,0,0,0,0,0],"id":48,"left_children":[1,3,5,7,9,11,13,-1,-1,-1,-1,-1,-1,-1,-1],"loss_changes":[1.724306E2,5.3625565E1,7.098601E1,1.8811943E1,1.7111145E1,2.4832455E1,2.599799E1,0E0,0E0,0E0,0E0,0E0,0E0,0E0,0E0],"parents":[2147483647,0,0,1,1,2,2,3,3,4,4,5,5,6,6],"right_children":[2,4,6,8,10,12,14,-1,-1,-1,-1,-1,-1,-1,-1],"split_conditions":[1.5E1,1.3E1,-1.9E0,6E0,2.3E1,-4.8E0,2.4E1,-2.2659837E-3,1.0028793E-4,-3.3209163E-3,-5.4870513E-3,3.8465075E-4,-2.8672286E-3,4.947305E-4,2.674432E-3],"split_indices":[51,80,77,77,80,25,51,0,0,0,0,0,0,0,0],"split_type":[0,0,0,0,0,0,0,0,0,0,0,0,0,0,0],"sum_hessian":[6.4092993E3,3.1511167E3,3.2581829E3,1.6085145E3,1.542602E3,1.0312114E3,2.2269714E3,1.1308257E3,4.776889E2,9.3693854E2,6.056636E2,3.6080963E2,6.704018E2,1.2598109E3,9.6716046E2],"tree_param":{"num_deleted":"0","num_feature":"106","num_nodes":"15","size_leaf_vector":"1"}},{"base_weights":[1.175164E-1,2.84263E-1,-4.378854E-2,1.5636341E-1,4.1743982E-1,1.7301615E-1,-1.4421375E-1,2.2659837E-3,-1.0028796E-4,3.3209159E-3,5.4870523E-3,-3.846505E-4,2.8672288E-3,-4.947304E-4,-2.674432E-3],"categories":[],"categories_nodes":[],"categories_segments":[],"categories_sizes":[],"default_left":[0,0,0,0,0,0,0,0,0,0,0,0,0,0,0],"id":49,"left_children":[1,3,5,7,9,11,13,-1,-1,-1,-1,-1,-1,-1,-1],"loss_changes":[1.7243059E2,5.3625565E1,7.0986015E1,1.8811943E1,1.7111176E1,2.4832455E1,2.5997993E1,0E0,0E0,0E0,0E0,0E0,0E0,0E0,0E0],"parents":[2147483647,0,0,1,1,2,2,3,3,4,4,5,5,6,6],"right_children":[2,4,6,8,10,12,14,-1,-1,-1,-1,-1,-1,-1,-1],"split_conditions":[1.5E1,1.3E1,-1.9E0,6E0,2.3E1,-4.8E0,2.4E1,2.2659837E-3,-1.0028796E-4,3.3209159E-3,5.4870523E-3,-3.846505E-4,2.8672288E-3,-4.947304E-4,-2.674432E-3],"split_indices":[51,80,77,77,80,25,51,0,0,0,0,0,0,0,0],"split_type":[0,0,0,0,0,0,0,0,0,0,0,0,0,0,0],"sum_hessian":[6.4092993E3,3.1511167E3,3.2581829E3,1.6085145E3,1.542602E3,1.0312114E3,2.2269714E3,1.1308257E3,4.7768893E2,9.3693854E2,6.056635E2,3.6080963E2,6.704018E2,1.2598109E3,9.6716046E2],"tree_param":{"num_deleted":"0","num_feature":"106","num_nodes":"15","size_leaf_vector":"1"}},{"base_weights":[-1.163857E-1,-2.216262E-1,1.3486934E-1,-4.2694706E-1,-1.3049388E-1,-1.3663107E-1,2.0421615E-1,-3.2882392E-3,-5.4703355E-3,-2.993237E-3,-3.253939E-4,-2.2946505E-3,7.478096E-4,3.3867906E-3,1.1843841E-3],"categories":[],"categories_nodes":[],"categories_segments":[],"categories_sizes":[],"default_left":[0,0,0,0,0,0,0,0,0,0,0,0,0,0,0],"id":50,"left_children":[1,3,5,7,9,11,13,-1,-1,-1,-1,-1,-1,-1,-1],"loss_changes":[1.694707E2,8.4457214E1,3.56557E1,1.6175522E1,5.174711E1,7.5849795E0,1.734972E1,0E0,0E0,0E0,0E0,0E0,0E0,0E0,0E0],"parents":[2147483647,0,0,1,1,2,2,3,3,4,4,5,5,6,6],"right_children":[2,4,6,8,10,12,14,-1,-1,-1,-1,-1,-1,-1,-1],"split_conditions":[2E1,-1.7E0,3.58E-1,2.3E1,8E0,2.7E1,-6.2E0,-3.2882392E-3,-5.4703355E-3,-2.993237E-3,-3.253939E-4,-2.2946505E-3,7.478096E-4,3.3867906E-3,1.1843841E-3],"split_indices":[28,77,55,1,51,28,25,0,0,0,0,0,0,0,0],"split_type":[0,0,0,0,0,0,0,0,0,0,0,0,0,0,0],"sum_hessian":[6.4069688E3,4.5156606E3,1.8913083E3,1.3870211E3,3.1286394E3,3.8459735E2,1.506711E3,7.653714E2,6.216498E2,1.1479792E3,1.98066E3,2.6718658E2,1.17410774E2,5.856746E2,9.210364E2],"tree_param":{"num_deleted":"0","num_feature":"106","num_nodes":"15","size_leaf_vector":"1"}},{"base_weights":[1.16385706E-1,2.216262E-1,-1.3486932E-1,4.2694706E-1,1.3049388E-1,1.3663107E-1,-2.0421615E-1,3.2882392E-3,5.4703355E-3,2.993237E-3,3.2539404E-4,2.2946505E-3,-7.478096E-4,-3.3867906E-3,-1.184384E-3],"categories":[],"categories_nodes":[],"categories_segments":[],"categories_sizes":[],"default_left":[0,0,0,0,0,0,0,0,0,0,0,0,0,0,0],"id":51,"left_children":[1,3,5,7,9,11,13,-1,-1,-1,-1,-1,-1,-1,-1],"loss_changes":[1.6947072E2,8.4457184E1,3.5655697E1,1.6175568E1,5.17471E1,7.5849795E0,1.7349712E1,0E0,0E0,0E0,0E0,0E0,0E0,0E0,0E0],"parents":[2147483647,0,0,1,1,2,2,3,3,4,4,5,5,6,6],"right_children":[2,4,6,8,10,12,14,-1,-1,-1,-1,-1,-1,-1,-1],"split_conditions":[2E1,-1.7E0,3.58E-1,2.3E1,8E0,2.7E1,-6.2E0,3.2882392E-3,5.4703355E-3,2.993237E-3,3.2539404E-4,2.2946505E-3,-7.478096E-4,-3.3867906E-3,-1.184384E-3],"split_indices":[28,77,55,1,51,28,25,0,0,0,0,0,0,0,0],"split_type":[0,0,0,0,0,0,0,0,0,0,0,0,0,0,0],"sum_hessian":[6.4069688E3,4.5156606E3,1.8913083E3,1.3870212E3,3.1286394E3,3.8459735E2,1.506711E3,7.653714E2,6.216498E2,1.1479792E3,1.98066E3,2.6718658E2,1.17410774E2,5.856746E2,9.210364E2],"tree_param":{"num_deleted":"0","num_feature":"106","num_nodes":"15","size_leaf_vector":"1"}},{"base_weights":[-1.1526332E-1,3.946092E-2,-2.8339204E-1,-1.6551259E-1,1.456782E-1,-3.499898E-1,-2.2417013E-2,4.9995544E-4,-2.7761944E-3,5.667921E-4,2.6732113E-3,-2.9081597E-3,-5.342442E-3,5.9332302E-5,-5.166357E-3],"categories":[],"categories_nodes":[],"categories_segments":[],"categories_sizes":[],"default_left":[0,0,0,0,0,0,0,0,0,0,0,0,0,0,0],"id":52,"left_children":[1,3,5,7,9,11,13,-1,-1,-1,-1,-1,-1,-1,-1],"loss_changes":[1.6664827E2,7.267079E1,5.3350327E1,2.7541315E1,2.3784515E1,2.6511292E1,8.763247E0,0E0,0E0,0E0,0E0,0E0,0E0,0E0,0E0],"parents":[2147483647,0,0,1,1,2,2,3,3,4,4,5,5,6,6],"right_children":[2,4,6,8,10,12,14,-1,-1,-1,-1,-1,-1,-1,-1],"split_conditions":[6E-1,-1.5E0,4.9E0,-4.8E0,2.4E1,2.3E1,1.1E1,4.9995544E-4,-2.7761944E-3,5.667921E-4,2.6732113E-3,-2.9081597E-3,-5.342442E-3,5.9332302E-5,-5.166357E-3],"split_indices":[25,77,77,25,51,80,25,0,0,0,0,0,0,0,0],"split_type":[0,0,0,0,0,0,0,0,0,0,0,0,0,0,0],"sum_hessian":[6.404771E3,3.3357434E3,3.0690278E3,1.138383E3,2.1973604E3,2.4448018E3,6.24226E2,3.8973392E2,7.486491E2,1.269793E3,9.275673E2,1.8524579E3,5.92344E2,5.912951E2,3.2930916E1],"tree_param":{"num_deleted":"0","num_feature":"106","num_nodes":"15","size_leaf_vector":"1"}},{"base_weights":[1.15263306E-1,-3.9460942E-2,2.83392E-1,1.6551255E-1,-1.4567822E-1,3.499898E-1,2.2417003E-2,-4.999561E-4,2.7761944E-3,-5.6679203E-4,-2.6732117E-3,2.9081595E-3,5.3424416E-3,-5.9332437E-5,5.166357E-3],"categories":[],"categories_nodes":[],"categories_segments":[],"categories_sizes":[],"default_left":[0,0,0,0,0,0,0,0,0,0,0,0,0,0,0],"id":53,"left_children":[1,3,5,7,9,11,13,-1,-1,-1,-1,-1,-1,-1,-1],"loss_changes":[1.6664827E2,7.2670784E1,5.3350296E1,2.7541315E1,2.378453E1,2.6511322E1,8.763246E0,0E0,0E0,0E0,0E0,0E0,0E0,0E0,0E0],"parents":[2147483647,0,0,1,1,2,2,3,3,4,4,5,5,6,6],"right_children":[2,4,6,8,10,12,14,-1,-1,-1,-1,-1,-1,-1,-1],"split_conditions":[6E-1,-1.5E0,4.9E0,-4.8E0,2.4E1,2.3E1,1.1E1,-4.999561E-4,2.7761944E-3,-5.6679203E-4,-2.6732117E-3,2.9081595E-3,5.3424416E-3,-5.9332437E-5,5.166357E-3],"split_indices":[25,77,77,25,51,80,25,0,0,0,0,0,0,0,0],"split_type":[0,0,0,0,0,0,0,0,0,0,0,0,0,0,0],"sum_hessian":[6.404771E3,3.3357434E3,3.0690278E3,1.138383E3,2.1973604E3,2.444802E3,6.24226E2,3.8973392E2,7.486491E2,1.269793E3,9.2756726E2,1.8524579E3,5.92344E2,5.912951E2,3.293092E1],"tree_param":{"num_deleted":"0","num_feature":"106","num_nodes":"15","size_leaf_vector":"1"}},{"base_weights":[-1.1415644E-1,-2.1759251E-1,1.3269623E-1,-9.172258E-2,-3.6217278E-1,1.0019831E-2,2.8178498E-1,-2.1882155E-3,2.354583E-4,-4.9718358E-3,-2.8985795E-3,8.0559123E-4,-1.7224952E-3,4.0601413E-3,1.9131968E-3],"categories":[],"categories_nodes":[],"categories_segments":[],"categories_sizes":[],"default_left":[0,0,0,0,0,0,0,0,0,0,0,0,0,0,0],"id":54,"left_children":[1,3,5,7,9,11,13,-1,-1,-1,-1,-1,-1,-1,-1],"loss_changes":[1.6352844E2,8.2093765E1,3.4591213E1,3.5369854E1,2.0358765E1,1.3368296E1,9.517418E0,0E0,0E0,0E0,0E0,0E0,0E0,0E0,0E0],"parents":[2147483647,0,0,1,1,2,2,3,3,4,4,5,5,6,6],"right_children":[2,4,6,8,10,12,14,-1,-1,-1,-1,-1,-1,-1,-1],"split_conditions":[2E1,1.4E1,6E-1,1E1,8E0,2.6E1,-5.9E0,-2.1882155E-3,2.354583E-4,-4.9718358E-3,-2.8985795E-3,8.0559123E-4,-1.7224952E-3,4.0601413E-3,1.9131968E-3],"split_indices":[28,80,77,51,51,103,25,0,0,0,0,0,0,0,0],"split_type":[0,0,0,0,0,0,0,0,0,0,0,0,0,0,0],"sum_hessian":[6.4023438E3,4.5118916E3,1.8904519E3,2.4128909E3,2.0990007E3,1.0376763E3,8.5277563E2,1.1471285E3,1.2657623E3,7.300785E2,1.3689222E3,7.485436E2,2.8913266E2,3.578624E2,4.949132E2],"tree_param":{"num_deleted":"0","num_feature":"106","num_nodes":"15","size_leaf_vector":"1"}},{"base_weights":[1.1415643E-1,2.175925E-1,-1.3269624E-1,9.172259E-2,3.6217275E-1,-1.0019845E-2,-2.81785E-1,2.1882157E-3,-2.3545825E-4,4.971835E-3,2.8985795E-3,-8.0559135E-4,1.7224951E-3,-4.0601413E-3,-1.913197E-3],"categories":[],"categories_nodes":[],"categories_segments":[],"categories_sizes":[],"default_left":[0,0,0,0,0,0,0,0,0,0,0,0,0,0,0],"id":55,"left_children":[1,3,5,7,9,11,13,-1,-1,-1,-1,-1,-1,-1,-1],"loss_changes":[1.6352846E2,8.209375E1,3.45912E1,3.5369858E1,2.0358734E1,1.3368294E1,9.517418E0,0E0,0E0,0E0,0E0,0E0,0E0,0E0,0E0],"parents":[2147483647,0,0,1,1,2,2,3,3,4,4,5,5,6,6],"right_children":[2,4,6,8,10,12,14,-1,-1,-1,-1,-1,-1,-1,-1],"split_conditions":[2E1,1.4E1,6E-1,1E1,8E0,2.6E1,-5.9E0,2.1882157E-3,-2.3545825E-4,4.971835E-3,2.8985795E-3,-8.0559135E-4,1.7224951E-3,-4.0601413E-3,-1.913197E-3],"split_indices":[28,80,77,51,51,103,25,0,0,0,0,0,0,0,0],"split_type":[0,0,0,0,0,0,0,0,0,0,0,0,0,0,0],"sum_hessian":[6.4023438E3,4.5118916E3,1.8904519E3,2.412891E3,2.0990007E3,1.0376763E3,8.5277563E2,1.1471287E3,1.2657623E3,7.3007855E2,1.3689222E3,7.485436E2,2.8913266E2,3.578624E2,4.9491324E2],"tree_param":{"num_deleted":"0","num_feature":"106","num_nodes":"15","size_leaf_vector":"1"}},{"base_weights":[-1.1305741E-1,3.8897898E-2,-2.782865E-1,-1.6260579E-1,1.4329681E-1,-3.440629E-1,-2.083766E-2,4.98633E-4,-2.73219E-3,5.603436E-4,2.6264824E-3,-2.8560108E-3,-5.264355E-3,7.195603E-5,-5.098511E-3],"categories":[],"categories_nodes":[],"categories_segments":[],"categories_sizes":[],"default_left":[0,0,0,0,0,0,0,0,0,0,0,0,0,0,0],"id":56,"left_children":[1,3,5,7,9,11,13,-1,-1,-1,-1,-1,-1,-1,-1],"loss_changes":[1.6072357E2,7.018757E1,5.1924316E1,2.6776407E1,2.2872711E1,2.5891754E1,8.573436E0,0E0,0E0,0E0,0E0,0E0,0E0,0E0,0E0],"parents":[2147483647,0,0,1,1,2,2,3,3,4,4,5,5,6,6],"right_children":[2,4,6,8,10,12,14,-1,-1,-1,-1,-1,-1,-1,-1],"split_conditions":[6E-1,-1.5E0,4.9E0,-4.8E0,2.4E1,2.3E1,1.1E1,4.98633E-4,-2.73219E-3,5.603436E-4,2.6264824E-3,-2.8560108E-3,-5.264355E-3,7.195603E-5,-5.098511E-3],"split_indices":[25,77,77,25,51,80,25,0,0,0,0,0,0,0,0],"split_type":[0,0,0,0,0,0,0,0,0,0,0,0,0,0,0],"sum_hessian":[6.4000034E3,3.334316E3,3.0656875E3,1.1377502E3,2.1965657E3,2.4415513E3,6.241361E2,3.8971786E2,7.480323E2,1.269705E3,9.268608E2,1.8508154E3,5.9073584E2,5.912285E2,3.2907578E1],"tree_param":{"num_deleted":"0","num_feature":"106","num_nodes":"15","size_leaf_vector":"1"}},{"base_weights":[1.1305741E-1,-3.889788E-2,2.7828646E-1,1.6260584E-1,-1.4329681E-1,3.440629E-1,2.0837605E-2,-4.986327E-4,2.7321905E-3,-5.603436E-4,-2.6264824E-3,2.856011E-3,5.2643544E-3,-7.1956616E-5,5.098511E-3],"categories":[],"categories_nodes":[],"categories_segments":[],"categories_sizes":[],"default_left":[0,0,0,0,0,0,0,0,0,0,0,0,0,0,0],"id":57,"left_children":[1,3,5,7,9,11,13,-1,-1,-1,-1,-1,-1,-1,-1],"loss_changes":[1.6072354E2,7.018758E1,5.19243E1,2.677641E1,2.2872707E1,2.5891724E1,8.57344E0,0E0,0E0,0E0,0E0,0E0,0E0,0E0,0E0],"parents":[2147483647,0,0,1,1,2,2,3,3,4,4,5,5,6,6],"right_children":[2,4,6,8,10,12,14,-1,-1,-1,-1,-1,-1,-1,-1],"split_conditions":[6E-1,-1.5E0,4.9E0,-4.8E0,2.4E1,2.3E1,1.1E1,-4.986327E-4,2.7321905E-3,-5.603436E-4,-2.6264824E-3,2.856011E-3,5.2643544E-3,-7.1956616E-5,5.098511E-3],"split_indices":[25,77,77,25,51,80,25,0,0,0,0,0,0,0,0],"split_type":[0,0,0,0,0,0,0,0,0,0,0,0,0,0,0],"sum_hessian":[6.4000034E3,3.334316E3,3.0656875E3,1.1377502E3,2.1965657E3,2.4415513E3,6.2413617E2,3.8971786E2,7.480323E2,1.269705E3,9.268608E2,1.8508154E3,5.9073584E2,5.912286E2,3.2907578E1],"tree_param":{"num_deleted":"0","num_feature":"106","num_nodes":"15","size_leaf_vector":"1"}},{"base_weights":[-1.1197379E-1,8.858779E-2,-2.3492941E-1,-1.19420245E-1,1.7395456E-1,-3.2911703E-1,-3.6261722E-2,4.4920816E-4,-2.4765925E-3,-1.3985927E-3,2.045946E-3,-2.6436038E-3,-4.883003E-3,-1.091469E-3,1.6220172E-3],"categories":[],"categories_nodes":[],"categories_segments":[],"categories_sizes":[],"default_left":[0,0,0,0,0,0,0,0,0,0,0,0,0,0,0],"id":58,"left_children":[1,3,5,7,9,11,13,-1,-1,-1,-1,-1,-1,-1,-1],"loss_changes":[1.5780798E2,4.3214947E1,7.4217606E1,1.4940864E1,1.6615982E1,2.7610016E1,1.8489056E1,0E0,0E0,0E0,0E0,0E0,0E0,0E0,0E0],"parents":[2147483647,0,0,1,1,2,2,3,3,4,4,5,5,6,6],"right_children":[2,4,6,8,10,12,14,-1,-1,-1,-1,-1,-1,-1,-1],"split_conditions":[4.64E-1,-2.4E0,3E0,-4.8E0,5E0,2.3E1,1.4E1,4.4920816E-4,-2.4765925E-3,-1.3985927E-3,2.045946E-3,-2.6436038E-3,-4.883003E-3,-1.091469E-3,1.6220172E-3],"split_indices":[3,77,77,25,53,80,51,0,0,0,0,0,0,0,0],"split_type":[0,0,0,0,0,0,0,0,0,0,0,0,0,0,0],"sum_hessian":[6.397461E3,2.4315188E3,3.9659421E3,7.07412E2,1.7241068E3,2.6899773E3,1.2759648E3,3.1034628E2,3.970657E2,1.5304655E2,1.5710602E3,1.9140087E3,7.759685E2,9.335655E2,3.4239938E2],"tree_param":{"num_deleted":"0","num_feature":"106","num_nodes":"15","size_leaf_vector":"1"}},{"base_weights":[1.119738E-1,-8.85878E-2,2.3492943E-1,1.19420245E-1,-1.7395458E-1,3.2911703E-1,3.6261734E-2,-4.4920816E-4,2.4765925E-3,1.3985926E-3,-2.045946E-3,2.6436043E-3,4.883003E-3,1.091469E-3,-1.6220171E-3],"categories":[],"categories_nodes":[],"categories_segments":[],"categories_sizes":[],"default_left":[0,0,0,0,0,0,0,0,0,0,0,0,0,0,0],"id":59,"left_children":[1,3,5,7,9,11,13,-1,-1,-1,-1,-1,-1,-1,-1],"loss_changes":[1.5780801E2,4.321495E1,7.4217636E1,1.4940864E1,1.6615978E1,2.7609955E1,1.8489052E1,0E0,0E0,0E0,0E0,0E0,0E0,0E0,0E0],"parents":[2147483647,0,0,1,1,2,2,3,3,4,4,5,5,6,6],"right_children":[2,4,6,8,10,12,14,-1,-1,-1,-1,-1,-1,-1,-1],"split_conditions":[4.64E-1,-2.4E0,3E0,-4.8E0,5E0,2.3E1,1.4E1,-4.4920816E-4,2.4765925E-3,1.3985926E-3,-2.045946E-3,2.6436043E-3,4.883003E-3,1.091469E-3,-1.6220171E-3],"split_indices":[3,77,77,25,53,80,51,0,0,0,0,0,0,0,0],"split_type":[0,0,0,0,0,0,0,0,0,0,0,0,0,0,0],"sum_hessian":[6.397461E3,2.4315188E3,3.9659421E3,7.07412E2,1.7241068E3,2.6899773E3,1.2759648E3,3.1034628E2,3.970657E2,1.5304655E2,1.5710602E3,1.9140088E3,7.759685E2,9.335655E2,3.4239935E2],"tree_param":{"num_deleted":"0","num_feature":"106","num_nodes":"15","size_leaf_vector":"1"}},{"base_weights":[-1.1089794E-1,-2.6947758E-1,4.2217623E-2,-1.4692526E-1,-3.9762595E-1,-7.814306E-2,2.0958917E-1,-2.222155E-3,1.5823847E-5,-3.156331E-3,-5.2439305E-3,-1.682668E-3,1.3045595E-3,3.6584649E-3,1.5668647E-3],"categories":[],"categories_nodes":[],"categories_segments":[],"categories_sizes":[],"default_left":[0,0,0,0,0,0,0,0,0,0,0,0,0,0,0],"id":60,"left_children":[1,3,5,7,9,11,13,-1,-1,-1,-1,-1,-1,-1,-1],"loss_changes":[1.5531357E2,4.928778E1,6.5587074E1,1.7976334E1,1.579335E1,3.5630573E1,1.1200241E1,0E0,0E0,0E0,0E0,0E0,0E0,0E0,0E0],"parents":[2147483647,0,0,1,1,2,2,3,3,4,4,5,5,6,6],"right_children":[2,4,6,8,10,12,14,-1,-1,-1,-1,-1,-1,-1,-1],"split_conditions":[1.5E1,1.3E1,5.45E-1,1.19E1,2.3E1,2.5E1,4E0,-2.222155E-3,1.5823847E-5,-3.156331E-3,-5.2439305E-3,-1.682668E-3,1.3045595E-3,3.6584649E-3,1.5668647E-3],"split_indices":[51,80,55,60,80,28,103,0,0,0,0,0,0,0,0],"split_type":[0,0,0,0,0,0,0,0,0,0,0,0,0,0,0],"sum_hessian":[6.395036E3,3.1410918E3,3.2539443E3,1.6067003E3,1.5343914E3,1.8931036E3,1.3608407E3,1.0658436E3,5.408567E2,9.3386084E2,6.005306E2,1.3220951E3,5.7100854E2,3.4270032E2,1.0181404E3],"tree_param":{"num_deleted":"0","num_feature":"106","num_nodes":"15","size_leaf_vector":"1"}},{"base_weights":[1.1089795E-1,2.694776E-1,-4.2217623E-2,1.4692527E-1,3.9762598E-1,7.814307E-2,-2.0958918E-1,2.2221552E-3,-1.5823665E-5,3.1563314E-3,5.2439305E-3,1.6826681E-3,-1.3045595E-3,-3.6584649E-3,-1.5668648E-3],"categories":[],"categories_nodes":[],"categories_segments":[],"categories_sizes":[],"default_left":[0,0,0,0,0,0,0,0,0,0,0,0,0,0,0],"id":61,"left_children":[1,3,5,7,9,11,13,-1,-1,-1,-1,-1,-1,-1,-1],"loss_changes":[1.553136E2,4.9287766E1,6.558709E1,1.7976337E1,1.5793335E1,3.5630577E1,1.1200245E1,0E0,0E0,0E0,0E0,0E0,0E0,0E0,0E0],"parents":[2147483647,0,0,1,1,2,2,3,3,4,4,5,5,6,6],"right_children":[2,4,6,8,10,12,14,-1,-1,-1,-1,-1,-1,-1,-1],"split_conditions":[1.5E1,1.3E1,5.45E-1,1.19E1,2.3E1,2.5E1,4E0,2.2221552E-3,-1.5823665E-5,3.1563314E-3,5.2439305E-3,1.6826681E-3,-1.3045595E-3,-3.6584649E-3,-1.5668648E-3],"split_indices":[51,80,55,60,80,28,103,0,0,0,0,0,0,0,0],"split_type":[0,0,0,0,0,0,0,0,0,0,0,0,0,0,0],"sum_hessian":[6.395036E3,3.1410918E3,3.2539443E3,1.6067003E3,1.5343914E3,1.8931036E3,1.3608407E3,1.0658436E3,5.408567E2,9.3386084E2,6.005306E2,1.3220951E3,5.7100854E2,3.4270032E2,1.0181404E3],"tree_param":{"num_deleted":"0","num_feature":"106","num_nodes":"15","size_leaf_vector":"1"}},{"base_weights":[-1.0983167E-1,-2.099508E-1,1.2888455E-1,-4.0710112E-1,-1.2282769E-1,-1.311678E-1,1.9534147E-1,-3.1065647E-3,-5.254247E-3,-2.8570788E-3,-2.8475793E-4,-2.2080003E-3,7.273742E-4,3.2595503E-3,1.1211795E-3],"categories":[],"categories_nodes":[],"categories_segments":[],"categories_sizes":[],"default_left":[0,0,0,0,0,0,0,0,0,0,0,0,0,0,0],"id":62,"left_children":[1,3,5,7,9,11,13,-1,-1,-1,-1,-1,-1,-1,-1],"loss_changes":[1.5283536E2,7.732643E1,3.2685886E1,1.5587036E1,4.8026768E1,7.057005E0,1.632914E1,0E0,0E0,0E0,0E0,0E0,0E0,0E0,0E0],"parents":[2147483647,0,0,1,1,2,2,3,3,4,4,5,5,6,6],"right_children":[2,4,6,8,10,12,14,-1,-1,-1,-1,-1,-1,-1,-1],"split_conditions":[2E1,-1.7E0,3.58E-1,2.3E1,8E0,2.7E1,-6.2E0,-3.1065647E-3,-5.254247E-3,-2.8570788E-3,-2.8475793E-4,-2.2080003E-3,7.273742E-4,3.2595503E-3,1.1211795E-3],"split_indices":[28,77,55,1,51,28,25,0,0,0,0,0,0,0,0],"split_type":[0,0,0,0,0,0,0,0,0,0,0,0,0,0,0],"sum_hessian":[6.392636E3,4.5038237E3,1.8888126E3,1.3791904E3,3.124633E3,3.842462E2,1.5045664E3,7.618433E2,6.173471E2,1.1453613E3,1.9792719E3,2.668583E2,1.1738787E2,5.844289E2,9.201375E2],"tree_param":{"num_deleted":"0","num_feature":"106","num_nodes":"15","size_leaf_vector":"1"}},{"base_weights":[1.0983166E-1,2.099508E-1,-1.2888457E-1,4.071011E-1,1.22827694E-1,1.311678E-1,-1.9534148E-1,3.1065645E-3,5.2542463E-3,2.8570788E-3,2.8475796E-4,2.2080005E-3,-7.27375E-4,-3.2595505E-3,-1.1211797E-3],"categories":[],"categories_nodes":[],"categories_segments":[],"categories_sizes":[],"default_left":[0,0,0,0,0,0,0,0,0,0,0,0,0,0,0],"id":63,"left_children":[1,3,5,7,9,11,13,-1,-1,-1,-1,-1,-1,-1,-1],"loss_changes":[1.5283539E2,7.732643E1,3.268589E1,1.5587051E1,4.8026768E1,7.0570097E0,1.6329136E1,0E0,0E0,0E0,0E0,0E0,0E0,0E0,0E0],"parents":[2147483647,0,0,1,1,2,2,3,3,4,4,5,5,6,6],"right_children":[2,4,6,8,10,12,14,-1,-1,-1,-1,-1,-1,-1,-1],"split_conditions":[2E1,-1.7E0,3.58E-1,2.3E1,8E0,2.7E1,-6.2E0,3.1065645E-3,5.2542463E-3,2.8570788E-3,2.8475796E-4,2.2080005E-3,-7.27375E-4,-3.2595505E-3,-1.1211797E-3],"split_indices":[28,77,55,1,51,28,25,0,0,0,0,0,0,0,0],"split_type":[0,0,0,0,0,0,0,0,0,0,0,0,0,0,0],"sum_hessian":[6.392636E3,4.5038237E3,1.8888126E3,1.3791904E3,3.1246333E3,3.842462E2,1.5045664E3,7.618433E2,6.173471E2,1.1453613E3,1.9792719E3,2.668583E2,1.1738787E2,5.8442896E2,9.201375E2],"tree_param":{"num_deleted":"0","num_feature":"106","num_nodes":"15","size_leaf_vector":"1"}},{"base_weights":[-1.08777955E-1,3.8084805E-2,-2.686914E-1,-1.5717217E-1,1.3918047E-1,-3.3313972E-1,-1.705982E-2,-2.942409E-3,3.6484646E-5,5.4433726E-4,2.5522306E-3,-2.766075E-3,-5.1029776E-3,1.0609958E-4,-5.0026495E-3],"categories":[],"categories_nodes":[],"categories_segments":[],"categories_sizes":[],"default_left":[0,0,0,0,0,0,0,0,0,0,0,0,0,0,0],"id":64,"left_children":[1,3,5,7,9,11,13,-1,-1,-1,-1,-1,-1,-1,-1],"loss_changes":[1.5010794E2,6.580188E1,4.9614883E1,2.5070137E1,2.1583328E1,2.4253845E1,8.3607645E0,0E0,0E0,0E0,0E0,0E0,0E0,0E0,0E0],"parents":[2147483647,0,0,1,1,2,2,3,3,4,4,5,5,6,6],"right_children":[2,4,6,8,10,12,14,-1,-1,-1,-1,-1,-1,-1,-1],"split_conditions":[6E-1,-1.5E0,4.9E0,2.2E1,2.4E1,2.3E1,1.1E1,-2.942409E-3,3.6484646E-5,5.4433726E-4,2.5522306E-3,-2.766075E-3,-5.1029776E-3,1.0609958E-4,-5.0026495E-3],"split_indices":[25,77,77,28,51,80,25,0,0,0,0,0,0,0,0],"split_type":[0,0,0,0,0,0,0,0,0,0,0,0,0,0,0],"sum_hessian":[6.390126E3,3.3313826E3,3.0587437E3,1.1362552E3,2.1951272E3,2.4348115E3,6.239324E2,6.129788E2,5.232764E2,1.2694835E3,9.2564374E2,1.8477457E3,5.8706573E2,5.910643E2,3.2868076E1],"tree_param":{"num_deleted":"0","num_feature":"106","num_nodes":"15","size_leaf_vector":"1"}},{"base_weights":[1.08777955E-1,-3.80848E-2,2.686914E-1,1.5717219E-1,-1.3918047E-1,3.3313975E-1,1.7059777E-2,2.9424091E-3,-3.648451E-5,-5.443374E-4,-2.5522306E-3,2.766075E-3,5.1029776E-3,-1.0610004E-4,5.0026495E-3],"categories":[],"categories_nodes":[],"categories_segments":[],"categories_sizes":[],"default_left":[0,0,0,0,0,0,0,0,0,0,0,0,0,0,0],"id":65,"left_children":[1,3,5,7,9,11,13,-1,-1,-1,-1,-1,-1,-1,-1],"loss_changes":[1.5010794E2,6.5801895E1,4.9614944E1,2.5070135E1,2.1583328E1,2.4253815E1,8.360766E0,0E0,0E0,0E0,0E0,0E0,0E0,0E0,0E0],"parents":[2147483647,0,0,1,1,2,2,3,3,4,4,5,5,6,6],"right_children":[2,4,6,8,10,12,14,-1,-1,-1,-1,-1,-1,-1,-1],"split_conditions":[6E-1,-1.5E0,4.9E0,2.2E1,2.4E1,2.3E1,1.1E1,2.9424091E-3,-3.648451E-5,-5.443374E-4,-2.5522306E-3,2.766075E-3,5.1029776E-3,-1.0610004E-4,5.0026495E-3],"split_indices":[25,77,77,28,51,80,25,0,0,0,0,0,0,0,0],"split_type":[0,0,0,0,0,0,0,0,0,0,0,0,0,0,0],"sum_hessian":[6.390126E3,3.3313826E3,3.0587437E3,1.1362552E3,2.1951272E3,2.4348113E3,6.239324E2,6.129788E2,5.232764E2,1.2694835E3,9.2564374E2,1.8477457E3,5.8706573E2,5.910643E2,3.2868076E1],"tree_param":{"num_deleted":"0","num_feature":"106","num_nodes":"15","size_leaf_vector":"1"}},{"base_weights":[-1.07738405E-1,-2.060918E-1,1.2665346E-1,-1.2077952E-1,-4.0181938E-1,8.610539E-3,2.7026615E-1,-2.7667563E-3,-3.064588E-4,-3.4388814E-3,-5.405907E-3,1.1264166E-3,-1.0528663E-3,6.731075E-4,3.2274362E-3],"categories":[],"categories_nodes":[],"categories_segments":[],"categories_sizes":[],"default_left":[0,0,0,0,0,0,0,0,0,0,0,0,0,0,0],"id":66,"left_children":[1,3,5,7,9,11,13,-1,-1,-1,-1,-1,-1,-1,-1],"loss_changes":[1.4729977E2,7.510069E1,3.2019485E1,4.405362E1,1.0793518E1,1.2308449E1,9.053974E0,0E0,0E0,0E0,0E0,0E0,0E0,0E0,0E0],"parents":[2147483647,0,0,1,1,2,2,3,3,4,4,5,5,6,6],"right_children":[2,4,6,8,10,12,14,-1,-1,-1,-1,-1,-1,-1,-1],"split_conditions":[2E1,1.9E1,6E-1,8E0,3.7E1,-4.8E0,2.2E1,-2.7667563E-3,-3.064588E-4,-3.4388814E-3,-5.405907E-3,1.1264166E-3,-1.0528663E-3,6.731075E-4,3.2274362E-3],"split_indices":[28,80,77,51,54,25,51,0,0,0,0,0,0,0,0],"split_type":[0,0,0,0,0,0,0,0,0,0,0,0,0,0,0],"sum_hessian":[6.387418E3,4.4994995E3,1.8879183E3,3.1347605E3,1.3647389E3,1.0367875E3,8.51131E2,1.1476693E3,1.9870911E3,9.6526086E2,3.9947806E2,5.4186816E2,4.9491922E2,1.7532982E2,6.7580115E2],"tree_param":{"num_deleted":"0","num_feature":"106","num_nodes":"15","size_leaf_vector":"1"}},{"base_weights":[1.0773841E-1,2.060918E-1,-1.2665346E-1,1.2077953E-1,4.0181938E-1,-8.61053E-3,-2.7026615E-1,2.7667566E-3,3.0645888E-4,3.4388814E-3,5.405907E-3,-1.1264165E-3,1.0528663E-3,-6.731072E-4,-3.2274362E-3],"categories":[],"categories_nodes":[],"categories_segments":[],"categories_sizes":[],"default_left":[0,0,0,0,0,0,0,0,0,0,0,0,0,0,0],"id":67,"left_children":[1,3,5,7,9,11,13,-1,-1,-1,-1,-1,-1,-1,-1],"loss_changes":[1.4729977E2,7.510068E1,3.2019485E1,4.4053616E1,1.0793533E1,1.2308447E1,9.053974E0,0E0,0E0,0E0,0E0,0E0,0E0,0E0,0E0],"parents":[2147483647,0,0,1,1,2,2,3,3,4,4,5,5,6,6],"right_children":[2,4,6,8,10,12,14,-1,-1,-1,-1,-1,-1,-1,-1],"split_conditions":[2E1,1.9E1,6E-1,8E0,3.7E1,-4.8E0,2.2E1,2.7667566E-3,3.0645888E-4,3.4388814E-3,5.405907E-3,-1.1264165E-3,1.0528663E-3,-6.731072E-4,-3.2274362E-3],"split_indices":[28,80,77,51,54,25,51,0,0,0,0,0,0,0,0],"split_type":[0,0,0,0,0,0,0,0,0,0,0,0,0,0,0],"sum_hessian":[6.387418E3,4.4994995E3,1.8879183E3,3.1347605E3,1.3647389E3,1.0367875E3,8.51131E2,1.1476693E3,1.9870911E3,9.6526086E2,3.9947806E2,5.418682E2,4.9491922E2,1.7532982E2,6.7580115E2],"tree_param":{"num_deleted":"0","num_feature":"106","num_nodes":"15","size_leaf_vector":"1"}},{"base_weights":[-1.06706254E-1,3.7648622E-2,-2.63999E-1,-1.6575213E-1,1.315403E-1,-3.2776326E-1,-1.5358893E-2,5.3571345E-4,-2.6358047E-3,4.6932584E-4,2.467769E-3,-2.720517E-3,-5.027508E-3,1.1980737E-4,-4.932551E-3],"categories":[],"categories_nodes":[],"categories_segments":[],"categories_sizes":[],"default_left":[0,0,0,0,0,0,0,0,0,0,0,0,0,0,0],"id":68,"left_children":[1,3,5,7,9,11,13,-1,-1,-1,-1,-1,-1,-1,-1],"loss_changes":[1.450061E2,6.363085E1,4.8447266E1,2.2593653E1,2.2212025E1,2.357492E1,8.169516E0,0E0,0E0,0E0,0E0,0E0,0E0,0E0,0E0],"parents":[2147483647,0,0,1,1,2,2,3,3,4,4,5,5,6,6],"right_children":[2,4,6,8,10,12,14,-1,-1,-1,-1,-1,-1,-1,-1],"split_conditions":[6E-1,-1.9E0,4.9E0,3.33E-1,2.4E1,2.3E1,1.1E1,5.3571345E-4,-2.6358047E-3,4.6932584E-4,2.467769E-3,-2.720517E-3,-5.027508E-3,1.1980737E-4,-4.932551E-3],"split_indices":[25,77,77,3,51,80,25,0,0,0,0,0,0,0,0],"split_type":[0,0,0,0,0,0,0,0,0,0,0,0,0,0,0],"sum_hessian":[6.3848154E3,3.3297288E3,3.0550867E3,1.0513619E3,2.2783667E3,2.4312654E3,6.238212E2,3.244416E2,7.269203E2,1.3145906E3,9.637763E2,1.8460767E3,5.851887E2,5.909868E2,3.283442E1],"tree_param":{"num_deleted":"0","num_feature":"106","num_nodes":"15","size_leaf_vector":"1"}},{"base_weights":[1.0670626E-1,-3.764862E-2,2.6399902E-1,1.6575213E-1,-1.3154028E-1,3.277633E-1,1.5358867E-2,-5.357136E-4,2.6358047E-3,-4.6932578E-4,-2.467769E-3,2.720517E-3,5.027509E-3,-1.19807635E-4,4.932551E-3],"categories":[],"categories_nodes":[],"categories_segments":[],"categories_sizes":[],"default_left":[0,0,0,0,0,0,0,0,0,0,0,0,0,0,0],"id":69,"left_children":[1,3,5,7,9,11,13,-1,-1,-1,-1,-1,-1,-1,-1],"loss_changes":[1.4500609E2,6.3630848E1,4.8447266E1,2.259366E1,2.2212029E1,2.3574982E1,8.169516E0,0E0,0E0,0E0,0E0,0E0,0E0,0E0,0E0],"parents":[2147483647,0,0,1,1,2,2,3,3,4,4,5,5,6,6],"right_children":[2,4,6,8,10,12,14,-1,-1,-1,-1,-1,-1,-1,-1],"split_conditions":[6E-1,-1.9E0,4.9E0,3.33E-1,2.4E1,2.3E1,1.1E1,-5.357136E-4,2.6358047E-3,-4.6932578E-4,-2.467769E-3,2.720517E-3,5.027509E-3,-1.19807635E-4,4.932551E-3],"split_indices":[25,77,77,3,51,80,25,0,0,0,0,0,0,0,0],"split_type":[0,0,0,0,0,0,0,0,0,0,0,0,0,0,0],"sum_hessian":[6.3848154E3,3.3297288E3,3.0550867E3,1.0513619E3,2.2783667E3,2.4312654E3,6.238212E2,3.244416E2,7.269203E2,1.3145906E3,9.6377625E2,1.8460767E3,5.851887E2,5.909868E2,3.283442E1],"tree_param":{"num_deleted":"0","num_feature":"106","num_nodes":"15","size_leaf_vector":"1"}},{"base_weights":[-1.0568774E-1,-2.5779483E-1,4.091133E-2,-1.3912441E-1,-3.82363E-1,-7.56302E-2,2.029432E-1,-2.1357595E-3,7.66102E-5,-3.0332946E-3,-5.05188E-3,-1.6213941E-3,1.2450351E-3,3.5757248E-3,1.5061434E-3],"categories":[],"categories_nodes":[],"categories_segments":[],"categories_sizes":[],"default_left":[0,0,0,0,0,0,0,0,0,0,0,0,0,0,0],"id":70,"left_children":[1,3,5,7,9,11,13,-1,-1,-1,-1,-1,-1,-1,-1],"loss_changes":[1.4234418E2,4.6257645E1,6.140974E1,1.7552145E1,1.4678024E1,3.277372E1,1.095414E1,0E0,0E0,0E0,0E0,0E0,0E0,0E0,0E0],"parents":[2147483647,0,0,1,1,2,2,3,3,4,4,5,5,6,6],"right_children":[2,4,6,8,10,12,14,-1,-1,-1,-1,-1,-1,-1,-1],"split_conditions":[1.5E1,1.3E1,5.45E-1,1.19E1,2.3E1,2.5E1,4E0,-2.1357595E-3,7.66102E-5,-3.0332946E-3,-5.05188E-3,-1.6213941E-3,1.2450351E-3,3.5757248E-3,1.5061434E-3],"split_indices":[51,80,55,60,80,28,103,0,0,0,0,0,0,0,0],"split_type":[0,0,0,0,0,0,0,0,0,0,0,0,0,0,0],"sum_hessian":[6.382031E3,3.131802E3,3.2502285E3,1.6049532E3,1.5268488E3,1.8908015E3,1.359427E3,1.064546E3,5.4040717E2,9.3115405E2,5.9569476E2,1.3202877E3,5.7051385E2,3.4225293E2,1.01717413E3],"tree_param":{"num_deleted":"0","num_feature":"106","num_nodes":"15","size_leaf_vector":"1"}},{"base_weights":[1.0568774E-1,2.5779483E-1,-4.0911324E-2,1.391244E-1,3.82363E-1,7.563021E-2,-2.0294319E-1,2.1357592E-3,-7.661019E-5,3.0332946E-3,5.05188E-3,1.6213943E-3,-1.2450353E-3,-3.5757248E-3,-1.5061431E-3],"categories":[],"categories_nodes":[],"categories_segments":[],"categories_sizes":[],"default_left":[0,0,0,0,0,0,0,0,0,0,0,0,0,0,0],"id":71,"left_children":[1,3,5,7,9,11,13,-1,-1,-1,-1,-1,-1,-1,-1],"loss_changes":[1.4234418E2,4.6257645E1,6.140974E1,1.7552141E1,1.4678024E1,3.2773727E1,1.0954136E1,0E0,0E0,0E0,0E0,0E0,0E0,0E0,0E0],"parents":[2147483647,0,0,1,1,2,2,3,3,4,4,5,5,6,6],"right_children":[2,4,6,8,10,12,14,-1,-1,-1,-1,-1,-1,-1,-1],"split_conditions":[1.5E1,1.3E1,5.45E-1,1.19E1,2.3E1,2.5E1,4E0,2.1357592E-3,-7.661019E-5,3.0332946E-3,5.05188E-3,1.6213943E-3,-1.2450353E-3,-3.5757248E-3,-1.5061431E-3],"split_indices":[51,80,55,60,80,28,103,0,0,0,0,0,0,0,0],"split_type":[0,0,0,0,0,0,0,0,0,0,0,0,0,0,0],"sum_hessian":[6.382031E3,3.131802E3,3.2502285E3,1.6049532E3,1.5268488E3,1.8908015E3,1.359427E3,1.064546E3,5.4040717E2,9.3115405E2,5.9569476E2,1.3202877E3,5.7051385E2,3.4225293E2,1.01717413E3],"tree_param":{"num_deleted":"0","num_feature":"106","num_nodes":"15","size_leaf_vector":"1"}},{"base_weights":[-1.0467529E-1,8.119395E-2,-2.2279717E-1,-1.1454985E-1,1.6104037E-1,-3.128653E-1,-3.358346E-2,4.4935299E-4,-2.3603733E-3,3.5660272E-3,1.1238654E-3,-2.517747E-3,-4.6392865E-3,-1.5040213E-3,7.622389E-4],"categories":[],"categories_nodes":[],"categories_segments":[],"categories_sizes":[],"default_left":[0,0,0,0,0,0,0,0,0,0,0,0,0,0,0],"id":72,"left_children":[1,3,5,7,9,11,13,-1,-1,-1,-1,-1,-1,-1,-1],"loss_changes":[1.4010141E2,3.877899E1,6.647835E1,1.3943549E1,1.6723831E1,2.4275269E1,1.6165596E1,0E0,0E0,0E0,0E0,0E0,0E0,0E0,0E0],"parents":[2147483647,0,0,1,1,2,2,3,3,4,4,5,5,6,6],"right_children":[2,4,6,8,10,12,14,-1,-1,-1,-1,-1,-1,-1,-1],"split_conditions":[4.69E-1,-2.4E0,3E0,-4.8E0,5E0,2.3E1,9E0,4.4935299E-4,-2.3603733E-3,3.5660272E-3,1.1238654E-3,-2.517747E-3,-4.6392865E-3,-1.5040213E-3,7.622389E-4],"split_indices":[3,77,77,25,103,80,51,0,0,0,0,0,0,0,0],"split_type":[0,0,0,0,0,0,0,0,0,0,0,0,0,0,0],"sum_hessian":[6.37941E3,2.47897E3,3.9004402E3,7.1810297E2,1.7608668E3,2.6421091E3,1.258331E3,3.1076718E2,4.0733582E2,3.495467E2,1.4113202E3,1.8832019E3,7.589073E2,6.0952136E2,6.488097E2],"tree_param":{"num_deleted":"0","num_feature":"106","num_nodes":"15","size_leaf_vector":"1"}},{"base_weights":[1.0467529E-1,-8.119393E-2,2.2279716E-1,1.1454985E-1,-1.6104034E-1,3.128653E-1,3.3583444E-2,-4.4935304E-4,2.3603733E-3,-3.5660267E-3,-1.1238653E-3,2.517747E-3,4.639286E-3,1.5040216E-3,-7.6223933E-4],"categories":[],"categories_nodes":[],"categories_segments":[],"categories_sizes":[],"default_left":[0,0,0,0,0,0,0,0,0,0,0,0,0,0,0],"id":73,"left_children":[1,3,5,7,9,11,13,-1,-1,-1,-1,-1,-1,-1,-1],"loss_changes":[1.4010141E2,3.8778988E1,6.647833E1,1.3943551E1,1.6723827E1,2.4275238E1,1.6165604E1,0E0,0E0,0E0,0E0,0E0,0E0,0E0,0E0],"parents":[2147483647,0,0,1,1,2,2,3,3,4,4,5,5,6,6],"right_children":[2,4,6,8,10,12,14,-1,-1,-1,-1,-1,-1,-1,-1],"split_conditions":[4.69E-1,-2.4E0,3E0,-4.8E0,5E0,2.3E1,9E0,-4.4935304E-4,2.3603733E-3,-3.5660267E-3,-1.1238653E-3,2.517747E-3,4.639286E-3,1.5040216E-3,-7.6223933E-4],"split_indices":[3,77,77,25,103,80,51,0,0,0,0,0,0,0,0],"split_type":[0,0,0,0,0,0,0,0,0,0,0,0,0,0,0],"sum_hessian":[6.37941E3,2.47897E3,3.9004402E3,7.1810297E2,1.760867E3,2.6421091E3,1.258331E3,3.1076718E2,4.0733582E2,3.495467E2,1.4113202E3,1.8832019E3,7.589073E2,6.0952136E2,6.488097E2],"tree_param":{"num_deleted":"0","num_feature":"106","num_nodes":"15","size_leaf_vector":"1"}},{"base_weights":[-1.036744E-1,-1.9893278E-1,1.23108834E-1,-8.228849E-2,-3.3382368E-1,-1.2727924E-1,1.8714128E-1,-2.0052618E-3,2.4694682E-4,-4.6433094E-3,-2.6423798E-3,-2.1362859E-3,6.8980246E-4,3.141618E-3,1.0631011E-3],"categories":[],"categories_nodes":[],"categories_segments":[],"categories_sizes":[],"default_left":[0,0,0,0,0,0,0,0,0,0,0,0,0,0,0],"id":74,"left_children":[1,3,5,7,9,11,13,-1,-1,-1,-1,-1,-1,-1,-1],"loss_changes":[1.3780144E2,7.064406E1,3.0279686E1,3.0490412E1,1.878984E1,6.5377283E0,1.5400242E1,0E0,0E0,0E0,0E0,0E0,0E0,0E0,0E0],"parents":[2147483647,0,0,1,1,2,2,3,3,4,4,5,5,6,6],"right_children":[2,4,6,8,10,12,14,-1,-1,-1,-1,-1,-1,-1,-1],"split_conditions":[2E1,1.4E1,3.58E-1,1E1,8E0,2.7E1,-6.2E0,-2.0052618E-3,2.4694682E-4,-4.6433094E-3,-2.6423798E-3,-2.1362859E-3,6.8980246E-4,3.141618E-3,1.0631011E-3],"split_indices":[28,80,55,51,51,28,25,0,0,0,0,0,0,0,0],"split_type":[0,0,0,0,0,0,0,0,0,0,0,0,0,0,0],"sum_hessian":[6.3766743E3,4.490571E3,1.8861038E3,2.409024E3,2.0815469E3,3.8390817E2,1.5021956E3,1.1439059E3,1.2651179E3,7.2192E2,1.3596268E3,2.66546E2,1.173622E2,5.8306433E2,9.191313E2],"tree_param":{"num_deleted":"0","num_feature":"106","num_nodes":"15","size_leaf_vector":"1"}},{"base_weights":[1.0367439E-1,1.989328E-1,-1.2310886E-1,8.22885E-2,3.3382368E-1,1.2727918E-1,-1.8714131E-1,2.0052618E-3,-2.4694676E-4,4.6433094E-3,2.6423796E-3,2.1362856E-3,-6.8980333E-4,-3.1416183E-3,-1.0631012E-3],"categories":[],"categories_nodes":[],"categories_segments":[],"categories_sizes":[],"default_left":[0,0,0,0,0,0,0,0,0,0,0,0,0,0,0],"id":75,"left_children":[1,3,5,7,9,11,13,-1,-1,-1,-1,-1,-1,-1,-1],"loss_changes":[1.3780145E2,7.064404E1,3.0279673E1,3.0490417E1,1.878984E1,6.53773E0,1.54002495E1,0E0,0E0,0E0,0E0,0E0,0E0,0E0,0E0],"parents":[2147483647,0,0,1,1,2,2,3,3,4,4,5,5,6,6],"right_children":[2,4,6,8,10,12,14,-1,-1,-1,-1,-1,-1,-1,-1],"split_conditions":[2E1,1.4E1,3.58E-1,1E1,8E0,2.7E1,-6.2E0,2.0052618E-3,-2.4694676E-4,4.6433094E-3,2.6423796E-3,2.1362856E-3,-6.8980333E-4,-3.1416183E-3,-1.0631012E-3],"split_indices":[28,80,55,51,51,28,25,0,0,0,0,0,0,0,0],"split_type":[0,0,0,0,0,0,0,0,0,0,0,0,0,0,0],"sum_hessian":[6.376675E3,4.490571E3,1.8861038E3,2.409024E3,2.0815469E3,3.8390817E2,1.5021957E3,1.1439059E3,1.2651179E3,7.2192E2,1.359627E3,2.66546E2,1.173622E2,5.8306433E2,9.191313E2],"tree_param":{"num_deleted":"0","num_feature":"106","num_nodes":"15","size_leaf_vector":"1"}},{"base_weights":[-1.0268393E-1,3.6809992E-2,-2.5492582E-1,-1.7736104E-1,1.2091645E-1,-3.1537625E-1,-4.4908654E-3,5.412564E-4,-2.7987626E-3,2.5739118E-3,5.097324E-4,-2.615996E-3,-4.8796376E-3,2.5175168E-4,-4.3561207E-3],"categories":[],"categories_nodes":[],"categories_segments":[],"categories_sizes":[],"default_left":[0,0,0,0,0,0,0,0,0,0,0,0,0,0,0],"id":76,"left_children":[1,3,5,7,9,11,13,-1,-1,-1,-1,-1,-1,-1,-1],"loss_changes":[1.3539185E2,5.9962112E1,4.6146393E1,2.229141E1,2.2799625E1,2.266272E1,7.6047325E0,0E0,0E0,0E0,0E0,0E0,0E0,0E0,0E0],"parents":[2147483647,0,0,1,1,2,2,3,3,4,4,5,5,6,6],"right_children":[2,4,6,8,10,12,14,-1,-1,-1,-1,-1,-1,-1,-1],"split_conditions":[6E-1,-2.4E0,5.1E0,3.33E-1,8E0,2.3E1,1.08E1,5.412564E-4,-2.7987626E-3,2.5739118E-3,5.097324E-4,-2.615996E-3,-4.8796376E-3,2.5175168E-4,-4.3561207E-3],"split_indices":[25,77,77,3,103,80,25,0,0,0,0,0,0,0,0],"split_type":[0,0,0,0,0,0,0,0,0,0,0,0,0,0,0],"sum_hessian":[6.373894E3,3.3266025E3,3.0472915E3,9.3770233E2,2.3889001E3,2.4545488E3,5.9274274E2,2.8795395E2,6.497484E2,8.0855316E2,1.580347E3,1.873347E3,5.812018E2,5.554622E2,3.72805E1],"tree_param":{"num_deleted":"0","num_feature":"106","num_nodes":"15","size_leaf_vector":"1"}},{"base_weights":[1.0268393E-1,-3.6809992E-2,2.5492582E-1,1.7736103E-1,-1.2091645E-1,3.1537628E-1,4.4908295E-3,-5.4125633E-4,2.7987626E-3,-2.5739118E-3,-5.097324E-4,2.6159962E-3,4.8796376E-3,-2.5175203E-4,4.3561202E-3],"categories":[],"categories_nodes":[],"categories_segments":[],"categories_sizes":[],"default_left":[0,0,0,0,0,0,0,0,0,0,0,0,0,0,0],"id":77,"left_children":[1,3,5,7,9,11,13,-1,-1,-1,-1,-1,-1,-1,-1],"loss_changes":[1.3539188E2,5.9962097E1,4.6146378E1,2.2291407E1,2.2799625E1,2.2662704E1,7.604732E0,0E0,0E0,0E0,0E0,0E0,0E0,0E0,0E0],"parents":[2147483647,0,0,1,1,2,2,3,3,4,4,5,5,6,6],"right_children":[2,4,6,8,10,12,14,-1,-1,-1,-1,-1,-1,-1,-1],"split_conditions":[6E-1,-2.4E0,5.1E0,3.33E-1,8E0,2.3E1,1.08E1,-5.4125633E-4,2.7987626E-3,-2.5739118E-3,-5.097324E-4,2.6159962E-3,