{"learner":{"attributes":{},"feature_names":[],"feature_types":[],"gradient_booster":{"model":{"gbtree_model_param":{"num_parallel_tree":"1","num_trees":"1500"},"iteration_indptr":[0,2,4,6,8,10,12,14,16,18,20,22,24,26,28,30,32,34,36,38,40,42,44,46,48,50,52,54,56,58,60,62,64,66,68,70,72,74,76,78,80,82,84,86,88,90,92,94,96,98,100,102,104,106,108,110,112,114,116,118,120,122,124,126,128,130,132,134,136,138,140,142,144,146,148,150,152,154,156,158,160,162,164,166,168,170,172,174,176,178,180,182,184,186,188,190,192,194,196,198,200,202,204,206,208,210,212,214,216,218,220,222,224,226,228,230,232,234,236,238,240,242,244,246,248,250,252,254,256,258,260,262,264,266,268,270,272,274,276,278,280,282,284,286,288,290,292,294,296,298,300,302,304,306,308,310,312,314,316,318,320,322,324,326,328,330,332,334,336,338,340,342,344,346,348,350,352,354,356,358,360,362,364,366,368,370,372,374,376,378,380,382,384,386,388,390,392,394,396,398,400,402,404,406,408,410,412,414,416,418,420,422,424,426,428,430,432,434,436,438,440,442,444,446,448,450,452,454,456,458,460,462,464,466,468,470,472,474,476,478,480,482,484,486,488,490,492,494,496,498,500,502,504,506,508,510,512,514,516,518,520,522,524,526,528,530,532,534,536,538,540,542,544,546,548,550,552,554,556,558,560,562,564,566,568,570,572,574,576,578,580,582,584,586,588,590,592,594,596,598,600,602,604,606,608,610,612,614,616,618,620,622,624,626,628,630,632,634,636,638,640,642,644,646,648,650,652,654,656,658,660,662,664,666,668,670,672,674,676,678,680,682,684,686,688,690,692,694,696,698,700,702,704,706,708,710,712,714,716,718,720,722,724,726,728,730,732,734,736,738,740,742,744,746,748,750,752,754,756,758,760,762,764,766,768,770,772,774,776,778,780,782,784,786,788,790,792,794,796,798,800,802,804,806,808,810,812,814,816,818,820,822,824,826,828,830,832,834,836,838,840,842,844,846,848,850,852,854,856,858,860,862,864,866,868,870,872,874,876,878,880,882,884,886,888,890,892,894,896,898,900,902,904,906,908,910,912,914,916,918,920,922,924,926,928,930,932,934,936,938,940,942,944,946,948,950,952,954,956,958,960,962,964,966,968,970,972,974,976,978,980,982,984,986,988,990,992,994,996,998,1000,1002,1004,1006,1008,1010,1012,1014,1016,1018,1020,1022,1024,1026,1028,1030,1032,1034,1036,1038,1040,1042,1044,1046,1048,1050,1052,1054,1056,1058,1060,1062,1064,1066,1068,1070,1072,1074,1076,1078,1080,1082,1084,1086,1088,1090,1092,1094,1096,1098,1100,1102,1104,1106,1108,1110,1112,1114,1116,1118,1120,1122,1124,1126,1128,1130,1132,1134,1136,1138,1140,1142,1144,1146,1148,1150,1152,1154,1156,1158,1160,1162,1164,1166,1168,1170,1172,1174,1176,1178,1180,1182,1184,1186,1188,1190,1192,1194,1196,1198,1200,1202,1204,1206,1208,1210,1212,1214,1216,1218,1220,1222,1224,1226,1228,1230,1232,1234,1236,1238,1240,1242,1244,1246,1248,1250,1252,1254,1256,1258,1260,1262,1264,1266,1268,1270,1272,1274,1276,1278,1280,1282,1284,1286,1288,1290,1292,1294,1296,1298,1300,1302,1304,1306,1308,1310,1312,1314,1316,1318,1320,1322,1324,1326,1328,1330,1332,1334,1336,1338,1340,1342,1344,1346,1348,1350,1352,1354,1356,1358,1360,1362,1364,1366,1368,1370,1372,1374,1376,1378,1380,1382,1384,1386,1388,1390,1392,1394,1396,1398,1400,1402,1404,1406,1408,1410,1412,1414,1416,1418,1420,1422,1424,1426,1428,1430,1432,1434,1436,1438,1440,1442,1444,1446,1448,1450,1452,1454,1456,1458,1460,1462,1464,1466,1468,1470,1472,1474,1476,1478,1480,1482,1484,1486,1488,1490,1492,1494,1496,1498,1500],"tree_info":[0,1,0,1,0,1,0,1,0,1,0,1,0,1,0,1,0,1,0,1,0,1,0,1,0,1,0,1,0,1,0,1,0,1,0,1,0,1,0,1,0,1,0,1,0,1,0,1,0,1,0,1,0,1,0,1,0,1,0,1,0,1,0,1,0,1,0,1,0,1,0,1,0,1,0,1,0,1,0,1,0,1,0,1,0,1,0,1,0,1,0,1,0,1,0,1,0,1,0,1,0,1,0,1,0,1,0,1,0,1,0,1,0,1,0,1,0,1,0,1,0,1,0,1,0,1,0,1,0,1,0,1,0,1,0,1,0,1,0,1,0,1,0,1,0,1,0,1,0,1,0,1,0,1,0,1,0,1,0,1,0,1,0,1,0,1,0,1,0,1,0,1,0,1,0,1,0,1,0,1,0,1,0,1,0,1,0,1,0,1,0,1,0,1,0,1,0,1,0,1,0,1,0,1,0,1,0,1,0,1,0,1,0,1,0,1,0,1,0,1,0,1,0,1,0,1,0,1,0,1,0,1,0,1,0,1,0,1,0,1,0,1,0,1,0,1,0,1,0,1,0,1,0,1,0,1,0,1,0,1,0,1,0,1,0,1,0,1,0,1,0,1,0,1,0,1,0,1,0,1,0,1,0,1,0,1,0,1,0,1,0,1,0,1,0,1,0,1,0,1,0,1,0,1,0,1,0,1,0,1,0,1,0,1,0,1,0,1,0,1,0,1,0,1,0,1,0,1,0,1,0,1,0,1,0,1,0,1,0,1,0,1,0,1,0,1,0,1,0,1,0,1,0,1,0,1,0,1,0,1,0,1,0,1,0,1,0,1,0,1,0,1,0,1,0,1,0,1,0,1,0,1,0,1,0,1,0,1,0,1,0,1,0,1,0,1,0,1,0,1,0,1,0,1,0,1,0,1,0,1,0,1,0,1,0,1,0,1,0,1,0,1,0,1,0,1,0,1,0,1,0,1,0,1,0,1,0,1,0,1,0,1,0,1,0,1,0,1,0,1,0,1,0,1,0,1,0,1,0,1,0,1,0,1,0,1,0,1,0,1,0,1,0,1,0,1,0,1,0,1,0,1,0,1,0,1,0,1,0,1,0,1,0,1,0,1,0,1,0,1,0,1,0,1,0,1,0,1,0,1,0,1,0,1,0,1,0,1,0,1,0,1,0,1,0,1,0,1,0,1,0,1,0,1,0,1,0,1,0,1,0,1,0,1,0,1,0,1,0,1,0,1,0,1,0,1,0,1,0,1,0,1,0,1,0,1,0,1,0,1,0,1,0,1,0,1,0,1,0,1,0,1,0,1,0,1,0,1,0,1,0,1,0,1,0,1,0,1,0,1,0,1,0,1,0,1,0,1,0,1,0,1,0,1,0,1,0,1,0,1,0,1,0,1,0,1,0,1,0,1,0,1,0,1,0,1,0,1,0,1,0,1,0,1,0,1,0,1,0,1,0,1,0,1,0,1,0,1,0,1,0,1,0,1,0,1,0,1,0,1,0,1,0,1,0,1,0,1,0,1,0,1,0,1,0,1,0,1,0,1,0,1,0,1,0,1,0,1,0,1,0,1,0,1,0,1,0,1,0,1,0,1,0,1,0,1,0,1,0,1,0,1,0,1,0,1,0,1,0,1,0,1,0,1,0,1,0,1,0,1,0,1,0,1,0,1,0,1,0,1,0,1,0,1,0,1,0,1,0,1,0,1,0,1,0,1,0,1,0,1,0,1,0,1,0,1,0,1,0,1,0,1,0,1,0,1,0,1,0,1,0,1,0,1,0,1,0,1,0,1,0,1,0,1,0,1,0,1,0,1,0,1,0,1,0,1,0,1,0,1,0,1,0,1,0,1,0,1,0,1,0,1,0,1,0,1,0,1,0,1,0,1,0,1,0,1,0,1,0,1,0,1,0,1,0,1,0,1,0,1,0,1,0,1,0,1,0,1,0,1,0,1,0,1,0,1,0,1,0,1,0,1,0,1,0,1,0,1,0,1,0,1,0,1,0,1,0,1,0,1,0,1,0,1,0,1,0,1,0,1,0,1,0,1,0,1,0,1,0,1,0,1,0,1,0,1,0,1,0,1,0,1,0,1,0,1,0,1,0,1,0,1,0,1,0,1,0,1,0,1,0,1,0,1,0,1,0,1,0,1,0,1,0,1,0,1,0,1,0,1,0,1,0,1,0,1,0,1,0,1,0,1,0,1,0,1,0,1,0,1,0,1,0,1,0,1,0,1,0,1,0,1,0,1,0,1,0,1,0,1,0,1,0,1,0,1,0,1,0,1,0,1,0,1,0,1,0,1,0,1,0,1,0,1,0,1,0,1,0,1,0,1,0,1,0,1,0,1,0,1,0,1,0,1,0,1,0,1,0,1,0,1,0,1,0,1,0,1,0,1,0,1,0,1,0,1,0,1,0,1,0,1,0,1,0,1,0,1,0,1,0,1,0,1,0,1,0,1,0,1,0,1,0,1,0,1,0,1,0,1,0,1,0,1,0,1,0,1,0,1,0,1,0,1,0,1,0,1,0,1,0,1,0,1,0,1,0,1,0,1,0,1,0,1,0,1,0,1,0,1,0,1,0,1,0,1,0,1,0,1,0,1,0,1,0,1,0,1,0,1,0,1,0,1,0,1,0,1,0,1,0,1,0,1,0,1,0,1,0,1,0,1,0,1,0,1,0,1,0,1,0,1,0,1,0,1,0,1,0,1,0,1,0,1,0,1,0,1,0,1,0,1,0,1,0,1,0,1,0,1,0,1,0,1,0,1,0,1,0,1,0,1,0,1,0,1,0,1,0,1,0,1,0,1,0,1,0,1,0,1,0,1,0,1,0,1,0,1,0,1,0,1,0,1,0,1,0,1,0,1,0,1,0,1,0,1,0,1,0,1,0,1,0,1,0,1,0,1,0,1,0,1,0,1,0,1,0,1,0,1,0,1,0,1,0,1,0,1,0,1,0,1,0,1,0,1,0,1,0,1,0,1,0,1,0,1,0,1,0,1,0,1,0,1,0,1,0,1,0,1,0,1,0,1,0,1,0,1,0,1,0,1,0,1,0,1,0,1,0,1,0,1,0,1,0,1,0,1,0,1,0,1,0,1,0,1,0,1,0,1,0,1,0,1,0,1,0,1,0,1,0,1,0,1,0,1,0,1,0,1,0,1,0,1,0,1,0,1,0,1,0,1,0,1,0,1,0,1,0,1,0,1,0,1,0,1,0,1,0,1,0,1,0,1,0,1,0,1,0,1,0,1,0,1,0,1,0,1,0,1,0,1,0,1,0,1,0,1,0,1,0,1,0,1,0,1,0,1,0,1,0,1,0,1,0,1,0,1,0,1,0,1,0,1,0,1,0,1,0,1],"trees":[{"base_weights":[-1.5394768E-1,1.2275574E-1,-3.1768194E-1,-1.323978E-1,2.553124E-1,-1.5568022E-1,-4.9908304E-1,6.6852366E-4,-2.8710726E-3,3.1399047E-3,2.3474179E-4,-1.9348749E-4,-2.8921794E-3,-4.0244455E-3,-6.310559E-3],"categories":[],"categories_nodes":[],"categories_segments":[],"categories_sizes":[],"default_left":[0,0,0,0,0,0,0,0,0,0,0,0,0,0,0],"id":0,"left_children":[1,3,5,7,9,11,13,-1,-1,-1,-1,-1,-1,-1,-1],"loss_changes":[2.9183124E2,8.1038216E1,1.1883798E2,2.528101E1,2.1439041E1,3.8935745E1,2.4086365E1,0E0,0E0,0E0,0E0,0E0,0E0,0E0,0E0],"parents":[2147483647,0,0,1,1,2,2,3,3,4,4,5,5,6,6],"right_children":[2,4,6,8,10,12,14,-1,-1,-1,-1,-1,-1,-1,-1],"split_conditions":[4.6E-1,-1.6E0,1.4E1,-4.8E0,-1.6E0,2.9E0,2.3E1,6.6852366E-4,-2.8710726E-3,3.1399047E-3,2.3474179E-4,-1.9348749E-4,-2.8921794E-3,-4.0244455E-3,-6.310559E-3],"split_indices":[3,77,80,25,25,25,80,0,0,0,0,0,0,0,0],"split_type":[0,0,0,0,0,0,0,0,0,0,0,0,0,0,0],"sum_hessian":[6.4395E3,2.394E3,4.0455E3,8.185E2,1.5755E3,2.138E3,1.9075E3,3.58E2,4.605E2,1.257E3,3.185E2,1.0585E3,1.0795E3,1.1035E3,8.04E2],"tree_param":{"num_deleted":"0","num_feature":"106","num_nodes":"15","size_leaf_vector":"1"}},{"base_weights":[1.5394768E-1,-1.2275574E-1,3.1768194E-1,1.323978E-1,-2.553124E-1,1.5568022E-1,4.9908304E-1,-6.6852366E-4,2.8710726E-3,-3.1399047E-3,-2.3474179E-4,1.9348749E-4,2.8921794E-3,4.0244455E-3,6.310559E-3],"categories":[],"categories_nodes":[],"categories_segments":[],"categories_sizes":[],"default_left":[0,0,0,0,0,0,0,0,0,0,0,0,0,0,0],"id":1,"left_children":[1,3,5,7,9,11,13,-1,-1,-1,-1,-1,-1,-1,-1],"loss_changes":[2.9183124E2,8.1038216E1,1.1883798E2,2.528101E1,2.1439041E1,3.8935745E1,2.4086365E1,0E0,0E0,0E0,0E0,0E0,0E0,0E0,0E0],"parents":[2147483647,0,0,1,1,2,2,3,3,4,4,5,5,6,6],"right_children":[2,4,6,8,10,12,14,-1,-1,-1,-1,-1,-1,-1,-1],"split_conditions":[4.6E-1,-1.6E0,1.4E1,-4.8E0,-1.6E0,2.9E0,2.3E1,-6.6852366E-4,2.8710726E-3,-3.1399047E-3,-2.3474179E-4,1.9348749E-4,2.8921794E-3,4.0244455E-3,6.310559E-3],"split_indices":[3,77,80,25,25,25,80,0,0,0,0,0,0,0,0],"split_type":[0,0,0,0,0,0,0,0,0,0,0,0,0,0,0],"sum_hessian":[6.4395E3,2.394E3,4.0455E3,8.185E2,1.5755E3,2.138E3,1.9075E3,3.58E2,4.605E2,1.257E3,3.185E2,1.0585E3,1.0795E3,1.1035E3,8.04E2],"tree_param":{"num_deleted":"0","num_feature":"106","num_nodes":"15","size_leaf_vector":"1"}},{"base_weights":[-1.5241186E-1,1.21529534E-1,-3.1451303E-1,-1.4702258E-1,2.4501272E-1,-1.541255E-1,-4.9411055E-1,5.2283594E-4,-3.0148597E-3,1.5929261E-3,4.0997528E-3,-1.9155456E-4,-2.8633077E-3,-3.984302E-3,-6.2477808E-3],"categories":[],"categories_nodes":[],"categories_segments":[],"categories_sizes":[],"default_left":[0,0,0,0,0,0,0,0,0,0,0,0,0,0,0],"id":2,"left_children":[1,3,5,7,9,11,13,-1,-1,-1,-1,-1,-1,-1,-1],"loss_changes":[2.8603308E2,7.945768E1,1.1648245E2,2.3258713E1,2.3139252E1,3.8162144E1,2.3611084E1,0E0,0E0,0E0,0E0,0E0,0E0,0E0,0E0],"parents":[2147483647,0,0,1,1,2,2,3,3,4,4,5,5,6,6],"right_children":[2,4,6,8,10,12,14,-1,-1,-1,-1,-1,-1,-1,-1],"split_conditions":[4.6E-1,-2E0,1.4E1,-4.8E0,2.7E1,2.9E0,2.3E1,5.2283594E-4,-3.0148597E-3,1.5929261E-3,4.0997528E-3,-1.9155456E-4,-2.8633077E-3,-3.984302E-3,-6.2477808E-3],"split_indices":[3,77,80,25,51,25,80,0,0,0,0,0,0,0,0],"split_type":[0,0,0,0,0,0,0,0,0,0,0,0,0,0,0],"sum_hessian":[6.439425E3,2.3939836E3,4.0454412E3,7.5399634E2,1.6399873E3,2.137991E3,1.9074501E3,3.2949985E2,4.244965E2,1.0804927E3,5.594947E2,1.0584999E3,1.0794911E3,1.1034822E3,8.0396796E2],"tree_param":{"num_deleted":"0","num_feature":"106","num_nodes":"15","size_leaf_vector":"1"}},{"base_weights":[1.5241192E-1,-1.21529475E-1,3.145131E-1,1.4702259E-1,-2.4501264E-1,1.5412554E-1,4.941106E-1,-5.2283594E-4,3.01486E-3,-1.5929254E-3,-4.099752E-3,1.9155456E-4,2.8633086E-3,3.9843023E-3,6.247781E-3],"categories":[],"categories_nodes":[],"categories_segments":[],"categories_sizes":[],"default_left":[0,0,0,0,0,0,0,0,0,0,0,0,0,0,0],"id":3,"left_children":[1,3,5,7,9,11,13,-1,-1,-1,-1,-1,-1,-1,-1],"loss_changes":[2.8603314E2,7.945766E1,1.1648239E2,2.3258715E1,2.3139252E1,3.8162174E1,2.3611115E1,0E0,0E0,0E0,0E0,0E0,0E0,0E0,0E0],"parents":[2147483647,0,0,1,1,2,2,3,3,4,4,5,5,6,6],"right_children":[2,4,6,8,10,12,14,-1,-1,-1,-1,-1,-1,-1,-1],"split_conditions":[4.6E-1,-2E0,1.4E1,-4.8E0,2.7E1,2.9E0,2.3E1,-5.2283594E-4,3.01486E-3,-1.5929254E-3,-4.099752E-3,1.9155456E-4,2.8633086E-3,3.9843023E-3,6.247781E-3],"split_indices":[3,77,80,25,51,25,80,0,0,0,0,0,0,0,0],"split_type":[0,0,0,0,0,0,0,0,0,0,0,0,0,0,0],"sum_hessian":[6.439425E3,2.3939836E3,4.045441E3,7.539964E2,1.6399874E3,2.137991E3,1.9074501E3,3.2949985E2,4.2449652E2,1.0804927E3,5.594947E2,1.0584999E3,1.079491E3,1.103482E3,8.03968E2],"tree_param":{"num_deleted":"0","num_feature":"106","num_nodes":"15","size_leaf_vector":"1"}},{"base_weights":[-1.5089455E-1,1.2031781E-1,-3.1138474E-1,-1.264755E-1,2.5213376E-1,-1.5258764E-1,-4.8921293E-1,6.260547E-4,-2.7396728E-3,1.6657044E-3,4.15765E-3,-1.8964098E-4,-2.8347725E-3,-3.9446857E-3,-6.186112E-3],"categories":[],"categories_nodes":[],"categories_segments":[],"categories_sizes":[],"default_left":[0,0,0,0,0,0,0,0,0,0,0,0,0,0,0],"id":4,"left_children":[1,3,5,7,9,11,13,-1,-1,-1,-1,-1,-1,-1,-1],"loss_changes":[2.803598E2,7.794234E1,1.1418631E2,2.3289143E1,2.179242E1,3.7404957E1,2.3151276E1,0E0,0E0,0E0,0E0,0E0,0E0,0E0,0E0],"parents":[2147483647,0,0,1,1,2,2,3,3,4,4,5,5,6,6],"right_children":[2,4,6,8,10,12,14,-1,-1,-1,-1,-1,-1,-1,-1],"split_conditions":[4.6E-1,-1.5E0,1.4E1,-4.8E0,2.7E1,2.9E0,2.3E1,6.260547E-4,-2.7396728E-3,1.6657044E-3,4.15765E-3,-1.8964098E-4,-2.8347725E-3,-3.9446857E-3,-6.186112E-3],"split_indices":[3,77,80,25,51,25,80,0,0,0,0,0,0,0,0],"split_type":[0,0,0,0,0,0,0,0,0,0,0,0,0,0,0],"sum_hessian":[6.4392056E3,2.3939387E3,4.0452666E3,8.3348376E2,1.5604551E3,2.137964E3,1.9073024E3,3.654987E2,4.6798508E2,1.025983E3,5.34472E2,1.0584999E3,1.0794642E3,1.1034292E3,8.038732E2],"tree_param":{"num_deleted":"0","num_feature":"106","num_nodes":"15","size_leaf_vector":"1"}},{"base_weights":[1.5089454E-1,-1.20317794E-1,3.1138474E-1,1.2647551E-1,-2.5213376E-1,1.5258762E-1,4.892129E-1,-6.260547E-4,2.7396728E-3,-1.6657047E-3,-4.157649E-3,1.8964069E-4,2.8347725E-3,3.9446848E-3,6.186113E-3],"categories":[],"categories_nodes":[],"categories_segments":[],"categories_sizes":[],"default_left":[0,0,0,0,0,0,0,0,0,0,0,0,0,0,0],"id":5,"left_children":[1,3,5,7,9,11,13,-1,-1,-1,-1,-1,-1,-1,-1],"loss_changes":[2.8035974E2,7.794235E1,1.1418628E2,2.3289145E1,2.1792389E1,3.7404964E1,2.3151337E1,0E0,0E0,0E0,0E0,0E0,0E0,0E0,0E0],"parents":[2147483647,0,0,1,1,2,2,3,3,4,4,5,5,6,6],"right_children":[2,4,6,8,10,12,14,-1,-1,-1,-1,-1,-1,-1,-1],"split_conditions":[4.6E-1,-1.5E0,1.4E1,-4.8E0,2.7E1,2.9E0,2.3E1,-6.260547E-4,2.7396728E-3,-1.6657047E-3,-4.157649E-3,1.8964069E-4,2.8347725E-3,3.9446848E-3,6.186113E-3],"split_indices":[3,77,80,25,51,25,80,0,0,0,0,0,0,0,0],"split_type":[0,0,0,0,0,0,0,0,0,0,0,0,0,0,0],"sum_hessian":[6.4392056E3,2.393939E3,4.0452666E3,8.334838E2,1.5604552E3,2.137964E3,1.9073024E3,3.654987E2,4.679851E2,1.0259832E3,5.3447205E2,1.0584999E3,1.0794642E3,1.1034292E3,8.0387317E2],"tree_param":{"num_deleted":"0","num_feature":"106","num_nodes":"15","size_leaf_vector":"1"}},{"base_weights":[-1.4939554E-1,1.1911998E-1,-3.0829614E-1,-1.4429411E-1,2.4024278E-1,-1.5106632E-1,-4.8438793E-1,5.1138276E-4,-2.9576456E-3,1.5622852E-3,4.0193717E-3,-1.8774591E-4,-2.8065657E-3,-3.9055822E-3,-6.125517E-3],"categories":[],"categories_nodes":[],"categories_segments":[],"categories_sizes":[],"default_left":[0,0,0,0,0,0,0,0,0,0,0,0,0,0,0],"id":6,"left_children":[1,3,5,7,9,11,13,-1,-1,-1,-1,-1,-1,-1,-1],"loss_changes":[2.748073E2,7.644386E1,1.1194739E2,2.2363846E1,2.2228172E1,3.666378E1,2.2706238E1,0E0,0E0,0E0,0E0,0E0,0E0,0E0,0E0],"parents":[2147483647,0,0,1,1,2,2,3,3,4,4,5,5,6,6],"right_children":[2,4,6,8,10,12,14,-1,-1,-1,-1,-1,-1,-1,-1],"split_conditions":[4.6E-1,-2E0,1.4E1,-4.8E0,2.7E1,2.9E0,2.3E1,5.1138276E-4,-2.9576456E-3,1.5622852E-3,4.0193717E-3,-1.8774591E-4,-2.8065657E-3,-3.9055822E-3,-6.125517E-3],"split_indices":[3,77,80,25,51,25,80,0,0,0,0,0,0,0,0],"split_type":[0,0,0,0,0,0,0,0,0,0,0,0,0,0,0],"sum_hessian":[6.4388433E3,2.3938633E3,4.04498E3,7.5396735E2,1.639896E3,2.13792E3,1.9070599E3,3.2949893E2,4.2446844E2,1.0804664E3,5.594296E2,1.0584996E3,1.0794203E3,1.1033423E3,8.0371765E2],"tree_param":{"num_deleted":"0","num_feature":"106","num_nodes":"15","size_leaf_vector":"1"}},{"base_weights":[1.4939554E-1,-1.19119965E-1,3.082961E-1,1.4429411E-1,-2.4024276E-1,1.5106627E-1,4.8438796E-1,-5.11384E-4,2.9576465E-3,-1.5622856E-3,-4.019371E-3,1.8774591E-4,2.8065648E-3,3.9055822E-3,6.1255186E-3],"categories":[],"categories_nodes":[],"categories_segments":[],"categories_sizes":[],"default_left":[0,0,0,0,0,0,0,0,0,0,0,0,0,0,0],"id":7,"left_children":[1,3,5,7,9,11,13,-1,-1,-1,-1,-1,-1,-1,-1],"loss_changes":[2.7480725E2,7.644385E1,1.1194745E2,2.2363873E1,2.2228157E1,3.6663754E1,2.2706299E1,0E0,0E0,0E0,0E0,0E0,0E0,0E0,0E0],"parents":[2147483647,0,0,1,1,2,2,3,3,4,4,5,5,6,6],"right_children":[2,4,6,8,10,12,14,-1,-1,-1,-1,-1,-1,-1,-1],"split_conditions":[4.6E-1,-2E0,1.4E1,-4.8E0,2.7E1,2.9E0,2.3E1,-5.11384E-4,2.9576465E-3,-1.5622856E-3,-4.019371E-3,1.8774591E-4,2.8065648E-3,3.9055822E-3,6.1255186E-3],"split_indices":[3,77,80,25,51,25,80,0,0,0,0,0,0,0,0],"split_type":[0,0,0,0,0,0,0,0,0,0,0,0,0,0,0],"sum_hessian":[6.4388433E3,2.3938633E3,4.04498E3,7.5396735E2,1.639896E3,2.13792E3,1.9070599E3,3.2949893E2,4.244684E2,1.0804663E3,5.594296E2,1.0584996E3,1.0794203E3,1.1033423E3,8.037176E2],"tree_param":{"num_deleted":"0","num_feature":"106","num_nodes":"15","size_leaf_vector":"1"}},{"base_weights":[-1.4791475E-1,1.03904516E-1,-3.1408897E-1,-1.4195617E-1,2.3348038E-1,-1.597687E-1,-4.8724312E-1,6.2501593E-4,-2.8642027E-3,1.0012599E-3,3.4531637E-3,-2.8951452E-4,-2.7807513E-3,-3.923998E-3,-6.161425E-3],"categories":[],"categories_nodes":[],"categories_segments":[],"categories_sizes":[],"default_left":[0,0,0,0,0,0,0,0,0,0,0,0,0,0,0],"id":8,"left_children":[1,3,5,7,9,11,13,-1,-1,-1,-1,-1,-1,-1,-1],"loss_changes":[2.6949252E2,8.1611755E1,1.0359015E2,2.6140701E1,2.4980537E1,3.1763073E1,2.2102997E1,0E0,0E0,0E0,0E0,0E0,0E0,0E0,0E0],"parents":[2147483647,0,0,1,1,2,2,3,3,4,4,5,5,6,6],"right_children":[2,4,6,8,10,12,14,-1,-1,-1,-1,-1,-1,-1,-1],"split_conditions":[4.74E-1,-1.5E0,1.4E1,-4.8E0,2.4E1,2.9E0,2.3E1,6.2501593E-4,-2.8642027E-3,1.0012599E-3,3.4531637E-3,-2.8951452E-4,-2.7807513E-3,-3.923998E-3,-6.161425E-3],"split_indices":[3,77,80,25,51,25,80,0,0,0,0,0,0,0,0],"split_type":[0,0,0,0,0,0,0,0,0,0,0,0,0,0,0],"sum_hessian":[6.438343E3,2.559726E3,3.8786167E3,8.834152E2,1.6763109E3,2.0518596E3,1.8267571E3,3.6599527E2,5.174199E2,7.6546173E2,9.108491E2,9.749994E2,1.0768602E3,1.0547347E3,7.720224E2],"tree_param":{"num_deleted":"0","num_feature":"106","num_nodes":"15","size_leaf_vector":"1"}},{"base_weights":[1.4791477E-1,-1.0390449E-1,3.1408897E-1,1.4195618E-1,-2.3348038E-1,1.5976875E-1,4.872431E-1,-6.2501506E-4,2.8642025E-3,-1.0012599E-3,-3.4531637E-3,2.8951452E-4,2.780752E-3,3.923998E-3,6.161424E-3],"categories":[],"categories_nodes":[],"categories_segments":[],"categories_sizes":[],"default_left":[0,0,0,0,0,0,0,0,0,0,0,0,0,0,0],"id":9,"left_children":[1,3,5,7,9,11,13,-1,-1,-1,-1,-1,-1,-1,-1],"loss_changes":[2.694925E2,8.161177E1,1.0359006E2,2.614069E1,2.4980553E1,3.1763107E1,2.2102997E1,0E0,0E0,0E0,0E0,0E0,0E0,0E0,0E0],"parents":[2147483647,0,0,1,1,2,2,3,3,4,4,5,5,6,6],"right_children":[2,4,6,8,10,12,14,-1,-1,-1,-1,-1,-1,-1,-1],"split_conditions":[4.74E-1,-1.5E0,1.4E1,-4.8E0,2.4E1,2.9E0,2.3E1,-6.2501506E-4,2.8642025E-3,-1.0012599E-3,-3.4531637E-3,2.8951452E-4,2.780752E-3,3.923998E-3,6.161424E-3],"split_indices":[3,77,80,25,51,25,80,0,0,0,0,0,0,0,0],"split_type":[0,0,0,0,0,0,0,0,0,0,0,0,0,0,0],"sum_hessian":[6.438343E3,2.559726E3,3.8786167E3,8.834152E2,1.6763108E3,2.0518596E3,1.8267571E3,3.659953E2,5.174199E2,7.6546173E2,9.1084906E2,9.749994E2,1.0768601E3,1.0547347E3,7.720224E2],"tree_param":{"num_deleted":"0","num_feature":"106","num_nodes":"15","size_leaf_vector":"1"}},{"base_weights":[-1.4645174E-1,1.1682821E-1,-3.02273E-1,-1.4152806E-1,2.3562892E-1,-1.480789E-1,-4.7502196E-1,5.000568E-4,-2.8999567E-3,1.5299678E-3,3.946913E-3,-1.8407474E-4,-2.751184E-3,-3.8298084E-3,-6.007879E-3],"categories":[],"categories_nodes":[],"categories_segments":[],"categories_sizes":[],"default_left":[0,0,0,0,0,0,0,0,0,0,0,0,0,0,0],"id":10,"left_children":[1,3,5,7,9,11,13,-1,-1,-1,-1,-1,-1,-1,-1],"loss_changes":[2.6418115E2,7.353142E1,1.0767819E2,2.1481503E1,2.1504662E1,3.522792E1,2.1848206E1,0E0,0E0,0E0,0E0,0E0,0E0,0E0,0E0],"parents":[2147483647,0,0,1,1,2,2,3,3,4,4,5,5,6,6],"right_children":[2,4,6,8,10,12,14,-1,-1,-1,-1,-1,-1,-1,-1],"split_conditions":[4.6E-1,-2E0,1.4E1,-4.8E0,2.7E1,2.9E0,2.3E1,5.000568E-4,-2.8999567E-3,1.5299678E-3,3.946913E-3,-1.8407474E-4,-2.751184E-3,-3.8298084E-3,-6.007879E-3],"split_indices":[3,77,80,25,51,25,80,0,0,0,0,0,0,0,0],"split_type":[0,0,0,0,0,0,0,0,0,0,0,0,0,0,0],"sum_hessian":[6.4377163E3,2.3936272E3,4.0440889E3,7.5390857E2,1.6397186E3,2.137782E3,1.9063069E3,3.2949713E2,4.2441144E2,1.0804117E3,5.593069E2,1.0584988E3,1.0792833E3,1.103074E3,8.032329E2],"tree_param":{"num_deleted":"0","num_feature":"106","num_nodes":"15","size_leaf_vector":"1"}},{"base_weights":[1.4645171E-1,-1.1682823E-1,3.0227295E-1,1.4152806E-1,-2.3562895E-1,1.4807892E-1,4.7502187E-1,-5.000565E-4,2.8999564E-3,-1.529968E-3,-3.946913E-3,1.8407508E-4,2.751184E-3,3.8298075E-3,6.0078786E-3],"categories":[],"categories_nodes":[],"categories_segments":[],"categories_sizes":[],"default_left":[0,0,0,0,0,0,0,0,0,0,0,0,0,0,0],"id":11,"left_children":[1,3,5,7,9,11,13,-1,-1,-1,-1,-1,-1,-1,-1],"loss_changes":[2.6418115E2,7.353143E1,1.076781E2,2.1481495E1,2.1504654E1,3.5227917E1,2.1848175E1,0E0,0E0,0E0,0E0,0E0,0E0,0E0,0E0],"parents":[2147483647,0,0,1,1,2,2,3,3,4,4,5,5,6,6],"right_children":[2,4,6,8,10,12,14,-1,-1,-1,-1,-1,-1,-1,-1],"split_conditions":[4.6E-1,-2E0,1.4E1,-4.8E0,2.7E1,2.9E0,2.3E1,-5.000565E-4,2.8999564E-3,-1.529968E-3,-3.946913E-3,1.8407508E-4,2.751184E-3,3.8298075E-3,6.0078786E-3],"split_indices":[3,77,80,25,51,25,80,0,0,0,0,0,0,0,0],"split_type":[0,0,0,0,0,0,0,0,0,0,0,0,0,0,0],"sum_hessian":[6.4377163E3,2.3936272E3,4.044089E3,7.539085E2,1.6397186E3,2.1377822E3,1.906307E3,3.294971E2,4.244114E2,1.0804117E3,5.593069E2,1.0584989E3,1.0792833E3,1.1030741E3,8.03233E2],"tree_param":{"num_deleted":"0","num_feature":"106","num_nodes":"15","size_leaf_vector":"1"}},{"base_weights":[-1.4500609E-1,-3.4916827E-1,5.2454587E-2,-1.9588391E-1,-5.0545937E-1,-1.9735426E-1,1.872941E-1,-2.723043E-3,-1.2122758E-4,-4.106398E-3,-6.5067224E-3,5.15196E-4,-3.2421388E-3,6.980537E-4,3.4154442E-3],"categories":[],"categories_nodes":[],"categories_segments":[],"categories_sizes":[],"default_left":[0,0,0,0,0,0,0,0,0,0,0,0,0,0,0],"id":12,"left_children":[1,3,5,7,9,11,13,-1,-1,-1,-1,-1,-1,-1,-1],"loss_changes":[2.5955798E2,7.5734344E1,1.1030383E2,2.246149E1,2.1304626E1,3.6262726E1,3.8514336E1,0E0,0E0,0E0,0E0,0E0,0E0,0E0,0E0],"parents":[2147483647,0,0,1,1,2,2,3,3,4,4,5,5,6,6],"right_children":[2,4,6,8,10,12,14,-1,-1,-1,-1,-1,-1,-1,-1],"split_conditions":[1.5E1,1.3E1,-1.4E0,6E0,2.3E1,-4.8E0,2.4E1,-2.723043E-3,-1.2122758E-4,-4.106398E-3,-6.5067224E-3,5.15196E-4,-3.2421388E-3,6.980537E-4,3.4154442E-3],"split_indices":[51,80,77,77,80,25,51,0,0,0,0,0,0,0,0],"split_type":[0,0,0,0,0,0,0,0,0,0,0,0,0,0,0],"sum_hessian":[6.4369536E3,3.1643955E3,3.2725583E3,1.5987026E3,1.5656929E3,1.1470415E3,2.1255168E3,1.1287921E3,4.6991046E2,9.4951587E2,6.16177E2,3.8747836E2,7.595631E2,1.2073558E3,9.1816095E2],"tree_param":{"num_deleted":"0","num_feature":"106","num_nodes":"15","size_leaf_vector":"1"}},{"base_weights":[1.4500609E-1,3.4916824E-1,-5.2454576E-2,1.9588389E-1,5.0545937E-1,1.9735426E-1,-1.8729408E-1,2.7230429E-3,1.21227335E-4,4.106398E-3,6.5067224E-3,-5.15196E-4,3.2421388E-3,-6.980539E-4,-3.4154435E-3],"categories":[],"categories_nodes":[],"categories_segments":[],"categories_sizes":[],"default_left":[0,0,0,0,0,0,0,0,0,0,0,0,0,0,0],"id":13,"left_children":[1,3,5,7,9,11,13,-1,-1,-1,-1,-1,-1,-1,-1],"loss_changes":[2.5955792E2,7.5734344E1,1.1030382E2,2.2461483E1,2.1304626E1,3.6262726E1,3.8514313E1,0E0,0E0,0E0,0E0,0E0,0E0,0E0,0E0],"parents":[2147483647,0,0,1,1,2,2,3,3,4,4,5,5,6,6],"right_children":[2,4,6,8,10,12,14,-1,-1,-1,-1,-1,-1,-1,-1],"split_conditions":[1.5E1,1.3E1,-1.4E0,6E0,2.3E1,-4.8E0,2.4E1,2.7230429E-3,1.21227335E-4,4.106398E-3,6.5067224E-3,-5.15196E-4,3.2421388E-3,-6.980539E-4,-3.4154435E-3],"split_indices":[51,80,77,77,80,25,51,0,0,0,0,0,0,0,0],"split_type":[0,0,0,0,0,0,0,0,0,0,0,0,0,0,0],"sum_hessian":[6.4369536E3,3.1643955E3,3.2725583E3,1.5987026E3,1.5656929E3,1.1470415E3,2.1255168E3,1.1287922E3,4.6991046E2,9.4951587E2,6.16177E2,3.8747836E2,7.595631E2,1.2073558E3,9.1816095E2],"tree_param":{"num_deleted":"0","num_feature":"106","num_nodes":"15","size_leaf_vector":"1"}},{"base_weights":[-1.4357646E-1,1.0130784E-1,-3.0521235E-1,-1.3748465E-1,2.2716089E-1,-1.5518765E-1,-4.736582E-1,6.060716E-4,-2.7749129E-3,2.943661E-3,1.6374417E-4,-2.763883E-4,-2.705647E-3,-3.8145063E-3,-5.990661E-3],"categories":[],"categories_nodes":[],"categories_segments":[],"categories_sizes":[],"default_left":[0,0,0,0,0,0,0,0,0,0,0,0,0,0,0],"id":14,"left_children":[1,3,5,7,9,11,13,-1,-1,-1,-1,-1,-1,-1,-1],"loss_changes":[2.5482602E2,7.6972595E1,9.792563E1,2.4540722E1,2.375093E1,3.019907E1,2.0890259E1,0E0,0E0,0E0,0E0,0E0,0E0,0E0,0E0],"parents":[2147483647,0,0,1,1,2,2,3,3,4,4,5,5,6,6],"right_children":[2,4,6,8,10,12,14,-1,-1,-1,-1,-1,-1,-1,-1],"split_conditions":[4.74E-1,-1.5E0,1.4E1,-4.8E0,-1.6E0,2.9E0,2.3E1,6.060716E-4,-2.7749129E-3,2.943661E-3,1.6374417E-4,-2.763883E-4,-2.705647E-3,-3.8145063E-3,-5.990661E-3],"split_indices":[3,77,80,25,25,25,80,0,0,0,0,0,0,0,0],"split_type":[0,0,0,0,0,0,0,0,0,0,0,0,0,0,0],"sum_hessian":[6.436132E3,2.5592092E3,3.8769226E3,8.8324854E2,1.6759606E3,2.0516033E3,1.8253193E3,3.6598828E2,5.1726025E2,1.2704921E3,4.054685E2,9.749928E2,1.0766105E3,1.0542281E3,7.710912E2],"tree_param":{"num_deleted":"0","num_feature":"106","num_nodes":"15","size_leaf_vector":"1"}},{"base_weights":[1.4357646E-1,-1.0130786E-1,3.0521235E-1,1.3748464E-1,-2.2716092E-1,1.5518764E-1,4.7365826E-1,-6.060716E-4,2.7749129E-3,-2.9436615E-3,-1.6374429E-4,2.7638813E-4,2.705647E-3,3.8145068E-3,5.9906617E-3],"categories":[],"categories_nodes":[],"categories_segments":[],"categories_sizes":[],"default_left":[0,0,0,0,0,0,0,0,0,0,0,0,0,0,0],"id":15,"left_children":[1,3,5,7,9,11,13,-1,-1,-1,-1,-1,-1,-1,-1],"loss_changes":[2.5482611E2,7.69726E1,9.792563E1,2.4540718E1,2.3750938E1,3.0199066E1,2.0890259E1,0E0,0E0,0E0,0E0,0E0,0E0,0E0,0E0],"parents":[2147483647,0,0,1,1,2,2,3,3,4,4,5,5,6,6],"right_children":[2,4,6,8,10,12,14,-1,-1,-1,-1,-1,-1,-1,-1],"split_conditions":[4.74E-1,-1.5E0,1.4E1,-4.8E0,-1.6E0,2.9E0,2.3E1,-6.060716E-4,2.7749129E-3,-2.9436615E-3,-1.6374429E-4,2.7638813E-4,2.705647E-3,3.8145068E-3,5.9906617E-3],"split_indices":[3,77,80,25,25,25,80,0,0,0,0,0,0,0,0],"split_type":[0,0,0,0,0,0,0,0,0,0,0,0,0,0,0],"sum_hessian":[6.436132E3,2.5592092E3,3.8769226E3,8.8324854E2,1.6759606E3,2.0516033E3,1.8253195E3,3.6598828E2,5.1726025E2,1.2704921E3,4.0546854E2,9.749928E2,1.0766105E3,1.0542283E3,7.710912E2],"tree_param":{"num_deleted":"0","num_feature":"106","num_nodes":"15","size_leaf_vector":"1"}},{"base_weights":[-1.4216468E-1,-3.4270865E-1,5.1756892E-2,-1.9213642E-1,-4.9631733E-1,-1.9329002E-1,1.8401176E-1,-2.6782334E-3,-1.0155895E-4,-4.0319622E-3,-6.3902196E-3,5.047616E-4,-3.1758933E-3,6.8729755E-4,3.3539834E-3],"categories":[],"categories_nodes":[],"categories_segments":[],"categories_sizes":[],"default_left":[0,0,0,0,0,0,0,0,0,0,0,0,0,0,0],"id":16,"left_children":[1,3,5,7,9,11,13,-1,-1,-1,-1,-1,-1,-1,-1],"loss_changes":[2.50318E2,7.308951E1,1.0610795E2,2.2028244E1,2.0548096E1,3.479294E1,3.7083893E1,0E0,0E0,0E0,0E0,0E0,0E0,0E0,0E0],"parents":[2147483647,0,0,1,1,2,2,3,3,4,4,5,5,6,6],"right_children":[2,4,6,8,10,12,14,-1,-1,-1,-1,-1,-1,-1,-1],"split_conditions":[1.5E1,1.3E1,-1.4E0,6E0,2.3E1,-4.8E0,2.4E1,-2.6782334E-3,-1.0155895E-4,-4.0319622E-3,-6.3902196E-3,5.047616E-4,-3.1758933E-3,6.8729755E-4,3.3539834E-3],"split_indices":[51,80,77,77,80,25,51,0,0,0,0,0,0,0,0],"split_type":[0,0,0,0,0,0,0,0,0,0,0,0,0,0,0],"sum_hessian":[6.435141E3,3.163176E3,3.2719653E3,1.5985127E3,1.5646632E3,1.1467539E3,2.1252114E3,1.1286344E3,4.698783E2,9.4913574E2,6.155275E2,3.8747058E2,7.592833E2,1.2072987E3,9.179128E2],"tree_param":{"num_deleted":"0","num_feature":"106","num_nodes":"15","size_leaf_vector":"1"}},{"base_weights":[1.4216466E-1,3.4270862E-1,-5.1756904E-2,1.9213645E-1,4.9631727E-1,1.9329004E-1,-1.8401177E-1,2.678234E-3,1.0155837E-4,4.0319613E-3,6.3902196E-3,-5.0476164E-4,3.1758936E-3,-6.872983E-4,-3.3539827E-3],"categories":[],"categories_nodes":[],"categories_segments":[],"categories_sizes":[],"default_left":[0,0,0,0,0,0,0,0,0,0,0,0,0,0,0],"id":17,"left_children":[1,3,5,7,9,11,13,-1,-1,-1,-1,-1,-1,-1,-1],"loss_changes":[2.5031801E2,7.308945E1,1.06107956E2,2.2028252E1,2.0548187E1,3.4792942E1,3.708387E1,0E0,0E0,0E0,0E0,0E0,0E0,0E0,0E0],"parents":[2147483647,0,0,1,1,2,2,3,3,4,4,5,5,6,6],"right_children":[2,4,6,8,10,12,14,-1,-1,-1,-1,-1,-1,-1,-1],"split_conditions":[1.5E1,1.3E1,-1.4E0,6E0,2.3E1,-4.8E0,2.4E1,2.678234E-3,1.0155837E-4,4.0319613E-3,6.3902196E-3,-5.0476164E-4,3.1758936E-3,-6.872983E-4,-3.3539827E-3],"split_indices":[51,80,77,77,80,25,51,0,0,0,0,0,0,0,0],"split_type":[0,0,0,0,0,0,0,0,0,0,0,0,0,0,0],"sum_hessian":[6.4351416E3,3.163176E3,3.2719653E3,1.5985127E3,1.5646633E3,1.1467539E3,2.1252114E3,1.1286344E3,4.6987833E2,9.491358E2,6.155275E2,3.8747058E2,7.592833E2,1.2072987E3,9.179128E2],"tree_param":{"num_deleted":"0","num_feature":"106","num_nodes":"15","size_leaf_vector":"1"}},{"base_weights":[-1.4076835E-1,9.968081E-2,-2.9951158E-1,-1.3437502E-1,2.2303902E-1,-1.5220958E-1,-4.6500257E-1,5.9500086E-4,-2.7144044E-3,2.889691E-3,1.630013E-4,-2.6540316E-4,-2.659088E-3,-3.7448185E-3,-5.881998E-3],"categories":[],"categories_nodes":[],"categories_segments":[],"categories_sizes":[],"default_left":[0,0,0,0,0,0,0,0,0,0,0,0,0,0,0],"id":18,"left_children":[1,3,5,7,9,11,13,-1,-1,-1,-1,-1,-1,-1,-1],"loss_changes":[2.4565479E2,7.3936325E1,9.4423584E1,2.3509626E1,2.2848389E1,2.9318188E1,2.0131744E1,0E0,0E0,0E0,0E0,0E0,0E0,0E0,0E0],"parents":[2147483647,0,0,1,1,2,2,3,3,4,4,5,5,6,6],"right_children":[2,4,6,8,10,12,14,-1,-1,-1,-1,-1,-1,-1,-1],"split_conditions":[4.74E-1,-1.5E0,1.4E1,-4.8E0,-1.6E0,2.9E0,2.3E1,5.9500086E-4,-2.7144044E-3,2.889691E-3,1.630013E-4,-2.6540316E-4,-2.659088E-3,-3.7448185E-3,-5.881998E-3],"split_indices":[3,77,80,25,25,25,80,0,0,0,0,0,0,0,0],"split_type":[0,0,0,0,0,0,0,0,0,0,0,0,0,0,0],"sum_hessian":[6.4340806E3,2.5587305E3,3.87535E3,8.8309174E2,1.6756387E3,2.0513672E3,1.8239829E3,3.6598392E2,5.171078E2,1.2701755E3,4.0546317E2,9.749784E2,1.0763889E3,1.0537596E3,7.702232E2],"tree_param":{"num_deleted":"0","num_feature":"106","num_nodes":"15","size_leaf_vector":"1"}},{"base_weights":[1.4076836E-1,-9.968083E-2,2.9951158E-1,1.3437502E-1,-2.2303905E-1,1.522096E-1,4.6500263E-1,-5.950009E-4,2.7144044E-3,-2.8896916E-3,-1.6300107E-4,2.6540298E-4,2.6590882E-3,3.744819E-3,5.881998E-3],"categories":[],"categories_nodes":[],"categories_segments":[],"categories_sizes":[],"default_left":[0,0,0,0,0,0,0,0,0,0,0,0,0,0,0],"id":19,"left_children":[1,3,5,7,9,11,13,-1,-1,-1,-1,-1,-1,-1,-1],"loss_changes":[2.4565482E2,7.3936325E1,9.4423615E1,2.3509628E1,2.2848412E1,2.93182E1,2.0131744E1,0E0,0E0,0E0,0E0,0E0,0E0,0E0,0E0],"parents":[2147483647,0,0,1,1,2,2,3,3,4,4,5,5,6,6],"right_children":[2,4,6,8,10,12,14,-1,-1,-1,-1,-1,-1,-1,-1],"split_conditions":[4.74E-1,-1.5E0,1.4E1,-4.8E0,-1.6E0,2.9E0,2.3E1,-5.950009E-4,2.7144044E-3,-2.8896916E-3,-1.6300107E-4,2.6540298E-4,2.6590882E-3,3.744819E-3,5.881998E-3],"split_indices":[3,77,80,25,25,25,80,0,0,0,0,0,0,0,0],"split_type":[0,0,0,0,0,0,0,0,0,0,0,0,0,0,0],"sum_hessian":[6.4340806E3,2.5587305E3,3.87535E3,8.8309174E2,1.6756387E3,2.0513672E3,1.8239829E3,3.6598392E2,5.171078E2,1.2701755E3,4.0546317E2,9.749784E2,1.0763889E3,1.0537596E3,7.7022327E2],"tree_param":{"num_deleted":"0","num_feature":"106","num_nodes":"15","size_leaf_vector":"1"}},{"base_weights":[-1.3938913E-1,-3.3640316E-1,5.1069137E-2,-1.8846522E-1,-4.8742753E-1,-1.8932015E-1,1.8079345E-1,-2.6343043E-3,-8.242356E-5,-3.9593102E-3,-6.2775803E-3,4.9452943E-4,-3.1112581E-3,6.7669974E-4,3.2938754E-3],"categories":[],"categories_nodes":[],"categories_segments":[],"categories_sizes":[],"default_left":[0,0,0,0,0,0,0,0,0,0,0,0,0,0,0],"id":20,"left_children":[1,3,5,7,9,11,13,-1,-1,-1,-1,-1,-1,-1,-1],"loss_changes":[2.4143475E2,7.056842E1,1.02076485E2,2.1604733E1,1.9837494E1,3.338628E1,3.5711777E1,0E0,0E0,0E0,0E0,0E0,0E0,0E0,0E0],"parents":[2147483647,0,0,1,1,2,2,3,3,4,4,5,5,6,6],"right_children":[2,4,6,8,10,12,14,-1,-1,-1,-1,-1,-1,-1,-1],"split_conditions":[1.5E1,1.3E1,-1.4E0,6E0,2.3E1,-4.8E0,2.4E1,-2.6343043E-3,-8.242356E-5,-3.9593102E-3,-6.2775803E-3,4.9452943E-4,-3.1112581E-3,6.7669974E-4,3.2938754E-3],"split_indices":[51,80,77,77,80,25,51,0,0,0,0,0,0,0,0],"split_type":[0,0,0,0,0,0,0,0,0,0,0,0,0,0,0],"sum_hessian":[6.4328643E3,3.1616355E3,3.2712285E3,1.5982733E3,1.5633623E3,1.1464001E3,2.1248284E3,1.1284312E3,4.6984213E2,9.486543E2,6.1470795E2,3.8746152E2,7.589386E2,1.2072297E3,9.175987E2],"tree_param":{"num_deleted":"0","num_feature":"106","num_nodes":"15","size_leaf_vector":"1"}},{"base_weights":[1.3938917E-1,3.3640322E-1,-5.1069114E-2,1.884653E-1,4.8742756E-1,1.8932019E-1,-1.8079343E-1,2.6343053E-3,8.2423416E-5,3.9593102E-3,6.277581E-3,-4.945294E-4,3.111259E-3,-6.7669956E-4,-3.2938756E-3],"categories":[],"categories_nodes":[],"categories_segments":[],"categories_sizes":[],"default_left":[0,0,0,0,0,0,0,0,0,0,0,0,0,0,0],"id":21,"left_children":[1,3,5,7,9,11,13,-1,-1,-1,-1,-1,-1,-1,-1],"loss_changes":[2.4143478E2,7.056842E1,1.0207652E2,2.1604752E1,1.9837494E1,3.338629E1,3.5711784E1,0E0,0E0,0E0,0E0,0E0,0E0,0E0,0E0],"parents":[2147483647,0,0,1,1,2,2,3,3,4,4,5,5,6,6],"right_children":[2,4,6,8,10,12,14,-1,-1,-1,-1,-1,-1,-1,-1],"split_conditions":[1.5E1,1.3E1,-1.4E0,6E0,2.3E1,-4.8E0,2.4E1,2.6343053E-3,8.2423416E-5,3.9593102E-3,6.277581E-3,-4.945294E-4,3.111259E-3,-6.7669956E-4,-3.2938756E-3],"split_indices":[51,80,77,77,80,25,51,0,0,0,0,0,0,0,0],"split_type":[0,0,0,0,0,0,0,0,0,0,0,0,0,0,0],"sum_hessian":[6.4328643E3,3.1616355E3,3.2712285E3,1.5982733E3,1.5633622E3,1.1464001E3,2.1248284E3,1.1284312E3,4.6984213E2,9.486543E2,6.147079E2,3.8746152E2,7.589386E2,1.2072297E3,9.175987E2],"tree_param":{"num_deleted":"0","num_feature":"106","num_nodes":"15","size_leaf_vector":"1"}},{"base_weights":[-1.3802499E-1,9.8083645E-2,-2.939437E-1,-1.3133678E-1,2.1900076E-1,-1.492929E-1,-4.5657802E-1,5.8414397E-4,-2.6553373E-3,3.7877497E-3,1.3650559E-3,-2.546947E-4,-2.6134804E-3,-3.676763E-3,-5.7767173E-3],"categories":[],"categories_nodes":[],"categories_segments":[],"categories_sizes":[],"default_left":[0,0,0,0,0,0,0,0,0,0,0,0,0,0,0],"id":22,"left_children":[1,3,5,7,9,11,13,-1,-1,-1,-1,-1,-1,-1,-1],"loss_changes":[2.368362E2,7.102152E1,9.107864E1,2.2523144E1,2.2042175E1,2.8466034E1,1.94169E1,0E0,0E0,0E0,0E0,0E0,0E0,0E0,0E0],"parents":[2147483647,0,0,1,1,2,2,3,3,4,4,5,5,6,6],"right_children":[2,4,6,8,10,12,14,-1,-1,-1,-1,-1,-1,-1,-1],"split_conditions":[4.74E-1,-1.5E0,1.4E1,-4.8E0,-5.9E0,2.9E0,2.3E1,5.8414397E-4,-2.6553373E-3,3.7877497E-3,1.3650559E-3,-2.546947E-4,-2.6134804E-3,-3.676763E-3,-5.7767173E-3],"split_indices":[3,77,80,25,25,25,80,0,0,0,0,0,0,0,0],"split_type":[0,0,0,0,0,0,0,0,0,0,0,0,0,0,0],"sum_hessian":[6.4315786E3,2.5581414E3,3.8734373E3,8.828989E2,1.6752424E3,2.051078E3,1.8223594E3,3.6597876E2,5.1692017E2,5.69214E2,1.1060284E3,9.7495636E2,1.0761215E3,1.0531901E3,7.6916925E2],"tree_param":{"num_deleted":"0","num_feature":"106","num_nodes":"15","size_leaf_vector":"1"}},{"base_weights":[1.3802496E-1,-9.808367E-2,2.9394367E-1,1.3133675E-1,-2.1900077E-1,1.4929289E-1,4.56578E-1,-5.841437E-4,2.6553364E-3,-3.7877497E-3,-1.365056E-3,2.5469466E-4,2.6134797E-3,3.6767628E-3,5.7767173E-3],"categories":[],"categories_nodes":[],"categories_segments":[],"categories_sizes":[],"default_left":[0,0,0,0,0,0,0,0,0,0,0,0,0,0,0],"id":23,"left_children":[1,3,5,7,9,11,13,-1,-1,-1,-1,-1,-1,-1,-1],"loss_changes":[2.3683621E2,7.102153E1,9.1078674E1,2.2523125E1,2.2042183E1,2.8466022E1,1.941684E1,0E0,0E0,0E0,0E0,0E0,0E0,0E0,0E0],"parents":[2147483647,0,0,1,1,2,2,3,3,4,4,5,5,6,6],"right_children":[2,4,6,8,10,12,14,-1,-1,-1,-1,-1,-1,-1,-1],"split_conditions":[4.74E-1,-1.5E0,1.4E1,-4.8E0,-5.9E0,2.9E0,2.3E1,-5.841437E-4,2.6553364E-3,-3.7877497E-3,-1.365056E-3,2.5469466E-4,2.6134797E-3,3.6767628E-3,5.7767173E-3],"split_indices":[3,77,80,25,25,25,80,0,0,0,0,0,0,0,0],"split_type":[0,0,0,0,0,0,0,0,0,0,0,0,0,0,0],"sum_hessian":[6.4315786E3,2.5581414E3,3.873437E3,8.828989E2,1.6752424E3,2.051078E3,1.8223593E3,3.6597873E2,5.169202E2,5.69214E2,1.1060284E3,9.7495636E2,1.0761215E3,1.0531901E3,7.691692E2],"tree_param":{"num_deleted":"0","num_feature":"106","num_nodes":"15","size_leaf_vector":"1"}},{"base_weights":[-1.366768E-1,-3.302833E-1,5.0427914E-2,-1.84918E-1,-4.7880262E-1,-1.8543886E-1,1.7769255E-1,-2.591705E-3,-6.435857E-5,-3.8887744E-3,-6.168591E-3,4.8439982E-4,-3.0480819E-3,6.675111E-4,3.234734E-3],"categories":[],"categories_nodes":[],"categories_segments":[],"categories_sizes":[],"default_left":[0,0,0,0,0,0,0,0,0,0,0,0,0,0,0],"id":24,"left_children":[1,3,5,7,9,11,13,-1,-1,-1,-1,-1,-1,-1,-1],"loss_changes":[2.3298318E2,6.815158E1,9.823097E1,2.11893E1,1.9161987E1,3.2036236E1,3.4352394E1,0E0,0E0,0E0,0E0,0E0,0E0,0E0,0E0],"parents":[2147483647,0,0,1,1,2,2,3,3,4,4,5,5,6,6],"right_children":[2,4,6,8,10,12,14,-1,-1,-1,-1,-1,-1,-1,-1],"split_conditions":[1.5E1,1.3E1,-1.4E0,6E0,2.3E1,-4.8E0,2.4E1,-2.591705E-3,-6.435857E-5,-3.8887744E-3,-6.168591E-3,4.8439982E-4,-3.0480819E-3,6.675111E-4,3.234734E-3],"split_indices":[51,80,77,77,80,25,51,0,0,0,0,0,0,0,0],"split_type":[0,0,0,0,0,0,0,0,0,0,0,0,0,0,0],"sum_hessian":[6.4301533E3,3.1597937E3,3.2703596E3,1.597987E3,1.5618066E3,1.1459845E3,2.1243752E3,1.1281852E3,4.6980194E2,9.480783E2,6.137283E2,3.8745093E2,7.585335E2,1.2071636E3,9.172117E2],"tree_param":{"num_deleted":"0","num_feature":"106","num_nodes":"15","size_leaf_vector":"1"}},{"base_weights":[1.366768E-1,3.3028328E-1,-5.0427917E-2,1.8491802E-1,4.788026E-1,1.8543886E-1,-1.7769255E-1,2.5917052E-3,6.435879E-5,3.8887744E-3,6.16859E-3,-4.843998E-4,3.0480819E-3,-6.675115E-4,-3.2347338E-3],"categories":[],"categories_nodes":[],"categories_segments":[],"categories_sizes":[],"default_left":[0,0,0,0,0,0,0,0,0,0,0,0,0,0,0],"id":25,"left_children":[1,3,5,7,9,11,13,-1,-1,-1,-1,-1,-1,-1,-1],"loss_changes":[2.3298315E2,6.815161E1,9.823099E1,2.11893E1,1.9161957E1,3.2036236E1,3.435237E1,0E0,0E0,0E0,0E0,0E0,0E0,0E0,0E0],"parents":[2147483647,0,0,1,1,2,2,3,3,4,4,5,5,6,6],"right_children":[2,4,6,8,10,12,14,-1,-1,-1,-1,-1,-1,-1,-1],"split_conditions":[1.5E1,1.3E1,-1.4E0,6E0,2.3E1,-4.8E0,2.4E1,2.5917052E-3,6.435879E-5,3.8887744E-3,6.16859E-3,-4.843998E-4,3.0480819E-3,-6.675115E-4,-3.2347338E-3],"split_indices":[51,80,77,77,80,25,51,0,0,0,0,0,0,0,0],"split_type":[0,0,0,0,0,0,0,0,0,0,0,0,0,0,0],"sum_hessian":[6.4301533E3,3.1597937E3,3.2703596E3,1.5979872E3,1.5618065E3,1.1459845E3,2.1243752E3,1.1281852E3,4.6980197E2,9.480782E2,6.1372833E2,3.8745093E2,7.585335E2,1.2071636E3,9.172117E2],"tree_param":{"num_deleted":"0","num_feature":"106","num_nodes":"15","size_leaf_vector":"1"}},{"base_weights":[-1.3534367E-1,-2.5782064E-1,1.5472731E-1,-1.1565688E-1,-4.1812834E-1,-1.743527E-1,2.4058303E-1,-2.5067325E-3,7.417292E-5,-3.2960498E-3,-5.4026414E-3,-2.751913E-3,5.82728E-4,3.8881053E-3,1.481859E-3],"categories":[],"categories_nodes":[],"categories_segments":[],"categories_sizes":[],"default_left":[0,0,0,0,0,0,0,0,0,0,0,0,0,0,0],"id":26,"left_children":[1,3,5,7,9,11,13,-1,-1,-1,-1,-1,-1,-1,-1],"loss_changes":[2.284664E2,1.0298953E2,5.399061E1,3.9842617E1,2.2792969E1,9.297563E0,2.0688576E1,0E0,0E0,0E0,0E0,0E0,0E0,0E0,0E0],"parents":[2147483647,0,0,1,1,2,2,3,3,4,4,5,5,6,6],"right_children":[2,4,6,8,10,12,14,-1,-1,-1,-1,-1,-1,-1,-1],"split_conditions":[2E1,1.4E1,3.6E-1,1E1,2.3E1,2.7E1,-6.2E0,-2.5067325E-3,7.417292E-5,-3.2960498E-3,-5.4026414E-3,-2.751913E-3,5.82728E-4,3.8881053E-3,1.481859E-3],"split_indices":[28,80,55,51,80,28,25,0,0,0,0,0,0,0,0],"split_type":[0,0,0,0,0,0,0,0,0,0,0,0,0,0,0],"sum_hessian":[6.428657E3,4.5201997E3,1.9084572E3,2.3965862E3,2.1236138E3,3.9467188E2,1.5137853E3,1.142352E3,1.254234E3,1.2333716E3,8.902422E2,2.7519656E2,1.19475296E2,5.800445E2,9.337407E2],"tree_param":{"num_deleted":"0","num_feature":"106","num_nodes":"15","size_leaf_vector":"1"}},{"base_weights":[1.353437E-1,2.5782067E-1,-1.5472728E-1,1.1565692E-1,4.181284E-1,1.7435277E-1,-2.40583E-1,2.506733E-3,-7.417261E-5,3.2960502E-3,5.402642E-3,2.7519134E-3,-5.82727E-4,-3.888104E-3,-1.481859E-3],"categories":[],"categories_nodes":[],"categories_segments":[],"categories_sizes":[],"default_left":[0,0,0,0,0,0,0,0,0,0,0,0,0,0,0],"id":27,"left_children":[1,3,5,7,9,11,13,-1,-1,-1,-1,-1,-1,-1,-1],"loss_changes":[2.284664E2,1.0298953E2,5.3990616E1,3.984263E1,2.2793E1,9.297559E0,2.0688553E1,0E0,0E0,0E0,0E0,0E0,0E0,0E0,0E0],"parents":[2147483647,0,0,1,1,2,2,3,3,4,4,5,5,6,6],"right_children":[2,4,6,8,10,12,14,-1,-1,-1,-1,-1,-1,-1,-1],"split_conditions":[2E1,1.4E1,3.6E-1,1E1,2.3E1,2.7E1,-6.2E0,2.506733E-3,-7.417261E-5,3.2960502E-3,5.402642E-3,2.7519134E-3,-5.82727E-4,-3.888104E-3,-1.481859E-3],"split_indices":[28,80,55,51,80,28,25,0,0,0,0,0,0,0,0],"split_type":[0,0,0,0,0,0,0,0,0,0,0,0,0,0,0],"sum_hessian":[6.428657E3,4.5201997E3,1.9084572E3,2.3965862E3,2.1236138E3,3.9467188E2,1.5137853E3,1.1423519E3,1.2542341E3,1.2333716E3,8.902422E2,2.7519656E2,1.19475296E2,5.8004456E2,9.337408E2],"tree_param":{"num_deleted":"0","num_feature":"106","num_nodes":"15","size_leaf_vector":"1"}},{"base_weights":[-1.3402346E-1,-3.2440105E-1,4.989366E-2,-1.8145458E-1,-4.705836E-1,-1.8187818E-1,1.7492768E-1,-2.5497696E-3,-4.7598904E-5,-3.821714E-3,-6.0647014E-3,4.7464136E-4,-2.9899534E-3,6.617432E-4,3.178929E-3],"categories":[],"categories_nodes":[],"categories_segments":[],"categories_sizes":[],"default_left":[0,0,0,0,0,0,0,0,0,0,0,0,0,0,0],"id":28,"left_children":[1,3,5,7,9,11,13,-1,-1,-1,-1,-1,-1,-1,-1],"loss_changes":[2.2508914E2,6.592023E1,9.48063E1,2.0767101E1,1.8522858E1,3.0809837E1,3.3016563E1,0E0,0E0,0E0,0E0,0E0,0E0,0E0,0E0],"parents":[2147483647,0,0,1,1,2,2,3,3,4,4,5,5,6,6],"right_children":[2,4,6,8,10,12,14,-1,-1,-1,-1,-1,-1,-1,-1],"split_conditions":[1.5E1,1.3E1,-1.4E0,6E0,2.3E1,-4.8E0,2.4E1,-2.5497696E-3,-4.7598904E-5,-3.821714E-3,-6.0647014E-3,4.7464136E-4,-2.9899534E-3,6.617432E-4,3.178929E-3],"split_indices":[51,80,77,77,80,25,51,0,0,0,0,0,0,0,0],"split_type":[0,0,0,0,0,0,0,0,0,0,0,0,0,0,0],"sum_hessian":[6.4271396E3,3.157727E3,3.2694126E3,1.597668E3,1.5600591E3,1.1455276E3,2.123885E3,1.1279053E3,4.6976263E2,9.474381E2,6.12621E2,3.874352E2,7.580924E2,1.2071053E3,9.167797E2],"tree_param":{"num_deleted":"0","num_feature":"106","num_nodes":"15","size_leaf_vector":"1"}},{"base_weights":[1.3402347E-1,3.2440105E-1,-4.9893644E-2,1.814546E-1,4.7058356E-1,1.8187818E-1,-1.7492765E-1,2.5497696E-3,4.7599457E-5,3.8217132E-3,6.0647028E-3,-4.746413E-4,2.9899534E-3,-6.617428E-4,-3.1789287E-3],"categories":[],"categories_nodes":[],"categories_segments":[],"categories_sizes":[],"default_left":[0,0,0,0,0,0,0,0,0,0,0,0,0,0,0],"id":29,"left_children":[1,3,5,7,9,11,13,-1,-1,-1,-1,-1,-1,-1,-1],"loss_changes":[2.2508914E2,6.592026E1,9.480628E1,2.076709E1,1.8522827E1,3.0809826E1,3.301657E1,0E0,0E0,0E0,0E0,0E0,0E0,0E0,0E0],"parents":[2147483647,0,0,1,1,2,2,3,3,4,4,5,5,6,6],"right_children":[2,4,6,8,10,12,14,-1,-1,-1,-1,-1,-1,-1,-1],"split_conditions":[1.5E1,1.3E1,-1.4E0,6E0,2.3E1,-4.8E0,2.4E1,2.5497696E-3,4.7599457E-5,3.8217132E-3,6.0647028E-3,-4.746413E-4,2.9899534E-3,-6.617428E-4,-3.1789287E-3],"split_indices":[51,80,77,77,80,25,51,0,0,0,0,0,0,0,0],"split_type":[0,0,0,0,0,0,0,0,0,0,0,0,0,0,0],"sum_hessian":[6.4271396E3,3.157727E3,3.2694126E3,1.597668E3,1.5600591E3,1.1455276E3,2.123885E3,1.1279054E3,4.697626E2,9.474382E2,6.12621E2,3.874352E2,7.580924E2,1.2071053E3,9.167797E2],"tree_param":{"num_deleted":"0","num_feature":"106","num_nodes":"15","size_leaf_vector":"1"}},{"base_weights":[-1.3272029E-1,9.52862E-2,-2.8338575E-1,-1.2563594E-1,2.1172705E-1,-1.4375256E-1,-4.4066596E-1,5.633832E-4,-2.544436E-3,2.7456726E-3,1.486295E-4,-2.3431717E-4,-2.5269683E-3,-3.5483455E-3,-5.5781673E-3],"categories":[],"categories_nodes":[],"categories_segments":[],"categories_sizes":[],"default_left":[0,0,0,0,0,0,0,0,0,0,0,0,0,0,0],"id":30,"left_children":[1,3,5,7,9,11,13,-1,-1,-1,-1,-1,-1,-1,-1],"loss_changes":[2.2079297E2,6.582167E1,8.4922424E1,2.0721325E1,2.0720787E1,2.6883862E1,1.8096436E1,0E0,0E0,0E0,0E0,0E0,0E0,0E0,0E0],"parents":[2147483647,0,0,1,1,2,2,3,3,4,4,5,5,6,6],"right_children":[2,4,6,8,10,12,14,-1,-1,-1,-1,-1,-1,-1,-1],"split_conditions":[4.74E-1,-1.5E0,1.4E1,-4.8E0,-1.6E0,2.9E0,2.3E1,5.633832E-4,-2.544436E-3,2.7456726E-3,1.486295E-4,-2.3431717E-4,-2.5269683E-3,-3.5483455E-3,-5.5781673E-3],"split_indices":[3,77,80,25,25,25,80,0,0,0,0,0,0,0,0],"split_type":[0,0,0,0,0,0,0,0,0,0,0,0,0,0,0],"sum_hessian":[6.42545E3,2.5566953E3,3.868755E3,8.8241626E2,1.674279E3,2.0503608E3,1.8183939E3,3.659622E2,5.1645404E2,1.2688572E3,4.0542178E2,9.748865E2,1.0754745E3,1.0518079E3,7.665861E2],"tree_param":{"num_deleted":"0","num_feature":"106","num_nodes":"15","size_leaf_vector":"1"}},{"base_weights":[1.3272029E-1,-9.528623E-2,2.8338578E-1,1.2563594E-1,-2.117271E-1,1.4375259E-1,4.40666E-1,-5.6338304E-4,2.5444354E-3,-2.7456733E-3,-1.4862942E-4,2.3431738E-4,2.5269687E-3,3.5483455E-3,5.5781687E-3],"categories":[],"categories_nodes":[],"categories_segments":[],"categories_sizes":[],"default_left":[0,0,0,0,0,0,0,0,0,0,0,0,0,0,0],"id":31,"left_children":[1,3,5,7,9,11,13,-1,-1,-1,-1,-1,-1,-1,-1],"loss_changes":[2.20793E2,6.582169E1,8.4922424E1,2.0721325E1,2.0720795E1,2.6883858E1,1.8096466E1,0E0,0E0,0E0,0E0,0E0,0E0,0E0,0E0],"parents":[2147483647,0,0,1,1,2,2,3,3,4,4,5,5,6,6],"right_children":[2,4,6,8,10,12,14,-1,-1,-1,-1,-1,-1,-1,-1],"split_conditions":[4.74E-1,-1.5E0,1.4E1,-4.8E0,-1.6E0,2.9E0,2.3E1,-5.6338304E-4,2.5444354E-3,-2.7456733E-3,-1.4862942E-4,2.3431738E-4,2.5269687E-3,3.5483455E-3,5.5781687E-3],"split_indices":[3,77,80,25,25,25,80,0,0,0,0,0,0,0,0],"split_type":[0,0,0,0,0,0,0,0,0,0,0,0,0,0,0],"sum_hessian":[6.42545E3,2.5566953E3,3.868755E3,8.8241626E2,1.674279E3,2.0503608E3,1.8183939E3,3.659622E2,5.1645404E2,1.2688572E3,4.0542178E2,9.748865E2,1.0754745E3,1.0518079E3,7.665861E2],"tree_param":{"num_deleted":"0","num_feature":"106","num_nodes":"15","size_leaf_vector":"1"}},{"base_weights":[-1.3143213E-1,-3.185187E-1,4.923014E-2,-1.779976E-1,-4.623736E-1,-1.781689E-1,1.718825E-1,-2.5083113E-3,-2.995234E-5,-3.7539378E-3,-5.962304E-3,4.649861E-4,-2.9297252E-3,6.5154216E-4,3.1224932E-3],"categories":[],"categories_nodes":[],"categories_segments":[],"categories_sizes":[],"default_left":[0,0,0,0,0,0,0,0,0,0,0,0,0,0,0],"id":32,"left_children":[1,3,5,7,9,11,13,-1,-1,-1,-1,-1,-1,-1,-1],"loss_changes":[2.1716544E2,6.3722015E1,9.121494E1,2.0371216E1,1.7927856E1,2.9572067E1,3.1804073E1,0E0,0E0,0E0,0E0,0E0,0E0,0E0,0E0],"parents":[2147483647,0,0,1,1,2,2,3,3,4,4,5,5,6,6],"right_children":[2,4,6,8,10,12,14,-1,-1,-1,-1,-1,-1,-1,-1],"split_conditions":[1.5E1,1.3E1,-1.4E0,6E0,2.3E1,-4.8E0,2.4E1,-2.5083113E-3,-2.995234E-5,-3.7539378E-3,-5.962304E-3,4.649861E-4,-2.9297252E-3,6.5154216E-4,3.1224932E-3],"split_indices":[51,80,77,77,80,25,51,0,0,0,0,0,0,0,0],"split_type":[0,0,0,0,0,0,0,0,0,0,0,0,0,0,0],"sum_hessian":[6.423647E3,3.1553403E3,3.2683064E3,1.5972975E3,1.558043E3,1.1450032E3,2.1233032E3,1.1275809E3,4.6971655E2,9.4669006E2,6.1135284E2,3.874227E2,7.575805E2,1.2070125E3,9.162908E2],"tree_param":{"num_deleted":"0","num_feature":"106","num_nodes":"15","size_leaf_vector":"1"}},{"base_weights":[1.3143213E-1,3.1851873E-1,-4.923016E-2,1.7799765E-1,4.623736E-1,1.781689E-1,-1.7188253E-1,2.5083118E-3,2.9952349E-5,3.7539368E-3,5.9623043E-3,-4.6498622E-4,2.929725E-3,-6.515426E-4,-3.1224932E-3],"categories":[],"categories_nodes":[],"categories_segments":[],"categories_sizes":[],"default_left":[0,0,0,0,0,0,0,0,0,0,0,0,0,0,0],"id":33,"left_children":[1,3,5,7,9,11,13,-1,-1,-1,-1,-1,-1,-1,-1],"loss_changes":[2.1716547E2,6.3722015E1,9.121495E1,2.0371231E1,1.7927887E1,2.9572079E1,3.1804066E1,0E0,0E0,0E0,0E0,0E0,0E0,0E0,0E0],"parents":[2147483647,0,0,1,1,2,2,3,3,4,4,5,5,6,6],"right_children":[2,4,6,8,10,12,14,-1,-1,-1,-1,-1,-1,-1,-1],"split_conditions":[1.5E1,1.3E1,-1.4E0,6E0,2.3E1,-4.8E0,2.4E1,2.5083118E-3,2.9952349E-5,3.7539368E-3,5.9623043E-3,-4.6498622E-4,2.929725E-3,-6.515426E-4,-3.1224932E-3],"split_indices":[51,80,77,77,80,25,51,0,0,0,0,0,0,0,0],"split_type":[0,0,0,0,0,0,0,0,0,0,0,0,0,0,0],"sum_hessian":[6.423647E3,3.1553406E3,3.2683064E3,1.5972975E3,1.558043E3,1.1450032E3,2.1233032E3,1.1275809E3,4.6971655E2,9.466901E2,6.1135284E2,3.874227E2,7.575805E2,1.2070125E3,9.162908E2],"tree_param":{"num_deleted":"0","num_feature":"106","num_nodes":"15","size_leaf_vector":"1"}},{"base_weights":[-1.3015799E-1,-2.4853073E-1,1.5003616E-1,-1.11358434E-1,-4.0349615E-1,-1.6920726E-1,2.3334147E-1,-2.4221668E-3,7.863746E-5,-3.1791201E-3,-5.2182465E-3,-2.6729896E-3,5.694199E-4,3.777844E-3,1.433586E-3],"categories":[],"categories_nodes":[],"categories_segments":[],"categories_sizes":[],"default_left":[0,0,0,0,0,0,0,0,0,0,0,0,0,0,0],"id":34,"left_children":[1,3,5,7,9,11,13,-1,-1,-1,-1,-1,-1,-1,-1],"loss_changes":[2.1306354E2,9.594321E1,5.078638E1,3.739334E1,2.130252E1,8.787928E0,1.9619957E1,0E0,0E0,0E0,0E0,0E0,0E0,0E0,0E0],"parents":[2147483647,0,0,1,1,2,2,3,3,4,4,5,5,6,6],"right_children":[2,4,6,8,10,12,14,-1,-1,-1,-1,-1,-1,-1,-1],"split_conditions":[2E1,1.4E1,3.6E-1,1E1,2.3E1,2.7E1,-6.2E0,-2.4221668E-3,7.863746E-5,-3.1791201E-3,-5.2182465E-3,-2.6729896E-3,5.694199E-4,3.777844E-3,1.433586E-3],"split_indices":[28,80,55,51,80,28,25,0,0,0,0,0,0,0,0],"split_type":[0,0,0,0,0,0,0,0,0,0,0,0,0,0,0],"sum_hessian":[6.4217705E3,4.5146104E3,1.9071602E3,2.3957017E3,2.1189087E3,3.9446326E2,1.5126969E3,1.1416239E3,1.2540778E3,1.2317216E3,8.871872E2,2.7500046E2,1.19462776E2,5.7941144E2,9.3328546E2],"tree_param":{"num_deleted":"0","num_feature":"106","num_nodes":"15","size_leaf_vector":"1"}},{"base_weights":[1.3015799E-1,2.4853072E-1,-1.5003614E-1,1.11358404E-1,4.0349615E-1,1.6920729E-1,-2.3334146E-1,2.4221665E-3,-7.863782E-5,3.1791208E-3,5.218246E-3,2.6729896E-3,-5.6941883E-4,-3.7778434E-3,-1.4335864E-3],"categories":[],"categories_nodes":[],"categories_segments":[],"categories_sizes":[],"default_left":[0,0,0,0,0,0,0,0,0,0,0,0,0,0,0],"id":35,"left_children":[1,3,5,7,9,11,13,-1,-1,-1,-1,-1,-1,-1,-1],"loss_changes":[2.130635E2,9.594324E1,5.0786385E1,3.739334E1,2.130252E1,8.787921E0,1.9619926E1,0E0,0E0,0E0,0E0,0E0,0E0,0E0,0E0],"parents":[2147483647,0,0,1,1,2,2,3,3,4,4,5,5,6,6],"right_children":[2,4,6,8,10,12,14,-1,-1,-1,-1,-1,-1,-1,-1],"split_conditions":[2E1,1.4E1,3.6E-1,1E1,2.3E1,2.7E1,-6.2E0,2.4221665E-3,-7.863782E-5,3.1791208E-3,5.218246E-3,2.6729896E-3,-5.6941883E-4,-3.7778434E-3,-1.4335864E-3],"split_indices":[28,80,55,51,80,28,25,0,0,0,0,0,0,0,0],"split_type":[0,0,0,0,0,0,0,0,0,0,0,0,0,0,0],"sum_hessian":[6.4217705E3,4.5146104E3,1.9071602E3,2.3957017E3,2.1189087E3,3.9446323E2,1.5126969E3,1.1416239E3,1.2540778E3,1.2317216E3,8.871872E2,2.7500046E2,1.19462776E2,5.794115E2,9.332854E2],"tree_param":{"num_deleted":"0","num_feature":"106","num_nodes":"15","size_leaf_vector":"1"}},{"base_weights":[-1.2889548E-1,-3.128965E-1,4.870627E-2,-1.7466904E-1,-4.5456538E-1,-1.7475797E-1,1.6921133E-1,-2.46794E-3,-1.4102596E-5,-3.6898437E-3,-5.8645457E-3,4.5554066E-4,-2.8740962E-3,6.4585754E-4,3.0688487E-3],"categories":[],"categories_nodes":[],"categories_segments":[],"categories_sizes":[],"default_left":[0,0,0,0,0,0,0,0,0,0,0,0,0,0,0],"id":36,"left_children":[1,3,5,7,9,11,13,-1,-1,-1,-1,-1,-1,-1,-1],"loss_changes":[2.098434E2,6.1679474E1,8.803574E1,1.9967445E1,1.7356323E1,2.8441193E1,3.0570244E1,0E0,0E0,0E0,0E0,0E0,0E0,0E0,0E0],"parents":[2147483647,0,0,1,1,2,2,3,3,4,4,5,5,6,6],"right_children":[2,4,6,8,10,12,14,-1,-1,-1,-1,-1,-1,-1,-1],"split_conditions":[1.5E1,1.3E1,-1.4E0,6E0,2.3E1,-4.8E0,2.4E1,-2.46794E-3,-1.4102596E-5,-3.6898437E-3,-5.8645457E-3,4.5554066E-4,-2.8740962E-3,6.4585754E-4,3.0688487E-3],"split_indices":[51,80,77,77,80,25,51,0,0,0,0,0,0,0,0],"split_type":[0,0,0,0,0,0,0,0,0,0,0,0,0,0,0],"sum_hessian":[6.4199062E3,3.1527722E3,3.2671338E3,1.5968986E3,1.5558738E3,1.144439E3,2.1226946E3,1.1272269E3,4.6967163E2,9.458945E2,6.099794E2,3.8739975E2,7.5703925E2,1.2069427E3,9.1575195E2],"tree_param":{"num_deleted":"0","num_feature":"106","num_nodes":"15","size_leaf_vector":"1"}},{"base_weights":[1.2889546E-1,3.128965E-1,-4.8706274E-2,1.7466904E-1,4.5456535E-1,1.7475796E-1,-1.6921133E-1,2.4679399E-3,1.41026E-5,3.689843E-3,5.8645466E-3,-4.555408E-4,2.8740962E-3,-6.458578E-4,-3.0688483E-3],"categories":[],"categories_nodes":[],"categories_segments":[],"categories_sizes":[],"default_left":[0,0,0,0,0,0,0,0,0,0,0,0,0,0,0],"id":37,"left_children":[1,3,5,7,9,11,13,-1,-1,-1,-1,-1,-1,-1,-1],"loss_changes":[2.0984341E2,6.1679413E1,8.803573E1,1.9967445E1,1.7356354E1,2.8441189E1,3.0570225E1,0E0,0E0,0E0,0E0,0E0,0E0,0E0,0E0],"parents":[2147483647,0,0,1,1,2,2,3,3,4,4,5,5,6,6],"right_children":[2,4,6,8,10,12,14,-1,-1,-1,-1,-1,-1,-1,-1],"split_conditions":[1.5E1,1.3E1,-1.4E0,6E0,2.3E1,-4.8E0,2.4E1,2.4679399E-3,1.41026E-5,3.689843E-3,5.8645466E-3,-4.555408E-4,2.8740962E-3,-6.458578E-4,-3.0688483E-3],"split_indices":[51,80,77,77,80,25,51,0,0,0,0,0,0,0,0],"split_type":[0,0,0,0,0,0,0,0,0,0,0,0,0,0,0],"sum_hessian":[6.4199062E3,3.1527722E3,3.2671338E3,1.5968986E3,1.5558738E3,1.144439E3,2.1226948E3,1.1272269E3,4.6967163E2,9.458945E2,6.099794E2,3.8739975E2,7.5703925E2,1.2069427E3,9.1575195E2],"tree_param":{"num_deleted":"0","num_feature":"106","num_nodes":"15","size_leaf_vector":"1"}},{"base_weights":[-1.2764937E-1,9.2579074E-2,-2.732899E-1,-5.4462004E-2,2.573203E-1,-4.7938928E-1,-1.7351377E-1,1.2578624E-3,-1.8638809E-3,4.0872917E-3,1.8964533E-3,-2.5359397E-3,-5.242714E-3,-4.7582248E-4,-2.9837948E-3],"categories":[],"categories_nodes":[],"categories_segments":[],"categories_sizes":[],"default_left":[0,0,0,0,0,0,0,0,0,0,0,0,0,0,0],"id":38,"left_children":[1,3,5,7,9,11,13,-1,-1,-1,-1,-1,-1,-1,-1],"loss_changes":[2.05905E2,6.1927113E1,7.937482E1,3.2157047E1,1.2275444E1,1.2634613E1,4.0950058E1,0E0,0E0,0E0,0E0,0E0,0E0,0E0,0E0],"parents":[2147483647,0,0,1,1,2,2,3,3,4,4,5,5,6,6],"right_children":[2,4,6,8,10,12,14,-1,-1,-1,-1,-1,-1,-1,-1],"split_conditions":[4.74E-1,5.19E-1,-1.4E0,-4.8E0,-6.1E0,8E0,6.03E-1,1.2578624E-3,-1.8638809E-3,4.0872917E-3,1.8964533E-3,-2.5359397E-3,-5.242714E-3,-4.7582248E-4,-2.9837948E-3],"split_indices":[3,55,77,25,25,54,3,0,0,0,0,0,0,0,0],"split_type":[0,0,0,0,0,0,0,0,0,0,0,0,0,0,0],"sum_hessian":[6.4178594E3,2.5548862E3,3.8629734E3,1.3503184E3,1.2045677E3,1.258855E3,2.6041184E3,5.7066943E2,7.796489E2,3.7053424E2,8.3403357E2,2.0983853E2,1.0490165E3,1.2972135E3,1.306905E3],"tree_param":{"num_deleted":"0","num_feature":"106","num_nodes":"15","size_leaf_vector":"1"}},{"base_weights":[1.2764938E-1,-9.257907E-2,2.7328992E-1,5.446201E-2,-2.573203E-1,4.7938934E-1,1.7351379E-1,-1.2578624E-3,1.8638809E-3,-4.0872917E-3,-1.8964532E-3,2.5359397E-3,5.242714E-3,4.7582286E-4,2.9837945E-3],"categories":[],"categories_nodes":[],"categories_segments":[],"categories_sizes":[],"default_left":[0,0,0,0,0,0,0,0,0,0,0,0,0,0,0],"id":39,"left_children":[1,3,5,7,9,11,13,-1,-1,-1,-1,-1,-1,-1,-1],"loss_changes":[2.05905E2,6.192711E1,7.937479E1,3.2157047E1,1.2275444E1,1.2634644E1,4.0950058E1,0E0,0E0,0E0,0E0,0E0,0E0,0E0,0E0],"parents":[2147483647,0,0,1,1,2,2,3,3,4,4,5,5,6,6],"right_children":[2,4,6,8,10,12,14,-1,-1,-1,-1,-1,-1,-1,-1],"split_conditions":[4.74E-1,5.19E-1,-1.4E0,-4.8E0,-6.1E0,8E0,6.03E-1,-1.2578624E-3,1.8638809E-3,-4.0872917E-3,-1.8964532E-3,2.5359397E-3,5.242714E-3,4.7582286E-4,2.9837945E-3],"split_indices":[3,55,77,25,25,54,3,0,0,0,0,0,0,0,0],"split_type":[0,0,0,0,0,0,0,0,0,0,0,0,0,0,0],"sum_hessian":[6.4178594E3,2.5548862E3,3.8629734E3,1.3503184E3,1.2045677E3,1.258855E3,2.6041184E3,5.7066943E2,7.796489E2,3.705342E2,8.3403357E2,2.0983853E2,1.0490165E3,1.2972134E3,1.3069049E3],"tree_param":{"num_deleted":"0","num_feature":"106","num_nodes":"15","size_leaf_vector":"1"}},{"base_weights":[-1.2641335E-1,-3.072319E-1,4.8026096E-2,-1.7102514E-1,-4.4699794E-1,-1.7159645E-1,1.6643214E-1,-2.4246122E-3,5.3127537E-6,-3.626379E-3,-5.7719713E-3,4.392706E-4,-2.818777E-3,6.36671E-4,3.0173627E-3],"categories":[],"categories_nodes":[],"categories_segments":[],"categories_sizes":[],"default_left":[0,0,0,0,0,0,0,0,0,0,0,0,0,0,0],"id":40,"left_children":[1,3,5,7,9,11,13,-1,-1,-1,-1,-1,-1,-1,-1],"loss_changes":[2.0241513E2,5.990863E1,8.498348E1,1.9577003E1,1.6865173E1,2.7223179E1,2.9501133E1,0E0,0E0,0E0,0E0,0E0,0E0,0E0,0E0],"parents":[2147483647,0,0,1,1,2,2,3,3,4,4,5,5,6,6],"right_children":[2,4,6,8,10,12,14,-1,-1,-1,-1,-1,-1,-1,-1],"split_conditions":[1.5E1,1.3E1,-1.4E0,6E0,2.3E1,-4.8E0,2.4E1,-2.4246122E-3,5.3127537E-6,-3.626379E-3,-5.7719713E-3,4.392706E-4,-2.818777E-3,6.36671E-4,3.0173627E-3],"split_indices":[51,80,77,77,80,25,51,0,0,0,0,0,0,0,0],"split_type":[0,0,0,0,0,0,0,0,0,0,0,0,0,0,0],"sum_hessian":[6.4158755E3,3.1499614E3,3.2659143E3,1.5964196E3,1.5535417E3,1.1438405E3,2.1220737E3,1.1268049E3,4.6961472E2,9.4501984E2,6.085219E2,3.873808E2,7.5645966E2,1.2068942E3,9.1517957E2],"tree_param":{"num_deleted":"0","num_feature":"106","num_nodes":"15","size_leaf_vector":"1"}},{"base_weights":[1.2641333E-1,3.0723187E-1,-4.8026107E-2,1.7102513E-1,4.469979E-1,1.7159644E-1,-1.6643214E-1,2.424612E-3,-5.3129297E-6,3.626379E-3,5.77197E-3,-4.3927072E-4,2.8187765E-3,-6.3667085E-4,-3.0173627E-3],"categories":[],"categories_nodes":[],"categories_segments":[],"categories_sizes":[],"default_left":[0,0,0,0,0,0,0,0,0,0,0,0,0,0,0],"id":41,"left_children":[1,3,5,7,9,11,13,-1,-1,-1,-1,-1,-1,-1,-1],"loss_changes":[2.024151E2,5.990869E1,8.4983475E1,1.9577003E1,1.6865112E1,2.7223179E1,2.950114E1,0E0,0E0,0E0,0E0,0E0,0E0,0E0,0E0],"parents":[2147483647,0,0,1,1,2,2,3,3,4,4,5,5,6,6],"right_children":[2,4,6,8,10,12,14,-1,-1,-1,-1,-1,-1,-1,-1],"split_conditions":[1.5E1,1.3E1,-1.4E0,6E0,2.3E1,-4.8E0,2.4E1,2.424612E-3,-5.3129297E-6,3.626379E-3,5.77197E-3,-4.3927072E-4,2.8187765E-3,-6.3667085E-4,-3.0173627E-3],"split_indices":[51,80,77,77,80,25,51,0,0,0,0,0,0,0,0],"split_type":[0,0,0,0,0,0,0,0,0,0,0,0,0,0,0],"sum_hessian":[6.4158755E3,3.1499614E3,3.265914E3,1.5964196E3,1.5535417E3,1.1438405E3,2.1220737E3,1.1268049E3,4.6961472E2,9.4501984E2,6.08522E2,3.873808E2,7.5645966E2,1.2068942E3,9.1517957E2],"tree_param":{"num_deleted":"0","num_feature":"106","num_nodes":"15","size_leaf_vector":"1"}},{"base_weights":[-1.2519445E-1,-2.3965065E-1,1.4554799E-1,-1.0695206E-1,-3.8988182E-1,2.9023916E-1,-2.8561305E-2,4.9125934E-5,-2.3800943E-3,-5.239731E-3,-3.170064E-3,3.316424E-3,3.697439E-4,1.1683251E-3,-1.8451818E-3],"categories":[],"categories_nodes":[],"categories_segments":[],"categories_sizes":[],"default_left":[0,0,0,0,0,0,0,0,0,0,0,0,0,0,0],"id":42,"left_children":[1,3,5,7,9,11,13,-1,-1,-1,-1,-1,-1,-1,-1],"loss_changes":[1.9881358E2,8.984772E1,4.8040707E1,3.5122246E1,2.0495972E1,1.0907684E1,1.9664238E1,0E0,0E0,0E0,0E0,0E0,0E0,0E0,0E0],"parents":[2147483647,0,0,1,1,2,2,3,3,4,4,5,5,6,6],"right_children":[2,4,6,8,10,12,14,-1,-1,-1,-1,-1,-1,-1,-1],"split_conditions":[2E1,1.4E1,1.7E1,2.8E0,8E0,-1.6E0,-4.8E0,4.9125934E-5,-2.3800943E-3,-5.239731E-3,-3.170064E-3,3.316424E-3,3.697439E-4,1.1683251E-3,-1.8451818E-3],"split_indices":[28,80,103,25,51,25,25,0,0,0,0,0,0,0,0],"split_type":[0,0,0,0,0,0,0,0,0,0,0,0,0,0,0],"sum_hessian":[6.4136685E3,4.5080205E3,1.9056481E3,2.3945957E3,2.1134248E3,1.040384E3,8.6526404E2,1.2924128E3,1.1021827E3,7.4198224E2,1.3714426E3,8.9393555E2,1.4644846E2,4.4792664E2,4.173374E2],"tree_param":{"num_deleted":"0","num_feature":"106","num_nodes":"15","size_leaf_vector":"1"}},{"base_weights":[1.2519448E-1,2.396507E-1,-1.4554802E-1,1.0695208E-1,3.8988188E-1,-2.9023916E-1,2.856127E-2,-4.912585E-5,2.3800945E-3,5.239732E-3,3.1700647E-3,-3.3164243E-3,-3.697439E-4,-1.1683254E-3,1.8451813E-3],"categories":[],"categories_nodes":[],"categories_segments":[],"categories_sizes":[],"default_left":[0,0,0,0,0,0,0,0,0,0,0,0,0,0,0],"id":43,"left_children":[1,3,5,7,9,11,13,-1,-1,-1,-1,-1,-1,-1,-1],"loss_changes":[1.9881366E2,8.984775E1,4.80407E1,3.5122253E1,2.0495972E1,1.0907684E1,1.9664238E1,0E0,0E0,0E0,0E0,0E0,0E0,0E0,0E0],"parents":[2147483647,0,0,1,1,2,2,3,3,4,4,5,5,6,6],"right_children":[2,4,6,8,10,12,14,-1,-1,-1,-1,-1,-1,-1,-1],"split_conditions":[2E1,1.4E1,1.7E1,2.8E0,8E0,-1.6E0,-4.8E0,-4.912585E-5,2.3800945E-3,5.239732E-3,3.1700647E-3,-3.3164243E-3,-3.697439E-4,-1.1683254E-3,1.8451813E-3],"split_indices":[28,80,103,25,51,25,25,0,0,0,0,0,0,0,0],"split_type":[0,0,0,0,0,0,0,0,0,0,0,0,0,0,0],"sum_hessian":[6.4136685E3,4.5080205E3,1.9056481E3,2.3945957E3,2.1134248E3,1.040384E3,8.6526404E2,1.2924128E3,1.1021827E3,7.4198224E2,1.3714426E3,8.9393555E2,1.4644846E2,4.479266E2,4.173374E2],"tree_param":{"num_deleted":"0","num_feature":"106","num_nodes":"15","size_leaf_vector":"1"}},{"base_weights":[-1.2398593E-1,-3.0168578E-1,4.734754E-2,-1.6782697E-1,-4.392295E-1,-1.6856231E-1,1.6373272E-1,-2.3860894E-3,2.1105772E-5,-3.554843E-3,-5.6865015E-3,4.274107E-4,-2.767589E-3,6.301255E-4,2.964267E-3],"categories":[],"categories_nodes":[],"categories_segments":[],"categories_sizes":[],"default_left":[0,0,0,0,0,0,0,0,0,0,0,0,0,0,0],"id":44,"left_children":[1,3,5,7,9,11,13,-1,-1,-1,-1,-1,-1,-1,-1],"loss_changes":[1.9524908E2,5.788379E1,8.208794E1,1.9209347E1,1.6618622E1,2.6172203E1,2.8346348E1,0E0,0E0,0E0,0E0,0E0,0E0,0E0,0E0],"parents":[2147483647,0,0,1,1,2,2,3,3,4,4,5,5,6,6],"right_children":[2,4,6,8,10,12,14,-1,-1,-1,-1,-1,-1,-1,-1],"split_conditions":[1.5E1,1.3E1,-1.4E0,6E0,2.3E1,-4.8E0,2.4E1,-2.3860894E-3,2.1105772E-5,-3.554843E-3,-5.6865015E-3,4.274107E-4,-2.767589E-3,6.301255E-4,2.964267E-3],"split_indices":[51,80,77,77,80,25,51,0,0,0,0,0,0,0,0],"split_type":[0,0,0,0,0,0,0,0,0,0,0,0,0,0,0],"sum_hessian":[6.4115083E3,3.1469075E3,3.2646008E3,1.5959419E3,1.5509656E3,1.143258E3,2.1213425E3,1.1263805E3,4.695614E2,9.43922E2,6.0704364E2,3.873618E2,7.558963E2,1.2068038E3,9.1453876E2],"tree_param":{"num_deleted":"0","num_feature":"106","num_nodes":"15","size_leaf_vector":"1"}},{"base_weights":[1.23985924E-1,3.0168578E-1,-4.734753E-2,1.678269E-1,4.392295E-1,1.6856231E-1,-1.6373271E-1,2.3860887E-3,-2.1105758E-5,3.554843E-3,5.6865024E-3,-4.2741062E-4,2.7675887E-3,-6.3012517E-4,-2.964267E-3],"categories":[],"categories_nodes":[],"categories_segments":[],"categories_sizes":[],"default_left":[0,0,0,0,0,0,0,0,0,0,0,0,0,0,0],"id":45,"left_children":[1,3,5,7,9,11,13,-1,-1,-1,-1,-1,-1,-1,-1],"loss_changes":[1.9524905E2,5.788382E1,8.208792E1,1.9209332E1,1.6618591E1,2.61722E1,2.8346363E1,0E0,0E0,0E0,0E0,0E0,0E0,0E0,0E0],"parents":[2147483647,0,0,1,1,2,2,3,3,4,4,5,5,6,6],"right_children":[2,4,6,8,10,12,14,-1,-1,-1,-1,-1,-1,-1,-1],"split_conditions":[1.5E1,1.3E1,-1.4E0,6E0,2.3E1,-4.8E0,2.4E1,2.3860887E-3,-2.1105758E-5,3.554843E-3,5.6865024E-3,-4.2741062E-4,2.7675887E-3,-6.3012517E-4,-2.964267E-3],"split_indices":[51,80,77,77,80,25,51,0,0,0,0,0,0,0,0],"split_type":[0,0,0,0,0,0,0,0,0,0,0,0,0,0,0],"sum_hessian":[6.4115083E3,3.1469075E3,3.2646008E3,1.5959419E3,1.5509656E3,1.143258E3,2.1213428E3,1.1263805E3,4.695614E2,9.43922E2,6.0704364E2,3.873618E2,7.558963E2,1.206804E3,9.1453876E2],"tree_param":{"num_deleted":"0","num_feature":"106","num_nodes":"15","size_leaf_vector":"1"}},{"base_weights":[-1.2279341E-1,8.98798E-2,-2.63566E-1,-5.2676603E-2,2.4962853E-1,-8.391405E-2,-3.7210527E-1,1.2063914E-3,-1.7957763E-3,3.96672E-3,1.8398636E-3,-2.0591908E-3,3.0100867E-4,-3.0220225E-3,-5.226626E-3],"categories":[],"categories_nodes":[],"categories_segments":[],"categories_sizes":[],"default_left":[0,0,0,0,0,0,0,0,0,0,0,0,0,0,0],"id":46,"left_children":[1,3,5,7,9,11,13,-1,-1,-1,-1,-1,-1,-1,-1],"loss_changes":[1.9193434E2,5.8171814E1,7.518399E1,2.9721287E1,1.1552818E1,2.0232582E1,2.514569E1,0E0,0E0,0E0,0E0,0E0,0E0,0E0,0E0],"parents":[2147483647,0,0,1,1,2,2,3,3,4,4,5,5,6,6],"right_children":[2,4,6,8,10,12,14,-1,-1,-1,-1,-1,-1,-1,-1],"split_conditions":[4.74E-1,5.19E-1,1.1E1,-4.8E0,-6.1E0,9E0,2.3E1,1.2063914E-3,-1.7957763E-3,3.96672E-3,1.8398636E-3,-2.0591908E-3,3.0100867E-4,-3.0220225E-3,-5.226626E-3],"split_indices":[3,55,103,25,25,51,80,0,0,0,0,0,0,0,0],"split_type":[0,0,0,0,0,0,0,0,0,0,0,0,0,0,0],"sum_hessian":[6.4091504E3,2.5528198E3,3.8563303E3,1.3493546E3,1.2034653E3,1.4530485E3,2.4032817E3,5.703903E2,7.7896423E2,3.698747E2,8.335907E2,7.015394E2,7.5150903E2,1.643309E3,7.5997284E2],"tree_param":{"num_deleted":"0","num_feature":"106","num_nodes":"15","size_leaf_vector":"1"}},{"base_weights":[1.227934E-1,-8.987981E-2,2.6356596E-1,5.2676618E-2,-2.4962857E-1,8.3914034E-2,3.7210527E-1,-1.2063915E-3,1.7957765E-3,-3.9667203E-3,-1.8398641E-3,2.0591908E-3,-3.0100893E-4,3.022022E-3,5.226626E-3],"categories":[],"categories_nodes":[],"categories_segments":[],"categories_sizes":[],"default_left":[0,0,0,0,0,0,0,0,0,0,0,0,0,0,0],"id":47,"left_children":[1,3,5,7,9,11,13,-1,-1,-1,-1,-1,-1,-1,-1],"loss_changes":[1.9193433E2,5.8171837E1,7.518399E1,2.97213E1,1.1552818E1,2.023259E1,2.514569E1,0E0,0E0,0E0,0E0,0E0,0E0,0E0,0E0],"parents":[2147483647,0,0,1,1,2,2,3,3,4,4,5,5,6,6],"right_children":[2,4,6,8,10,12,14,-1,-1,-1,-1,-1,-1,-1,-1],"split_conditions":[4.74E-1,5.19E-1,1.1E1,-4.8E0,-6.1E0,9E0,2.3E1,-1.2063915E-3,1.7957765E-3,-3.9667203E-3,-1.8398641E-3,2.0591908E-3,-3.0100893E-4,3.022022E-3,5.226626E-3],"split_indices":[3,55,103,25,25,51,80,0,0,0,0,0,0,0,0],"split_type":[0,0,0,0,0,0,0,0,0,0,0,0,0,0,0],"sum_hessian":[6.4091504E3,2.5528198E3,3.8563303E3,1.3493545E3,1.2034653E3,1.4530485E3,2.403282E3,5.703903E2,7.7896423E2,3.698747E2,8.335907E2,7.015394E2,7.5150903E2,1.643309E3,7.599729E2],"tree_param":{"num_deleted":"0","num_feature":"106","num_nodes":"15","size_leaf_vector":"1"}},{"base_weights":[-1.2161046E-1,-2.963638E-1,4.6781342E-2,-1.6464183E-1,-4.3190613E-1,-1.6558899E-1,1.6123238E-1,-2.3454602E-3,3.130364E-5,-3.494794E-3,-5.595176E-3,-3.180746E-3,-2.1441195E-4,6.242179E-4,2.9149444E-3],"categories":[],"categories_nodes":[],"categories_segments":[],"categories_sizes":[],"default_left":[0,0,0,0,0,0,0,0,0,0,0,0,0,0,0],"id":48,"left_children":[1,3,5,7,9,11,13,-1,-1,-1,-1,-1,-1,-1,-1],"loss_changes":[1.8857773E2,5.6073395E1,7.936597E1,1.8723549E1,1.610028E1,2.512988E1,2.7289371E1,0E0,0E0,0E0,0E0,0E0,0E0,0E0,0E0],"parents":[2147483647,0,0,1,1,2,2,3,3,4,4,5,5,6,6],"right_children":[2,4,6,8,10,12,14,-1,-1,-1,-1,-1,-1,-1,-1],"split_conditions":[1.5E1,1.3E1,-1.4E0,6E0,2.3E1,2.1E1,2.4E1,-2.3454602E-3,3.130364E-5,-3.494794E-3,-5.595176E-3,-3.180746E-3,-2.1441195E-4,6.242179E-4,2.9149444E-3],"split_indices":[51,80,77,77,80,28,51,0,0,0,0,0,0,0,0],"split_type":[0,0,0,0,0,0,0,0,0,0,0,0,0,0,0],"sum_hessian":[6.4068457E3,3.143662E3,3.2631836E3,1.5954225E3,1.5482395E3,1.1425924E3,2.120591E3,1.1259038E3,4.695187E2,9.429246E2,6.053149E2,5.5465173E2,5.879407E2,1.2067144E3,9.138768E2],"tree_param":{"num_deleted":"0","num_feature":"106","num_nodes":"15","size_leaf_vector":"1"}},{"base_weights":[1.2161047E-1,2.963638E-1,-4.6781328E-2,1.6464183E-1,4.3190613E-1,1.65589E-1,-1.6123237E-1,2.3454602E-3,-3.130335E-5,3.494794E-3,5.5951755E-3,3.1807465E-3,2.1441205E-4,-6.242176E-4,-2.9149442E-3],"categories":[],"categories_nodes":[],"categories_segments":[],"categories_sizes":[],"default_left":[0,0,0,0,0,0,0,0,0,0,0,0,0,0,0],"id":49,"left_children":[1,3,5,7,9,11,13,-1,-1,-1,-1,-1,-1,-1,-1],"loss_changes":[1.8857773E2,5.6073364E1,7.936597E1,1.8723537E1,1.610028E1,2.512988E1,2.7289387E1,0E0,0E0,0E0,0E0,0E0,0E0,0E0,0E0],"parents":[2147483647,0,0,1,1,2,2,3,3,4,4,5,5,6,6],"right_children":[2,4,6,8,10,12,14,-1,-1,-1,-1,-1,-1,-1,-1],"split_conditions":[1.5E1,1.3E1,-1.4E0,6E0,2.3E1,2.1E1,2.4E1,2.3454602E-3,-3.130335E-5,3.494794E-3,5.5951755E-3,3.1807465E-3,2.1441205E-4,-6.242176E-4,-2.9149442E-3],"split_indices":[51,80,77,77,80,28,51,0,0,0,0,0,0,0,0],"split_type":[0,0,0,0,0,0,0,0,0,0,0,0,0,0,0],"sum_hessian":[6.4068457E3,3.1436619E3,3.2631836E3,1.5954225E3,1.5482395E3,1.1425924E3,2.1205913E3,1.1259038E3,4.695187E2,9.429246E2,6.053148E2,5.5465173E2,5.879407E2,1.2067144E3,9.138768E2],"tree_param":{"num_deleted":"0","num_feature":"106","num_nodes":"15","size_leaf_vector":"1"}},{"base_weights":[-1.2044292E-1,-2.3106526E-1,1.4102459E-1,-1.02877475E-1,-3.765488E-1,-1.6243376E-1,2.2026545E-1,5.73118E-5,-2.3021356E-3,-5.0812243E-3,-3.0515112E-3,-2.560555E-3,5.314906E-4,3.5706162E-3,1.35193E-3],"categories":[],"categories_nodes":[],"categories_segments":[],"categories_sizes":[],"default_left":[0,0,0,0,0,0,0,0,0,0,0,0,0,0,0],"id":50,"left_children":[1,3,5,7,9,11,13,-1,-1,-1,-1,-1,-1,-1,-1],"loss_changes":[1.8530295E2,8.390967E1,4.584262E1,3.3114594E1,1.964856E1,7.98617E0,1.7535355E1,0E0,0E0,0E0,0E0,0E0,0E0,0E0,0E0],"parents":[2147483647,0,0,1,1,2,2,3,3,4,4,5,5,6,6],"right_children":[2,4,6,8,10,12,14,-1,-1,-1,-1,-1,-1,-1,-1],"split_conditions":[2E1,1.4E1,3.6E-1,2.8E0,8E0,2.7E1,-6.2E0,5.73118E-5,-2.3021356E-3,-5.0812243E-3,-3.0515112E-3,-2.560555E-3,5.314906E-4,3.5706162E-3,1.35193E-3],"split_indices":[28,80,55,25,51,28,25,0,0,0,0,0,0,0,0],"split_type":[0,0,0,0,0,0,0,0,0,0,0,0,0,0,0],"sum_hessian":[6.4043877E3,4.5004443E3,1.9039432E3,2.3933416E3,2.1071028E3,3.9400897E2,1.5099343E3,1.2921685E3,1.1011731E3,7.3904767E2,1.3680552E3,2.74579E2,1.1942994E2,5.777375E2,9.3219684E2],"tree_param":{"num_deleted":"0","num_feature":"106","num_nodes":"15","size_leaf_vector":"1"}},{"base_weights":[1.2044292E-1,2.3106524E-1,-1.4102456E-1,1.0287747E-1,3.765488E-1,1.6243379E-1,-2.2026543E-1,-5.731177E-5,2.3021353E-3,5.0812247E-3,3.0515112E-3,2.5605555E-3,-5.314906E-4,-3.5706158E-3,-1.3519299E-3],"categories":[],"categories_nodes":[],"categories_segments":[],"categories_sizes":[],"default_left":[0,0,0,0,0,0,0,0,0,0,0,0,0,0,0],"id":51,"left_children":[1,3,5,7,9,11,13,-1,-1,-1,-1,-1,-1,-1,-1],"loss_changes":[1.8530295E2,8.390964E1,4.5842625E1,3.311458E1,1.964859E1,7.9861736E0,1.7535355E1,0E0,0E0,0E0,0E0,0E0,0E0,0E0,0E0],"parents":[2147483647,0,0,1,1,2,2,3,3,4,4,5,5,6,6],"right_children":[2,4,6,8,10,12,14,-1,-1,-1,-1,-1,-1,-1,-1],"split_conditions":[2E1,1.4E1,3.6E-1,2.8E0,8E0,2.7E1,-6.2E0,-5.731177E-5,2.3021353E-3,5.0812247E-3,3.0515112E-3,2.5605555E-3,-5.314906E-4,-3.5706158E-3,-1.3519299E-3],"split_indices":[28,80,55,25,51,28,25,0,0,0,0,0,0,0,0],"split_type":[0,0,0,0,0,0,0,0,0,0,0,0,0,0,0],"sum_hessian":[6.4043877E3,4.5004443E3,1.9039432E3,2.3933416E3,2.1071028E3,3.9400897E2,1.5099343E3,1.2921685E3,1.1011731E3,7.3904767E2,1.3680552E3,2.74579E2,1.1942994E2,5.777375E2,9.3219684E2],"tree_param":{"num_deleted":"0","num_feature":"106","num_nodes":"15","size_leaf_vector":"1"}},{"base_weights":[-1.1928454E-1,-2.910685E-1,4.613506E-2,-1.6158588E-1,-4.2451218E-1,-8.5075356E-2,2.2655693E-1,-2.3085938E-3,4.6183395E-5,-3.4266268E-3,-5.5141626E-3,1.2636175E-3,-1.9326241E-3,1.1643281E-3,3.1180738E-3],"categories":[],"categories_nodes":[],"categories_segments":[],"categories_sizes":[],"default_left":[0,0,0,0,0,0,0,0,0,0,0,0,0,0,0],"id":52,"left_children":[1,3,5,7,9,11,13,-1,-1,-1,-1,-1,-1,-1,-1],"loss_changes":[1.8196399E2,5.4207306E1,7.7260056E1,1.837535E1,1.5872864E1,4.3251865E1,1.2863426E1,0E0,0E0,0E0,0E0,0E0,0E0,0E0,0E0],"parents":[2147483647,0,0,1,1,2,2,3,3,4,4,5,5,6,6],"right_children":[2,4,6,8,10,12,14,-1,-1,-1,-1,-1,-1,-1,-1],"split_conditions":[1.5E1,1.3E1,5.45E-1,6E0,2.3E1,-4.8E0,2E1,-2.3085938E-3,4.6183395E-5,-3.4266268E-3,-5.5141626E-3,1.2636175E-3,-1.9326241E-3,1.1643281E-3,3.1180738E-3],"split_indices":[51,80,55,77,80,25,28,0,0,0,0,0,0,0,0],"split_type":[0,0,0,0,0,0,0,0,0,0,0,0,0,0,0],"sum_hessian":[6.402005E3,3.140214E3,3.2617905E3,1.5948832E3,1.545331E3,1.8887441E3,1.3730463E3,1.1254213E3,4.6946185E2,9.4167694E2,6.0365405E2,6.3924915E2,1.249495E3,6.001524E2,7.7289386E2],"tree_param":{"num_deleted":"0","num_feature":"106","num_nodes":"15","size_leaf_vector":"1"}},{"base_weights":[1.1928453E-1,2.910685E-1,-4.613507E-2,1.6158588E-1,4.2451215E-1,8.507534E-2,-2.2655693E-1,2.308594E-3,-4.618356E-5,3.4266268E-3,5.514162E-3,-1.2636177E-3,1.9326239E-3,-1.1643281E-3,-3.1180738E-3],"categories":[],"categories_nodes":[],"categories_segments":[],"categories_sizes":[],"default_left":[0,0,0,0,0,0,0,0,0,0,0,0,0,0,0],"id":53,"left_children":[1,3,5,7,9,11,13,-1,-1,-1,-1,-1,-1,-1,-1],"loss_changes":[1.8196399E2,5.4207306E1,7.7260056E1,1.8375359E1,1.5872833E1,4.325186E1,1.2863426E1,0E0,0E0,0E0,0E0,0E0,0E0,0E0,0E0],"parents":[2147483647,0,0,1,1,2,2,3,3,4,4,5,5,6,6],"right_children":[2,4,6,8,10,12,14,-1,-1,-1,-1,-1,-1,-1,-1],"split_conditions":[1.5E1,1.3E1,5.45E-1,6E0,2.3E1,-4.8E0,2E1,2.308594E-3,-4.618356E-5,3.4266268E-3,5.514162E-3,-1.2636177E-3,1.9326239E-3,-1.1643281E-3,-3.1180738E-3],"split_indices":[51,80,55,77,80,25,28,0,0,0,0,0,0,0,0],"split_type":[0,0,0,0,0,0,0,0,0,0,0,0,0,0,0],"sum_hessian":[6.402005E3,3.140214E3,3.2617905E3,1.5948832E3,1.545331E3,1.8887443E3,1.3730463E3,1.1254213E3,4.6946185E2,9.4167694E2,6.036541E2,6.392492E2,1.249495E3,6.001524E2,7.7289386E2],"tree_param":{"num_deleted":"0","num_feature":"106","num_nodes":"15","size_leaf_vector":"1"}},{"base_weights":[-1.18139796E-1,8.713959E-2,-2.5417146E-1,-5.1066376E-2,2.4207042E-1,-3.4879377E-1,-5.9262987E-2,1.1626165E-3,-1.7361367E-3,3.8475469E-3,1.7847264E-3,-2.8348744E-3,-5.0665927E-3,1.692193E-4,-2.3383722E-3],"categories":[],"categories_nodes":[],"categories_segments":[],"categories_sizes":[],"default_left":[0,0,0,0,0,0,0,0,0,0,0,0,0,0,0],"id":54,"left_children":[1,3,5,7,9,11,13,-1,-1,-1,-1,-1,-1,-1,-1],"loss_changes":[1.7875273E2,5.4650333E1,7.0979904E1,2.7691881E1,1.0849945E1,2.6572968E1,1.6753426E1,0E0,0E0,0E0,0E0,0E0,0E0,0E0,0E0],"parents":[2147483647,0,0,1,1,2,2,3,3,4,4,5,5,6,6],"right_children":[2,4,6,8,10,12,14,-1,-1,-1,-1,-1,-1,-1,-1],"split_conditions":[4.74E-1,5.19E-1,2.9E0,-4.8E0,-6.1E0,2.3E1,6.71E-1,1.1626165E-3,-1.7361367E-3,3.8475469E-3,1.7847264E-3,-2.8348744E-3,-5.0665927E-3,1.692193E-4,-2.3383722E-3],"split_indices":[3,55,77,25,25,80,3,0,0,0,0,0,0,0,0],"split_type":[0,0,0,0,0,0,0,0,0,0,0,0,0,0,0],"sum_hessian":[6.399494E3,2.550702E3,3.8487925E3,1.3484702E3,1.2022317E3,2.5904268E3,1.2583656E3,5.700991E2,7.783711E2,3.6909717E2,8.331345E2,1.8343728E3,7.5605396E2,8.7668134E2,3.8168423E2],"tree_param":{"num_deleted":"0","num_feature":"106","num_nodes":"15","size_leaf_vector":"1"}},{"base_weights":[1.1813978E-1,-8.71396E-2,2.5417143E-1,5.1066365E-2,-2.4207044E-1,3.4879377E-1,5.926296E-2,-1.1626163E-3,1.7361365E-3,-3.8475476E-3,-1.7847262E-3,2.834874E-3,5.066593E-3,-1.6921945E-4,2.3383717E-3],"categories":[],"categories_nodes":[],"categories_segments":[],"categories_sizes":[],"default_left":[0,0,0,0,0,0,0,0,0,0,0,0,0,0,0],"id":55,"left_children":[1,3,5,7,9,11,13,-1,-1,-1,-1,-1,-1,-1,-1],"loss_changes":[1.7875272E2,5.4650337E1,7.097987E1,2.7691872E1,1.0849953E1,2.6572998E1,1.675342E1,0E0,0E0,0E0,0E0,0E0,0E0,0E0,0E0],"parents":[2147483647,0,0,1,1,2,2,3,3,4,4,5,5,6,6],"right_children":[2,4,6,8,10,12,14,-1,-1,-1,-1,-1,-1,-1,-1],"split_conditions":[4.74E-1,5.19E-1,2.9E0,-4.8E0,-6.1E0,2.3E1,6.71E-1,-1.1626163E-3,1.7361365E-3,-3.8475476E-3,-1.7847262E-3,2.834874E-3,5.066593E-3,-1.6921945E-4,2.3383717E-3],"split_indices":[3,55,77,25,25,80,3,0,0,0,0,0,0,0,0],"split_type":[0,0,0,0,0,0,0,0,0,0,0,0,0,0,0],"sum_hessian":[6.399494E3,2.550702E3,3.8487925E3,1.3484702E3,1.2022317E3,2.5904268E3,1.2583656E3,5.700991E2,7.783711E2,3.6909717E2,8.331345E2,1.8343728E3,7.56054E2,8.7668134E2,3.8168423E2],"tree_param":{"num_deleted":"0","num_feature":"106","num_nodes":"15","size_leaf_vector":"1"}},{"base_weights":[-1.1700585E-1,-2.8602588E-1,4.5639105E-2,-1.5863404E-1,-4.175271E-1,-1.7741574E-1,1.4864886E-1,-2.2698385E-3,5.2886782E-5,-3.3692806E-3,-5.427419E-3,2.5648464E-4,-2.8132866E-3,2.3008932E-4,2.443202E-3],"categories":[],"categories_nodes":[],"categories_segments":[],"categories_sizes":[],"default_left":[0,0,0,0,0,0,0,0,0,0,0,0,0,0,0],"id":56,"left_children":[1,3,5,7,9,11,13,-1,-1,-1,-1,-1,-1,-1,-1],"loss_changes":[1.758949E2,5.2496033E1,7.496155E1,1.7875439E1,1.5392456E1,2.1757523E1,2.6818108E1,0E0,0E0,0E0,0E0,0E0,0E0,0E0,0E0],"parents":[2147483647,0,0,1,1,2,2,3,3,4,4,5,5,6,6],"right_children":[2,4,6,8,10,12,14,-1,-1,-1,-1,-1,-1,-1,-1],"split_conditions":[1.5E1,1.3E1,-1.9E0,6E0,2.3E1,-4.8E0,2E1,-2.2698385E-3,5.2886782E-5,-3.3692806E-3,-5.427419E-3,2.5648464E-4,-2.8132866E-3,2.3008932E-4,2.443202E-3],"split_indices":[51,80,77,77,80,25,28,0,0,0,0,0,0,0,0],"split_type":[0,0,0,0,0,0,0,0,0,0,0,0,0,0,0],"sum_hessian":[6.3969717E3,3.1366343E3,3.2603372E3,1.5943317E3,1.5423025E3,1.0297717E3,2.2305654E3,1.1249032E3,4.694285E2,9.405647E2,6.017378E2,3.4883664E2,6.809352E2,9.6479456E2,1.2657709E3],"tree_param":{"num_deleted":"0","num_feature":"106","num_nodes":"15","size_leaf_vector":"1"}},{"base_weights":[1.1700584E-1,2.8602585E-1,-4.563909E-2,1.5863402E-1,4.1752708E-1,1.7741576E-1,-1.4864883E-1,2.2698382E-3,-5.288662E-5,3.3692801E-3,5.4274187E-3,-2.5648423E-4,2.8132866E-3,-2.3008909E-4,-2.4432018E-3],"categories":[],"categories_nodes":[],"categories_segments":[],"categories_sizes":[],"default_left":[0,0,0,0,0,0,0,0,0,0,0,0,0,0,0],"id":57,"left_children":[1,3,5,7,9,11,13,-1,-1,-1,-1,-1,-1,-1,-1],"loss_changes":[1.7589487E2,5.2496033E1,7.496154E1,1.7875431E1,1.5392426E1,2.1757519E1,2.681812E1,0E0,0E0,0E0,0E0,0E0,0E0,0E0,0E0],"parents":[2147483647,0,0,1,1,2,2,3,3,4,4,5,5,6,6],"right_children":[2,4,6,8,10,12,14,-1,-1,-1,-1,-1,-1,-1,-1],"split_conditions":[1.5E1,1.3E1,-1.9E0,6E0,2.3E1,-4.8E0,2E1,2.2698382E-3,-5.288662E-5,3.3692801E-3,5.4274187E-3,-2.5648423E-4,2.8132866E-3,-2.3008909E-4,-2.4432018E-3],"split_indices":[51,80,77,77,80,25,28,0,0,0,0,0,0,0,0],"split_type":[0,0,0,0,0,0,0,0,0,0,0,0,0,0,0],"sum_hessian":[6.3969717E3,3.1366343E3,3.2603372E3,1.5943317E3,1.5423025E3,1.0297717E3,2.2305654E3,1.1249032E3,4.694285E2,9.4056476E2,6.017378E2,3.4883664E2,6.809352E2,9.6479456E2,1.2657709E3],"tree_param":{"num_deleted":"0","num_feature":"106","num_nodes":"15","size_leaf_vector":"1"}},{"base_weights":[-1.15887254E-1,-2.8334862E-1,4.5192987E-2,-1.5707837E-1,-4.138098E-1,-8.295966E-2,2.2141427E-1,-2.3743473E-3,-2.016819E-4,-3.3378883E-3,-5.3825835E-3,1.2273628E-3,-1.8825026E-3,1.1476439E-3,3.0405766E-3],"categories":[],"categories_nodes":[],"categories_segments":[],"categories_sizes":[],"default_left":[0,0,0,0,0,0,0,0,0,0,0,0,0,0,0],"id":58,"left_children":[1,3,5,7,9,11,13,-1,-1,-1,-1,-1,-1,-1,-1],"loss_changes":[1.725231E2,5.158992E1,7.36532E1,1.754317E1,1.5172607E1,4.092382E1,1.206752E1,0E0,0E0,0E0,0E0,0E0,0E0,0E0,0E0],"parents":[2147483647,0,0,1,1,2,2,3,3,4,4,5,5,6,6],"right_children":[2,4,6,8,10,12,14,-1,-1,-1,-1,-1,-1,-1,-1],"split_conditions":[1.5E1,1.3E1,5.45E-1,5.1E0,2.3E1,-4.8E0,2E1,-2.3743473E-3,-2.016819E-4,-3.3378883E-3,-5.3825835E-3,1.2273628E-3,-1.8825026E-3,1.1476439E-3,3.0405766E-3],"split_indices":[51,80,55,77,80,25,28,0,0,0,0,0,0,0,0],"split_type":[0,0,0,0,0,0,0,0,0,0,0,0,0,0,0],"sum_hessian":[6.39426E3,3.1346614E3,3.2595986E3,1.5940361E3,1.5406251E3,1.8874938E3,1.3721047E3,1.00401666E3,5.900195E2,9.39929E2,6.006961E2,6.38992E2,1.2485018E3,6.000889E2,7.720158E2],"tree_param":{"num_deleted":"0","num_feature":"106","num_nodes":"15","size_leaf_vector":"1"}},{"base_weights":[1.1588726E-1,2.8334862E-1,-4.519298E-2,1.570784E-1,4.138098E-1,8.295966E-2,-2.2141425E-1,2.3743478E-3,2.016821E-4,3.3378883E-3,5.3825844E-3,-1.2273629E-3,1.8825027E-3,-1.1476435E-3,-3.0405766E-3],"categories":[],"categories_nodes":[],"categories_segments":[],"categories_sizes":[],"default_left":[0,0,0,0,0,0,0,0,0,0,0,0,0,0,0],"id":59,"left_children":[1,3,5,7,9,11,13,-1,-1,-1,-1,-1,-1,-1,-1],"loss_changes":[1.7252313E2,5.1589905E1,7.36532E1,1.754317E1,1.5172607E1,4.092382E1,1.206752E1,0E0,0E0,0E0,0E0,0E0,0E0,0E0,0E0],"parents":[2147483647,0,0,1,1,2,2,3,3,4,4,5,5,6,6],"right_children":[2,4,6,8,10,12,14,-1,-1,-1,-1,-1,-1,-1,-1],"split_conditions":[1.5E1,1.3E1,5.45E-1,5.1E0,2.3E1,-4.8E0,2E1,2.3743478E-3,2.016821E-4,3.3378883E-3,5.3825844E-3,-1.2273629E-3,1.8825027E-3,-1.1476435E-3,-3.0405766E-3],"split_indices":[51,80,55,77,80,25,28,0,0,0,0,0,0,0,0],"split_type":[0,0,0,0,0,0,0,0,0,0,0,0,0,0,0],"sum_hessian":[6.39426E3,3.1346614E3,3.2595986E3,1.5940361E3,1.5406251E3,1.8874938E3,1.3721047E3,1.00401666E3,5.900195E2,9.39929E2,6.006961E2,6.38992E2,1.2485018E3,6.000889E2,7.7201587E2],"tree_param":{"num_deleted":"0","num_feature":"106","num_nodes":"15","size_leaf_vector":"1"}},{"base_weights":[-1.1477857E-1,-2.2076908E-1,1.3546534E-1,-9.786118E-2,-3.6074507E-1,-1.5850656E-1,2.1226175E-1,7.4322736E-5,-2.2143086E-3,-2.813417E-3,-4.7388193E-3,-2.490354E-3,4.9770187E-4,3.4508859E-3,1.2976364E-3],"categories":[],"categories_nodes":[],"categories_segments":[],"categories_sizes":[],"default_left":[0,0,0,0,0,0,0,0,0,0,0,0,0,0,0],"id":60,"left_children":[1,3,5,7,9,11,13,-1,-1,-1,-1,-1,-1,-1,-1],"loss_changes":[1.6958298E2,7.7227936E1,4.2986748E1,3.1132544E1,1.87258E1,7.453615E0,1.6490204E1,0E0,0E0,0E0,0E0,0E0,0E0,0E0,0E0],"parents":[2147483647,0,0,1,1,2,2,3,3,4,4,5,5,6,6],"right_children":[2,4,6,8,10,12,14,-1,-1,-1,-1,-1,-1,-1,-1],"split_conditions":[2E1,1.4E1,3.6E-1,2.8E0,6.03E-1,2.7E1,-6.2E0,7.4322736E-5,-2.2143086E-3,-2.813417E-3,-4.7388193E-3,-2.490354E-3,4.9770187E-4,3.4508859E-3,1.2976364E-3],"split_indices":[28,80,55,25,3,28,25,0,0,0,0,0,0,0,0],"split_type":[0,0,0,0,0,0,0,0,0,0,0,0,0,0,0],"sum_hessian":[6.391565E3,4.489964E3,1.9016011E3,2.3916453E3,2.0983188E3,3.93654E2,1.507947E3,1.2918245E3,1.0998208E3,1.2350236E3,8.632953E2,2.742526E2,1.19401375E2,5.765248E2,9.3142224E2],"tree_param":{"num_deleted":"0","num_feature":"106","num_nodes":"15","size_leaf_vector":"1"}},{"base_weights":[1.1477857E-1,2.2076908E-1,-1.3546534E-1,9.7861186E-2,3.6074507E-1,1.5850654E-1,-2.1226174E-1,-7.432266E-5,2.2143086E-3,2.813417E-3,4.7388193E-3,2.4903538E-3,-4.9770187E-4,-3.4508863E-3,-1.2976363E-3],"categories":[],"categories_nodes":[],"categories_segments":[],"categories_sizes":[],"default_left":[0,0,0,0,0,0,0,0,0,0,0,0,0,0,0],"id":61,"left_children":[1,3,5,7,9,11,13,-1,-1,-1,-1,-1,-1,-1,-1],"loss_changes":[1.6958298E2,7.7227936E1,4.298674E1,3.1132544E1,1.87258E1,7.453616E0,1.6490204E1,0E0,0E0,0E0,0E0,0E0,0E0,0E0,0E0],"parents":[2147483647,0,0,1,1,2,2,3,3,4,4,5,5,6,6],"right_children":[2,4,6,8,10,12,14,-1,-1,-1,-1,-1,-1,-1,-1],"split_conditions":[2E1,1.4E1,3.6E-1,2.8E0,6.03E-1,2.7E1,-6.2E0,-7.432266E-5,2.2143086E-3,2.813417E-3,4.7388193E-3,2.4903538E-3,-4.9770187E-4,-3.4508863E-3,-1.2976363E-3],"split_indices":[28,80,55,25,3,28,25,0,0,0,0,0,0,0,0],"split_type":[0,0,0,0,0,0,0,0,0,0,0,0,0,0,0],"sum_hessian":[6.391565E3,4.489964E3,1.9016011E3,2.3916453E3,2.0983188E3,3.93654E2,1.507947E3,1.2918245E3,1.0998208E3,1.2350236E3,8.632953E2,2.742526E2,1.19401375E2,5.765248E2,9.3142224E2],"tree_param":{"num_deleted":"0","num_feature":"106","num_nodes":"15","size_leaf_vector":"1"}},{"base_weights":[-1.1367985E-1,-2.7830893E-1,4.4552207E-2,-1.5416443E-1,-4.067987E-1,-1.5756524E-1,1.5341954E-1,-2.2136131E-3,6.892662E-5,-3.2728533E-3,-5.3066057E-3,-3.02669E-3,-2.0717009E-4,6.021638E-4,2.7655833E-3],"categories":[],"categories_nodes":[],"categories_segments":[],"categories_sizes":[],"default_left":[0,0,0,0,0,0,0,0,0,0,0,0,0,0,0],"id":62,"left_children":[1,3,5,7,9,11,13,-1,-1,-1,-1,-1,-1,-1,-1],"loss_changes":[1.6646667E2,4.9893295E1,7.173768E1,1.7257362E1,1.497699E1,2.2659143E1,2.4299435E1,0E0,0E0,0E0,0E0,0E0,0E0,0E0,0E0],"parents":[2147483647,0,0,1,1,2,2,3,3,4,4,5,5,6,6],"right_children":[2,4,6,8,10,12,14,-1,-1,-1,-1,-1,-1,-1,-1],"split_conditions":[1.5E1,1.3E1,-1.4E0,6E0,2.3E1,2.1E1,2.4E1,-2.2136131E-3,6.892662E-5,-3.2728533E-3,-5.3066057E-3,-3.02669E-3,-2.0717009E-4,6.021638E-4,2.7655833E-3],"split_indices":[51,80,77,77,80,28,51,0,0,0,0,0,0,0,0],"split_type":[0,0,0,0,0,0,0,0,0,0,0,0,0,0,0],"sum_hessian":[6.3888984E3,3.130784E3,3.2581143E3,1.5934353E3,1.5373485E3,1.1404208E3,2.1176936E3,1.1240713E3,4.6936398E2,9.385117E2,5.9883685E2,5.529265E2,5.874943E2,1.206209E3,9.114846E2],"tree_param":{"num_deleted":"0","num_feature":"106","num_nodes":"15","size_leaf_vector":"1"}},{"base_weights":[1.1367985E-1,2.7830893E-1,-4.455222E-2,1.5416443E-1,4.0679872E-1,1.5756525E-1,-1.5341955E-1,2.2136131E-3,-6.89269E-5,3.2728538E-3,5.3066057E-3,3.0266903E-3,2.0717019E-4,-6.021639E-4,-2.765584E-3],"categories":[],"categories_nodes":[],"categories_segments":[],"categories_sizes":[],"default_left":[0,0,0,0,0,0,0,0,0,0,0,0,0,0,0],"id":63,"left_children":[1,3,5,7,9,11,13,-1,-1,-1,-1,-1,-1,-1,-1],"loss_changes":[1.664667E2,4.9893295E1,7.173769E1,1.7257362E1,1.497702E1,2.2659147E1,2.4299454E1,0E0,0E0,0E0,0E0,0E0,0E0,0E0,0E0],"parents":[2147483647,0,0,1,1,2,2,3,3,4,4,5,5,6,6],"right_children":[2,4,6,8,10,12,14,-1,-1,-1,-1,-1,-1,-1,-1],"split_conditions":[1.5E1,1.3E1,-1.4E0,6E0,2.3E1,2.1E1,2.4E1,2.2136131E-3,-6.89269E-5,3.2728538E-3,5.3066057E-3,3.0266903E-3,2.0717019E-4,-6.021639E-4,-2.765584E-3],"split_indices":[51,80,77,77,80,28,51,0,0,0,0,0,0,0,0],"split_type":[0,0,0,0,0,0,0,0,0,0,0,0,0,0,0],"sum_hessian":[6.3888984E3,3.130784E3,3.2581143E3,1.5934353E3,1.5373485E3,1.1404208E3,2.1176936E3,1.1240714E3,4.6936398E2,9.385117E2,5.988368E2,5.529265E2,5.874943E2,1.206209E3,9.1148456E2],"tree_param":{"num_deleted":"0","num_feature":"106","num_nodes":"15","size_leaf_vector":"1"}},{"base_weights":[-1.12595916E-1,8.387385E-2,-2.4298869E-1,-4.9235106E-2,2.3315662E-1,-3.345532E-1,-5.497039E-2,1.1095447E-3,-1.6660818E-3,3.7128606E-3,1.7171236E-3,-2.715719E-3,-4.8755584E-3,1.9628038E-4,-2.260372E-3],"categories":[],"categories_nodes":[],"categories_segments":[],"categories_sizes":[],"default_left":[0,0,0,0,0,0,0,0,0,0,0,0,0,0,0],"id":64,"left_children":[1,3,5,7,9,11,13,-1,-1,-1,-1,-1,-1,-1,-1],"loss_changes":[1.6364482E2,5.0655815E1,6.607924E1,2.5366299E1,1.0133896E1,2.4746124E1,1.6065853E1,0E0,0E0,0E0,0E0,0E0,0E0,0E0,0E0],"parents":[2147483647,0,0,1,1,2,2,3,3,4,4,5,5,6,6],"right_children":[2,4,6,8,10,12,14,-1,-1,-1,-1,-1,-1,-1,-1],"split_conditions":[4.74E-1,5.19E-1,2.9E0,-4.8E0,-6.1E0,2.3E1,6.71E-1,1.1095447E-3,-1.6660818E-3,3.7128606E-3,1.7171236E-3,-2.715719E-3,-4.8755584E-3,1.9628038E-4,-2.260372E-3],"split_indices":[3,55,77,25,25,80,3,0,0,0,0,0,0,0,0],"split_type":[0,0,0,0,0,0,0,0,0,0,0,0,0,0,0],"sum_hessian":[6.3860293E3,2.547672E3,3.8383572E3,1.3471486E3,1.2005237E3,2.5807554E3,1.2576017E3,5.696926E2,7.7745593E2,3.6806177E2,8.3246185E2,1.8301683E3,7.5058716E2,8.7633624E2,3.8126544E2],"tree_param":{"num_deleted":"0","num_feature":"106","num_nodes":"15","size_leaf_vector":"1"}},{"base_weights":[1.1259593E-1,-8.387387E-2,2.4298872E-1,4.9235113E-2,-2.3315665E-1,3.345532E-1,5.4970443E-2,-1.1095445E-3,1.666082E-3,-3.712861E-3,-1.7171238E-3,2.7157192E-3,4.8755584E-3,-1.9627971E-4,2.2603723E-3],"categories":[],"categories_nodes":[],"categories_segments":[],"categories_sizes":[],"default_left":[0,0,0,0,0,0,0,0,0,0,0,0,0,0,0],"id":65,"left_children":[1,3,5,7,9,11,13,-1,-1,-1,-1,-1,-1,-1,-1],"loss_changes":[1.6364487E2,5.0655838E1,6.607924E1,2.5366297E1,1.0133896E1,2.4746155E1,1.6065845E1,0E0,0E0,0E0,0E0,0E0,0E0,0E0,0E0],"parents":[2147483647,0,0,1,1,2,2,3,3,4,4,5,5,6,6],"right_children":[2,4,6,8,10,12,14,-1,-1,-1,-1,-1,-1,-1,-1],"split_conditions":[4.74E-1,5.19E-1,2.9E0,-4.8E0,-6.1E0,2.3E1,6.71E-1,-1.1095445E-3,1.666082E-3,-3.712861E-3,-1.7171238E-3,2.7157192E-3,4.8755584E-3,-1.9627971E-4,2.2603723E-3],"split_indices":[3,55,77,25,25,80,3,0,0,0,0,0,0,0,0],"split_type":[0,0,0,0,0,0,0,0,0,0,0,0,0,0,0],"sum_hessian":[6.3860293E3,2.547672E3,3.8383572E3,1.3471486E3,1.2005236E3,2.5807554E3,1.2576017E3,5.696926E2,7.774559E2,3.6806174E2,8.3246185E2,1.8301683E3,7.5058716E2,8.7633624E2,3.8126544E2],"tree_param":{"num_deleted":"0","num_feature":"106","num_nodes":"15","size_leaf_vector":"1"}},{"base_weights":[-1.1152007E-1,-2.7352345E-1,4.40708E-2,-1.5135849E-1,-4.0019214E-1,-1.7095777E-1,1.4332408E-1,-2.1766739E-3,7.498094E-5,-3.4543085E-3,-5.765517E-3,2.3478472E-4,-2.7065992E-3,2.3375283E-4,2.3477874E-3],"categories":[],"categories_nodes":[],"categories_segments":[],"categories_sizes":[],"default_left":[0,0,0,0,0,0,0,0,0,0,0,0,0,0,0],"id":66,"left_children":[1,3,5,7,9,11,13,-1,-1,-1,-1,-1,-1,-1,-1],"loss_changes":[1.6093472E2,4.834053E1,6.954555E1,1.6790272E1,1.462529E1,1.9957832E1,2.444907E1,0E0,0E0,0E0,0E0,0E0,0E0,0E0,0E0],"parents":[2147483647,0,0,1,1,2,2,3,3,4,4,5,5,6,6],"right_children":[2,4,6,8,10,12,14,-1,-1,-1,-1,-1,-1,-1,-1],"split_conditions":[1.5E1,1.3E1,-1.9E0,6E0,2.6E1,-4.8E0,2E1,-2.1766739E-3,7.498094E-5,-3.4543085E-3,-5.765517E-3,2.3478472E-4,-2.7065992E-3,2.3375283E-4,2.3477874E-3],"split_indices":[51,80,77,77,80,25,28,0,0,0,0,0,0,0,0],"split_type":[0,0,0,0,0,0,0,0,0,0,0,0,0,0,0],"sum_hessian":[6.3832363E3,3.1268052E3,3.2564314E3,1.5928165E3,1.5339888E3,1.0281847E3,2.2282466E3,1.1234873E3,4.693292E2,1.1727863E3,3.6120248E2,3.487761E2,6.7940857E2,9.6449884E2,1.2637478E3],"tree_param":{"num_deleted":"0","num_feature":"106","num_nodes":"15","size_leaf_vector":"1"}},{"base_weights":[1.1152007E-1,2.7352345E-1,-4.4070806E-2,1.513585E-1,4.0019214E-1,1.7095777E-1,-1.4332408E-1,2.1766739E-3,-7.4980664E-5,3.4543085E-3,5.765517E-3,-2.3478485E-4,2.7065992E-3,-2.3375286E-4,-2.3477876E-3],"categories":[],"categories_nodes":[],"categories_segments":[],"categories_sizes":[],"default_left":[0,0,0,0,0,0,0,0,0,0,0,0,0,0,0],"id":67,"left_children":[1,3,5,7,9,11,13,-1,-1,-1,-1,-1,-1,-1,-1],"loss_changes":[1.6093472E2,4.8340576E1,6.9545555E1,1.6790264E1,1.4625259E1,1.9957832E1,2.4449066E1,0E0,0E0,0E0,0E0,0E0,0E0,0E0,0E0],"parents":[2147483647,0,0,1,1,2,2,3,3,4,4,5,5,6,6],"right_children":[2,4,6,8,10,12,14,-1,-1,-1,-1,-1,-1,-1,-1],"split_conditions":[1.5E1,1.3E1,-1.9E0,6E0,2.6E1,-4.8E0,2E1,2.1766739E-3,-7.4980664E-5,3.4543085E-3,5.765517E-3,-2.3478485E-4,2.7065992E-3,-2.3375286E-4,-2.3477876E-3],"split_indices":[51,80,77,77,80,25,28,0,0,0,0,0,0,0,0],"split_type":[0,0,0,0,0,0,0,0,0,0,0,0,0,0,0],"sum_hessian":[6.3832363E3,3.1268052E3,3.2564312E3,1.5928165E3,1.5339888E3,1.0281847E3,2.2282466E3,1.1234873E3,4.6932922E2,1.1727863E3,3.6120248E2,3.487761E2,6.7940857E2,9.6449884E2,1.2637478E3],"tree_param":{"num_deleted":"0","num_feature":"106","num_nodes":"15","size_leaf_vector":"1"}},{"base_weights":[-1.1045837E-1,-2.70979E-1,4.3640956E-2,-1.4987734E-1,-3.9666796E-1,-8.0148794E-2,2.1385604E-1,-2.2785203E-3,-1.7164309E-4,-3.4228724E-3,-5.7201674E-3,1.1726021E-3,-1.8125414E-3,1.1230482E-3,2.9268765E-3],"categories":[],"categories_nodes":[],"categories_segments":[],"categories_sizes":[],"default_left":[0,0,0,0,0,0,0,0,0,0,0,0,0,0,0],"id":68,"left_children":[1,3,5,7,9,11,13,-1,-1,-1,-1,-1,-1,-1,-1],"loss_changes":[1.5786003E2,4.7516678E1,6.863708E1,1.6485909E1,1.442392E1,3.7667328E1,1.09463005E1,0E0,0E0,0E0,0E0,0E0,0E0,0E0,0E0],"parents":[2147483647,0,0,1,1,2,2,3,3,4,4,5,5,6,6],"right_children":[2,4,6,8,10,12,14,-1,-1,-1,-1,-1,-1,-1,-1],"split_conditions":[1.5E1,1.3E1,5.45E-1,5.1E0,2.6E1,-4.8E0,2E1,-2.2785203E-3,-1.7164309E-4,-3.4228724E-3,-5.7201674E-3,1.1726021E-3,-1.8125414E-3,1.1230482E-3,2.9268765E-3],"split_indices":[51,80,55,77,80,25,28,0,0,0,0,0,0,0,0],"split_type":[0,0,0,0,0,0,0,0,0,0,0,0,0,0,0],"sum_hessian":[6.3802847E3,3.1246611E3,3.2556235E3,1.5924878E3,1.5321733E3,1.8851604E3,1.370463E3,1.00266284E3,5.8982495E2,1.1717362E3,3.6043716E2,6.384405E2,1.24672E3,5.9998474E2,7.704783E2],"tree_param":{"num_deleted":"0","num_feature":"106","num_nodes":"15","size_leaf_vector":"1"}},{"base_weights":[1.1045838E-1,2.70979E-1,-4.3640953E-2,1.4987735E-1,3.96668E-1,8.0148794E-2,-2.1385603E-1,2.2785205E-3,1.7164322E-4,3.4228724E-3,5.7201674E-3,-1.1726024E-3,1.8125414E-3,-1.1230478E-3,-2.9268765E-3],"categories":[],"categories_nodes":[],"categories_segments":[],"categories_sizes":[],"default_left":[0,0,0,0,0,0,0,0,0,0,0,0,0,0,0],"id":69,"left_children":[1,3,5,7,9,11,13,-1,-1,-1,-1,-1,-1,-1,-1],"loss_changes":[1.5786005E2,4.7516678E1,6.863706E1,1.6485909E1,1.442392E1,3.7667343E1,1.0946312E1,0E0,0E0,0E0,0E0,0E0,0E0,0E0,0E0],"parents":[2147483647,0,0,1,1,2,2,3,3,4,4,5,5,6,6],"right_children":[2,4,6,8,10,12,14,-1,-1,-1,-1,-1,-1,-1,-1],"split_conditions":[1.5E1,1.3E1,5.45E-1,5.1E0,2.6E1,-4.8E0,2E1,2.2785205E-3,1.7164322E-4,3.4228724E-3,5.7201674E-3,-1.1726024E-3,1.8125414E-3,-1.1230478E-3,-2.9268765E-3],"split_indices":[51,80,55,77,80,25,28,0,0,0,0,0,0,0,0],"split_type":[0,0,0,0,0,0,0,0,0,0,0,0,0,0,0],"sum_hessian":[6.3802847E3,3.1246611E3,3.2556235E3,1.5924878E3,1.5321733E3,1.8851605E3,1.370463E3,1.00266284E3,5.8982495E2,1.1717362E3,3.604372E2,6.384404E2,1.24672E3,5.9998474E2,7.7047833E2],"tree_param":{"num_deleted":"0","num_feature":"106","num_nodes":"15","size_leaf_vector":"1"}},{"base_weights":[-1.0940593E-1,-2.109652E-1,1.3008212E-1,-1.3260026E-1,-4.1475168E-1,-1.5454395E-1,2.0448188E-1,-2.8651033E-3,-4.4398557E-4,-3.5238233E-3,-5.585728E-3,-2.4250725E-3,4.7634836E-4,3.3362308E-3,1.2439109E-3],"categories":[],"categories_nodes":[],"categories_segments":[],"categories_sizes":[],"default_left":[0,0,0,0,0,0,0,0,0,0,0,0,0,0,0],"id":70,"left_children":[1,3,5,7,9,11,13,-1,-1,-1,-1,-1,-1,-1,-1],"loss_changes":[1.551633E2,7.147891E1,4.0266365E1,4.392619E1,1.0958557E1,7.02394E0,1.5542381E1,0E0,0E0,0E0,0E0,0E0,0E0,0E0,0E0],"parents":[2147483647,0,0,1,1,2,2,3,3,4,4,5,5,6,6],"right_children":[2,4,6,8,10,12,14,-1,-1,-1,-1,-1,-1,-1,-1],"split_conditions":[2E1,2E1,3.6E-1,7E0,3.7E1,2.7E1,-6.2E0,-2.8651033E-3,-4.4398557E-4,-3.5238233E-3,-5.585728E-3,-2.4250725E-3,4.7634836E-4,3.3362308E-3,1.2439109E-3],"split_indices":[28,80,55,27,54,28,25,0,0,0,0,0,0,0,0],"split_type":[0,0,0,0,0,0,0,0,0,0,0,0,0,0,0],"sum_hessian":[6.377356E3,4.478349E3,1.8990067E3,3.2357212E3,1.2426279E3,3.9330185E2,1.5057048E3,1.1779592E3,2.057762E3,8.6915936E2,3.7346857E2,2.739243E2,1.1937758E2,5.751489E2,9.305559E2],"tree_param":{"num_deleted":"0","num_feature":"106","num_nodes":"15","size_leaf_vector":"1"}},{"base_weights":[1.0940592E-1,2.109652E-1,-1.3008213E-1,1.3260025E-1,4.1475168E-1,1.5454392E-1,-2.044819E-1,2.865103E-3,4.4398548E-4,3.5238233E-3,5.5857287E-3,2.4250725E-3,-4.7634915E-4,-3.336231E-3,-1.2439111E-3],"categories":[],"categories_nodes":[],"categories_segments":[],"categories_sizes":[],"default_left":[0,0,0,0,0,0,0,0,0,0,0,0,0,0,0],"id":71,"left_children":[1,3,5,7,9,11,13,-1,-1,-1,-1,-1,-1,-1,-1],"loss_changes":[1.551633E2,7.147896E1,4.026636E1,4.3926197E1,1.0958557E1,7.023945E0,1.5542381E1,0E0,0E0,0E0,0E0,0E0,0E0,0E0,0E0],"parents":[2147483647,0,0,1,1,2,2,3,3,4,4,5,5,6,6],"right_children":[2,4,6,8,10,12,14,-1,-1,-1,-1,-1,-1,-1,-1],"split_conditions":[2E1,2E1,3.6E-1,7E0,3.7E1,2.7E1,-6.2E0,2.865103E-3,4.4398548E-4,3.5238233E-3,5.5857287E-3,2.4250725E-3,-4.7634915E-4,-3.336231E-3,-1.2439111E-3],"split_indices":[28,80,55,27,54,28,25,0,0,0,0,0,0,0,0],"split_type":[0,0,0,0,0,0,0,0,0,0,0,0,0,0,0],"sum_hessian":[6.377356E3,4.478349E3,1.8990067E3,3.2357212E3,1.2426279E3,3.9330185E2,1.5057048E3,1.1779592E3,2.057762E3,8.6915936E2,3.7346857E2,2.739243E2,1.1937758E2,5.751489E2,9.305559E2],"tree_param":{"num_deleted":"0","num_feature":"106","num_nodes":"15","size_leaf_vector":"1"}},{"base_weights":[-1.0836154E-1,-2.6630548E-1,4.314549E-2,-3.4138575E-1,-6.848644E-2,-7.8864634E-2,2.1091346E-1,-2.8062358E-3,-5.1135616E-3,-3.6776467E-4,-3.921099E-3,1.148541E-3,-1.7810103E-3,3.6623194E-3,1.6109253E-3],"categories":[],"categories_nodes":[],"categories_segments":[],"categories_sizes":[],"default_left":[0,0,0,0,0,0,0,0,0,0,0,0,0,0,0],"id":72,"left_children":[1,3,5,7,9,11,13,-1,-1,-1,-1,-1,-1,-1,-1],"loss_changes":[1.5257611E2,4.633969E1,6.664343E1,2.322348E1,8.811699E0,3.626126E1,1.0548073E1,0E0,0E0,0E0,0E0,0E0,0E0,0E0,0E0],"parents":[2147483647,0,0,1,1,2,2,3,3,4,4,5,5,6,6],"right_children":[2,4,6,8,10,12,14,-1,-1,-1,-1,-1,-1,-1,-1],"split_conditions":[1.5E1,3.8E0,5.45E-1,2.3E1,9.2E0,-4.8E0,-6.1E0,-2.8062358E-3,-5.1135616E-3,-3.6776467E-4,-3.921099E-3,1.148541E-3,-1.7810103E-3,3.6623194E-3,1.6109253E-3],"split_indices":[51,77,55,80,25,25,25,0,0,0,0,0,0,0,0],"split_type":[0,0,0,0,0,0,0,0,0,0,0,0,0,0,0],"sum_hessian":[6.374556E3,3.1206084E3,3.2539478E3,2.2615383E3,8.5907025E2,1.8841906E3,1.3697573E3,1.6679275E3,5.936107E2,7.834211E2,7.56492E1,6.382024E2,1.2459882E3,3.3112204E2,1.0386353E3],"tree_param":{"num_deleted":"0","num_feature":"106","num_nodes":"15","size_leaf_vector":"1"}},{"base_weights":[1.0836155E-1,2.663055E-1,-4.3145493E-2,3.4138575E-1,6.8486474E-2,7.886461E-2,-2.1091343E-1,2.8062358E-3,5.1135616E-3,3.6776505E-4,3.9211E-3,-1.148541E-3,1.78101E-3,-3.6623192E-3,-1.610925E-3],"categories":[],"categories_nodes":[],"categories_segments":[],"categories_sizes":[],"default_left":[0,0,0,0,0,0,0,0,0,0,0,0,0,0,0],"id":73,"left_children":[1,3,5,7,9,11,13,-1,-1,-1,-1,-1,-1,-1,-1],"loss_changes":[1.5257614E2,4.6339645E1,6.664342E1,2.322348E1,8.811701E0,3.6261253E1,1.0548069E1,0E0,0E0,0E0,0E0,0E0,0E0,0E0,0E0],"parents":[2147483647,0,0,1,1,2,2,3,3,4,4,5,5,6,6],"right_children":[2,4,6,8,10,12,14,-1,-1,-1,-1,-1,-1,-1,-1],"split_conditions":[1.5E1,3.8E0,5.45E-1,2.3E1,9.2E0,-4.8E0,-6.1E0,2.8062358E-3,5.1135616E-3,3.6776505E-4,3.9211E-3,-1.148541E-3,1.78101E-3,-3.6623192E-3,-1.610925E-3],"split_indices":[51,77,55,80,25,25,25,0,0,0,0,0,0,0,0],"split_type":[0,0,0,0,0,0,0,0,0,0,0,0,0,0,0],"sum_hessian":[6.374556E3,3.1206084E3,3.2539478E3,2.2615383E3,8.5907025E2,1.8841906E3,1.3697573E3,1.6679275E3,5.936107E2,7.83421E2,7.56492E1,6.382024E2,1.2459882E3,3.3112204E2,1.0386354E3],"tree_param":{"num_deleted":"0","num_feature":"106","num_nodes":"15","size_leaf_vector":"1"}},{"base_weights":[-1.0733017E-1,8.084437E-2,-2.3241876E-1,-4.7131483E-2,2.2445215E-1,-4.1647503E-1,-1.4459397E-1,1.0530839E-3,-1.588876E-3,3.576971E-3,1.6532388E-3,-1.6126644E-3,-4.5296177E-3,-2.8487798E-4,-2.6013863E-3],"categories":[],"categories_nodes":[],"categories_segments":[],"categories_sizes":[],"default_left":[0,0,0,0,0,0,0,0,0,0,0,0,0,0,0],"id":74,"left_children":[1,3,5,7,9,11,13,-1,-1,-1,-1,-1,-1,-1,-1],"loss_changes":[1.5001926E2,4.6790024E1,6.1821518E1,2.2960247E1,9.39196E0,1.1437027E1,3.4780506E1,0E0,0E0,0E0,0E0,0E0,0E0,0E0,0E0],"parents":[2147483647,0,0,1,1,2,2,3,3,4,4,5,5,6,6],"right_children":[2,4,6,8,10,12,14,-1,-1,-1,-1,-1,-1,-1,-1],"split_conditions":[4.74E-1,5.19E-1,-1.4E0,-4.8E0,-6.1E0,9E0,6.03E-1,1.0530839E-3,-1.588876E-3,3.576971E-3,1.6532388E-3,-1.6126644E-3,-4.5296177E-3,-2.8487798E-4,-2.6013863E-3],"split_indices":[3,55,77,25,25,52,3,0,0,0,0,0,0,0,0],"split_type":[0,0,0,0,0,0,0,0,0,0,0,0,0,0,0],"sum_hessian":[6.3715615E3,2.544359E3,3.8272024E3,1.3457594E3,1.1985996E3,1.2350791E3,2.5921235E3,5.692868E2,7.764726E2,3.668523E2,8.317473E2,1.5516812E2,1.0799109E3,1.2935419E3,1.2985815E3],"tree_param":{"num_deleted":"0","num_feature":"106","num_nodes":"15","size_leaf_vector":"1"}},{"base_weights":[1.0733018E-1,-8.0844365E-2,2.3241878E-1,4.7131483E-2,-2.2445215E-1,4.1647503E-1,1.44594E-1,-1.0530842E-3,1.5888762E-3,-3.576971E-3,-1.6532387E-3,1.6126645E-3,4.529618E-3,2.8487804E-4,2.6013865E-3],"categories":[],"categories_nodes":[],"categories_segments":[],"categories_sizes":[],"default_left":[0,0,0,0,0,0,0,0,0,0,0,0,0,0,0],"id":75,"left_children":[1,3,5,7,9,11,13,-1,-1,-1,-1,-1,-1,-1,-1],"loss_changes":[1.5001926E2,4.6790024E1,6.1821533E1,2.2960257E1,9.391968E0,1.1437027E1,3.4780514E1,0E0,0E0,0E0,0E0,0E0,0E0,0E0,0E0],"parents":[2147483647,0,0,1,1,2,2,3,3,4,4,5,5,6,6],"right_children":[2,4,6,8,10,12,14,-1,-1,-1,-1,-1,-1,-1,-1],"split_conditions":[4.74E-1,5.19E-1,-1.4E0,-4.8E0,-6.1E0,9E0,6.03E-1,-1.0530842E-3,1.5888762E-3,-3.576971E-3,-1.6532387E-3,1.6126645E-3,4.529618E-3,2.8487804E-4,2.6013865E-3],"split_indices":[3,55,77,25,25,52,3,0,0,0,0,0,0,0,0],"split_type":[0,0,0,0,0,0,0,0,0,0,0,0,0,0,0],"sum_hessian":[6.3715615E3,2.5443591E3,3.8272026E3,1.3457594E3,1.1985996E3,1.2350791E3,2.5921235E3,5.692868E2,7.764726E2,3.668523E2,8.317473E2,1.5516812E2,1.0799109E3,1.2935419E3,1.2985815E3],"tree_param":{"num_deleted":"0","num_feature":"106","num_nodes":"15","size_leaf_vector":"1"}},{"base_weights":[-1.06308214E-1,-2.0537126E-1,1.2711823E-1,-1.970579E-2,-2.8776142E-1,-1.523733E-1,2.0020129E-1,8.94658E-4,-1.5038541E-3,-2.2716413E-3,-4.437702E-3,7.6976153E-3,-1.7098286E-3,3.2595696E-3,1.2231309E-3],"categories":[],"categories_nodes":[],"categories_segments":[],"categories_sizes":[],"default_left":[0,0,0,0,0,0,0,0,0,0,0,0,0,0,0],"id":76,"left_children":[1,3,5,7,9,11,13,-1,-1,-1,-1,-1,-1,-1,-1],"loss_changes":[1.4731546E2,6.840521E1,3.880712E1,1.9639181E1,2.9182281E1,6.89412E0,1.470451E1,0E0,0E0,0E0,0E0,0E0,0E0,0E0,0E0],"parents":[2147483647,0,0,1,1,2,2,3,3,4,4,5,5,6,6],"right_children":[2,4,6,8,10,12,14,-1,-1,-1,-1,-1,-1,-1,-1],"split_conditions":[2E1,9E0,3.6E-1,2.9E0,2.3E1,1.68E1,-6.2E0,8.94658E-4,-1.5038541E-3,-2.2716413E-3,-4.437702E-3,7.6976153E-3,-1.7098286E-3,3.2595696E-3,1.2231309E-3],"split_indices":[28,103,55,25,80,12,25,0,0,0,0,0,0,0,0],"split_type":[0,0,0,0,0,0,0,0,0,0,0,0,0,0,0],"sum_hessian":[6.368562E3,4.4711753E3,1.8973866E3,1.3746511E3,3.0965244E3,3.9307294E2,1.5043137E3,7.4913153E2,6.255196E2,2.2320156E3,8.645087E2,6.977205E0,3.8609573E2,5.7414056E2,9.301731E2],"tree_param":{"num_deleted":"0","num_feature":"106","num_nodes":"15","size_leaf_vector":"1"}},{"base_weights":[1.06308214E-1,2.0537125E-1,-1.2711821E-1,1.9705797E-2,2.8776142E-1,1.5237331E-1,-2.0020127E-1,-8.946576E-4,1.5038537E-3,2.271641E-3,4.437702E-3,-7.697615E-3,1.709829E-3,-3.2595696E-3,-1.2231306E-3],"categories":[],"categories_nodes":[],"categories_segments":[],"categories_sizes":[],"default_left":[0,0,0,0,0,0,0,0,0,0,0,0,0,0,0],"id":77,"left_children":[1,3,5,7,9,11,13,-1,-1,-1,-1,-1,-1,-1,-1],"loss_changes":[1.4731543E2,6.84052E1,3.880713E1,1.9639175E1,2.9182281E1,6.8941174E0,1.4704506E1,0E0,0E0,0E0,