{"learner":{"attributes":{},"feature_names":[],"feature_types":[],"gradient_booster":{"model":{"gbtree_model_param":{"num_parallel_tree":"1","num_trees":"1500"},"iteration_indptr":[0,2,4,6,8,10,12,14,16,18,20,22,24,26,28,30,32,34,36,38,40,42,44,46,48,50,52,54,56,58,60,62,64,66,68,70,72,74,76,78,80,82,84,86,88,90,92,94,96,98,100,102,104,106,108,110,112,114,116,118,120,122,124,126,128,130,132,134,136,138,140,142,144,146,148,150,152,154,156,158,160,162,164,166,168,170,172,174,176,178,180,182,184,186,188,190,192,194,196,198,200,202,204,206,208,210,212,214,216,218,220,222,224,226,228,230,232,234,236,238,240,242,244,246,248,250,252,254,256,258,260,262,264,266,268,270,272,274,276,278,280,282,284,286,288,290,292,294,296,298,300,302,304,306,308,310,312,314,316,318,320,322,324,326,328,330,332,334,336,338,340,342,344,346,348,350,352,354,356,358,360,362,364,366,368,370,372,374,376,378,380,382,384,386,388,390,392,394,396,398,400,402,404,406,408,410,412,414,416,418,420,422,424,426,428,430,432,434,436,438,440,442,444,446,448,450,452,454,456,458,460,462,464,466,468,470,472,474,476,478,480,482,484,486,488,490,492,494,496,498,500,502,504,506,508,510,512,514,516,518,520,522,524,526,528,530,532,534,536,538,540,542,544,546,548,550,552,554,556,558,560,562,564,566,568,570,572,574,576,578,580,582,584,586,588,590,592,594,596,598,600,602,604,606,608,610,612,614,616,618,620,622,624,626,628,630,632,634,636,638,640,642,644,646,648,650,652,654,656,658,660,662,664,666,668,670,672,674,676,678,680,682,684,686,688,690,692,694,696,698,700,702,704,706,708,710,712,714,716,718,720,722,724,726,728,730,732,734,736,738,740,742,744,746,748,750,752,754,756,758,760,762,764,766,768,770,772,774,776,778,780,782,784,786,788,790,792,794,796,798,800,802,804,806,808,810,812,814,816,818,820,822,824,826,828,830,832,834,836,838,840,842,844,846,848,850,852,854,856,858,860,862,864,866,868,870,872,874,876,878,880,882,884,886,888,890,892,894,896,898,900,902,904,906,908,910,912,914,916,918,920,922,924,926,928,930,932,934,936,938,940,942,944,946,948,950,952,954,956,958,960,962,964,966,968,970,972,974,976,978,980,982,984,986,988,990,992,994,996,998,1000,1002,1004,1006,1008,1010,1012,1014,1016,1018,1020,1022,1024,1026,1028,1030,1032,1034,1036,1038,1040,1042,1044,1046,1048,1050,1052,1054,1056,1058,1060,1062,1064,1066,1068,1070,1072,1074,1076,1078,1080,1082,1084,1086,1088,1090,1092,1094,1096,1098,1100,1102,1104,1106,1108,1110,1112,1114,1116,1118,1120,1122,1124,1126,1128,1130,1132,1134,1136,1138,1140,1142,1144,1146,1148,1150,1152,1154,1156,1158,1160,1162,1164,1166,1168,1170,1172,1174,1176,1178,1180,1182,1184,1186,1188,1190,1192,1194,1196,1198,1200,1202,1204,1206,1208,1210,1212,1214,1216,1218,1220,1222,1224,1226,1228,1230,1232,1234,1236,1238,1240,1242,1244,1246,1248,1250,1252,1254,1256,1258,1260,1262,1264,1266,1268,1270,1272,1274,1276,1278,1280,1282,1284,1286,1288,1290,1292,1294,1296,1298,1300,1302,1304,1306,1308,1310,1312,1314,1316,1318,1320,1322,1324,1326,1328,1330,1332,1334,1336,1338,1340,1342,1344,1346,1348,1350,1352,1354,1356,1358,1360,1362,1364,1366,1368,1370,1372,1374,1376,1378,1380,1382,1384,1386,1388,1390,1392,1394,1396,1398,1400,1402,1404,1406,1408,1410,1412,1414,1416,1418,1420,1422,1424,1426,1428,1430,1432,1434,1436,1438,1440,1442,1444,1446,1448,1450,1452,1454,1456,1458,1460,1462,1464,1466,1468,1470,1472,1474,1476,1478,1480,1482,1484,1486,1488,1490,1492,1494,1496,1498,1500],"tree_info":[0,1,0,1,0,1,0,1,0,1,0,1,0,1,0,1,0,1,0,1,0,1,0,1,0,1,0,1,0,1,0,1,0,1,0,1,0,1,0,1,0,1,0,1,0,1,0,1,0,1,0,1,0,1,0,1,0,1,0,1,0,1,0,1,0,1,0,1,0,1,0,1,0,1,0,1,0,1,0,1,0,1,0,1,0,1,0,1,0,1,0,1,0,1,0,1,0,1,0,1,0,1,0,1,0,1,0,1,0,1,0,1,0,1,0,1,0,1,0,1,0,1,0,1,0,1,0,1,0,1,0,1,0,1,0,1,0,1,0,1,0,1,0,1,0,1,0,1,0,1,0,1,0,1,0,1,0,1,0,1,0,1,0,1,0,1,0,1,0,1,0,1,0,1,0,1,0,1,0,1,0,1,0,1,0,1,0,1,0,1,0,1,0,1,0,1,0,1,0,1,0,1,0,1,0,1,0,1,0,1,0,1,0,1,0,1,0,1,0,1,0,1,0,1,0,1,0,1,0,1,0,1,0,1,0,1,0,1,0,1,0,1,0,1,0,1,0,1,0,1,0,1,0,1,0,1,0,1,0,1,0,1,0,1,0,1,0,1,0,1,0,1,0,1,0,1,0,1,0,1,0,1,0,1,0,1,0,1,0,1,0,1,0,1,0,1,0,1,0,1,0,1,0,1,0,1,0,1,0,1,0,1,0,1,0,1,0,1,0,1,0,1,0,1,0,1,0,1,0,1,0,1,0,1,0,1,0,1,0,1,0,1,0,1,0,1,0,1,0,1,0,1,0,1,0,1,0,1,0,1,0,1,0,1,0,1,0,1,0,1,0,1,0,1,0,1,0,1,0,1,0,1,0,1,0,1,0,1,0,1,0,1,0,1,0,1,0,1,0,1,0,1,0,1,0,1,0,1,0,1,0,1,0,1,0,1,0,1,0,1,0,1,0,1,0,1,0,1,0,1,0,1,0,1,0,1,0,1,0,1,0,1,0,1,0,1,0,1,0,1,0,1,0,1,0,1,0,1,0,1,0,1,0,1,0,1,0,1,0,1,0,1,0,1,0,1,0,1,0,1,0,1,0,1,0,1,0,1,0,1,0,1,0,1,0,1,0,1,0,1,0,1,0,1,0,1,0,1,0,1,0,1,0,1,0,1,0,1,0,1,0,1,0,1,0,1,0,1,0,1,0,1,0,1,0,1,0,1,0,1,0,1,0,1,0,1,0,1,0,1,0,1,0,1,0,1,0,1,0,1,0,1,0,1,0,1,0,1,0,1,0,1,0,1,0,1,0,1,0,1,0,1,0,1,0,1,0,1,0,1,0,1,0,1,0,1,0,1,0,1,0,1,0,1,0,1,0,1,0,1,0,1,0,1,0,1,0,1,0,1,0,1,0,1,0,1,0,1,0,1,0,1,0,1,0,1,0,1,0,1,0,1,0,1,0,1,0,1,0,1,0,1,0,1,0,1,0,1,0,1,0,1,0,1,0,1,0,1,0,1,0,1,0,1,0,1,0,1,0,1,0,1,0,1,0,1,0,1,0,1,0,1,0,1,0,1,0,1,0,1,0,1,0,1,0,1,0,1,0,1,0,1,0,1,0,1,0,1,0,1,0,1,0,1,0,1,0,1,0,1,0,1,0,1,0,1,0,1,0,1,0,1,0,1,0,1,0,1,0,1,0,1,0,1,0,1,0,1,0,1,0,1,0,1,0,1,0,1,0,1,0,1,0,1,0,1,0,1,0,1,0,1,0,1,0,1,0,1,0,1,0,1,0,1,0,1,0,1,0,1,0,1,0,1,0,1,0,1,0,1,0,1,0,1,0,1,0,1,0,1,0,1,0,1,0,1,0,1,0,1,0,1,0,1,0,1,0,1,0,1,0,1,0,1,0,1,0,1,0,1,0,1,0,1,0,1,0,1,0,1,0,1,0,1,0,1,0,1,0,1,0,1,0,1,0,1,0,1,0,1,0,1,0,1,0,1,0,1,0,1,0,1,0,1,0,1,0,1,0,1,0,1,0,1,0,1,0,1,0,1,0,1,0,1,0,1,0,1,0,1,0,1,0,1,0,1,0,1,0,1,0,1,0,1,0,1,0,1,0,1,0,1,0,1,0,1,0,1,0,1,0,1,0,1,0,1,0,1,0,1,0,1,0,1,0,1,0,1,0,1,0,1,0,1,0,1,0,1,0,1,0,1,0,1,0,1,0,1,0,1,0,1,0,1,0,1,0,1,0,1,0,1,0,1,0,1,0,1,0,1,0,1,0,1,0,1,0,1,0,1,0,1,0,1,0,1,0,1,0,1,0,1,0,1,0,1,0,1,0,1,0,1,0,1,0,1,0,1,0,1,0,1,0,1,0,1,0,1,0,1,0,1,0,1,0,1,0,1,0,1,0,1,0,1,0,1,0,1,0,1,0,1,0,1,0,1,0,1,0,1,0,1,0,1,0,1,0,1,0,1,0,1,0,1,0,1,0,1,0,1,0,1,0,1,0,1,0,1,0,1,0,1,0,1,0,1,0,1,0,1,0,1,0,1,0,1,0,1,0,1,0,1,0,1,0,1,0,1,0,1,0,1,0,1,0,1,0,1,0,1,0,1,0,1,0,1,0,1,0,1,0,1,0,1,0,1,0,1,0,1,0,1,0,1,0,1,0,1,0,1,0,1,0,1,0,1,0,1,0,1,0,1,0,1,0,1,0,1,0,1,0,1,0,1,0,1,0,1,0,1,0,1,0,1,0,1,0,1,0,1,0,1,0,1,0,1,0,1,0,1,0,1,0,1,0,1,0,1,0,1,0,1,0,1,0,1,0,1,0,1,0,1,0,1,0,1,0,1,0,1,0,1,0,1,0,1,0,1,0,1,0,1,0,1,0,1,0,1,0,1,0,1,0,1,0,1,0,1,0,1,0,1,0,1,0,1,0,1,0,1,0,1,0,1,0,1,0,1,0,1,0,1,0,1,0,1,0,1,0,1,0,1,0,1,0,1,0,1,0,1,0,1,0,1,0,1,0,1,0,1,0,1,0,1,0,1,0,1,0,1,0,1,0,1,0,1,0,1,0,1,0,1,0,1,0,1,0,1,0,1,0,1,0,1,0,1,0,1,0,1,0,1,0,1,0,1,0,1,0,1,0,1,0,1,0,1,0,1,0,1,0,1,0,1,0,1,0,1,0,1,0,1,0,1,0,1,0,1,0,1,0,1,0,1,0,1,0,1,0,1,0,1,0,1,0,1,0,1,0,1,0,1,0,1,0,1,0,1,0,1,0,1,0,1,0,1,0,1,0,1,0,1,0,1,0,1,0,1,0,1,0,1,0,1,0,1,0,1,0,1,0,1,0,1,0,1,0,1,0,1],"trees":[{"base_weights":[-1.5581088E-1,-3.6403784E-1,4.6003364E-2,-2.0434108E-1,-5.290343E-1,-2.374582E-1,1.7924528E-1,-2.8014027E-3,-2.1141648E-4,-4.371383E-3,-6.7159277E-3,5.09915E-4,-3.837293E-3,6.0413353E-4,3.3333334E-3],"categories":[],"categories_nodes":[],"categories_segments":[],"categories_sizes":[],"default_left":[0,0,0,0,0,0,0,0,0,0,0,0,0,0,0],"id":0,"left_children":[1,3,5,7,9,11,13,-1,-1,-1,-1,-1,-1,-1,-1],"loss_changes":[2.7066693E2,8.3419525E1,1.23603714E2,2.2385849E1,2.0123627E1,4.4173347E1,4.0739212E1,0E0,0E0,0E0,0E0,0E0,0E0,0E0,0E0],"parents":[2147483647,0,0,1,1,2,2,3,3,4,4,5,5,6,6],"right_children":[2,4,6,8,10,12,14,-1,-1,-1,-1,-1,-1,-1,-1],"split_conditions":[1.5E1,1.3E1,-1.9E0,6E0,2.3E1,-4.8E0,2.4E1,-2.8014027E-3,-2.1141648E-4,-4.371383E-3,-6.7159277E-3,5.09915E-4,-3.837293E-3,6.0413353E-4,3.3333334E-3],"split_indices":[51,80,77,77,80,25,51,0,0,0,0,0,0,0,0],"split_type":[0,0,0,0,0,0,0,0,0,0,0,0,0,0,0],"sum_hessian":[6.4395E3,3.169E3,3.2705E3,1.6115E3,1.5575E3,1.0455E3,2.225E3,1.1395E3,4.72E2,9.495E2,6.08E2,3.52E2,6.935E2,1.257E3,9.68E2],"tree_param":{"num_deleted":"0","num_feature":"106","num_nodes":"15","size_leaf_vector":"1"}},{"base_weights":[1.5581088E-1,3.6403784E-1,-4.6003364E-2,2.0434108E-1,5.290343E-1,2.374582E-1,-1.7924528E-1,2.8014027E-3,2.1141648E-4,4.371383E-3,6.7159277E-3,-5.09915E-4,3.837293E-3,-6.0413353E-4,-3.3333334E-3],"categories":[],"categories_nodes":[],"categories_segments":[],"categories_sizes":[],"default_left":[0,0,0,0,0,0,0,0,0,0,0,0,0,0,0],"id":1,"left_children":[1,3,5,7,9,11,13,-1,-1,-1,-1,-1,-1,-1,-1],"loss_changes":[2.7066693E2,8.3419525E1,1.23603714E2,2.2385849E1,2.0123627E1,4.4173347E1,4.0739212E1,0E0,0E0,0E0,0E0,0E0,0E0,0E0,0E0],"parents":[2147483647,0,0,1,1,2,2,3,3,4,4,5,5,6,6],"right_children":[2,4,6,8,10,12,14,-1,-1,-1,-1,-1,-1,-1,-1],"split_conditions":[1.5E1,1.3E1,-1.9E0,6E0,2.3E1,-4.8E0,2.4E1,2.8014027E-3,2.1141648E-4,4.371383E-3,6.7159277E-3,-5.09915E-4,3.837293E-3,-6.0413353E-4,-3.3333334E-3],"split_indices":[51,80,77,77,80,25,51,0,0,0,0,0,0,0,0],"split_type":[0,0,0,0,0,0,0,0,0,0,0,0,0,0,0],"sum_hessian":[6.4395E3,3.169E3,3.2705E3,1.6115E3,1.5575E3,1.0455E3,2.225E3,1.1395E3,4.72E2,9.495E2,6.08E2,3.52E2,6.935E2,1.257E3,9.68E2],"tree_param":{"num_deleted":"0","num_feature":"106","num_nodes":"15","size_leaf_vector":"1"}},{"base_weights":[-1.542567E-1,-3.6040813E-1,4.5543816E-2,-2.0230064E-1,-5.2376646E-1,-2.3508906E-1,1.7745548E-1,-2.773435E-3,-2.0930619E-4,-4.3277983E-3,-6.6491794E-3,5.0483097E-4,-3.7990308E-3,5.9809705E-4,3.300071E-3],"categories":[],"categories_nodes":[],"categories_segments":[],"categories_sizes":[],"default_left":[0,0,0,0,0,0,0,0,0,0,0,0,0,0,0],"id":2,"left_children":[1,3,5,7,9,11,13,-1,-1,-1,-1,-1,-1,-1,-1],"loss_changes":[2.652921E2,8.1767944E1,1.2114777E2,2.1941032E1,1.9727295E1,4.3296616E1,3.993019E1,0E0,0E0,0E0,0E0,0E0,0E0,0E0,0E0],"parents":[2147483647,0,0,1,1,2,2,3,3,4,4,5,5,6,6],"right_children":[2,4,6,8,10,12,14,-1,-1,-1,-1,-1,-1,-1,-1],"split_conditions":[1.5E1,1.3E1,-1.9E0,6E0,2.3E1,-4.8E0,2.4E1,-2.773435E-3,-2.0930619E-4,-4.3277983E-3,-6.6491794E-3,5.0483097E-4,-3.7990308E-3,5.9809705E-4,3.300071E-3],"split_indices":[51,80,77,77,80,25,51,0,0,0,0,0,0,0,0],"split_type":[0,0,0,0,0,0,0,0,0,0,0,0,0,0,0],"sum_hessian":[6.439424E3,3.1689453E3,3.2704785E3,1.611491E3,1.5574545E3,1.0454897E3,2.2249888E3,1.1394911E3,4.7199997E2,9.494819E2,6.0797253E2,3.519999E2,6.934898E2,1.2569995E3,9.6798926E2],"tree_param":{"num_deleted":"0","num_feature":"106","num_nodes":"15","size_leaf_vector":"1"}},{"base_weights":[1.542567E-1,3.6040813E-1,-4.55438E-2,2.0230068E-1,5.237664E-1,2.3508915E-1,-1.774555E-1,2.773435E-3,2.0930739E-4,4.3277983E-3,6.649179E-3,-5.048301E-4,3.799032E-3,-5.9809734E-4,-3.300071E-3],"categories":[],"categories_nodes":[],"categories_segments":[],"categories_sizes":[],"default_left":[0,0,0,0,0,0,0,0,0,0,0,0,0,0,0],"id":3,"left_children":[1,3,5,7,9,11,13,-1,-1,-1,-1,-1,-1,-1,-1],"loss_changes":[2.6529208E2,8.176788E1,1.2114783E2,2.1941025E1,1.9727295E1,4.3296604E1,3.993019E1,0E0,0E0,0E0,0E0,0E0,0E0,0E0,0E0],"parents":[2147483647,0,0,1,1,2,2,3,3,4,4,5,5,6,6],"right_children":[2,4,6,8,10,12,14,-1,-1,-1,-1,-1,-1,-1,-1],"split_conditions":[1.5E1,1.3E1,-1.9E0,6E0,2.3E1,-4.8E0,2.4E1,2.773435E-3,2.0930739E-4,4.3277983E-3,6.649179E-3,-5.048301E-4,3.799032E-3,-5.9809734E-4,-3.300071E-3],"split_indices":[51,80,77,77,80,25,51,0,0,0,0,0,0,0,0],"split_type":[0,0,0,0,0,0,0,0,0,0,0,0,0,0,0],"sum_hessian":[6.439424E3,3.1689453E3,3.2704785E3,1.611491E3,1.5574543E3,1.0454897E3,2.224989E3,1.1394911E3,4.7199997E2,9.494818E2,6.079726E2,3.5199994E2,6.934898E2,1.2569996E3,9.6798926E2],"tree_param":{"num_deleted":"0","num_feature":"106","num_nodes":"15","size_leaf_vector":"1"}},{"base_weights":[-1.527216E-1,1.3569133E-1,-2.9283792E-1,-1.0536288E-1,2.730918E-1,-1.2381565E-1,-4.6127093E-1,6.575419E-4,-2.856109E-3,3.742556E-4,3.3674224E-3,-2.713667E-3,2.7016614E-4,-3.6554635E-3,-6.0428344E-3],"categories":[],"categories_nodes":[],"categories_segments":[],"categories_sizes":[],"default_left":[0,0,0,0,0,0,0,0,0,0,0,0,0,0,0],"id":4,"left_children":[1,3,5,7,9,11,13,-1,-1,-1,-1,-1,-1,-1,-1],"loss_changes":[2.6029694E2,6.9796E1,1.2334891E2,2.3628796E1,2.011715E1,4.818958E1,2.9496948E1,0E0,0E0,0E0,0E0,0E0,0E0,0E0,0E0],"parents":[2147483647,0,0,1,1,2,2,3,3,4,4,5,5,6,6],"right_children":[2,4,6,8,10,12,14,-1,-1,-1,-1,-1,-1,-1,-1],"split_conditions":[-1.6E0,-1.4E0,1.3E1,-4.8E0,2E1,1E1,2.3E1,6.575419E-4,-2.856109E-3,3.742556E-4,3.3674224E-3,-2.713667E-3,2.7016614E-4,-3.6554635E-3,-6.0428344E-3],"split_indices":[25,77,80,25,28,51,80,0,0,0,0,0,0,0,0],"split_type":[0,0,0,0,0,0,0,0,0,0,0,0,0,0,0],"sum_hessian":[6.4391987E3,2.105437E3,4.3337617E3,7.644775E2,1.3409596E3,2.1639631E3,2.1697988E3,3.9249786E2,3.7197958E2,2.854962E2,1.0554634E3,1.0934757E3,1.0704874E3,1.3019216E3,8.678773E2],"tree_param":{"num_deleted":"0","num_feature":"106","num_nodes":"15","size_leaf_vector":"1"}},{"base_weights":[1.5272161E-1,-1.3569133E-1,2.9283795E-1,1.0536288E-1,-2.730918E-1,1.2381567E-1,4.6127096E-1,-6.5754296E-4,2.85611E-3,-3.742556E-4,-3.3674224E-3,2.7136675E-3,-2.7016597E-4,3.6554635E-3,6.042835E-3],"categories":[],"categories_nodes":[],"categories_segments":[],"categories_sizes":[],"default_left":[0,0,0,0,0,0,0,0,0,0,0,0,0,0,0],"id":5,"left_children":[1,3,5,7,9,11,13,-1,-1,-1,-1,-1,-1,-1,-1],"loss_changes":[2.6029694E2,6.9796E1,1.2334891E2,2.3628826E1,2.011715E1,4.8189587E1,2.9496918E1,0E0,0E0,0E0,0E0,0E0,0E0,0E0,0E0],"parents":[2147483647,0,0,1,1,2,2,3,3,4,4,5,5,6,6],"right_children":[2,4,6,8,10,12,14,-1,-1,-1,-1,-1,-1,-1,-1],"split_conditions":[-1.6E0,-1.4E0,1.3E1,-4.8E0,2E1,1E1,2.3E1,-6.5754296E-4,2.85611E-3,-3.742556E-4,-3.3674224E-3,2.7136675E-3,-2.7016597E-4,3.6554635E-3,6.042835E-3],"split_indices":[25,77,80,25,28,51,80,0,0,0,0,0,0,0,0],"split_type":[0,0,0,0,0,0,0,0,0,0,0,0,0,0,0],"sum_hessian":[6.4391987E3,2.105437E3,4.3337617E3,7.644775E2,1.3409596E3,2.163963E3,2.1697988E3,3.9249786E2,3.7197958E2,2.854962E2,1.0554634E3,1.0934756E3,1.0704873E3,1.3019216E3,8.678773E2],"tree_param":{"num_deleted":"0","num_feature":"106","num_nodes":"15","size_leaf_vector":"1"}},{"base_weights":[-1.5120395E-1,-3.5370624E-1,4.5046195E-2,-1.9853324E-1,-5.140606E-1,-2.3030205E-1,1.744679E-1,-2.728071E-3,-1.9032788E-4,-4.248621E-3,-6.524643E-3,4.9324107E-4,-3.7211787E-3,5.9257663E-4,3.2387176E-3],"categories":[],"categories_nodes":[],"categories_segments":[],"categories_sizes":[],"default_left":[0,0,0,0,0,0,0,0,0,0,0,0,0,0,0],"id":6,"left_children":[1,3,5,7,9,11,13,-1,-1,-1,-1,-1,-1,-1,-1],"loss_changes":[2.5594324E2,7.8765076E1,1.1661655E2,2.1492077E1,1.8958466E1,4.1513905E1,3.8294952E1,0E0,0E0,0E0,0E0,0E0,0E0,0E0,0E0],"parents":[2147483647,0,0,1,1,2,2,3,3,4,4,5,5,6,6],"right_children":[2,4,6,8,10,12,14,-1,-1,-1,-1,-1,-1,-1,-1],"split_conditions":[1.5E1,1.3E1,-1.9E0,6E0,2.3E1,-4.8E0,2.4E1,-2.728071E-3,-1.9032788E-4,-4.248621E-3,-6.524643E-3,4.9324107E-4,-3.7211787E-3,5.9257663E-4,3.2387176E-3],"split_indices":[51,80,77,77,80,25,51,0,0,0,0,0,0,0,0],"split_type":[0,0,0,0,0,0,0,0,0,0,0,0,0,0,0],"sum_hessian":[6.4388647E3,3.1685593E3,3.2703054E3,1.6114331E3,1.5571261E3,1.0454028E3,2.2249026E3,1.1394362E3,4.7199695E2,9.4935504E2,6.0777106E2,3.5199902E2,6.9340375E2,1.2569916E3,9.67911E2],"tree_param":{"num_deleted":"0","num_feature":"106","num_nodes":"15","size_leaf_vector":"1"}},{"base_weights":[1.5120396E-1,3.5370624E-1,-4.5046184E-2,1.9853322E-1,5.140607E-1,2.3030204E-1,-1.7446788E-1,2.7280708E-3,1.9032814E-4,4.248621E-3,6.5246443E-3,-4.9324107E-4,3.7211787E-3,-5.9257617E-4,-3.2387176E-3],"categories":[],"categories_nodes":[],"categories_segments":[],"categories_sizes":[],"default_left":[0,0,0,0,0,0,0,0,0,0,0,0,0,0,0],"id":7,"left_children":[1,3,5,7,9,11,13,-1,-1,-1,-1,-1,-1,-1,-1],"loss_changes":[2.5594325E2,7.8765045E1,1.1661653E2,2.149207E1,1.8958496E1,4.1513893E1,3.8294968E1,0E0,0E0,0E0,0E0,0E0,0E0,0E0,0E0],"parents":[2147483647,0,0,1,1,2,2,3,3,4,4,5,5,6,6],"right_children":[2,4,6,8,10,12,14,-1,-1,-1,-1,-1,-1,-1,-1],"split_conditions":[1.5E1,1.3E1,-1.9E0,6E0,2.3E1,-4.8E0,2.4E1,2.7280708E-3,1.9032814E-4,4.248621E-3,6.5246443E-3,-4.9324107E-4,3.7211787E-3,-5.9257617E-4,-3.2387176E-3],"split_indices":[51,80,77,77,80,25,51,0,0,0,0,0,0,0,0],"split_type":[0,0,0,0,0,0,0,0,0,0,0,0,0,0,0],"sum_hessian":[6.4388647E3,3.1685593E3,3.2703054E3,1.6114331E3,1.5571261E3,1.0454027E3,2.2249026E3,1.1394362E3,4.7199695E2,9.4935504E2,6.0777106E2,3.5199902E2,6.9340375E2,1.2569916E3,9.67911E2],"tree_param":{"num_deleted":"0","num_feature":"106","num_nodes":"15","size_leaf_vector":"1"}},{"base_weights":[-1.4970557E-1,-3.5021254E-1,4.4597816E-2,-1.9655642E-1,-5.0902426E-1,-2.2801764E-1,1.7273054E-1,-2.7009435E-3,-1.884286E-4,-4.2066984E-3,-6.4614215E-3,4.883231E-4,-3.6843934E-3,5.866561E-4,3.2065953E-3],"categories":[],"categories_nodes":[],"categories_segments":[],"categories_sizes":[],"default_left":[0,0,0,0,0,0,0,0,0,0,0,0,0,0,0],"id":8,"left_children":[1,3,5,7,9,11,13,-1,-1,-1,-1,-1,-1,-1,-1],"loss_changes":[2.5088824E2,7.7236206E1,1.14304245E2,2.1066578E1,1.8601288E1,4.0694946E1,3.7538757E1,0E0,0E0,0E0,0E0,0E0,0E0,0E0,0E0],"parents":[2147483647,0,0,1,1,2,2,3,3,4,4,5,5,6,6],"right_children":[2,4,6,8,10,12,14,-1,-1,-1,-1,-1,-1,-1,-1],"split_conditions":[1.5E1,1.3E1,-1.9E0,6E0,2.3E1,-4.8E0,2.4E1,-2.7009435E-3,-1.884286E-4,-4.2066984E-3,-6.4614215E-3,4.883231E-4,-3.6843934E-3,5.866561E-4,3.2065953E-3],"split_indices":[51,80,77,77,80,25,51,0,0,0,0,0,0,0,0],"split_type":[0,0,0,0,0,0,0,0,0,0,0,0,0,0,0],"sum_hessian":[6.438371E3,3.1682083E3,3.2701628E3,1.6113785E3,1.5568297E3,1.0453323E3,2.2248308E3,1.139382E3,4.7199655E2,9.4923834E2,6.075913E2,3.5199835E2,6.9333386E2,1.2569894E3,9.678414E2],"tree_param":{"num_deleted":"0","num_feature":"106","num_nodes":"15","size_leaf_vector":"1"}},{"base_weights":[1.4970559E-1,3.5021263E-1,-4.459784E-2,1.9655646E-1,5.090244E-1,2.2801764E-1,-1.7273058E-1,2.7009435E-3,1.8842971E-4,4.2066993E-3,6.461423E-3,-4.883231E-4,3.6843934E-3,-5.866563E-4,-3.206596E-3],"categories":[],"categories_nodes":[],"categories_segments":[],"categories_sizes":[],"default_left":[0,0,0,0,0,0,0,0,0,0,0,0,0,0,0],"id":9,"left_children":[1,3,5,7,9,11,13,-1,-1,-1,-1,-1,-1,-1,-1],"loss_changes":[2.5088835E2,7.72363E1,1.1430426E2,2.106657E1,1.8601257E1,4.0694946E1,3.7538788E1,0E0,0E0,0E0,0E0,0E0,0E0,0E0,0E0],"parents":[2147483647,0,0,1,1,2,2,3,3,4,4,5,5,6,6],"right_children":[2,4,6,8,10,12,14,-1,-1,-1,-1,-1,-1,-1,-1],"split_conditions":[1.5E1,1.3E1,-1.9E0,6E0,2.3E1,-4.8E0,2.4E1,2.7009435E-3,1.8842971E-4,4.2066993E-3,6.461423E-3,-4.883231E-4,3.6843934E-3,-5.866563E-4,-3.206596E-3],"split_indices":[51,80,77,77,80,25,51,0,0,0,0,0,0,0,0],"split_type":[0,0,0,0,0,0,0,0,0,0,0,0,0,0,0],"sum_hessian":[6.438371E3,3.1682083E3,3.2701628E3,1.6113785E3,1.5568296E3,1.0453323E3,2.2248306E3,1.139382E3,4.7199655E2,9.492383E2,6.075913E2,3.5199835E2,6.9333386E2,1.2569894E3,9.678413E2],"tree_param":{"num_deleted":"0","num_feature":"106","num_nodes":"15","size_leaf_vector":"1"}},{"base_weights":[-1.4822522E-1,1.057947E-1,-2.9865694E-1,-1.4981337E-1,2.2554019E-1,-1.3352975E-1,-4.6597284E-1,6.6631736E-4,-3.1510456E-3,9.154997E-4,3.2177654E-3,-2.637143E-3,1.5546169E-4,-3.8226342E-3,-5.9330664E-3],"categories":[],"categories_nodes":[],"categories_segments":[],"categories_sizes":[],"default_left":[0,0,0,0,0,0,0,0,0,0,0,0,0,0,0],"id":10,"left_children":[1,3,5,7,9,11,13,-1,-1,-1,-1,-1,-1,-1,-1],"loss_changes":[2.4607298E2,7.3356995E1,1.11671936E2,2.7384089E1,2.1011238E1,3.9533127E1,2.1180542E1,0E0,0E0,0E0,0E0,0E0,0E0,0E0,0E0],"parents":[2147483647,0,0,1,1,2,2,3,3,4,4,5,5,6,6],"right_children":[2,4,6,8,10,12,14,-1,-1,-1,-1,-1,-1,-1,-1],"split_conditions":[4.6E-1,-2E0,1.3E1,-4.8E0,2.4E1,1E1,2.3E1,6.6631736E-4,-3.1510456E-3,9.154997E-4,3.2177654E-3,-2.637143E-3,1.5546169E-4,-3.8226342E-3,-5.9330664E-3],"split_indices":[3,77,80,25,51,51,80,0,0,0,0,0,0,0,0],"split_type":[0,0,0,0,0,0,0,0,0,0,0,0,0,0,0],"sum_hessian":[6.437741E3,2.3945637E3,4.0431775E3,7.6383484E2,1.6307288E3,2.0358032E3,2.0073744E3,3.3099768E2,4.3283716E2,6.82472E2,9.482568E2,1.0863499E3,9.4945325E2,1.2135724E3,7.9380194E2],"tree_param":{"num_deleted":"0","num_feature":"106","num_nodes":"15","size_leaf_vector":"1"}},{"base_weights":[1.482252E-1,-1.0579468E-1,2.986569E-1,1.4981343E-1,-2.2554018E-1,1.3352977E-1,4.6597278E-1,-6.66317E-4,3.1510463E-3,-9.155E-4,-3.2177654E-3,2.637143E-3,-1.554614E-4,3.8226333E-3,5.9330664E-3],"categories":[],"categories_nodes":[],"categories_segments":[],"categories_sizes":[],"default_left":[0,0,0,0,0,0,0,0,0,0,0,0,0,0,0],"id":11,"left_children":[1,3,5,7,9,11,13,-1,-1,-1,-1,-1,-1,-1,-1],"loss_changes":[2.4607295E2,7.335701E1,1.11671875E2,2.7384092E1,2.1011238E1,3.9533104E1,2.1180573E1,0E0,0E0,0E0,0E0,0E0,0E0,0E0,0E0],"parents":[2147483647,0,0,1,1,2,2,3,3,4,4,5,5,6,6],"right_children":[2,4,6,8,10,12,14,-1,-1,-1,-1,-1,-1,-1,-1],"split_conditions":[4.6E-1,-2E0,1.3E1,-4.8E0,2.4E1,1E1,2.3E1,-6.66317E-4,3.1510463E-3,-9.155E-4,-3.2177654E-3,2.637143E-3,-1.554614E-4,3.8226333E-3,5.9330664E-3],"split_indices":[3,77,80,25,51,51,80,0,0,0,0,0,0,0,0],"split_type":[0,0,0,0,0,0,0,0,0,0,0,0,0,0,0],"sum_hessian":[6.437741E3,2.3945635E3,4.0431775E3,7.638348E2,1.6307288E3,2.0358032E3,2.0073744E3,3.3099765E2,4.3283713E2,6.82472E2,9.482568E2,1.0863499E3,9.494533E2,1.2135724E3,7.9380194E2],"tree_param":{"num_deleted":"0","num_feature":"106","num_nodes":"15","size_leaf_vector":"1"}},{"base_weights":[-1.4676099E-1,-3.4372157E-1,4.407403E-2,-1.9290169E-1,-4.9966738E-1,-2.2340167E-1,1.697777E-1,-2.656942E-3,-1.7010067E-4,-4.129115E-3,-6.3436674E-3,4.7767948E-4,-3.609818E-3,5.8252906E-4,3.1443913E-3],"categories":[],"categories_nodes":[],"categories_segments":[],"categories_sizes":[],"default_left":[0,0,0,0,0,0,0,0,0,0,0,0,0,0,0],"id":12,"left_children":[1,3,5,7,9,11,13,-1,-1,-1,-1,-1,-1,-1,-1],"loss_changes":[2.420012E2,7.4420746E1,1.1000924E2,2.0637936E1,1.7933594E1,3.904562E1,3.5888412E1,0E0,0E0,0E0,0E0,0E0,0E0,0E0,0E0],"parents":[2147483647,0,0,1,1,2,2,3,3,4,4,5,5,6,6],"right_children":[2,4,6,8,10,12,14,-1,-1,-1,-1,-1,-1,-1,-1],"split_conditions":[1.5E1,1.3E1,-1.9E0,6E0,2.3E1,-4.8E0,2.4E1,-2.656942E-3,-1.7010067E-4,-4.129115E-3,-6.3436674E-3,4.7767948E-4,-3.609818E-3,5.8252906E-4,3.1443913E-3],"split_indices":[51,80,77,77,80,25,51,0,0,0,0,0,0,0,0],"split_type":[0,0,0,0,0,0,0,0,0,0,0,0,0,0,0],"sum_hessian":[6.43703E3,3.1672812E3,3.2697483E3,1.6112399E3,1.5560414E3,1.0451252E3,2.224623E3,1.1392516E3,4.7198828E2,9.489295E2,6.0711194E2,3.51996E2,6.931292E2,1.2569767E3,9.676464E2],"tree_param":{"num_deleted":"0","num_feature":"106","num_nodes":"15","size_leaf_vector":"1"}},{"base_weights":[1.46761E-1,3.4372157E-1,-4.4073973E-2,1.929017E-1,4.9966735E-1,2.2340171E-1,-1.6977763E-1,2.6569422E-3,1.701007E-4,4.129114E-3,6.3436683E-3,-4.776786E-4,3.6098182E-3,-5.825287E-4,-3.1443904E-3],"categories":[],"categories_nodes":[],"categories_segments":[],"categories_sizes":[],"default_left":[0,0,0,0,0,0,0,0,0,0,0,0,0,0,0],"id":13,"left_children":[1,3,5,7,9,11,13,-1,-1,-1,-1,-1,-1,-1,-1],"loss_changes":[2.4200116E2,7.4420654E1,1.1000924E2,2.0637943E1,1.7933655E1,3.90456E1,3.5888397E1,0E0,0E0,0E0,0E0,0E0,0E0,0E0,0E0],"parents":[2147483647,0,0,1,1,2,2,3,3,4,4,5,5,6,6],"right_children":[2,4,6,8,10,12,14,-1,-1,-1,-1,-1,-1,-1,-1],"split_conditions":[1.5E1,1.3E1,-1.9E0,6E0,2.3E1,-4.8E0,2.4E1,2.6569422E-3,1.701007E-4,4.129114E-3,6.3436683E-3,-4.776786E-4,3.6098182E-3,-5.825287E-4,-3.1443904E-3],"split_indices":[51,80,77,77,80,25,51,0,0,0,0,0,0,0,0],"split_type":[0,0,0,0,0,0,0,0,0,0,0,0,0,0,0],"sum_hessian":[6.43703E3,3.1672812E3,3.2697485E3,1.6112397E3,1.5560415E3,1.0451252E3,2.224623E3,1.1392515E3,4.7198828E2,9.489295E2,6.0711194E2,3.5199603E2,6.931293E2,1.2569767E3,9.676464E2],"tree_param":{"num_deleted":"0","num_feature":"106","num_nodes":"15","size_leaf_vector":"1"}},{"base_weights":[-1.4531542E-1,1.3006742E-1,-2.7913502E-1,-9.986956E-2,2.611365E-1,-1.17460795E-1,-4.4037512E-1,6.1980303E-4,-2.70435E-3,3.2400293E-4,3.2293661E-3,-2.6016515E-3,2.8387262E-4,-3.4898827E-3,-5.7702987E-3],"categories":[],"categories_nodes":[],"categories_segments":[],"categories_sizes":[],"default_left":[0,0,0,0,0,0,0,0,0,0,0,0,0,0,0],"id":14,"left_children":[1,3,5,7,9,11,13,-1,-1,-1,-1,-1,-1,-1,-1],"loss_changes":[2.3725578E2,6.3489716E1,1.128858E2,2.1142687E1,1.8953278E1,4.5060177E1,2.688263E1,0E0,0E0,0E0,0E0,0E0,0E0,0E0,0E0],"parents":[2147483647,0,0,1,1,2,2,3,3,4,4,5,5,6,6],"right_children":[2,4,6,8,10,12,14,-1,-1,-1,-1,-1,-1,-1,-1],"split_conditions":[-1.6E0,-1.4E0,1.3E1,-4.8E0,2E1,1E1,2.3E1,6.1980303E-4,-2.70435E-3,3.2400293E-4,3.2293661E-3,-2.6016515E-3,2.8387262E-4,-3.4898827E-3,-5.7702987E-3],"split_indices":[25,77,80,25,28,51,80,0,0,0,0,0,0,0,0],"split_type":[0,0,0,0,0,0,0,0,0,0,0,0,0,0,0],"sum_hessian":[6.4361523E3,2.1047942E3,4.331358E3,7.642659E2,1.3405283E3,2.1636306E3,2.1677273E3,3.9247876E2,3.7178717E2,2.8546872E2,1.0550597E3,1.0932052E3,1.0704254E3,1.3011481E3,8.665792E2],"tree_param":{"num_deleted":"0","num_feature":"106","num_nodes":"15","size_leaf_vector":"1"}},{"base_weights":[1.453154E-1,-1.3006748E-1,2.79135E-1,9.986951E-2,-2.6113656E-1,1.1746076E-1,4.403751E-1,-6.1980373E-4,2.7043498E-3,-3.2400334E-4,-3.229367E-3,2.601651E-3,-2.8387274E-4,3.4898827E-3,5.770298E-3],"categories":[],"categories_nodes":[],"categories_segments":[],"categories_sizes":[],"default_left":[0,0,0,0,0,0,0,0,0,0,0,0,0,0,0],"id":15,"left_children":[1,3,5,7,9,11,13,-1,-1,-1,-1,-1,-1,-1,-1],"loss_changes":[2.372558E2,6.3489723E1,1.128858E2,2.1142693E1,1.8953285E1,4.5060165E1,2.688269E1,0E0,0E0,0E0,0E0,0E0,0E0,0E0,0E0],"parents":[2147483647,0,0,1,1,2,2,3,3,4,4,5,5,6,6],"right_children":[2,4,6,8,10,12,14,-1,-1,-1,-1,-1,-1,-1,-1],"split_conditions":[-1.6E0,-1.4E0,1.3E1,-4.8E0,2E1,1E1,2.3E1,-6.1980373E-4,2.7043498E-3,-3.2400334E-4,-3.229367E-3,2.601651E-3,-2.8387274E-4,3.4898827E-3,5.770298E-3],"split_indices":[25,77,80,25,28,51,80,0,0,0,0,0,0,0,0],"split_type":[0,0,0,0,0,0,0,0,0,0,0,0,0,0,0],"sum_hessian":[6.436152E3,2.1047942E3,4.331358E3,7.6426587E2,1.3405283E3,2.1636306E3,2.1677273E3,3.9247873E2,3.7178717E2,2.8546872E2,1.0550596E3,1.0932052E3,1.0704254E3,1.3011481E3,8.665792E2],"tree_param":{"num_deleted":"0","num_feature":"106","num_nodes":"15","size_leaf_vector":"1"}},{"base_weights":[-1.438851E-1,-3.3742103E-1,4.359045E-2,-1.8932387E-1,-4.90638E-1,-2.1888918E-1,1.6692813E-1,-2.61383E-3,-1.5229869E-4,-4.0547675E-3,-6.2294547E-3,4.6673874E-4,-3.5367832E-3,5.7706656E-4,3.086354E-3],"categories":[],"categories_nodes":[],"categories_segments":[],"categories_sizes":[],"default_left":[0,0,0,0,0,0,0,0,0,0,0,0,0,0,0],"id":16,"left_children":[1,3,5,7,9,11,13,-1,-1,-1,-1,-1,-1,-1,-1],"loss_changes":[2.335414E2,7.17702E1,1.05904076E2,2.0219292E1,1.7279388E1,3.745237E1,3.4424816E1,0E0,0E0,0E0,0E0,0E0,0E0,0E0,0E0],"parents":[2147483647,0,0,1,1,2,2,3,3,4,4,5,5,6,6],"right_children":[2,4,6,8,10,12,14,-1,-1,-1,-1,-1,-1,-1,-1],"split_conditions":[1.5E1,1.3E1,-1.9E0,6E0,2.3E1,-4.8E0,2.4E1,-2.61383E-3,-1.5229869E-4,-4.0547675E-3,-6.2294547E-3,4.6673874E-4,-3.5367832E-3,5.7706656E-4,3.086354E-3],"split_indices":[51,80,77,77,80,25,51,0,0,0,0,0,0,0,0],"split_type":[0,0,0,0,0,0,0,0,0,0,0,0,0,0,0],"sum_hessian":[6.435211E3,3.1660325E3,3.2691782E3,1.611051E3,1.5549816E3,1.04484E3,2.2243384E3,1.1390756E3,4.7197537E2,9.4852026E2,6.064613E2,3.519931E2,6.9284686E2,1.2569476E3,9.673907E2],"tree_param":{"num_deleted":"0","num_feature":"106","num_nodes":"15","size_leaf_vector":"1"}},{"base_weights":[1.4388512E-1,3.3742103E-1,-4.3590415E-2,1.8932387E-1,4.90638E-1,2.1888916E-1,-1.6692808E-1,2.6138301E-3,1.5229848E-4,4.0547675E-3,6.229454E-3,-4.66739E-4,3.5367834E-3,-5.770665E-4,-3.0863525E-3],"categories":[],"categories_nodes":[],"categories_segments":[],"categories_sizes":[],"default_left":[0,0,0,0,0,0,0,0,0,0,0,0,0,0,0],"id":17,"left_children":[1,3,5,7,9,11,13,-1,-1,-1,-1,-1,-1,-1,-1],"loss_changes":[2.3354134E2,7.17702E1,1.05904045E2,2.02193E1,1.7279419E1,3.7452385E1,3.442478E1,0E0,0E0,0E0,0E0,0E0,0E0,0E0,0E0],"parents":[2147483647,0,0,1,1,2,2,3,3,4,4,5,5,6,6],"right_children":[2,4,6,8,10,12,14,-1,-1,-1,-1,-1,-1,-1,-1],"split_conditions":[1.5E1,1.3E1,-1.9E0,6E0,2.3E1,-4.8E0,2.4E1,2.6138301E-3,1.5229848E-4,4.0547675E-3,6.229454E-3,-4.66739E-4,3.5367834E-3,-5.770665E-4,-3.0863525E-3],"split_indices":[51,80,77,77,80,25,51,0,0,0,0,0,0,0,0],"split_type":[0,0,0,0,0,0,0,0,0,0,0,0,0,0,0],"sum_hessian":[6.435211E3,3.1660325E3,3.2691782E3,1.6110509E3,1.5549816E3,1.04484E3,2.2243384E3,1.1390756E3,4.7197534E2,9.4852026E2,6.0646124E2,3.519931E2,6.9284686E2,1.2569476E3,9.673907E2],"tree_param":{"num_deleted":"0","num_feature":"106","num_nodes":"15","size_leaf_vector":"1"}},{"base_weights":[-1.4247304E-1,1.0269331E-1,-2.8770626E-1,-1.4292538E-1,2.1774869E-1,-1.2831733E-1,-4.4936755E-1,6.440899E-4,-3.0137578E-3,8.9679286E-4,3.0977363E-3,-2.5469963E-3,1.6367345E-4,-5.731888E-3,-3.6905867E-3],"categories":[],"categories_nodes":[],"categories_segments":[],"categories_sizes":[],"default_left":[0,0,0,0,0,0,0,0,0,0,0,0,0,0,0],"id":18,"left_children":[1,3,5,7,9,11,13,-1,-1,-1,-1,-1,-1,-1,-1],"loss_changes":[2.2915973E2,6.77039E1,1.0407794E2,2.513512E1,1.9196442E1,3.7241264E1,1.9736206E1,0E0,0E0,0E0,0E0,0E0,0E0,0E0,0E0],"parents":[2147483647,0,0,1,1,2,2,3,3,4,4,5,5,6,6],"right_children":[2,4,6,8,10,12,14,-1,-1,-1,-1,-1,-1,-1,-1],"split_conditions":[4.6E-1,-2E0,1.3E1,-4.8E0,2.4E1,1E1,8E0,6.440899E-4,-3.0137578E-3,8.9679286E-4,3.0977363E-3,-2.5469963E-3,1.6367345E-4,-5.731888E-3,-3.6905867E-3],"split_indices":[3,77,80,25,51,51,51,0,0,0,0,0,0,0,0],"split_type":[0,0,0,0,0,0,0,0,0,0,0,0,0,0,0],"sum_hessian":[6.434102E3,2.3936704E3,4.0404316E3,7.63506E2,1.6301646E3,2.0354178E3,2.0050138E3,3.309921E2,4.3251385E2,6.824233E2,9.477413E2,1.0860183E3,9.493995E2,7.863977E2,1.2186161E3],"tree_param":{"num_deleted":"0","num_feature":"106","num_nodes":"15","size_leaf_vector":"1"}},{"base_weights":[1.4247303E-1,-1.0269336E-1,2.8770626E-1,1.4292537E-1,-2.1774875E-1,1.2831734E-1,4.493675E-1,-6.440899E-4,3.0137578E-3,-8.967932E-4,-3.097737E-3,2.5469963E-3,-1.6367318E-4,5.7318876E-3,3.6905862E-3],"categories":[],"categories_nodes":[],"categories_segments":[],"categories_sizes":[],"default_left":[0,0,0,0,0,0,0,0,0,0,0,0,0,0,0],"id":19,"left_children":[1,3,5,7,9,11,13,-1,-1,-1,-1,-1,-1,-1,-1],"loss_changes":[2.2915979E2,6.770393E1,1.0407791E2,2.513512E1,1.9196442E1,3.7241257E1,1.9736176E1,0E0,0E0,0E0,0E0,0E0,0E0,0E0,0E0],"parents":[2147483647,0,0,1,1,2,2,3,3,4,4,5,5,6,6],"right_children":[2,4,6,8,10,12,14,-1,-1,-1,-1,-1,-1,-1,-1],"split_conditions":[4.6E-1,-2E0,1.3E1,-4.8E0,2.4E1,1E1,8E0,-6.440899E-4,3.0137578E-3,-8.967932E-4,-3.097737E-3,2.5469963E-3,-1.6367318E-4,5.7318876E-3,3.6905862E-3],"split_indices":[3,77,80,25,51,51,51,0,0,0,0,0,0,0,0],"split_type":[0,0,0,0,0,0,0,0,0,0,0,0,0,0,0],"sum_hessian":[6.434102E3,2.3936704E3,4.0404316E3,7.635059E2,1.6301646E3,2.0354178E3,2.0050139E3,3.309921E2,4.3251382E2,6.824232E2,9.477413E2,1.0860183E3,9.493994E2,7.863978E2,1.2186161E3],"tree_param":{"num_deleted":"0","num_feature":"106","num_nodes":"15","size_leaf_vector":"1"}},{"base_weights":[-1.4107528E-1,-3.3110428E-1,4.2949725E-2,-1.8581502E-1,-4.8152363E-1,-1.9631316E-1,1.73469E-1,-2.5715264E-3,-1.3494288E-4,-3.970674E-3,-6.1281966E-3,5.980928E-4,-3.2830131E-3,6.581632E-4,3.1508394E-3],"categories":[],"categories_nodes":[],"categories_segments":[],"categories_sizes":[],"default_left":[0,0,0,0,0,0,0,0,0,0,0,0,0,0,0],"id":20,"left_children":[1,3,5,7,9,11,13,-1,-1,-1,-1,-1,-1,-1,-1],"loss_changes":[2.2501025E2,6.908942E1,1.02135376E2,1.9810501E1,1.6995789E1,3.904699E1,3.2238453E1,0E0,0E0,0E0,0E0,0E0,0E0,0E0,0E0],"parents":[2147483647,0,0,1,1,2,2,3,3,4,4,5,5,6,6],"right_children":[2,4,6,8,10,12,14,-1,-1,-1,-1,-1,-1,-1,-1],"split_conditions":[1.5E1,1.3E1,-1.4E0,6E0,2.3E1,-4.8E0,2.4E1,-2.5715264E-3,-1.3494288E-4,-3.970674E-3,-6.1281966E-3,5.980928E-4,-3.2830131E-3,6.581632E-4,3.1508394E-3],"split_indices":[51,80,77,77,80,25,51,0,0,0,0,0,0,0,0],"split_type":[0,0,0,0,0,0,0,0,0,0,0,0,0,0,0],"sum_hessian":[6.432957E3,3.1644573E3,3.2684995E3,1.6108151E3,1.5536422E3,1.1534803E3,2.1150193E3,1.1388568E3,4.719582E2,9.4791785E2,6.057243E2,3.9246005E2,7.610202E2,1.2024255E3,9.125938E2],"tree_param":{"num_deleted":"0","num_feature":"106","num_nodes":"15","size_leaf_vector":"1"}},{"base_weights":[1.4107527E-1,3.3110425E-1,-4.294972E-2,1.8581502E-1,4.8152357E-1,1.9631317E-1,-1.73469E-1,2.571527E-3,1.3494196E-4,3.9706733E-3,6.128196E-3,-5.980927E-4,3.2830131E-3,-6.581634E-4,-3.1508391E-3],"categories":[],"categories_nodes":[],"categories_segments":[],"categories_sizes":[],"default_left":[0,0,0,0,0,0,0,0,0,0,0,0,0,0,0],"id":21,"left_children":[1,3,5,7,9,11,13,-1,-1,-1,-1,-1,-1,-1,-1],"loss_changes":[2.250102E2,6.9089386E1,1.02135376E2,1.9810516E1,1.6995758E1,3.904698E1,3.223846E1,0E0,0E0,0E0,0E0,0E0,0E0,0E0,0E0],"parents":[2147483647,0,0,1,1,2,2,3,3,4,4,5,5,6,6],"right_children":[2,4,6,8,10,12,14,-1,-1,-1,-1,-1,-1,-1,-1],"split_conditions":[1.5E1,1.3E1,-1.4E0,6E0,2.3E1,-4.8E0,2.4E1,2.571527E-3,1.3494196E-4,3.9706733E-3,6.128196E-3,-5.980927E-4,3.2830131E-3,-6.581634E-4,-3.1508391E-3],"split_indices":[51,80,77,77,80,25,51,0,0,0,0,0,0,0,0],"split_type":[0,0,0,0,0,0,0,0,0,0,0,0,0,0,0],"sum_hessian":[6.4329565E3,3.1644573E3,3.2684995E3,1.6108151E3,1.5536422E3,1.1534802E3,2.1150193E3,1.1388568E3,4.719582E2,9.4791785E2,6.057243E2,3.9246005E2,7.610202E2,1.2024255E3,9.1259375E2],"tree_param":{"num_deleted":"0","num_feature":"106","num_nodes":"15","size_leaf_vector":"1"}},{"base_weights":[-1.3969533E-1,1.0103218E-1,-2.823301E-1,-1.9488208E-1,1.9338639E-1,-1.2578379E-1,-4.4121522E-1,6.336718E-5,-3.4603872E-3,9.370091E-4,3.2515211E-3,-2.8471467E-3,-1.3834338E-4,-3.8703275E-3,-6.2190252E-3],"categories":[],"categories_nodes":[],"categories_segments":[],"categories_sizes":[],"default_left":[0,0,0,0,0,0,0,0,0,0,0,0,0,0,0],"id":22,"left_children":[1,3,5,7,9,11,13,-1,-1,-1,-1,-1,-1,-1,-1],"loss_changes":[2.2090028E2,6.546533E1,1.0041989E2,1.7337791E1,2.3942757E1,3.6223763E1,1.9382568E1,0E0,0E0,0E0,0E0,0E0,0E0,0E0,0E0],"parents":[2147483647,0,0,1,1,2,2,3,3,4,4,5,5,6,6],"right_children":[2,4,6,8,10,12,14,-1,-1,-1,-1,-1,-1,-1,-1],"split_conditions":[4.6E-1,3.73E-1,1.3E1,-4.8E0,2.6E1,8E0,2.7E1,6.336718E-5,-3.4603872E-3,9.370091E-4,3.2515211E-3,-2.8471467E-3,-1.3834338E-4,-3.8703275E-3,-6.2190252E-3],"split_indices":[3,55,80,25,51,51,103,0,0,0,0,0,0,0,0],"split_type":[0,0,0,0,0,0,0,0,0,0,0,0,0,0,0],"sum_hessian":[6.4316377E3,2.3930803E3,4.0385574E3,5.689582E2,1.8241221E3,2.0351534E3,2.0034039E3,2.4447398E2,3.244842E2,1.0394512E3,7.8467084E2,8.4045056E2,1.1947029E3,1.5436528E3,4.5975113E2],"tree_param":{"num_deleted":"0","num_feature":"106","num_nodes":"15","size_leaf_vector":"1"}},{"base_weights":[1.3969532E-1,-1.0103218E-1,2.8233007E-1,1.9488211E-1,-1.933864E-1,1.2578379E-1,4.4121516E-1,-6.3367195E-5,3.4603882E-3,-9.3700935E-4,-3.2515211E-3,2.8471467E-3,1.3834336E-4,3.870327E-3,6.2190252E-3],"categories":[],"categories_nodes":[],"categories_segments":[],"categories_sizes":[],"default_left":[0,0,0,0,0,0,0,0,0,0,0,0,0,0,0],"id":23,"left_children":[1,3,5,7,9,11,13,-1,-1,-1,-1,-1,-1,-1,-1],"loss_changes":[2.209003E2,6.546535E1,1.0041986E2,1.7337797E1,2.3942749E1,3.6223766E1,1.9382568E1,0E0,0E0,0E0,0E0,0E0,0E0,0E0,0E0],"parents":[2147483647,0,0,1,1,2,2,3,3,4,4,5,5,6,6],"right_children":[2,4,6,8,10,12,14,-1,-1,-1,-1,-1,-1,-1,-1],"split_conditions":[4.6E-1,3.73E-1,1.3E1,-4.8E0,2.6E1,8E0,2.7E1,-6.3367195E-5,3.4603882E-3,-9.3700935E-4,-3.2515211E-3,2.8471467E-3,1.3834336E-4,3.870327E-3,6.2190252E-3],"split_indices":[3,55,80,25,51,51,103,0,0,0,0,0,0,0,0],"split_type":[0,0,0,0,0,0,0,0,0,0,0,0,0,0,0],"sum_hessian":[6.4316377E3,2.39308E3,4.0385574E3,5.689581E2,1.8241221E3,2.0351536E3,2.0034039E3,2.4447398E2,3.2448416E2,1.0394512E3,7.8467084E2,8.404506E2,1.1947029E3,1.5436528E3,4.5975113E2],"tree_param":{"num_deleted":"0","num_feature":"106","num_nodes":"15","size_leaf_vector":"1"}},{"base_weights":[-1.3832852E-1,-3.2510322E-1,4.2483047E-2,-1.824692E-1,-4.7289795E-1,-2.1118098E-1,1.6163892E-1,-2.5310675E-3,-1.1873219E-4,-3.8958366E-3,-6.025255E-3,4.4132728E-4,-3.4089072E-3,5.7078066E-4,2.9738783E-3],"categories":[],"categories_nodes":[],"categories_segments":[],"categories_sizes":[],"default_left":[0,0,0,0,0,0,0,0,0,0,0,0,0,0,0],"id":24,"left_children":[1,3,5,7,9,11,13,-1,-1,-1,-1,-1,-1,-1,-1],"loss_changes":[2.1720677E2,6.660455E1,9.883304E1,1.9416893E1,1.6538208E1,3.4626595E1,3.155878E1,0E0,0E0,0E0,0E0,0E0,0E0,0E0,0E0],"parents":[2147483647,0,0,1,1,2,2,3,3,4,4,5,5,6,6],"right_children":[2,4,6,8,10,12,14,-1,-1,-1,-1,-1,-1,-1,-1],"split_conditions":[1.5E1,1.3E1,-1.9E0,6E0,2.3E1,-4.8E0,2.4E1,-2.5310675E-3,-1.1873219E-4,-3.8958366E-3,-6.025255E-3,4.4132728E-4,-3.4089072E-3,5.7078066E-4,2.9738783E-3],"split_indices":[51,80,77,77,80,25,51,0,0,0,0,0,0,0,0],"split_type":[0,0,0,0,0,0,0,0,0,0,0,0,0,0,0],"sum_hessian":[6.4303394E3,3.1626194E3,3.2677202E3,1.6105455E3,1.5520739E3,1.0441396E3,2.2235806E3,1.1386067E3,4.7193884E2,9.472576E2,6.048163E2,3.5198022E2,6.9215936E2,1.2568839E3,9.666966E2],"tree_param":{"num_deleted":"0","num_feature":"106","num_nodes":"15","size_leaf_vector":"1"}},{"base_weights":[1.3832855E-1,3.2510325E-1,-4.248301E-2,1.8246923E-1,4.7289795E-1,2.1118103E-1,-1.6163889E-1,2.5310677E-3,1.1873201E-4,3.8958364E-3,6.0252557E-3,-4.4132717E-4,3.4089077E-3,-5.7078036E-4,-2.9738778E-3],"categories":[],"categories_nodes":[],"categories_segments":[],"categories_sizes":[],"default_left":[0,0,0,0,0,0,0,0,0,0,0,0,0,0,0],"id":25,"left_children":[1,3,5,7,9,11,13,-1,-1,-1,-1,-1,-1,-1,-1],"loss_changes":[2.1720673E2,6.660452E1,9.883303E1,1.94169E1,1.6538239E1,3.46266E1,3.1558762E1,0E0,0E0,0E0,0E0,0E0,0E0,0E0,0E0],"parents":[2147483647,0,0,1,1,2,2,3,3,4,4,5,5,6,6],"right_children":[2,4,6,8,10,12,14,-1,-1,-1,-1,-1,-1,-1,-1],"split_conditions":[1.5E1,1.3E1,-1.9E0,6E0,2.3E1,-4.8E0,2.4E1,2.5310677E-3,1.1873201E-4,3.8958364E-3,6.0252557E-3,-4.4132717E-4,3.4089077E-3,-5.7078036E-4,-2.9738778E-3],"split_indices":[51,80,77,77,80,25,51,0,0,0,0,0,0,0,0],"split_type":[0,0,0,0,0,0,0,0,0,0,0,0,0,0,0],"sum_hessian":[6.4303394E3,3.1626194E3,3.2677202E3,1.6105455E3,1.5520739E3,1.0441395E3,2.2235806E3,1.1386067E3,4.7193884E2,9.472576E2,6.048162E2,3.5198022E2,6.9215936E2,1.2568839E3,9.6669666E2],"tree_param":{"num_deleted":"0","num_feature":"106","num_nodes":"15","size_leaf_vector":"1"}},{"base_weights":[-1.3698E-1,-3.2196757E-1,4.206402E-2,-1.8066484E-1,-4.684547E-1,-1.9111624E-1,1.692336E-1,-2.5061422E-3,-1.1754758E-4,-4.1053477E-3,-6.5325038E-3,5.745927E-4,-3.1930534E-3,6.482338E-4,3.0666294E-3],"categories":[],"categories_nodes":[],"categories_segments":[],"categories_sizes":[],"default_left":[0,0,0,0,0,0,0,0,0,0,0,0,0,0,0],"id":26,"left_children":[1,3,5,7,9,11,13,-1,-1,-1,-1,-1,-1,-1,-1],"loss_changes":[2.1297488E2,6.537674E1,9.694812E1,1.9035759E1,1.6345032E1,3.678589E1,3.0334282E1,0E0,0E0,0E0,0E0,0E0,0E0,0E0,0E0],"parents":[2147483647,0,0,1,1,2,2,3,3,4,4,5,5,6,6],"right_children":[2,4,6,8,10,12,14,-1,-1,-1,-1,-1,-1,-1,-1],"split_conditions":[1.5E1,1.3E1,-1.4E0,6E0,2.6E1,-4.8E0,2.4E1,-2.5061422E-3,-1.1754758E-4,-4.1053477E-3,-6.5325038E-3,5.745927E-4,-3.1930534E-3,6.482338E-4,3.0666294E-3],"split_indices":[51,80,77,77,80,25,51,0,0,0,0,0,0,0,0],"split_type":[0,0,0,0,0,0,0,0,0,0,0,0,0,0,0],"sum_hessian":[6.4288145E3,3.1615327E3,3.2672815E3,1.61038E3,1.5511527E3,1.1528655E3,2.114416E3,1.1384423E3,4.719378E2,1.1834496E3,3.677031E2,3.9243475E2,7.604307E2,1.2023883E3,9.120277E2],"tree_param":{"num_deleted":"0","num_feature":"106","num_nodes":"15","size_leaf_vector":"1"}},{"base_weights":[1.3698E-1,3.2196757E-1,-4.2064015E-2,1.8066488E-1,4.684547E-1,1.9111624E-1,-1.692336E-1,2.5061427E-3,1.1754769E-4,4.1053477E-3,6.5325038E-3,-5.7459256E-4,3.1930534E-3,-6.4823363E-4,-3.0666296E-3],"categories":[],"categories_nodes":[],"categories_segments":[],"categories_sizes":[],"default_left":[0,0,0,0,0,0,0,0,0,0,0,0,0,0,0],"id":27,"left_children":[1,3,5,7,9,11,13,-1,-1,-1,-1,-1,-1,-1,-1],"loss_changes":[2.1297491E2,6.537668E1,9.694812E1,1.903577E1,1.6345062E1,3.6785892E1,3.033429E1,0E0,0E0,0E0,0E0,0E0,0E0,0E0,0E0],"parents":[2147483647,0,0,1,1,2,2,3,3,4,4,5,5,6,6],"right_children":[2,4,6,8,10,12,14,-1,-1,-1,-1,-1,-1,-1,-1],"split_conditions":[1.5E1,1.3E1,-1.4E0,6E0,2.6E1,-4.8E0,2.4E1,2.5061427E-3,1.1754769E-4,4.1053477E-3,6.5325038E-3,-5.7459256E-4,3.1930534E-3,-6.4823363E-4,-3.0666296E-3],"split_indices":[51,80,77,77,80,25,51,0,0,0,0,0,0,0,0],"split_type":[0,0,0,0,0,0,0,0,0,0,0,0,0,0,0],"sum_hessian":[6.4288145E3,3.1615327E3,3.2672815E3,1.61038E3,1.5511527E3,1.1528655E3,2.114416E3,1.1384423E3,4.7193777E2,1.1834496E3,3.677031E2,3.9243475E2,7.604307E2,1.2023883E3,9.120278E2],"tree_param":{"num_deleted":"0","num_feature":"106","num_nodes":"15","size_leaf_vector":"1"}},{"base_weights":[-1.356465E-1,9.877446E-2,-2.7460235E-1,-1.8986298E-1,1.8884471E-1,-1.2206455E-1,-4.2960966E-1,4.9839487E-5,-3.3635716E-3,9.2005427E-4,3.1690078E-3,-2.7832931E-3,-1.2024828E-4,-5.6579197E-3,-3.596945E-3],"categories":[],"categories_nodes":[],"categories_segments":[],"categories_sizes":[],"default_left":[0,0,0,0,0,0,0,0,0,0,0,0,0,0,0],"id":28,"left_children":[1,3,5,7,9,11,13,-1,-1,-1,-1,-1,-1,-1,-1],"loss_changes":[2.094205E2,6.224963E1,9.538016E1,1.6261808E1,2.2594994E1,3.5000774E1,1.8852905E1,0E0,0E0,0E0,0E0,0E0,0E0,0E0,0E0],"parents":[2147483647,0,0,1,1,2,2,3,3,4,4,5,5,6,6],"right_children":[2,4,6,8,10,12,14,-1,-1,-1,-1,-1,-1,-1,-1],"split_conditions":[4.6E-1,3.73E-1,1.3E1,-4.8E0,2.6E1,8E0,7E0,4.9839487E-5,-3.3635716E-3,9.2005427E-4,3.1690078E-3,-2.7832931E-3,-1.2024828E-4,-5.6579197E-3,-3.596945E-3],"split_indices":[3,55,80,25,51,51,51,0,0,0,0,0,0,0,0],"split_type":[0,0,0,0,0,0,0,0,0,0,0,0,0,0,0],"sum_hessian":[6.4272026E3,2.3920542E3,4.0351487E3,5.686526E2,1.8234017E3,2.0346755E3,2.000473E3,2.4446458E2,3.2418802E2,1.0392289E3,7.8417285E2,8.4011664E2,1.1945588E3,6.762212E2,1.3242518E3],"tree_param":{"num_deleted":"0","num_feature":"106","num_nodes":"15","size_leaf_vector":"1"}},{"base_weights":[1.356465E-1,-9.877447E-2,2.7460235E-1,1.8986298E-1,-1.8884471E-1,1.2206453E-1,4.2960963E-1,-4.9839535E-5,3.363572E-3,-9.2005427E-4,-3.169008E-3,2.7832927E-3,1.2024836E-4,5.6579188E-3,3.596945E-3],"categories":[],"categories_nodes":[],"categories_segments":[],"categories_sizes":[],"default_left":[0,0,0,0,0,0,0,0,0,0,0,0,0,0,0],"id":29,"left_children":[1,3,5,7,9,11,13,-1,-1,-1,-1,-1,-1,-1,-1],"loss_changes":[2.0942049E2,6.2249626E1,9.538016E1,1.6261806E1,2.2595001E1,3.5000755E1,1.8852905E1,0E0,0E0,0E0,0E0,0E0,0E0,0E0,0E0],"parents":[2147483647,0,0,1,1,2,2,3,3,4,4,5,5,6,6],"right_children":[2,4,6,8,10,12,14,-1,-1,-1,-1,-1,-1,-1,-1],"split_conditions":[4.6E-1,3.73E-1,1.3E1,-4.8E0,2.6E1,8E0,7E0,-4.9839535E-5,3.363572E-3,-9.2005427E-4,-3.169008E-3,2.7832927E-3,1.2024836E-4,5.6579188E-3,3.596945E-3],"split_indices":[3,55,80,25,51,51,51,0,0,0,0,0,0,0,0],"split_type":[0,0,0,0,0,0,0,0,0,0,0,0,0,0,0],"sum_hessian":[6.4272026E3,2.3920542E3,4.0351484E3,5.686526E2,1.8234017E3,2.0346755E3,2.000473E3,2.4446458E2,3.2418802E2,1.0392289E3,7.8417285E2,8.4011664E2,1.1945588E3,6.7622125E2,1.3242518E3],"tree_param":{"num_deleted":"0","num_feature":"106","num_nodes":"15","size_leaf_vector":"1"}},{"base_weights":[-1.343249E-1,-3.1606543E-1,4.1499797E-2,-1.7741756E-1,-4.5994964E-1,-2.0584308E-1,1.576523E-1,-2.5365409E-3,-2.5246345E-4,-3.7773948E-3,-5.8802566E-3,4.2228747E-4,-3.3198164E-3,5.628038E-4,2.893448E-3],"categories":[],"categories_nodes":[],"categories_segments":[],"categories_sizes":[],"default_left":[0,0,0,0,0,0,0,0,0,0,0,0,0,0,0],"id":30,"left_children":[1,3,5,7,9,11,13,-1,-1,-1,-1,-1,-1,-1,-1],"loss_changes":[2.0537296E2,6.296341E1,9.390225E1,1.8683388E1,1.6100403E1,3.2697876E1,2.9672176E1,0E0,0E0,0E0,0E0,0E0,0E0,0E0,0E0],"parents":[2147483647,0,0,1,1,2,2,3,3,4,4,5,5,6,6],"right_children":[2,4,6,8,10,12,14,-1,-1,-1,-1,-1,-1,-1,-1],"split_conditions":[1.5E1,1.3E1,-1.9E0,5.5E0,2.3E1,-4.8E0,2.4E1,-2.5365409E-3,-2.5246345E-4,-3.7773948E-3,-5.8802566E-3,4.2228747E-4,-3.3198164E-3,5.628038E-4,2.893448E-3],"split_indices":[51,80,77,77,80,25,51,0,0,0,0,0,0,0,0],"split_type":[0,0,0,0,0,0,0,0,0,0,0,0,0,0,0],"sum_hessian":[6.425638E3,3.1592712E3,3.2663667E3,1.6100491E3,1.5492223E3,1.0434988E3,2.222868E3,1.0722124E3,5.378366E2,9.4596826E2,6.0325397E2,3.5196606E2,6.915328E2,1.2568328E3,9.6603516E2],"tree_param":{"num_deleted":"0","num_feature":"106","num_nodes":"15","size_leaf_vector":"1"}},{"base_weights":[1.3432492E-1,3.160655E-1,-4.1499786E-2,1.7741764E-1,4.5994964E-1,2.0584312E-1,-1.576523E-1,2.536542E-3,2.5246385E-4,3.7773948E-3,5.8802566E-3,-4.2228712E-4,3.319817E-3,-5.628036E-4,-2.893448E-3],"categories":[],"categories_nodes":[],"categories_segments":[],"categories_sizes":[],"default_left":[0,0,0,0,0,0,0,0,0,0,0,0,0,0,0],"id":31,"left_children":[1,3,5,7,9,11,13,-1,-1,-1,-1,-1,-1,-1,-1],"loss_changes":[2.0537302E2,6.296338E1,9.390227E1,1.8683395E1,1.6100433E1,3.2697884E1,2.9672192E1,0E0,0E0,0E0,0E0,0E0,0E0,0E0,0E0],"parents":[2147483647,0,0,1,1,2,2,3,3,4,4,5,5,6,6],"right_children":[2,4,6,8,10,12,14,-1,-1,-1,-1,-1,-1,-1,-1],"split_conditions":[1.5E1,1.3E1,-1.9E0,5.5E0,2.3E1,-4.8E0,2.4E1,2.536542E-3,2.5246385E-4,3.7773948E-3,5.8802566E-3,-4.2228712E-4,3.319817E-3,-5.628036E-4,-2.893448E-3],"split_indices":[51,80,77,77,80,25,51,0,0,0,0,0,0,0,0],"split_type":[0,0,0,0,0,0,0,0,0,0,0,0,0,0,0],"sum_hessian":[6.425638E3,3.1592712E3,3.2663667E3,1.610049E3,1.5492223E3,1.0434988E3,2.222868E3,1.0722124E3,5.378366E2,9.4596826E2,6.0325397E2,3.5196606E2,6.915327E2,1.2568328E3,9.660352E2],"tree_param":{"num_deleted":"0","num_feature":"106","num_nodes":"15","size_leaf_vector":"1"}},{"base_weights":[-1.3302135E-1,9.718854E-2,-2.6952583E-1,-1.8643767E-1,1.8568374E-1,-3.732473E-1,-4.7406215E-2,4.3468754E-5,-3.2997462E-3,9.067849E-4,3.1136114E-3,-3.0583155E-3,-5.4023284E-3,-1.2819765E-3,2.218448E-3],"categories":[],"categories_nodes":[],"categories_segments":[],"categories_sizes":[],"default_left":[0,0,0,0,0,0,0,0,0,0,0,0,0,0,0],"id":32,"left_children":[1,3,5,7,9,11,13,-1,-1,-1,-1,-1,-1,-1,-1],"loss_changes":[2.0192451E2,6.00801E1,9.29093E1,1.5594698E1,2.1748867E1,3.0786499E1,2.7983423E1,0E0,0E0,0E0,0E0,0E0,0E0,0E0,0E0],"parents":[2147483647,0,0,1,1,2,2,3,3,4,4,5,5,6,6],"right_children":[2,4,6,8,10,12,14,-1,-1,-1,-1,-1,-1,-1,-1],"split_conditions":[4.6E-1,3.73E-1,3E0,-4.8E0,2.6E1,2.3E1,1.5E1,4.3468754E-5,-3.2997462E-3,9.067849E-4,3.1136114E-3,-3.0583155E-3,-5.4023284E-3,-1.2819765E-3,2.218448E-3],"split_indices":[3,55,77,25,51,80,51,0,0,0,0,0,0,0,0],"split_type":[0,0,0,0,0,0,0,0,0,0,0,0,0,0,0],"sum_hessian":[6.4238325E3,2.3912922E3,4.03254E3,5.684165E2,1.8228757E3,2.7484414E3,1.2840988E3,2.444592E2,3.239573E2,1.0390968E3,7.8377893E2,1.959984E3,7.884574E2,9.881257E2,2.9597305E2],"tree_param":{"num_deleted":"0","num_feature":"106","num_nodes":"15","size_leaf_vector":"1"}},{"base_weights":[1.3302135E-1,-9.71885E-2,2.6952583E-1,1.8643768E-1,-1.8568371E-1,3.732473E-1,4.7406204E-2,-4.346874E-5,3.2997464E-3,-9.0678496E-4,-3.1136104E-3,3.0583155E-3,5.4023284E-3,1.2819767E-3,-2.218449E-3],"categories":[],"categories_nodes":[],"categories_segments":[],"categories_sizes":[],"default_left":[0,0,0,0,0,0,0,0,0,0,0,0,0,0,0],"id":33,"left_children":[1,3,5,7,9,11,13,-1,-1,-1,-1,-1,-1,-1,-1],"loss_changes":[2.0192447E2,6.0080086E1,9.290933E1,1.5594702E1,2.1748856E1,3.0786469E1,2.7983437E1,0E0,0E0,0E0,0E0,0E0,0E0,0E0,0E0],"parents":[2147483647,0,0,1,1,2,2,3,3,4,4,5,5,6,6],"right_children":[2,4,6,8,10,12,14,-1,-1,-1,-1,-1,-1,-1,-1],"split_conditions":[4.6E-1,3.73E-1,3E0,-4.8E0,2.6E1,2.3E1,1.5E1,-4.346874E-5,3.2997464E-3,-9.0678496E-4,-3.1136104E-3,3.0583155E-3,5.4023284E-3,1.2819767E-3,-2.218449E-3],"split_indices":[3,55,77,25,51,80,51,0,0,0,0,0,0,0,0],"split_type":[0,0,0,0,0,0,0,0,0,0,0,0,0,0,0],"sum_hessian":[6.4238325E3,2.3912922E3,4.03254E3,5.684165E2,1.8228757E3,2.7484414E3,1.2840988E3,2.444592E2,3.239573E2,1.0390968E3,7.8377893E2,1.959984E3,7.884574E2,9.8812573E2,2.9597305E2],"tree_param":{"num_deleted":"0","num_feature":"106","num_nodes":"15","size_leaf_vector":"1"}},{"base_weights":[-1.3172837E-1,-2.460777E-1,1.381835E-1,-1.0437512E-1,-4.0893048E-1,-2.2881616E-2,2.9360163E-1,-2.5240518E-3,3.187476E-4,-3.2585235E-3,-5.2377544E-3,1.2192528E-3,-1.7754524E-3,3.403236E-3,1.4187259E-4],"categories":[],"categories_nodes":[],"categories_segments":[],"categories_sizes":[],"default_left":[0,0,0,0,0,0,0,0,0,0,0,0,0,0,0],"id":34,"left_children":[1,3,5,7,9,11,13,-1,-1,-1,-1,-1,-1,-1,-1],"loss_changes":[1.982778E2,1.0408035E2,4.78697E1,4.869703E1,1.9856201E1,2.1071728E1,1.269944E1,0E0,0E0,0E0,0E0,0E0,0E0,0E0,0E0],"parents":[2147483647,0,0,1,1,2,2,3,3,4,4,5,5,6,6],"right_children":[2,4,6,8,10,12,14,-1,-1,-1,-1,-1,-1,-1,-1],"split_conditions":[2E1,1.4E1,0E0,1E1,2.3E1,-4.8E0,-1.6E0,-2.5240518E-3,3.187476E-4,-3.2585235E-3,-5.2377544E-3,1.2192528E-3,-1.7754524E-3,3.403236E-3,1.4187259E-4],"split_indices":[28,80,77,51,80,25,25,0,0,0,0,0,0,0,0],"split_type":[0,0,0,0,0,0,0,0,0,0,0,0,0,0,0],"sum_hessian":[6.422089E3,4.511051E3,1.911038E3,2.4130405E3,2.0980105E3,9.388885E2,9.721495E2,1.156115E3,1.2569255E3,1.2195984E3,8.7841205E2,4.8500476E2,4.538837E2,8.3269354E2,1.3945592E2],"tree_param":{"num_deleted":"0","num_feature":"106","num_nodes":"15","size_leaf_vector":"1"}},{"base_weights":[1.3172837E-1,2.4607769E-1,-1.381835E-1,1.0437513E-1,4.0893045E-1,2.2881616E-2,-2.9360163E-1,2.5240523E-3,-3.187476E-4,3.2585233E-3,5.2377544E-3,-1.2192528E-3,1.7754523E-3,-3.403236E-3,-1.4187259E-4],"categories":[],"categories_nodes":[],"categories_segments":[],"categories_sizes":[],"default_left":[0,0,0,0,0,0,0,0,0,0,0,0,0,0,0],"id":35,"left_children":[1,3,5,7,9,11,13,-1,-1,-1,-1,-1,-1,-1,-1],"loss_changes":[1.9827777E2,1.0408035E2,4.7869694E1,4.869704E1,1.9856232E1,2.1071724E1,1.269944E1,0E0,0E0,0E0,0E0,0E0,0E0,0E0,0E0],"parents":[2147483647,0,0,1,1,2,2,3,3,4,4,5,5,6,6],"right_children":[2,4,6,8,10,12,14,-1,-1,-1,-1,-1,-1,-1,-1],"split_conditions":[2E1,1.4E1,0E0,1E1,2.3E1,-4.8E0,-1.6E0,2.5240523E-3,-3.187476E-4,3.2585233E-3,5.2377544E-3,-1.2192528E-3,1.7754523E-3,-3.403236E-3,-1.4187259E-4],"split_indices":[28,80,77,51,80,25,25,0,0,0,0,0,0,0,0],"split_type":[0,0,0,0,0,0,0,0,0,0,0,0,0,0,0],"sum_hessian":[6.422089E3,4.5110513E3,1.911038E3,2.4130408E3,2.0980105E3,9.388884E2,9.721495E2,1.156115E3,1.2569257E3,1.2195984E3,8.7841205E2,4.8500476E2,4.538837E2,8.3269354E2,1.3945592E2],"tree_param":{"num_deleted":"0","num_feature":"106","num_nodes":"15","size_leaf_vector":"1"}},{"base_weights":[-1.3045004E-1,-3.0770716E-1,4.0922727E-2,-1.7222583E-1,-4.485377E-1,-1.12121336E-1,2.2015311E-1,-2.4061962E-3,-7.180871E-5,-3.920595E-3,-6.2917606E-3,1.2082973E-3,-2.3029828E-3,3.9741527E-3,1.6406658E-3],"categories":[],"categories_nodes":[],"categories_segments":[],"categories_sizes":[],"default_left":[0,0,0,0,0,0,0,0,0,0,0,0,0,0,0],"id":36,"left_children":[1,3,5,7,9,11,13,-1,-1,-1,-1,-1,-1,-1,-1],"loss_changes":[1.950712E2,6.0149445E1,8.9603264E1,1.8177158E1,1.5537018E1,4.8540085E1,1.4892593E1,0E0,0E0,0E0,0E0,0E0,0E0,0E0,0E0],"parents":[2147483647,0,0,1,1,2,2,3,3,4,4,5,5,6,6],"right_children":[2,4,6,8,10,12,14,-1,-1,-1,-1,-1,-1,-1,-1],"split_conditions":[1.5E1,1.3E1,5.24E-1,6E0,2.6E1,-4.9E0,-6.1E0,-2.4061962E-3,-7.180871E-5,-3.920595E-3,-6.2917606E-3,1.2082973E-3,-2.3029828E-3,3.9741527E-3,1.6406658E-3],"split_indices":[51,80,55,77,80,25,25,0,0,0,0,0,0,0,0],"split_type":[0,0,0,0,0,0,0,0,0,0,0,0,0,0,0],"sum_hessian":[6.42025E3,3.155552E3,3.264698E3,1.609454E3,1.5460981E3,1.7611953E3,1.5035027E3,1.1375862E3,4.718677E2,1.1802522E3,3.6584604E2,5.927469E2,1.1684485E3,3.599117E2,1.1435911E3],"tree_param":{"num_deleted":"0","num_feature":"106","num_nodes":"15","size_leaf_vector":"1"}},{"base_weights":[1.3045004E-1,3.0770713E-1,-4.092272E-2,1.7222579E-1,4.485377E-1,1.1212132E-1,-2.201531E-1,2.4061957E-3,7.1807735E-5,3.920595E-3,6.2917606E-3,-1.2082973E-3,2.3029828E-3,-3.9741527E-3,-1.6406655E-3],"categories":[],"categories_nodes":[],"categories_segments":[],"categories_sizes":[],"default_left":[0,0,0,0,0,0,0,0,0,0,0,0,0,0,0],"id":37,"left_children":[1,3,5,7,9,11,13,-1,-1,-1,-1,-1,-1,-1,-1],"loss_changes":[1.950711E2,6.0149536E1,8.960324E1,1.8177166E1,1.5536987E1,4.8540092E1,1.4892593E1,0E0,0E0,0E0,0E0,0E0,0E0,0E0,0E0],"parents":[2147483647,0,0,1,1,2,2,3,3,4,4,5,5,6,6],"right_children":[2,4,6,8,10,12,14,-1,-1,-1,-1,-1,-1,-1,-1],"split_conditions":[1.5E1,1.3E1,5.24E-1,6E0,2.6E1,-4.9E0,-6.1E0,2.4061957E-3,7.1807735E-5,3.920595E-3,6.2917606E-3,-1.2082973E-3,2.3029828E-3,-3.9741527E-3,-1.6406655E-3],"split_indices":[51,80,55,77,80,25,25,0,0,0,0,0,0,0,0],"split_type":[0,0,0,0,0,0,0,0,0,0,0,0,0,0,0],"sum_hessian":[6.42025E3,3.1555522E3,3.264698E3,1.609454E3,1.5460981E3,1.7611953E3,1.5035027E3,1.1375863E3,4.7186768E2,1.1802522E3,3.65846E2,5.927469E2,1.1684485E3,3.599117E2,1.1435911E3],"tree_param":{"num_deleted":"0","num_feature":"106","num_nodes":"15","size_leaf_vector":"1"}},{"base_weights":[-1.2918626E-1,-2.4159661E-1,1.3605821E-1,-1.0249057E-1,-4.016262E-1,2.7973735E-1,-3.2727864E-2,-2.4811677E-3,3.1504937E-4,-3.1956413E-3,-5.1518325E-3,7.696926E-4,3.341976E-3,1.1979447E-3,-1.963957E-3],"categories":[],"categories_nodes":[],"categories_segments":[],"categories_sizes":[],"default_left":[0,0,0,0,0,0,0,0,0,0,0,0,0,0,0],"id":38,"left_children":[1,3,5,7,9,11,13,-1,-1,-1,-1,-1,-1,-1,-1],"loss_changes":[1.9143259E2,1.0033276E2,4.6361916E1,4.7103176E1,1.937149E1,1.1376869E1,2.1985748E1,0E0,0E0,0E0,0E0,0E0,0E0,0E0,0E0],"parents":[2147483647,0,0,1,1,2,2,3,3,4,4,5,5,6,6],"right_children":[2,4,6,8,10,12,14,-1,-1,-1,-1,-1,-1,-1,-1],"split_conditions":[2E1,1.4E1,1.7E1,1E1,2.3E1,2.2E1,-4.8E0,-2.4811677E-3,3.1504937E-4,-3.1956413E-3,-5.1518325E-3,7.696926E-4,3.341976E-3,1.1979447E-3,-1.963957E-3],"split_indices":[28,80,103,51,80,51,25,0,0,0,0,0,0,0,0],"split_type":[0,0,0,0,0,0,0,0,0,0,0,0,0,0,0],"sum_hessian":[6.418314E3,4.5079414E3,1.9103723E3,2.412506E3,2.0954353E3,1.0315814E3,8.787909E2,1.1556715E3,1.2568346E3,1.218616E3,8.7681934E2,2.1891685E2,8.1266455E2,4.5502264E2,4.2376828E2],"tree_param":{"num_deleted":"0","num_feature":"106","num_nodes":"15","size_leaf_vector":"1"}},{"base_weights":[1.2918626E-1,2.4159662E-1,-1.3605821E-1,1.0249057E-1,4.016262E-1,-2.7973732E-1,3.2727875E-2,2.4811677E-3,-3.1504928E-4,3.1956413E-3,5.1518325E-3,-7.6969294E-4,-3.3419756E-3,-1.1979447E-3,1.9639574E-3],"categories":[],"categories_nodes":[],"categories_segments":[],"categories_sizes":[],"default_left":[0,0,0,0,0,0,0,0,0,0,0,0,0,0,0],"id":39,"left_children":[1,3,5,7,9,11,13,-1,-1,-1,-1,-1,-1,-1,-1],"loss_changes":[1.9143257E2,1.00332794E2,4.636191E1,4.710317E1,1.937146E1,1.1376869E1,2.1985756E1,0E0,0E0,0E0,0E0,0E0,0E0,0E0,0E0],"parents":[2147483647,0,0,1,1,2,2,3,3,4,4,5,5,6,6],"right_children":[2,4,6,8,10,12,14,-1,-1,-1,-1,-1,-1,-1,-1],"split_conditions":[2E1,1.4E1,1.7E1,1E1,2.3E1,2.2E1,-4.8E0,2.4811677E-3,-3.1504928E-4,3.1956413E-3,5.1518325E-3,-7.6969294E-4,-3.3419756E-3,-1.1979447E-3,1.9639574E-3],"split_indices":[28,80,103,51,80,51,25,0,0,0,0,0,0,0,0],"split_type":[0,0,0,0,0,0,0,0,0,0,0,0,0,0,0],"sum_hessian":[6.418314E3,4.5079414E3,1.9103723E3,2.412506E3,2.0954353E3,1.0315814E3,8.787909E2,1.1556715E3,1.2568346E3,1.218616E3,8.768194E2,2.1891685E2,8.1266455E2,4.550226E2,4.2376825E2],"tree_param":{"num_deleted":"0","num_feature":"106","num_nodes":"15","size_leaf_vector":"1"}},{"base_weights":[-1.2793618E-1,-3.0222785E-1,4.0479645E-2,-1.6897324E-1,-4.4091687E-1,-1.9735734E-1,1.5209466E-1,-2.4348798E-3,-2.0341462E-4,-3.8518568E-3,-6.194056E-3,3.8365557E-4,-3.1742873E-3,5.554421E-4,2.7766249E-3],"categories":[],"categories_nodes":[],"categories_segments":[],"categories_sizes":[],"default_left":[0,0,0,0,0,0,0,0,0,0,0,0,0,0,0],"id":40,"left_children":[1,3,5,7,9,11,13,-1,-1,-1,-1,-1,-1,-1,-1],"loss_changes":[1.883822E2,5.820981E1,8.669117E1,1.7826317E1,1.5127594E1,2.9536514E1,2.6928268E1,0E0,0E0,0E0,0E0,0E0,0E0,0E0,0E0],"parents":[2147483647,0,0,1,1,2,2,3,3,4,4,5,5,6,6],"right_children":[2,4,6,8,10,12,14,-1,-1,-1,-1,-1,-1,-1,-1],"split_conditions":[1.5E1,1.3E1,-1.9E0,5.5E0,2.6E1,-4.8E0,2.4E1,-2.4348798E-3,-2.0341462E-4,-3.8518568E-3,-6.194056E-3,3.8365557E-4,-3.1742873E-3,5.554421E-4,2.7766249E-3],"split_indices":[51,80,77,77,80,25,51,0,0,0,0,0,0,0,0],"split_type":[0,0,0,0,0,0,0,0,0,0,0,0,0,0,0],"sum_hessian":[6.416296E3,3.1527527E3,3.2635432E3,1.6090092E3,1.5437435E3,1.0421309E3,2.2214124E3,1.0712917E3,5.377174E2,1.1788258E3,3.649177E2,3.519219E2,6.902089E2,1.2566234E3,9.6478906E2],"tree_param":{"num_deleted":"0","num_feature":"106","num_nodes":"15","size_leaf_vector":"1"}},{"base_weights":[1.2793617E-1,3.0222785E-1,-4.0479667E-2,1.6897325E-1,4.4091687E-1,1.9735731E-1,-1.5209469E-1,2.43488E-3,2.0341451E-4,3.8518566E-3,6.194056E-3,-3.8365545E-4,3.1742868E-3,-5.554423E-4,-2.7766249E-3],"categories":[],"categories_nodes":[],"categories_segments":[],"categories_sizes":[],"default_left":[0,0,0,0,0,0,0,0,0,0,0,0,0,0,0],"id":41,"left_children":[1,3,5,7,9,11,13,-1,-1,-1,-1,-1,-1,-1,-1],"loss_changes":[1.8838226E2,5.820981E1,8.669116E1,1.7826324E1,1.5127594E1,2.9536503E1,2.6928284E1,0E0,0E0,0E0,0E0,0E0,0E0,0E0,0E0],"parents":[2147483647,0,0,1,1,2,2,3,3,4,4,5,5,6,6],"right_children":[2,4,6,8,10,12,14,-1,-1,-1,-1,-1,-1,-1,-1],"split_conditions":[1.5E1,1.3E1,-1.9E0,5.5E0,2.6E1,-4.8E0,2.4E1,2.43488E-3,2.0341451E-4,3.8518566E-3,6.194056E-3,-3.8365545E-4,3.1742868E-3,-5.554423E-4,-2.7766249E-3],"split_indices":[51,80,77,77,80,25,51,0,0,0,0,0,0,0,0],"split_type":[0,0,0,0,0,0,0,0,0,0,0,0,0,0,0],"sum_hessian":[6.416296E3,3.1527524E3,3.2635432E3,1.6090092E3,1.5437434E3,1.0421309E3,2.2214126E3,1.0712917E3,5.377174E2,1.1788257E3,3.649177E2,3.519219E2,6.902089E2,1.2566234E3,9.6478906E2],"tree_param":{"num_deleted":"0","num_feature":"106","num_nodes":"15","size_leaf_vector":"1"}},{"base_weights":[-1.2670255E-1,9.3657345E-2,-2.5749287E-1,-1.7978244E-1,1.7895177E-1,-3.578577E-1,-4.3016452E-2,1.1205371E-5,-3.1611596E-3,8.8280626E-4,2.9901022E-3,-4.721289E-3,-2.6695943E-3,-1.2105848E-3,2.1695262E-3],"categories":[],"categories_nodes":[],"categories_segments":[],"categories_sizes":[],"default_left":[0,0,0,0,0,0,0,0,0,0,0,0,0,0,0],"id":42,"left_children":[1,3,5,7,9,11,13,-1,-1,-1,-1,-1,-1,-1,-1],"loss_changes":[1.849135E2,5.577668E1,8.664752E1,1.40283985E1,1.9811237E1,2.8359894E1,2.60876E1,0E0,0E0,0E0,0E0,0E0,0E0,0E0,0E0],"parents":[2147483647,0,0,1,1,2,2,3,3,4,4,5,5,6,6],"right_children":[2,4,6,8,10,12,14,-1,-1,-1,-1,-1,-1,-1,-1],"split_conditions":[4.6E-1,3.73E-1,3E0,-4.8E0,2.6E1,-1.7E0,1.5E1,1.1205371E-5,-3.1611596E-3,8.8280626E-4,2.9901022E-3,-4.721289E-3,-2.6695943E-3,-1.2105848E-3,2.1695262E-3],"split_indices":[3,55,77,25,51,77,51,0,0,0,0,0,0,0,0],"split_type":[0,0,0,0,0,0,0,0,0,0,0,0,0,0,0],"sum_hessian":[6.4141045E3,2.38912E3,4.0249844E3,5.6778564E2,1.8213344E3,2.7414478E3,1.2835366E3,2.4443417E2,3.233515E2,1.038653E3,7.8268146E2,1.2127129E3,1.5287349E3,9.87597E2,2.9593964E2],"tree_param":{"num_deleted":"0","num_feature":"106","num_nodes":"15","size_leaf_vector":"1"}},{"base_weights":[1.2670252E-1,-9.365737E-2,2.5749287E-1,1.7978242E-1,-1.789518E-1,3.5785767E-1,4.301647E-2,-1.1205363E-5,3.1611593E-3,-8.828063E-4,-2.9901026E-3,4.721289E-3,2.6695936E-3,1.2105851E-3,-2.1695269E-3],"categories":[],"categories_nodes":[],"categories_segments":[],"categories_sizes":[],"default_left":[0,0,0,0,0,0,0,0,0,0,0,0,0,0,0],"id":43,"left_children":[1,3,5,7,9,11,13,-1,-1,-1,-1,-1,-1,-1,-1],"loss_changes":[1.849135E2,5.577668E1,8.664746E1,1.4028395E1,1.9811241E1,2.8359924E1,2.6087618E1,0E0,0E0,0E0,0E0,0E0,0E0,0E0,0E0],"parents":[2147483647,0,0,1,1,2,2,3,3,4,4,5,5,6,6],"right_children":[2,4,6,8,10,12,14,-1,-1,-1,-1,-1,-1,-1,-1],"split_conditions":[4.6E-1,3.73E-1,3E0,-4.8E0,2.6E1,-1.7E0,1.5E1,-1.1205363E-5,3.1611593E-3,-8.828063E-4,-2.9901026E-3,4.721289E-3,2.6695936E-3,1.2105851E-3,-2.1695269E-3],"split_indices":[3,55,77,25,51,77,51,0,0,0,0,0,0,0,0],"split_type":[0,0,0,0,0,0,0,0,0,0,0,0,0,0,0],"sum_hessian":[6.4141045E3,2.3891199E3,4.0249844E3,5.6778564E2,1.8213344E3,2.7414478E3,1.2835366E3,2.4443417E2,3.233515E2,1.038653E3,7.826814E2,1.2127129E3,1.5287349E3,9.87597E2,2.9593964E2],"tree_param":{"num_deleted":"0","num_feature":"106","num_nodes":"15","size_leaf_vector":"1"}},{"base_weights":[-1.254783E-1,-2.967734E-1,3.9952062E-2,-1.6559884E-1,-4.334792E-1,-1.0843875E-1,2.1368894E-1,-2.325068E-3,-4.249189E-5,-3.788928E-3,-6.120917E-3,1.1554799E-3,-2.2213398E-3,3.8565716E-3,1.5934124E-3],"categories":[],"categories_nodes":[],"categories_segments":[],"categories_sizes":[],"default_left":[0,0,0,0,0,0,0,0,0,0,0,0,0,0,0],"id":44,"left_children":[1,3,5,7,9,11,13,-1,-1,-1,-1,-1,-1,-1,-1],"loss_changes":[1.8173926E2,5.6428772E1,8.415216E1,1.7374805E1,1.4804596E1,4.4862892E1,1.3990997E1,0E0,0E0,0E0,0E0,0E0,0E0,0E0,0E0],"parents":[2147483647,0,0,1,1,2,2,3,3,4,4,5,5,6,6],"right_children":[2,4,6,8,10,12,14,-1,-1,-1,-1,-1,-1,-1,-1],"split_conditions":[1.5E1,1.3E1,5.24E-1,6E0,2.7E1,-4.9E0,-6.1E0,-2.325068E-3,-4.249189E-5,-3.788928E-3,-6.120917E-3,1.1554799E-3,-2.2213398E-3,3.8565716E-3,1.5934124E-3],"split_indices":[51,80,55,77,103,25,25,0,0,0,0,0,0,0,0],"split_type":[0,0,0,0,0,0,0,0,0,0,0,0,0,0,0],"sum_hessian":[6.4119863E3,3.1497646E3,3.262222E3,1.6085292E3,1.5412355E3,1.7596548E3,1.5025671E3,1.1367177E3,4.718115E2,1.1828591E3,3.5837625E2,5.924583E2,1.1671965E3,3.5936383E2,1.1432032E3],"tree_param":{"num_deleted":"0","num_feature":"106","num_nodes":"15","size_leaf_vector":"1"}},{"base_weights":[1.2547831E-1,2.967734E-1,-3.9952062E-2,1.6559887E-1,4.334792E-1,1.0843876E-1,-2.1368894E-1,2.3250685E-3,4.2492073E-5,3.788928E-3,6.120918E-3,-1.1554802E-3,2.2213398E-3,-3.8565716E-3,-1.5934124E-3],"categories":[],"categories_nodes":[],"categories_segments":[],"categories_sizes":[],"default_left":[0,0,0,0,0,0,0,0,0,0,0,0,0,0,0],"id":45,"left_children":[1,3,5,7,9,11,13,-1,-1,-1,-1,-1,-1,-1,-1],"loss_changes":[1.8173932E2,5.642871E1,8.415216E1,1.737481E1,1.4804596E1,4.48629E1,1.3990997E1,0E0,0E0,0E0,0E0,0E0,0E0,0E0,0E0],"parents":[2147483647,0,0,1,1,2,2,3,3,4,4,5,5,6,6],"right_children":[2,4,6,8,10,12,14,-1,-1,-1,-1,-1,-1,-1,-1],"split_conditions":[1.5E1,1.3E1,5.24E-1,6E0,2.7E1,-4.9E0,-6.1E0,2.3250685E-3,4.2492073E-5,3.788928E-3,6.120918E-3,-1.1554802E-3,2.2213398E-3,-3.8565716E-3,-1.5934124E-3],"split_indices":[51,80,55,77,103,25,25,0,0,0,0,0,0,0,0],"split_type":[0,0,0,0,0,0,0,0,0,0,0,0,0,0,0],"sum_hessian":[6.4119863E3,3.1497646E3,3.262222E3,1.6085292E3,1.5412355E3,1.7596548E3,1.5025671E3,1.1367177E3,4.718115E2,1.1828591E3,3.5837625E2,5.9245825E2,1.1671965E3,3.5936383E2,1.1432034E3],"tree_param":{"num_deleted":"0","num_feature":"106","num_nodes":"15","size_leaf_vector":"1"}},{"base_weights":[-1.2426851E-1,-2.3297516E-1,1.3205369E-1,-9.85118E-2,-3.8800782E-1,-2.1999639E-2,2.8079322E-1,-2.4035072E-3,3.1920703E-4,-5.3235632E-3,-3.253445E-3,1.1398037E-3,-1.6732302E-3,3.2582947E-3,1.1864809E-4],"categories":[],"categories_nodes":[],"categories_segments":[],"categories_sizes":[],"default_left":[0,0,0,0,0,0,0,0,0,0,0,0,0,0,0],"id":46,"left_children":[1,3,5,7,9,11,13,-1,-1,-1,-1,-1,-1,-1,-1],"loss_changes":[1.7865958E2,9.381093E1,4.3766533E1,4.463557E1,1.8738007E1,1.8575901E1,1.1765152E1,0E0,0E0,0E0,0E0,0E0,0E0,0E0,0E0],"parents":[2147483647,0,0,1,1,2,2,3,3,4,4,5,5,6,6],"right_children":[2,4,6,8,10,12,14,-1,-1,-1,-1,-1,-1,-1,-1],"split_conditions":[2E1,1.4E1,0E0,1E1,7E0,-4.8E0,-1.6E0,-2.4035072E-3,3.1920703E-4,-5.3235632E-3,-3.253445E-3,1.1398037E-3,-1.6732302E-3,3.2582947E-3,1.1864809E-4],"split_indices":[28,80,77,51,51,25,25,0,0,0,0,0,0,0,0],"split_type":[0,0,0,0,0,0,0,0,0,0,0,0,0,0,0],"sum_hessian":[6.409756E3,4.500976E3,1.9087799E3,2.4112659E3,2.08971E3,9.3805975E2,9.7072015E2,1.154721E3,1.2565449E3,6.3029486E2,1.4594153E3,4.8471994E2,4.533398E2,8.312952E2,1.3942493E2],"tree_param":{"num_deleted":"0","num_feature":"106","num_nodes":"15","size_leaf_vector":"1"}},{"base_weights":[1.242685E-1,2.3297514E-1,-1.3205367E-1,9.8511785E-2,3.8800782E-1,2.1999639E-2,-2.8079322E-1,2.4035072E-3,-3.1920735E-4,5.3235637E-3,3.2534446E-3,-1.1398037E-3,1.6732303E-3,-3.2582947E-3,-1.18648044E-4],"categories":[],"categories_nodes":[],"categories_segments":[],"categories_sizes":[],"default_left":[0,0,0,0,0,0,0,0,0,0,0,0,0,0,0],"id":47,"left_children":[1,3,5,7,9,11,13,-1,-1,-1,-1,-1,-1,-1,-1],"loss_changes":[1.7865959E2,9.381093E1,4.3766537E1,4.4635586E1,1.8738007E1,1.8575903E1,1.1765152E1,0E0,0E0,0E0,0E0,0E0,0E0,0E0,0E0],"parents":[2147483647,0,0,1,1,2,2,3,3,4,4,5,5,6,6],"right_children":[2,4,6,8,10,12,14,-1,-1,-1,-1,-1,-1,-1,-1],"split_conditions":[2E1,1.4E1,0E0,1E1,7E0,-4.8E0,-1.6E0,2.4035072E-3,-3.1920735E-4,5.3235637E-3,3.2534446E-3,-1.1398037E-3,1.6732303E-3,-3.2582947E-3,-1.18648044E-4],"split_indices":[28,80,77,51,51,25,25,0,0,0,0,0,0,0,0],"split_type":[0,0,0,0,0,0,0,0,0,0,0,0,0,0,0],"sum_hessian":[6.409756E3,4.500976E3,1.9087799E3,2.4112659E3,2.0897102E3,9.3805975E2,9.7072015E2,1.154721E3,1.2565449E3,6.3029486E2,1.4594153E3,4.8471994E2,4.533398E2,8.312952E2,1.3942493E2],"tree_param":{"num_deleted":"0","num_feature":"106","num_nodes":"15","size_leaf_vector":"1"}},{"base_weights":[-1.2307087E-1,-2.913875E-1,3.937823E-2,-1.6246375E-1,-4.2594275E-1,-1.9139002E-1,1.4761987E-1,-2.3534389E-3,-1.7194453E-4,-3.7105212E-3,-6.021766E-3,3.5385918E-4,-3.0707805E-3,5.4587E-4,2.6873788E-3],"categories":[],"categories_nodes":[],"categories_segments":[],"categories_sizes":[],"default_left":[0,0,0,0,0,0,0,0,0,0,0,0,0,0,0],"id":48,"left_children":[1,3,5,7,9,11,13,-1,-1,-1,-1,-1,-1,-1,-1],"loss_changes":[1.7523831E2,5.4532104E1,8.1508156E1,1.7031017E1,1.4669189E1,2.7346497E1,2.5011784E1,0E0,0E0,0E0,0E0,0E0,0E0,0E0,0E0],"parents":[2147483647,0,0,1,1,2,2,3,3,4,4,5,5,6,6],"right_children":[2,4,6,8,10,12,14,-1,-1,-1,-1,-1,-1,-1,-1],"split_conditions":[1.5E1,1.3E1,-1.9E0,5.5E0,2.6E1,-4.8E0,2.4E1,-2.3534389E-3,-1.7194453E-4,-3.7105212E-3,-6.021766E-3,3.5385918E-4,-3.0707805E-3,5.4587E-4,2.6873788E-3],"split_indices":[51,80,77,77,80,25,51,0,0,0,0,0,0,0,0],"split_type":[0,0,0,0,0,0,0,0,0,0,0,0,0,0,0],"sum_hessian":[6.407498E3,3.146527E3,3.260971E3,1.6080171E3,1.53851E3,1.0409423E3,2.2200288E3,1.0703921E3,5.3762506E2,1.1754912E3,3.6301877E2,3.5187604E2,6.890662E2,1.2564093E3,9.6361945E2],"tree_param":{"num_deleted":"0","num_feature":"106","num_nodes":"15","size_leaf_vector":"1"}},{"base_weights":[1.23070866E-1,2.913875E-1,-3.9378226E-2,1.6246372E-1,4.2594275E-1,1.9139002E-1,-1.4761987E-1,2.3534386E-3,1.7194437E-4,3.7105212E-3,6.0217655E-3,-3.5385898E-4,3.0707805E-3,-5.458701E-4,-2.6873786E-3],"categories":[],"categories_nodes":[],"categories_segments":[],"categories_sizes":[],"default_left":[0,0,0,0,0,0,0,0,0,0,0,0,0,0,0],"id":49,"left_children":[1,3,5,7,9,11,13,-1,-1,-1,-1,-1,-1,-1,-1],"loss_changes":[1.7523831E2,5.4532135E1,8.150816E1,1.7031013E1,1.4669128E1,2.7346493E1,2.5011776E1,0E0,0E0,0E0,0E0,0E0,0E0,0E0,0E0],"parents":[2147483647,0,0,1,1,2,2,3,3,4,4,5,5,6,6],"right_children":[2,4,6,8,10,12,14,-1,-1,-1,-1,-1,-1,-1,-1],"split_conditions":[1.5E1,1.3E1,-1.9E0,5.5E0,2.6E1,-4.8E0,2.4E1,2.3534386E-3,1.7194437E-4,3.7105212E-3,6.0217655E-3,-3.5385898E-4,3.0707805E-3,-5.458701E-4,-2.6873786E-3],"split_indices":[51,80,77,77,80,25,51,0,0,0,0,0,0,0,0],"split_type":[0,0,0,0,0,0,0,0,0,0,0,0,0,0,0],"sum_hessian":[6.407498E3,3.146527E3,3.260971E3,1.6080171E3,1.5385099E3,1.0409423E3,2.2200288E3,1.0703921E3,5.3762506E2,1.1754912E3,3.6301877E2,3.5187604E2,6.890662E2,1.2564093E3,9.6361945E2],"tree_param":{"num_deleted":"0","num_feature":"106","num_nodes":"15","size_leaf_vector":"1"}},{"base_weights":[-1.21889524E-1,-2.2873054E-1,1.2994161E-1,-9.655372E-2,-3.8131684E-1,-1.5956856E-1,2.0658797E-1,-2.3630613E-3,3.190944E-4,-3.0156614E-3,-4.9201525E-3,-2.572745E-3,6.554322E-4,3.3416261E-3,1.158645E-3],"categories":[],"categories_nodes":[],"categories_segments":[],"categories_sizes":[],"default_left":[0,0,0,0,0,0,0,0,0,0,0,0,0,0,0],"id":50,"left_children":[1,3,5,7,9,11,13,-1,-1,-1,-1,-1,-1,-1,-1],"loss_changes":[1.7238965E2,9.06839E1,4.239041E1,4.330342E1,1.8281128E1,8.817846E0,1.7434822E1,0E0,0E0,0E0,0E0,0E0,0E0,0E0,0E0],"parents":[2147483647,0,0,1,1,2,2,3,3,4,4,5,5,6,6],"right_children":[2,4,6,8,10,12,14,-1,-1,-1,-1,-1,-1,-1,-1],"split_conditions":[2E1,1.4E1,3.6E-1,1E1,2.3E1,2.7E1,-5.9E0,-2.3630613E-3,3.190944E-4,-3.0156614E-3,-4.9201525E-3,-2.572745E-3,6.554322E-4,3.3416261E-3,1.158645E-3],"split_indices":[28,80,55,51,80,28,25,0,0,0,0,0,0,0,0],"split_type":[0,0,0,0,0,0,0,0,0,0,0,0,0,0,0],"sum_hessian":[6.40503E3,4.4971685E3,1.9078615E3,2.410619E3,2.0865493E3,3.9913995E2,1.5087214E3,1.1541757E3,1.2564434E3,1.2149702E3,8.715791E2,2.7823422E2,1.20905716E2,6.2590094E2,8.8282056E2],"tree_param":{"num_deleted":"0","num_feature":"106","num_nodes":"15","size_leaf_vector":"1"}},{"base_weights":[1.2188954E-1,2.2873056E-1,-1.299416E-1,9.655374E-2,3.8131684E-1,1.5956858E-1,-2.0658796E-1,2.3630615E-3,-3.1909414E-4,3.0156614E-3,4.9201525E-3,2.572745E-3,-6.554322E-4,-3.3416261E-3,-1.1586448E-3],"categories":[],"categories_nodes":[],"categories_segments":[],"categories_sizes":[],"default_left":[0,0,0,0,0,0,0,0,0,0,0,0,0,0,0],"id":51,"left_children":[1,3,5,7,9,11,13,-1,-1,-1,-1,-1,-1,-1,-1],"loss_changes":[1.7238968E2,9.06839E1,4.2390404E1,4.330343E1,1.8281097E1,8.817845E0,1.743483E1,0E0,0E0,0E0,0E0,0E0,0E0,0E0,0E0],"parents":[2147483647,0,0,1,1,2,2,3,3,4,4,5,5,6,6],"right_children":[2,4,6,8,10,12,14,-1,-1,-1,-1,-1,-1,-1,-1],"split_conditions":[2E1,1.4E1,3.6E-1,1E1,2.3E1,2.7E1,-5.9E0,2.3630615E-3,-3.1909414E-4,3.0156614E-3,4.9201525E-3,2.572745E-3,-6.554322E-4,-3.3416261E-3,-1.1586448E-3],"split_indices":[28,80,55,51,80,28,25,0,0,0,0,0,0,0,0],"split_type":[0,0,0,0,0,0,0,0,0,0,0,0,0,0,0],"sum_hessian":[6.40503E3,4.4971685E3,1.9078615E3,2.410619E3,2.0865493E3,3.9913995E2,1.5087214E3,1.1541755E3,1.2564434E3,1.2149702E3,8.715791E2,2.7823422E2,1.20905716E2,6.2590094E2,8.8282056E2],"tree_param":{"num_deleted":"0","num_feature":"106","num_nodes":"15","size_leaf_vector":"1"}},{"base_weights":[-1.2071716E-1,9.0211056E-2,-2.4605584E-1,-1.7294155E-1,1.7227373E-1,-3.4325203E-1,-3.8869634E-2,-5.0473054E-6,-3.0315882E-3,8.586651E-4,2.8682963E-3,-4.5366683E-3,-2.5567438E-3,-1.1427001E-3,2.1217228E-3],"categories":[],"categories_nodes":[],"categories_segments":[],"categories_sizes":[],"default_left":[0,0,0,0,0,0,0,0,0,0,0,0,0,0,0],"id":52,"left_children":[1,3,5,7,9,11,13,-1,-1,-1,-1,-1,-1,-1,-1],"loss_changes":[1.6931851E2,5.1590057E1,8.088086E1,1.2755354E1,1.799585E1,2.6323242E1,2.4326036E1,0E0,0E0,0E0,0E0,0E0,0E0,0E0,0E0],"parents":[2147483647,0,0,1,1,2,2,3,3,4,4,5,5,6,6],"right_children":[2,4,6,8,10,12,14,-1,-1,-1,-1,-1,-1,-1,-1],"split_conditions":[4.6E-1,3.73E-1,3E0,-4.8E0,2.6E1,-1.7E0,1.5E1,-5.0473054E-6,-3.0315882E-3,8.586651E-4,2.8682963E-3,-4.5366683E-3,-2.5567438E-3,-1.1427001E-3,2.1217228E-3],"split_indices":[3,55,77,25,51,77,51,0,0,0,0,0,0,0,0],"split_type":[0,0,0,0,0,0,0,0,0,0,0,0,0,0,0],"sum_hessian":[6.402651E3,2.386601E3,4.0160498E3,5.670664E2,1.8195348E3,2.733187E3,1.2828627E3,2.444129E2,3.226535E2,1.0381948E3,7.8133997E2,1.2071168E3,1.5260702E3,9.86971E2,2.9589166E2],"tree_param":{"num_deleted":"0","num_feature":"106","num_nodes":"15","size_leaf_vector":"1"}},{"base_weights":[1.20717175E-1,-9.021106E-2,2.4605587E-1,1.7294155E-1,-1.7227374E-1,3.4325206E-1,3.886968E-2,5.0468184E-6,3.0315886E-3,-8.5866504E-4,-2.8682968E-3,4.5366683E-3,2.5567443E-3,1.1427004E-3,-2.121722E-3],"categories":[],"categories_nodes":[],"categories_segments":[],"categories_sizes":[],"default_left":[0,0,0,0,0,0,0,0,0,0,0,0,0,0,0],"id":53,"left_children":[1,3,5,7,9,11,13,-1,-1,-1,-1,-1,-1,-1,-1],"loss_changes":[1.6931851E2,5.159006E1,8.0880844E1,1.2755362E1,1.7995857E1,2.6323242E1,2.4326033E1,0E0,0E0,0E0,0E0,0E0,0E0,0E0,0E0],"parents":[2147483647,0,0,1,1,2,2,3,3,4,4,5,5,6,6],"right_children":[2,4,6,8,10,12,14,-1,-1,-1,-1,-1,-1,-1,-1],"split_conditions":[4.6E-1,3.73E-1,3E0,-4.8E0,2.6E1,-1.7E0,1.5E1,5.0468184E-6,3.0315886E-3,-8.5866504E-4,-2.8682968E-3,4.5366683E-3,2.5567443E-3,1.1427004E-3,-2.121722E-3],"split_indices":[3,55,77,25,51,77,51,0,0,0,0,0,0,0,0],"split_type":[0,0,0,0,0,0,0,0,0,0,0,0,0,0,0],"sum_hessian":[6.402651E3,2.386601E3,4.0160498E3,5.670664E2,1.8195347E3,2.733187E3,1.2828627E3,2.444129E2,3.226535E2,1.0381948E3,7.813399E2,1.2071168E3,1.5260702E3,9.86971E2,2.9589166E2],"tree_param":{"num_deleted":"0","num_feature":"106","num_nodes":"15","size_leaf_vector":"1"}},{"base_weights":[-1.1955702E-1,-2.838111E-1,3.8829815E-2,-1.5778373E-1,-4.1563624E-1,-1.04156226E-1,2.0617898E-1,-2.2324934E-3,-5.5485043E-7,-3.6207524E-3,-5.914357E-3,1.093741E-3,-2.1262828E-3,3.715329E-3,1.5401463E-3],"categories":[],"categories_nodes":[],"categories_segments":[],"categories_sizes":[],"default_left":[0,0,0,0,0,0,0,0,0,0,0,0,0,0,0],"id":54,"left_children":[1,3,5,7,9,11,13,-1,-1,-1,-1,-1,-1,-1,-1],"loss_changes":[1.6654272E2,5.2142944E1,7.802117E1,1.6605915E1,1.4242401E1,4.0752815E1,1.29003525E1,0E0,0E0,0E0,0E0,0E0,0E0,0E0,0E0],"parents":[2147483647,0,0,1,1,2,2,3,3,4,4,5,5,6,6],"right_children":[2,4,6,8,10,12,14,-1,-1,-1,-1,-1,-1,-1,-1],"split_conditions":[1.5E1,1.3E1,5.24E-1,6E0,2.7E1,-4.9E0,-6.1E0,-2.2324934E-3,-5.5485043E-7,-3.6207524E-3,-5.914357E-3,1.093741E-3,-2.1262828E-3,3.715329E-3,1.5401463E-3],"split_indices":[51,80,55,77,103,25,25,0,0,0,0,0,0,0,0],"split_type":[0,0,0,0,0,0,0,0,0,0,0,0,0,0,0],"sum_hessian":[6.4002056E3,3.1415203E3,3.2586853E3,1.6072019E3,1.5343184E3,1.7574592E3,1.5012262E3,1.1354956E3,4.717063E2,1.1783645E3,3.5595386E2,5.920276E2,1.1654316E3,3.5854965E2,1.1426765E3],"tree_param":{"num_deleted":"0","num_feature":"106","num_nodes":"15","size_leaf_vector":"1"}},{"base_weights":[1.1955703E-1,2.838111E-1,-3.882981E-2,1.5778372E-1,4.1563627E-1,1.04156226E-1,-2.0617896E-1,2.2324931E-3,5.5447026E-7,3.6207528E-3,5.914358E-3,-1.093741E-3,2.1262825E-3,-3.715329E-3,-1.5401462E-3],"categories":[],"categories_nodes":[],"categories_segments":[],"categories_sizes":[],"default_left":[0,0,0,0,0,0,0,0,0,0,0,0,0,0,0],"id":55,"left_children":[1,3,5,7,9,11,13,-1,-1,-1,-1,-1,-1,-1,-1],"loss_changes":[1.6654276E2,5.2142975E1,7.802116E1,1.6605919E1,1.4242371E1,4.0752815E1,1.29003525E1,0E0,0E0,0E0,0E0,0E0,0E0,0E0,0E0],"parents":[2147483647,0,0,1,1,2,2,3,3,4,4,5,5,6,6],"right_children":[2,4,6,8,10,12,14,-1,-1,-1,-1,-1,-1,-1,-1],"split_conditions":[1.5E1,1.3E1,5.24E-1,6E0,2.7E1,-4.9E0,-6.1E0,2.2324931E-3,5.5447026E-7,3.6207528E-3,5.914358E-3,-1.093741E-3,2.1262825E-3,-3.715329E-3,-1.5401462E-3],"split_indices":[51,80,55,77,103,25,25,0,0,0,0,0,0,0,0],"split_type":[0,0,0,0,0,0,0,0,0,0,0,0,0,0,0],"sum_hessian":[6.4002056E3,3.1415203E3,3.2586853E3,1.6072019E3,1.5343184E3,1.7574592E3,1.5012262E3,1.1354956E3,4.717063E2,1.1783645E3,3.5595386E2,5.920276E2,1.1654316E3,3.5854965E2,1.1426765E3],"tree_param":{"num_deleted":"0","num_feature":"106","num_nodes":"15","size_leaf_vector":"1"}},{"base_weights":[-1.1841038E-1,-2.2256769E-1,1.2693033E-1,-9.377511E-2,-3.7153804E-1,-2.2090262E-2,2.7089173E-1,-2.3062576E-3,3.1951244E-4,-5.1381066E-3,-3.0989246E-3,1.0755968E-3,-1.6070954E-3,3.1471371E-3,9.610707E-5],"categories":[],"categories_nodes":[],"categories_segments":[],"categories_sizes":[],"default_left":[0,0,0,0,0,0,0,0,0,0,0,0,0,0,0],"id":56,"left_children":[1,3,5,7,9,11,13,-1,-1,-1,-1,-1,-1,-1,-1],"loss_changes":[1.635397E2,8.615169E1,4.0929344E1,4.1482574E1,1.8105713E1,1.6879253E1,1.1107071E1,0E0,0E0,0E0,0E0,0E0,0E0,0E0,0E0],"parents":[2147483647,0,0,1,1,2,2,3,3,4,4,5,5,6,6],"right_children":[2,4,6,8,10,12,14,-1,-1,-1,-1,-1,-1,-1,-1],"split_conditions":[2E1,1.4E1,0E0,1E1,7E0,-4.8E0,-1.6E0,-2.3062576E-3,3.1951244E-4,-5.1381066E-3,-3.0989246E-3,1.0755968E-3,-1.6070954E-3,3.1471371E-3,9.610707E-5],"split_indices":[28,80,77,51,51,25,25,0,0,0,0,0,0,0,0],"split_type":[0,0,0,0,0,0,0,0,0,0,0,0,0,0,0],"sum_hessian":[6.3976562E3,4.4910933E3,1.906563E3,2.4095457E3,2.0815479E3,9.3723627E2,9.6932666E2,1.153332E3,1.2562135E3,6.270456E2,1.4545022E3,4.8440173E2,4.528345E2,8.29927E2,1.393997E2],"tree_param":{"num_deleted":"0","num_feature":"106","num_nodes":"15","size_leaf_vector":"1"}},{"base_weights":[1.1841038E-1,2.2256769E-1,-1.2693033E-1,9.377511E-2,3.71538E-1,2.2090266E-2,-2.7089173E-1,2.3062578E-3,-3.195125E-4,5.138106E-3,3.0989246E-3,-1.0755965E-3,1.6070954E-3,-3.1471371E-3,-9.610717E-5],"categories":[],"categories_nodes":[],"categories_segments":[],"categories_sizes":[],"default_left":[0,0,0,0,0,0,0,0,0,0,0,0,0,0,0],"id":57,"left_children":[1,3,5,7,9,11,13,-1,-1,-1,-1,-1,-1,-1,-1],"loss_changes":[1.635397E2,8.615166E1,4.0929344E1,4.1482574E1,1.8105743E1,1.687925E1,1.1107071E1,0E0,0E0,0E0,0E0,0E0,0E0,0E0,0E0],"parents":[2147483647,0,0,1,1,2,2,3,3,4,4,5,5,6,6],"right_children":[2,4,6,8,10,12,14,-1,-1,-1,-1,-1,-1,-1,-1],"split_conditions":[2E1,1.4E1,0E0,1E1,7E0,-4.8E0,-1.6E0,2.3062578E-3,-3.195125E-4,5.138106E-3,3.0989246E-3,-1.0755965E-3,1.6070954E-3,-3.1471371E-3,-9.610717E-5],"split_indices":[28,80,77,51,51,25,25,0,0,0,0,0,0,0,0],"split_type":[0,0,0,0,0,0,0,0,0,0,0,0,0,0,0],"sum_hessian":[6.3976562E3,4.4910933E3,1.906563E3,2.4095457E3,2.0815479E3,9.3723627E2,9.6932666E2,1.153332E3,1.2562135E3,6.270456E2,1.4545022E3,4.8440173E2,4.528345E2,8.29927E2,1.393997E2],"tree_param":{"num_deleted":"0","num_feature":"106","num_nodes":"15","size_leaf_vector":"1"}},{"base_weights":[-1.17275044E-1,-2.7869627E-1,3.8267054E-2,-1.5479769E-1,-4.0850887E-1,-1.6797172E-1,1.5053648E-1,-2.1963385E-3,1.3517719E-5,-3.5466857E-3,-5.819829E-3,4.4398822E-4,-2.7807176E-3,6.07035E-4,2.6927479E-3],"categories":[],"categories_nodes":[],"categories_segments":[],"categories_sizes":[],"default_left":[0,0,0,0,0,0,0,0,0,0,0,0,0,0,0],"id":58,"left_children":[1,3,5,7,9,11,13,-1,-1,-1,-1,-1,-1,-1,-1],"loss_changes":[1.6060231E2,5.042073E1,7.546761E1,1.6276024E1,1.4104462E1,2.6877205E1,2.2493275E1,0E0,0E0,0E0,0E0,0E0,0E0,0E0,0E0],"parents":[2147483647,0,0,1,1,2,2,3,3,4,4,5,5,6,6],"right_children":[2,4,6,8,10,12,14,-1,-1,-1,-1,-1,-1,-1,-1],"split_conditions":[1.5E1,1.3E1,-1.4E0,6E0,2.6E1,-4.8E0,2.4E1,-2.1963385E-3,1.3517719E-5,-3.5466857E-3,-5.819829E-3,4.4398822E-4,-2.7807176E-3,6.07035E-4,2.6927479E-3],"split_indices":[51,80,77,77,80,25,51,0,0,0,0,0,0,0,0],"split_type":[0,0,0,0,0,0,0,0,0,0,0,0,0,0,0],"sum_hessian":[6.395088E3,3.1378467E3,3.2572415E3,1.606617E3,1.5312296E3,1.1479545E3,2.1092869E3,1.1349556E3,4.7166132E2,1.1708752E3,3.6035437E2,3.9214597E2,7.5580853E2,1.201664E3,9.0762286E2],"tree_param":{"num_deleted":"0","num_feature":"106","num_nodes":"15","size_leaf_vector":"1"}},{"base_weights":[1.17275044E-1,2.7869627E-1,-3.8267065E-2,1.547977E-1,4.085089E-1,1.6797172E-1,-1.5053649E-1,2.1963385E-3,-1.3517317E-5,3.5466857E-3,5.8198296E-3,-4.4398784E-4,2.7807173E-3,-6.070355E-4,-2.6927476E-3],"categories":[],"categories_nodes":[],"categories_segments":[],"categories_sizes":[],"default_left":[0,0,0,0,0,0,0,0,0,0,0,0,0,0,0],"id":59,"left_children":[1,3,5,7,9,11,13,-1,-1,-1,-1,-1,-1,-1,-1],"loss_changes":[1.6060237E2,5.0420685E1,7.546763E1,1.627602E1,1.4104446E1,2.6877193E1,2.249326E1,0E0,0E0,0E0,0E0,0E0,0E0,0E0,0E0],"parents":[2147483647,0,0,1,1,2,2,3,3,4,4,5,5,6,6],"right_children":[2,4,6,8,10,12,14,-1,-1,-1,-1,-1,-1,-1,-1],"split_conditions":[1.5E1,1.3E1,-1.4E0,6E0,2.6E1,-4.8E0,2.4E1,2.1963385E-3,-1.3517317E-5,3.5466857E-3,5.8198296E-3,-4.4398784E-4,2.7807173E-3,-6.070355E-4,-2.6927476E-3],"split_indices":[51,80,77,77,80,25,51,0,0,0,0,0,0,0,0],"split_type":[0,0,0,0,0,0,0,0,0,0,0,0,0,0,0],"sum_hessian":[6.395088E3,3.1378464E3,3.2572415E3,1.606617E3,1.5312296E3,1.1479545E3,2.1092869E3,1.1349556E3,4.7166132E2,1.1708752E3,3.6035437E2,3.9214597E2,7.5580853E2,1.201664E3,9.0762286E2],"tree_param":{"num_deleted":"0","num_feature":"106","num_nodes":"15","size_leaf_vector":"1"}},{"base_weights":[-1.1615476E-1,8.753902E-2,-2.3732252E-1,-1.6831283E-1,1.6730976E-1,-3.3197424E-1,-3.601696E-2,-2.7820954E-5,-2.935271E-3,8.4132823E-4,2.77703E-3,-2.7104132E-3,-4.8439223E-3,-1.1892898E-3,1.7962868E-3],"categories":[],"categories_nodes":[],"categories_segments":[],"categories_sizes":[],"default_left":[0,0,0,0,0,0,0,0,0,0,0,0,0,0,0],"id":60,"left_children":[1,3,5,7,9,11,13,-1,-1,-1,-1,-1,-1,-1,-1],"loss_changes":[1.5781519E2,4.8711548E1,7.637512E1,1.1760481E1,1.6677967E1,2.5192627E1,2.2965565E1,0E0,0E0,0E0,0E0,0E0,0E0,0E0,0E0],"parents":[2147483647,0,0,1,1,2,2,3,3,4,4,5,5,6,6],"right_children":[2,4,6,8,10,12,14,-1,-1,-1,-1,-1,-1,-1,-1],"split_conditions":[4.6E-1,3.73E-1,3E0,-4.8E0,2.6E1,2.3E1,1.4E1,-2.7820954E-5,-2.935271E-3,8.4132823E-4,2.77703E-3,-2.7104132E-3,-4.8439223E-3,-1.1892898E-3,1.7962868E-3],"split_indices":[3,55,77,25,51,80,51,0,0,0,0,0,0,0,0],"split_type":[0,0,0,0,0,0,0,0,0,0,0,0,0,0,0],"sum_hessian":[6.392325E3,2.3843308E3,4.0079944E3,5.6644366E2,1.8178871E3,2.7257341E3,1.2822601E3,2.4438881E2,3.2205487E2,1.0377476E3,7.801396E2,1.9492507E3,7.7648346E2,9.2648944E2,3.5577072E2],"tree_param":{"num_deleted":"0","num_feature":"106","num_nodes":"15","size_leaf_vector":"1"}},{"base_weights":[1.1615476E-1,-8.753901E-2,2.3732252E-1,1.6831283E-1,-1.6730976E-1,3.3197424E-1,3.601698E-2,2.7820977E-5,2.9352705E-3,-8.4132835E-4,-2.7770295E-3,2.7104132E-3,4.8439223E-3,1.1892901E-3,-1.7962866E-3],"categories":[],"categories_nodes":[],"categories_segments":[],"categories_sizes":[],"default_left":[0,0,0,0,0,0,0,0,0,0,0,0,0,0,0],"id":61,"left_children":[1,3,5,7,9,11,13,-1,-1,-1,-1,-1,-1,-1,-1],"loss_changes":[1.5781519E2,4.8711548E1,7.637509E1,1.1760481E1,1.667796E1,2.5192657E1,2.2965563E1,0E0,0E0,0E0,0E0,0E0,0E0,0E0,0E0],"parents":[2147483647,0,0,1,1,2,2,3,3,4,4,5,5,6,6],"right_children":[2,4,6,8,10,12,14,-1,-1,-1,-1,-1,-1,-1,-1],"split_conditions":[4.6E-1,3.73E-1,3E0,-4.8E0,2.6E1,2.3E1,1.4E1,2.7820977E-5,2.9352705E-3,-8.4132835E-4,-2.7770295E-3,2.7104132E-3,4.8439223E-3,1.1892901E-3,-1.7962866E-3],"split_indices":[3,55,77,25,51,80,51,0,0,0,0,0,0,0,0],"split_type":[0,0,0,0,0,0,0,0,0,0,0,0,0,0,0],"sum_hessian":[6.392325E3,2.3843308E3,4.0079944E3,5.6644366E2,1.8178871E3,2.7257341E3,1.2822601E3,2.4438881E2,3.2205487E2,1.0377476E3,7.801396E2,1.9492507E3,7.7648346E2,9.264894E2,3.557707E2],"tree_param":{"num_deleted":"0","num_feature":"106","num_nodes":"15","size_leaf_vector":"1"}},{"base_weights":[-1.1504289E-1,-2.7376816E-1,3.7795126E-2,-1.5173286E-1,-4.0184313E-1,-1.0093729E-1,2.001317E-1,-2.2212595E-3,-1.1614251E-4,-3.4909847E-3,-5.7546673E-3,1.0461496E-3,-2.0542718E-3,3.6067178E-3,1.4956716E-3],"categories":[],"categories_nodes":[],"categories_segments":[],"categories_sizes":[],"default_left":[0,0,0,0,0,0,0,0,0,0,0,0,0,0,0],"id":62,"left_children":[1,3,5,7,9,11,13,-1,-1,-1,-1,-1,-1,-1,-1],"loss_changes":[1.5504279E2,4.8939102E1,7.3362816E1,1.5847813E1,1.3801926E1,3.775032E1,1.213036E1,0E0,0E0,0E0,0E0,0E0,0E0,0E0,0E0],"parents":[2147483647,0,0,1,1,2,2,3,3,4,4,5,5,6,6],"right_children":[2,4,6,8,10,12,14,-1,-1,-1,-1,-1,-1,-1,-1],"split_conditions":[1.5E1,1.3E1,5.24E-1,5.5E0,2.7E1,-4.9E0,-6.1E0,-2.2212595E-3,-1.1614251E-4,-3.4909847E-3,-5.7546673E-3,1.0461496E-3,-2.0542718E-3,3.6067178E-3,1.4956716E-3],"split_indices":[51,80,55,77,103,25,25,0,0,0,0,0,0,0,0],"split_type":[0,0,0,0,0,0,0,0,0,0,0,0,0,0,0],"sum_hessian":[6.389651E3,3.1340684E3,3.2555825E3,1.6059939E3,1.5280746E3,1.755616E3,1.4999667E3,1.0685754E3,5.374184E2,1.1743368E3,3.537378E2,5.916744E2,1.1639415E3,3.5780844E2,1.1421582E3],"tree_param":{"num_deleted":"0","num_feature":"106","num_nodes":"15","size_leaf_vector":"1"}},{"base_weights":[1.15042895E-1,2.7376816E-1,-3.7795126E-2,1.5173289E-1,4.0184313E-1,1.00937285E-1,-2.0013168E-1,2.2212598E-3,1.1614264E-4,3.4909847E-3,5.754668E-3,-1.04615E-3,2.0542718E-3,-3.6067178E-3,-1.4956712E-3],"categories":[],"categories_nodes":[],"categories_segments":[],"categories_sizes":[],"default_left":[0,0,0,0,0,0,0,0,0,0,0,0,0,0,0],"id":63,"left_children":[1,3,5,7,9,11,13,-1,-1,-1,-1,-1,-1,-1,-1],"loss_changes":[1.5504279E2,4.8939087E1,7.336281E1,1.5847813E1,1.3801926E1,3.775033E1,1.2130363E1,0E0,0E0,0E0,0E0,0E0,0E0,0E0,0E0],"parents":[2147483647,0,0,1,1,2,2,3,3,4,4,5,5,6,6],"right_children":[2,4,6,8,10,12,14,-1,-1,-1,-1,-1,-1,-1,-1],"split_conditions":[1.5E1,1.3E1,5.24E-1,5.5E0,2.7E1,-4.9E0,-6.1E0,2.2212598E-3,1.1614264E-4,3.4909847E-3,5.754668E-3,-1.04615E-3,2.0542718E-3,-3.6067178E-3,-1.4956712E-3],"split_indices":[51,80,55,77,103,25,25,0,0,0,0,0,0,0,0],"split_type":[0,0,0,0,0,0,0,0,0,0,0,0,0,0,0],"sum_hessian":[6.389651E3,3.1340684E3,3.2555825E3,1.6059938E3,1.5280746E3,1.7556158E3,1.4999667E3,1.0685754E3,5.374184E2,1.1743368E3,3.537378E2,5.916744E2,1.1639415E3,3.5780847E2,1.1421582E3],"tree_param":{"num_deleted":"0","num_feature":"106","num_nodes":"15","size_leaf_vector":"1"}},{"base_weights":[-1.1394363E-1,-2.1472286E-1,1.2322471E-1,-9.015696E-2,-3.5920858E-1,2.5463971E-1,-3.0949844E-2,2.8524885E-4,-2.27907E-3,-4.994151E-3,-2.985719E-3,6.908419E-4,3.046696E-3,1.0387747E-3,-1.7587764E-3],"categories":[],"categories_nodes":[],"categories_segments":[],"categories_sizes":[],"default_left":[0,0,0,0,0,0,0,0,0,0,0,0,0,0,0],"id":64,"left_children":[1,3,5,7,9,11,13,-1,-1,-1,-1,-1,-1,-1,-1],"loss_changes":[1.5270729E2,8.0658325E1,3.8616207E1,3.9389217E1,1.7494904E1,9.529831E0,1.7169565E1,0E0,0E0,0E0,0E0,0E0,0E0,0E0,0E0],"parents":[2147483647,0,0,1,1,2,2,3,3,4,4,5,5,6,6],"right_children":[2,4,6,8,10,12,14,-1,-1,-1,-1,-1,-1,-1,-1],"split_conditions":[2E1,1.4E1,1.7E1,2.8E0,7E0,2.2E1,-4.8E0,2.8524885E-4,-2.27907E-3,-4.994151E-3,-2.985719E-3,6.908419E-4,3.046696E-3,1.0387747E-3,-1.7587764E-3],"split_indices":[28,80,103,25,51,51,25,0,0,0,0,0,0,0,0],"split_type":[0,0,0,0,0,0,0,0,0,0,0,0,0,0,0],"sum_hessian":[6.386881E3,4.482318E3,1.9045631E3,2.4079604E3,2.0743577E3,1.0278202E3,8.767429E2,1.2939338E3,1.1140266E3,6.2408594E2,1.4502716E3,2.1877786E2,8.090423E2,4.543455E2,4.223974E2],"tree_param":{"num_deleted":"0","num_feature":"106","num_nodes":"15","size_leaf_vector":"1"}},{"base_weights":[1.13943614E-1,2.1472283E-1,-1.2322471E-1,9.0156935E-2,3.5920855E-1,-2.5463971E-1,3.094985E-2,-2.8524912E-4,2.2790697E-3,4.9941507E-3,2.9857184E-3,-6.908419E-4,-3.046696E-3,-1.0387747E-3,1.7587766E-3],"categories":[],"categories_nodes":[],"categories_segments":[],"categories_sizes":[],"default_left":[0,0,0,0,0,0,0,0,0,0,0,0,0,0,0],"id":65,"left_children":[1,3,5,7,9,11,13,-1,-1,-1,-1,-1,-1,-1,-1],"loss_changes":[1.5270728E2,8.065831E1,3.8616207E1,3.938922E1,1.7494904E1,9.529831E0,1.7169567E1,0E0,0E0,0E0,0E0,0E0,0E0,0E0,0E0],"parents":[2147483647,0,0,1,1,2,2,3,3,4,4,5,5,6,6],"right_children":[2,4,6,8,10,12,14,-1,-1,-1,-1,-1,-1,-1,-1],"split_conditions":[2E1,1.4E1,1.7E1,2.8E0,7E0,2.2E1,-4.8E0,-2.8524912E-4,2.2790697E-3,4.9941507E-3,2.9857184E-3,-6.908419E-4,-3.046696E-3,-1.0387747E-3,1.7587766E-3],"split_indices":[28,80,103,25,51,51,25,0,0,0,0,0,0,0,0],"split_type":[0,0,0,0,0,0,0,0,0,0,0,0,0,0,0],"sum_hessian":[6.386881E3,4.482318E3,1.9045631E3,2.4079604E3,2.0743577E3,1.0278202E3,8.767429E2,1.2939338E3,1.1140266E3,6.2408594E2,1.4502716E3,2.1877786E2,8.090423E2,4.543455E2,4.223974E2],"tree_param":{"num_deleted":"0","num_feature":"106","num_nodes":"15","size_leaf_vector":"1"}},{"base_weights":[-1.12854905E-1,-2.1268447E-1,1.2202953E-1,-8.926869E-2,-3.5594726E-1,-1.5221994E-1,1.9465652E-1,-2.2144658E-3,3.203728E-4,-4.9516154E-3,-2.95788E-3,-2.4540683E-3,6.2056107E-4,3.1473904E-3,1.0944881E-3],"categories":[],"categories_nodes":[],"categories_segments":[],"categories_sizes":[],"default_left":[0,0,0,0,0,0,0,0,0,0,0,0,0,0,0],"id":66,"left_children":[1,3,5,7,9,11,13,-1,-1,-1,-1,-1,-1,-1,-1],"loss_changes":[1.4974648E2,7.919789E1,3.7973534E1,3.8626953E1,1.7218842E1,7.990773E0,1.53809395E1,0E0,0E0,0E0,0E0,0E0,0E0,0E0,0E0],"parents":[2147483647,0,0,1,1,2,2,3,3,4,4,5,5,6,6],"right_children":[2,4,6,8,10,12,14,-1,-1,-1,-1,-1,-1,-1,-1],"split_conditions":[2E1,1.4E1,3.6E-1,1E1,7E0,2.7E1,-5.9E0,-2.2144658E-3,3.203728E-4,-4.9516154E-3,-2.95788E-3,-2.4540683E-3,6.2056107E-4,3.1473904E-3,1.0944881E-3],"split_indices":[28,80,55,51,51,28,25,0,0,0,0,0,0,0,0],"split_type":[0,0,0,0,0,0,0,0,0,0,0,0,0,0,0],"sum_hessian":[6.3841035E3,4.48009E3,1.9040137E3,2.4076277E3,2.0724622E3,3.9842197E2,1.5055918E3,1.1517872E3,1.2558405E3,6.231658E2,1.4492963E3,2.7756564E2,1.20856316E2,6.2379236E2,8.817994E2],"tree_param":{"num_deleted":"0","num_feature":"106","num_nodes":"15","size_leaf_vector":"1"}},{"base_weights":[1.1285491E-1,2.1268447E-1,-1.2202953E-1,8.926871E-2,3.5594726E-1,1.5221994E-1,-1.9465652E-1,2.214466E-3,-3.2037275E-4,4.9516154E-3,2.95788E-3,2.454068E-3,-6.2056095E-4,-3.1473904E-3,-1.0944882E-3],"categories":[],"categories_nodes":[],"categories_segments":[],"categories_sizes":[],"default_left":[0,0,0,0,0,0,0,0,0,0,0,0,0,0,0],"id":67,"left_children":[1,3,5,7,9,11,13,-1,-1,-1,-1,-1,-1,-1,-1],"loss_changes":[1.4974646E2,7.919789E1,3.797353E1,3.862696E1,1.7218842E1,7.990774E0,1.53809395E1,0E0,0E0,0E0,0E0,0E0,0E0,0E0,0E0],"parents":[2147483647,0,0,1,1,2,2,3,3,4,4,5,5,6,6],"right_children":[2,4,6,8,10,12,14,-1,-1,-1,-1,-1,-1,-1,-1],"split_conditions":[2E1,1.4E1,3.6E-1,1E1,7E0,2.7E1,-5.9E0,2.214466E-3,-3.2037275E-4,4.9516154E-3,2.95788E-3,2.454068E-3,-6.2056095E-4,-3.1473904E-3,-1.0944882E-3],"split_indices":[28,80,55,51,51,28,25,0,0,0,0,0,0,0,0],"split_type":[0,0,0,0,0,0,0,0,0,0,0,0,0,0,0],"sum_hessian":[6.3841035E3,4.48009E3,1.9040137E3,2.4076277E3,2.0724622E3,3.9842197E2,1.5055918E3,1.1517872E3,1.2558405E3,6.231658E2,1.4492963E3,2.7756564E2,1.20856316E2,6.2379236E2,8.817994E2],"tree_param":{"num_deleted":"0","num_feature":"106","num_nodes":"15","size_leaf_vector":"1"}},{"base_weights":[-1.117769E-1,-2.6655245E-1,3.708782E-2,-1.4752609E-1,-3.9180505E-1,-1.7741473E-1,1.3755344E-1,-2.109906E-3,5.160394E-5,-3.3877227E-3,-5.633185E-3,2.9207388E-4,-2.8328241E-3,2.6884526E-3,6.3748664E-4],"categories":[],"categories_nodes":[],"categories_segments":[],"categories_sizes":[],"default_left":[0,0,0,0,0,0,0,0,0,0,0,0,0,0,0],"id":68,"left_children":[1,3,5,7,9,11,13,-1,-1,-1,-1,-1,-1,-1,-1],"loss_changes":[1.4706238E2,4.6592834E1,7.015189E1,1.556411E1,1.3672119E1,2.2723248E1,2.1462978E1,0E0,0E0,0E0,0E0,0E0,0E0,0E0,0E0],"parents":[2147483647,0,0,1,1,2,2,3,3,4,4,5,5,6,6],"right_children":[2,4,6,8,10,12,14,-1,-1,-1,-1,-1,-1,-1,-1],"split_conditions":[1.5E1,1.3E1,-1.9E0,6E0,2.6E1,-4.8E0,8E0,-2.109906E-3,5.160394E-5,-3.3877227E-3,-5.633185E-3,2.9207388E-4,-2.8328241E-3,2.6884526E-3,6.3748664E-4],"split_indices":[51,80,77,77,80,25,103,0,0,0,0,0,0,0,0],"split_type":[0,0,0,0,0,0,0,0,0,0,0,0,0,0,0],"sum_hessian":[6.3813154E3,3.1281592E3,3.2531562E3,1.6050621E3,1.5230972E3,1.0374172E3,2.215739E3,1.133527E3,4.7153506E2,1.1656484E3,3.5744876E2,3.517095E2,6.857077E2,7.963909E2,1.4193481E3],"tree_param":{"num_deleted":"0","num_feature":"106","num_nodes":"15","size_leaf_vector":"1"}},{"base_weights":[1.1177688E-1,2.6655242E-1,-3.7087828E-2,1.4752606E-1,3.9180502E-1,1.7741472E-1,-1.3755344E-1,2.1099055E-3,-5.160455E-5,3.3877227E-3,5.6331847E-3,-2.920736E-4,2.832824E-3,-2.6884528E-3,-6.3748664E-4],"categories":[],"categories_nodes":[],"categories_segments":[],"categories_sizes":[],"default_left":[0,0,0,0,0,0,0,0,0,0,0,0,0,0,0],"id":69,"left_children":[1,3,5,7,9,11,13,-1,-1,-1,-1,-1,-1,-1,-1],"loss_changes":[1.4706235E2,4.6592865E1,7.015189E1,1.5564117E1,1.3672089E1,2.2723232E1,2.1462982E1,0E0,0E0,0E0,0E0,0E0,0E0,0E0,0E0],"parents":[2147483647,0,0,1,1,2,2,3,3,4,4,5,5,6,6],"right_children":[2,4,6,8,10,12,14,-1,-1,-1,-1,-1,-1,-1,-1],"split_conditions":[1.5E1,1.3E1,-1.9E0,6E0,2.6E1,-4.8E0,8E0,2.1099055E-3,-5.160455E-5,3.3877227E-3,5.6331847E-3,-2.920736E-4,2.832824E-3,-2.6884528E-3,-6.3748664E-4],"split_indices":[51,80,77,77,80,25,103,0,0,0,0,0,0,0,0],"split_type":[0,0,0,0,0,0,0,0,0,0,0,0,0,0,0],"sum_hessian":[6.3813154E3,3.1281592E3,3.2531562E3,1.6050621E3,1.5230972E3,1.0374172E3,2.215739E3,1.133527E3,4.7153506E2,1.1656483E3,3.5744876E2,3.5170947E2,6.857077E2,7.9639087E2,1.4193481E3],"tree_param":{"num_deleted":"0","num_feature":"106","num_nodes":"15","size_leaf_vector":"1"}},{"base_weights":[-1.107115E-1,-2.090032E-1,1.20424345E-1,-1.1045423E-1,-3.8294116E-1,-2.1331485E-2,2.5750253E-1,8.960193E-5,-2.482749E-3,-4.8948354E-3,-3.138933E-3,9.993081E-4,-1.5109777E-3,2.9983916E-3,5.6801167E-5],"categories":[],"categories_nodes":[],"categories_segments":[],"categories_sizes":[],"default_left":[0,0,0,0,0,0,0,0,0,0,0,0,0,0,0],"id":70,"left_children":[1,3,5,7,9,11,13,-1,-1,-1,-1,-1,-1,-1,-1],"loss_changes":[1.4495773E2,7.668877E1,3.7004738E1,4.705206E1,1.1753189E1,1.4759329E1,1.0319351E1,0E0,0E0,0E0,0E0,0E0,0E0,0E0,0E0],"parents":[2147483647,0,0,1,1,2,2,3,3,4,4,5,5,6,6],"right_children":[2,4,6,8,10,12,14,-1,-1,-1,-1,-1,-1,-1,-1],"split_conditions":[2E1,1.7E1,0E0,2.8E0,-5.1E0,-4.8E0,-1.6E0,8.960193E-5,-2.482749E-3,-4.8948354E-3,-3.138933E-3,9.993081E-4,-1.5109777E-3,2.9983916E-3,5.6801167E-5],"split_indices":[28,80,77,25,77,25,25,0,0,0,0,0,0,0,0],"split_type":[0,0,0,0,0,0,0,0,0,0,0,0,0,0,0],"sum_hessian":[6.37843E3,4.4753574E3,1.9030728E3,2.857821E3,1.6175361E3,9.359888E2,9.6708405E2,1.5316561E3,1.326165E3,6.3367395E2,9.838621E2,4.839673E2,4.5202145E2,8.277339E2,1.3935013E2],"tree_param":{"num_deleted":"0","num_feature":"106","num_nodes":"15","size_leaf_vector":"1"}},{"base_weights":[1.107115E-1,2.090032E-1,-1.2042434E-1,1.10454224E-1,3.8294116E-1,2.1331497E-2,-2.5750253E-1,-8.960204E-5,2.482749E-3,4.8948354E-3,3.138933E-3,-9.99308E-4,1.510978E-3,-2.9983916E-3,-5.6800996E-5],"categories":[],"categories_nodes":[],"categories_segments":[],"categories_sizes":[],"default_left":[0,0,0,0,0,0,0,0,0,0,0,0,0,0,0],"id":71,"left_children":[1,3,5,7,9,11,13,-1,-1,-1,-1,-1,-1,-1,-1],"loss_changes":[1.4495772E2,7.668878E1,3.7004734E1,4.7052067E1,1.1753159E1,1.4759332E1,1.0319351E1,0E0,0E0,0E0,0E0,0E0,0E0,0E0,0E0],"parents":[2147483647,0,0,1,1,2,2,3,3,4,4,5,5,6,6],"right_children":[2,4,6,8,10,12,14,-1,-1,-1,-1,-1,-1,-1,-1],"split_conditions":[2E1,1.7E1,0E0,2.8E0,-5.1E0,-4.8E0,-1.6E0,-8.960204E-5,2.482749E-3,4.8948354E-3,3.138933E-3,-9.99308E-4,1.510978E-3,-2.9983916E-3,-5.6800996E-5],"split_indices":[28,80,77,25,77,25,25,0,0,0,0,0,0,0,0],"split_type":[0,0,0,0,0,0,0,0,0,0,0,0,0,0,0],"sum_hessian":[6.37843E3,4.4753574E3,1.9030728E3,2.857821E3,1.6175361E3,9.359888E2,9.6708405E2,1.5316561E3,1.326165E3,6.3367395E2,9.838621E2,4.8396732E2,4.5202145E2,8.277339E2,1.3935013E2],"tree_param":{"num_deleted":"0","num_feature":"106","num_nodes":"15","size_leaf_vector":"1"}},{"base_weights":[-1.0965584E-1,8.3845004E-2,-2.2496337E-1,-1.6112158E-1,1.6019355E-1,-3.163111E-1,-3.138969E-2,-1.0757111E-3,-5.225121E-3,-1.7986479E-3,1.8628761E-3,-2.576605E-3,-4.637611E-3,-1.0145408E-3,2.0163734E-3],"categories":[],"categories_nodes":[],"categories_segments":[],"categories_sizes":[],"default_left":[0,0,0,0,0,0,0,0,0,0,0,0,0,0,0],"id":72,"left_children":[1,3,5,7,9,11,13,-1,-1,-1,-1,-1,-1,-1,-1],"loss_changes":[1.4229292E2,4.4570328E1,7.064665E1,1.0905512E1,1.6150257E1,2.3356781E1,2.0954882E1,0E0,0E0,0E0,0E0,0E0,0E0,0E0,0E0],"parents":[2147483647,0,0,1,1,2,2,3,3,4,4,5,5,6,6],"right_children":[2,4,6,8,10,12,14,-1,-1,-1,-1,-1,-1,-1,-1],"split_conditions":[4.6E-1,3.73E-1,3E0,-1E0,5E0,2.3E1,1.5E1,-1.0757111E-3,-5.225121E-3,-1.7986479E-3,1.8628761E-3,-2.576605E-3,-4.637611E-3,-1.0145408E-3,2.0163734E-3],"split_indices":[3,55,77,25,2,80,51,0,0,0,0,0,0,0,0],"split_type":[0,0,0,0,0,0,0,0,0,0,0,0,0,0,0],"sum_hessian":[6.375542E3,2.380698E3,3.9948442E3,5.654201E2,1.8152778E3,2.7136394E3,1.2812047E3,4.9357968E2,7.184044E1,1.2894685E2,1.6863309E3,1.9433777E3,7.702617E2,9.854681E2,2.9573666E2],"tree_param":{"num_deleted":"0","num_feature":"106","num_nodes":"15","size_leaf_vector":"1"}},{"base_weights":[1.0965584E-1,-8.3845E-2,2.2496337E-1,1.6112158E-1,-1.6019353E-1,3.163111E-1,3.1389672E-2,1.0757111E-3,5.225121E-3,1.7986478E-3,-1.8628759E-3,2.576605E-3,4.637611E-3,1.0145407E-3,-2.016374E-3],"categories":[],"categories_nodes":[],"categories_segments":[],"categories_sizes":[],"default_left":[0,0,0,0,0,0,0,0,0,0,0,0,0,0,0],"id":73,"left_children":[1,3,5,7,9,11,13,-1,-1,-1,-1,-1,-1,-1,-1],"loss_changes":[1.4229292E2,4.4570324E1,7.064665E1,1.0905514E1,1.6150253E1,2.3356781E1,2.0954884E1,0E0,0E0,0E0,0E0,0E0,0E0,0E0,0E0],"parents":[2147483647,0,0,1,1,2,2,3,3,4,4,5,5,6,6],"right_children":[2,4,6,8,10,12,14,-1,-1,-1,-1,-1,-1,-1,-1],"split_conditions":[4.6E-1,3.73E-1,3E0,-1E0,5E0,2.3E1,1.5E1,1.0757111E-3,5.225121E-3,1.7986478E-3,-1.8628759E-3,2.576605E-3,4.637611E-3,1.0145407E-3,-2.016374E-3],"split_indices":[3,55,77,25,2,80,51,0,0,0,0,0,0,0,0],"split_type":[0,0,0,0,0,0,0,0,0,0,0,0,0,0,0],"sum_hessian":[6.375542E3,2.380698E3,3.9948442E3,5.654201E2,1.8152778E3,2.7136394E3,1.2812047E3,4.9357968E2,7.184044E1,1.2894685E2,1.6863309E3,1.9433777E3,7.702617E2,9.854681E2,2.9573666E2],"tree_param":{"num_deleted":"0","num_feature":"106","num_nodes":"15","size_leaf_vector":"1"}},{"base_weights":[-1.08609445E-1,-2.5965196E-1,3.6495086E-2,-1.430336E-1,-3.8269702E-1,-9.5992245E-2,1.9146694E-1,-2.0572396E-3,7.6850425E-5,-3.3101323E-3,-5.536182E-3,9.951987E-4,-1.9550622E-3,3.4701498E-3,1.4258756E-3],"categories":[],"categories_nodes":[],"categories_segments":[],"categories_sizes":[],"default_left":[0,0,0,0,0,0,0,0,0,0,0,0,0,0,0],"id":74,"left_children":[1,3,5,7,9,11,13,-1,-1,-1,-1,-1,-1,-1,-1],"loss_changes":[1.3970264E2,4.4759567E1,6.678064E1,1.5166786E1,1.3236084E1,3.4139008E1,1.1347477E1,0E0,0E0,0E0,0E0,0E0,0E0,0E0,0E0],"parents":[2147483647,0,0,1,1,2,2,3,3,4,4,5,5,6,6],"right_children":[2,4,6,8,10,12,14,-1,-1,-1,-1,-1,-1,-1,-1],"split_conditions":[1.5E1,1.3E1,5.24E-1,6E0,2.7E1,-4.9E0,-6.1E0,-2.0572396E-3,7.6850425E-5,-3.3101323E-3,-5.536182E-3,9.951987E-4,-1.9550622E-3,3.4701498E-3,1.4258756E-3],"split_indices":[51,80,55,77,103,25,25,0,0,0,0,0,0,0,0],"split_type":[0,0,0,0,0,0,0,0,0,0,0,0,0,0,0],"sum_hessian":[6.3727495E3,3.1220986E3,3.2506506E3,1.6040199E3,1.5180789E3,1.7526604E3,1.4979902E3,1.1325702E3,4.7144977E2,1.1678705E3,3.5020834E2,5.911823E2,1.1614781E3,3.567168E2,1.1412734E3],"tree_param":{"num_deleted":"0","num_feature":"106","num_nodes":"15","size_leaf_vector":"1"}},{"base_weights":[1.08609445E-1,2.5965196E-1,-3.649509E-2,1.430336E-1,3.8269702E-1,9.599224E-2,-1.9146694E-1,2.0572396E-3,-7.685027E-5,3.3101323E-3,5.5361823E-3,-9.951987E-4,1.9550622E-3,-3.4701498E-3,-1.4258756E-3],"categories":[],"categories_nodes":[],"categories_segments":[],"categories_sizes":[],"default_left":[0,0,0,0,0,0,0,0,0,0,0,0,0,0,0],"id":75,"left_children":[1,3,5,7,9,11,13,-1,-1,-1,-1,-1,-1,-1,-1],"loss_changes":[1.3970264E2,4.4759598E1,6.678063E1,1.5166786E1,1.3236069E1,3.4139E1,1.1347481E1,0E0,0E0,0E0,0E0,0E0,0E0,0E0,0E0],"parents":[2147483647,0,0,1,1,2,2,3,3,4,4,5,5,6,6],"right_children":[2,4,6,8,10,12,14,-1,-1,-1,-1,-1,-1,-1,-1],"split_conditions":[1.5E1,1.3E1,5.24E-1,6E0,2.7E1,-4.9E0,-6.1E0,2.0572396E-3,-7.685027E-5,3.3101323E-3,5.5361823E-3,-9.951987E-4,1.9550622E-3,-3.4701498E-3,-1.4258756E-3],"split_indices":[51,80,55,77,103,25,25,0,0,0,0,0,0,0,0],"split_type":[0,0,0,0,0,0,0,0,0,0,0,0,0,0,0],"sum_hessian":[6.3727495E3,3.1220986E3,3.2506506E3,1.6040199E3,1.5180787E3,1.7526604E3,1.4979902E3,1.1325702E3,4.7144977E2,1.1678705E3,3.5020834E2,5.911823E2,1.1614781E3,3.567168E2,1.1412734E3],"tree_param":{"num_deleted":"0","num_feature":"106","num_nodes":"15","size_leaf_vector":"1"}},{"base_weights":[-1.0757639E-1,-2.0342964E-1,1.1763723E-1,-1.07206315E-1,-3.736922E-1,-2.1081539E-2,2.5186038E-1,9.919315E-5,-2.4249475E-3,-3.212581E-3,-5.114562E-3,9.739176E-4,-1.4789903E-3,2.9359546E-3,3.893111E-5],"categories":[],"categories_nodes":[],"categories_segments":[],"categories_sizes":[],"default_left":[0,0,0,0,0,0,0,0,0,0,0,0,0,0,0],"id":76,"left_children":[1,3,5,7,9,11,13,-1,-1,-1,-1,-1,-1,-1,-1],"loss_changes":[1.375513E2,7.317865E1,3.5430027E1,4.5270615E1,1.1489563E1,1.4085525E1,1.0006672E1,0E0,0E0,0E0,0E0,0E0,0E0,0E0,0E0],"parents":[2147483647,0,0,1,1,2,2,3,3,4,4,5,5,6,6],"right_children":[2,4,6,8,10,12,14,-1,-1,-1,-1,-1,-1,-1,-1],"split_conditions":[2E1,1.7E1,0E0,2.8E0,3.7E1,-4.8E0,-1.6E0,9.919315E-5,-2.4249475E-3,-3.212581E-3,-5.114562E-3,9.739176E-4,-1.4789903E-3,2.9359546E-3,3.893111E-5],"split_indices":[28,80,77,25,54,25,25,0,0,0,0,0,0,0,0],"split_type":[0,0,0,0,0,0,0,0,0,0,0,0,0,0,0],"sum_hessian":[6.3697085E3,4.468125E3,1.9015834E3,2.8558057E3,1.6123192E3,9.355458E2,9.660376E2,1.5311462E3,1.3246594E3,1.1702457E3,4.4207346E2,4.8380536E2,4.5174045E2,8.267108E2,1.3932675E2],"tree_param":{"num_deleted":"0","num_feature":"106","num_nodes":"15","size_leaf_vector":"1"}},{"base_weights":[1.075764E-1,2.0342964E-1,-1.17637224E-1,1.0720632E-1,3.736922E-1,2.1081554E-2,-2.518604E-1,-9.919328E-5,2.424948E-3,3.212581E-3,5.1145623E-3,-9.739173E-4,1.4789903E-3,-2.9359548E-3,-3.8931266E-5],"categories":[],"categories_nodes":[],"categories_segments":[],"categories_sizes":[],"default_left":[0,0,0,0,0,0,0,0,0,0,0,0,0,0,0],"id":77,"left_children":[1,3,5,7,9,11,13,-1,-1,-1,-1,-1,-1,-1,-1],"loss_changes":[1.3755132E2,7.3178665E1,3.543003E1,4.5270634E1,1.1489563E1,1.4085522E1,1.0006668E1,0E0,0E0,0E0,0E0,0E0,0E0,0E0,0E0],"parents":[2147483647,0,0,1,